{"learner":{"attributes":{"best_iteration":"63","best_msg":"[63]\tvalidation_0-rmse:1.03782","best_ntree_limit":"64","best_score":"1.037817","scikit_learn":"{\"n_estimators\": 100, \"objective\": \"reg:squarederror\", \"max_depth\": null, \"learning_rate\": null, \"verbosity\": null, \"booster\": null, \"tree_method\": null, \"gamma\": null, \"min_child_weight\": null, \"max_delta_step\": null, \"subsample\": null, \"colsample_bytree\": null, \"colsample_bylevel\": null, \"colsample_bynode\": null, \"reg_alpha\": null, \"reg_lambda\": null, \"scale_pos_weight\": null, \"base_score\": null, \"missing\": NaN, \"num_parallel_tree\": null, \"random_state\": 42, \"n_jobs\": null, \"monotone_constraints\": null, \"interaction_constraints\": null, \"importance_type\": null, \"gpu_id\": null, \"validate_parameters\": null, \"predictor\": null, \"enable_categorical\": false, \"kwargs\": {\"eval_metric\": \"rmse\", \"eta\": 0.01}, \"evals_result_\": {\"validation_0\": {\"rmse\": [1.115059, 1.112153, 1.109318, 1.106593, 1.103906, 1.101275, 1.098606, 1.09619, 1.093803, 1.091398, 1.089241, 1.087046, 1.084844, 1.082815, 1.08083, 1.078775, 1.076901, 1.075118, 1.073283, 1.071552, 1.069888, 1.068305, 1.066685, 1.06515, 1.063694, 1.062298, 1.060909, 1.059564, 1.05828, 1.057165, 1.05601, 1.054791, 1.053667, 1.05267, 1.051673, 1.050727, 1.049777, 1.048841, 1.048013, 1.047197, 1.046454, 1.045692, 1.044945, 1.044244, 1.043594, 1.04299, 1.042442, 1.041982, 1.041453, 1.041043, 1.040632, 1.04028, 1.039964, 1.039662, 1.039295, 1.039037, 1.038811, 1.038573, 1.038474, 1.038307, 1.038081, 1.038006, 1.037855, 1.037817, 1.037871, 1.037841, 1.037877, 1.03795, 1.038052, 1.037959, 1.038012, 1.038171, 1.038281]}}, \"_estimator_type\": \"regressor\"}"},"feature_names":[],"feature_types":[],"gradient_booster":{"model":{"gbtree_model_param":{"num_trees":"74","size_leaf_vector":"0"},"tree_info":[0,0,0,0,0,0,0,0,0,0,0,0,0,0,0,0,0,0,0,0,0,0,0,0,0,0,0,0,0,0,0,0,0,0,0,0,0,0,0,0,0,0,0,0,0,0,0,0,0,0,0,0,0,0,0,0,0,0,0,0,0,0,0,0,0,0,0,0,0,0,0,0,0,0],"trees":[{"base_weights":[-4.9999964E-1,-3.8959405E-1,-7.17955E-1,-4.9843892E-1,3.0467507E-1,-7.2020984E-1,1.0168925E1,-7.464105E-1,-3.8758206E-1,2.0037153E-1,3.7356563E0,-6.3410044E-1,-7.3512304E-1,-5.612278E-1,2.5710275E2,-7.629259E-1,-5.8230925E-1,9.510666E0,-3.9040828E-1,4.5715818E-1,-6.780856E-1,3.460736E0,6.239734E1,-7.620741E-1,-6.1289877E-1,-7.069751E-1,-7.5432116E-1,-7.0042235E-1,6.122336E0,-7.65135E-1,-7.5194013E-1,-4.5146495E-1,-7.675111E-1,9.712189E0,-5.752326E-1,-4.613482E-1,-2.0032373E-1,1.809231E-1,1.0791246E0,-6.9626427E-1,-6.2983596E-1,3.2959688E0,1.9868795E1,8.859625E1,-4.0004233E-1,-5.7484984E-1,-6.3032615E-1,-7.5230414E-1,-6.4424735E-1,-7.5025374E-1,-7.668979E-1,-7.190425E-1,-3.1369326E-1,-7.6176614E-1,-7.6781553E-1,-7.532432E-1,-7.3115164E-1,-5.0592715E-1,-1.20625205E-1,-3.8376862E-1,9.781134E0,-6.111779E-1,-4.304964E-1,-4.3453872E-1,-7.371304E-2,-6.6903047E-3,4.3248487E-1,1.7457658E-1,1.3987635E0,-6.862179E-1,-7.397444E-1,-6.046234E-1,-7.0787734E-1,3.0185182E0,1.0750832E1,5.098316E1,4.13915E0,-1.6894934E-1,-4.7335148E-1,-6.3268405E-1,-5.4660475E-1,-5.723401E-1,-6.500163E-1,-7.6312035E-1,-7.373653E-1,-3.787634E-1,-6.957132E-1,-7.51973E-1,-7.391173E-1,3.75431E-1,-5.266043E-1],"categories":[],"categories_nodes":[],"categories_segments":[],"categories_sizes":[],"default_left":[true,true,true,true,true,true,true,true,true,true,true,true,true,true,false,true,true,true,true,true,true,true,true,false,true,true,true,true,false,true,true,true,false,true,false,true,true,true,true,true,true,true,true,false,true,true,true,true,true,true,false,false,true,false,false,false,false,false,false,false,false,false,false,false,false,false,false,false,false,false,false,false,false,false,false,false,false,false,false,false,false,false,false,false,false,false,false,false,false,false,false],"id":0,"left_children":[1,3,5,7,9,11,13,15,17,19,21,23,25,27,-1,29,31,33,35,37,39,41,43,-1,45,47,49,51,-1,53,55,57,-1,59,-1,61,63,65,67,69,71,73,75,-1,77,79,81,83,85,87,-1,-1,89,-1,-1,-1,-1,-1,-1,-1,-1,-1,-1,-1,-1,-1,-1,-1,-1,-1,-1,-1,-1,-1,-1,-1,-1,-1,-1,-1,-1,-1,-1,-1,-1,-1,-1,-1,-1,-1,-1],"loss_changes":[3.3156E4,6.911317E4,1.1380156E4,2.1733719E4,4.4357504E4,5.9434375E2,2.5450952E5,6.615469E2,1.5288359E4,2.7136434E4,5.876152E4,1.8507617E2,2.128125E2,9.080759E1,0E0,4.8125E0,5.4098535E2,3.226621E2,7.3654766E3,1.5992984E4,2.342871E1,9.777996E3,2.8004234E4,0E0,3.8541016E1,4.5475E2,1.14375E1,4.369278E-1,0E0,1.078125E0,4.5703125E-1,2.3585205E2,0E0,1.1025293E2,0E0,1.8384375E3,4.402152E3,3.0422805E3,8.2769375E3,8.12207E0,1.4244873E1,7.426039E3,1.7408016E4,0E0,2.1674931E-2,2.9779785E1,4.5558594E1,1.4457031E1,9.1749023E2,2.84375E0,0E0,0E0,1.0780365E0,0E0,0E0,0E0,0E0,0E0,0E0,0E0,0E0,0E0,0E0,0E0,0E0,0E0,0E0,0E0,0E0,0E0,0E0,0E0,0E0,0E0,0E0,0E0,0E0,0E0,0E0,0E0,0E0,0E0,0E0,0E0,0E0,0E0,0E0,0E0,0E0,0E0,0E0],"parents":[2147483647,0,0,1,1,2,2,3,3,4,4,5,5,6,6,7,7,8,8,9,9,10,10,11,11,12,12,13,13,15,15,16,16,17,17,18,18,19,19,20,20,21,21,22,22,24,24,25,25,26,26,27,27,29,29,30,30,31,31,33,33,35,35,36,36,37,37,38,38,39,39,40,40,41,41,42,42,44,44,45,45,46,46,47,47,48,48,49,49,52,52],"right_children":[2,4,6,8,10,12,14,16,18,20,22,24,26,28,-1,30,32,34,36,38,40,42,44,-1,46,48,50,52,-1,54,56,58,-1,60,-1,62,64,66,68,70,72,74,76,-1,78,80,82,84,86,88,-1,-1,90,-1,-1,-1,-1,-1,-1,-1,-1,-1,-1,-1,-1,-1,-1,-1,-1,-1,-1,-1,-1,-1,-1,-1,-1,-1,-1,-1,-1,-1,-1,-1,-1,-1,-1,-1,-1,-1,-1],"split_conditions":[-2.1335708E-1,-2.4124886E-1,8.975021E-1,-3.1471157E-1,-2.3024885E-1,-1.6043437E-1,3.3356614E0,-3.783649E-1,-2.0006198E-1,-2.3584569E-1,9.11126E-2,-1.9440384E-1,3.2988068E-1,3.88975E0,2.5710275E0,-4.2575818E-1,-3.5098666E-1,8.1449544E-1,-1.1058114E-1,-3.205985E-1,2.694503E-1,5.8447875E-2,2.1944618E-1,-7.620741E-3,-3.8583812E-1,-6.1926497E-3,1.6626587E0,1.2895348E0,6.1223358E-2,-4.721957E-1,7.6121935E-3,-1.9058776E-1,-7.6751113E-3,-2.015684E-1,-5.752326E-3,-3.3710934E-2,-2.5489086E-1,-5.506176E-1,-3.2160886E-2,1.0752462E-2,1.5408084E-2,1.0395141E0,2.4430044E-2,8.859625E-1,9.9509016E-2,-1.7618838E-1,-1.8500225E-1,-1.0948087E-1,2.053602E-2,5.5191748E-2,-7.668979E-3,-7.1904245E-3,1.5120809E0,-7.6176613E-3,-7.6781553E-3,-7.5324317E-3,-7.3115164E-3,-5.059271E-3,-1.206252E-3,-3.837686E-3,9.7811334E-2,-6.1117793E-3,-4.3049636E-3,-4.345387E-3,-7.371304E-4,-6.690305E-5,4.3248488E-3,1.7457658E-3,1.3987635E-2,-6.862179E-3,-7.397444E-3,-6.0462337E-3,-7.0787733E-3,3.0185182E-2,1.0750832E-1,5.0983155E-1,4.13915E-2,-1.6894933E-3,-4.7335145E-3,-6.3268403E-3,-5.466047E-3,-5.7234005E-3,-6.500163E-3,-7.631203E-3,-7.373653E-3,-3.787634E-3,-6.957132E-3,-7.5197294E-3,-7.391173E-3,3.7543098E-3,-5.266043E-3],"split_indices":[2,2,0,2,2,2,3,2,0,2,0,2,2,1,0,2,2,1,1,1,1,0,1,0,3,2,2,1,0,2,0,1,0,0,0,0,2,1,0,0,0,1,1,0,0,2,2,2,2,0,0,0,0,0,0,0,0,0,0,0,0,0,0,0,0,0,0,0,0,0,0,0,0,0,0,0,0,0,0,0,0,0,0,0,0,0,0,0,0,0,0],"split_type":[0,0,0,0,0,0,0,0,0,0,0,0,0,0,0,0,0,0,0,0,0,0,0,0,0,0,0,0,0,0,0,0,0,0,0,0,0,0,0,0,0,0,0,0,0,0,0,0,0,0,0,0,0,0,0,0,0,0,0,0,0,0,0,0,0,0,0,0,0,0,0,0,0,0,0,0,0,0,0,0,0,0,0,0,0,0,0,0,0,0,0],"sum_hessian":[1.377865E6,9.14584E5,4.63281E5,7.90632E5,1.23952E5,4.63186E5,9.5E1,2.44257E5,5.46375E5,1.20296E5,3.656E3,6.8383E4,3.94803E5,9.2E1,3E0,2.21919E5,2.2338E4,1.55E2,5.4622E5,9.3086E4,2.721E4,3.64E3,1.6E1,9.714E3,5.8669E4,1.60102E5,2.34701E5,9.1E1,1E0,1.84709E5,3.721E4,1.3092E4,9.246E3,1.52E2,3E0,3.9777E5,1.4845E5,6.4459E4,2.8627E4,1.9754E4,7.456E3,3.605E3,3.5E1,1.1E1,5E0,1.8441E4,4.0228E4,9.2934E4,6.7168E4,1.77392E5,5.7309E4,8.6E1,5E0,8.1973E4,1.02736E5,3.4982E4,2.228E3,1.1241E4,1.851E3,1E0,1.51E2,6.7917E4,3.29853E5,5.2089E4,9.6361E4,3.6923E4,2.7536E4,7.475E3,2.1152E4,1.606E4,3.694E3,5.642E3,1.814E3,3.477E3,1.28E2,1.1E1,2.4E1,2E0,3E0,6.044E3,1.2397E4,1.0205E4,3.0023E4,5.3876E4,3.9058E4,1.0908E4,5.626E4,1.53611E5,2.3781E4,1E0,4E0],"tree_param":{"num_deleted":"0","num_feature":"4","num_nodes":"91","size_leaf_vector":"0"}},{"base_weights":[-4.9499664E-1,-3.8569638E-1,-7.1076995E-1,-4.934545E-1,3.0164093E-1,-7.130079E-1,1.0094565E1,-7.3894656E-1,-3.837061E-1,1.9836776E-1,3.6987286E0,-6.277599E-1,-7.2777194E-1,-5.550508E-1,2.551745E2,-7.552968E-1,-5.7648677E-1,9.416125E0,-3.865042E-1,4.525868E-1,-6.713058E-1,3.426318E0,6.1825104E1,-7.544542E-1,-6.067702E-1,-6.999055E-1,-7.46778E-1,-6.9351274E-1,6.0917244E0,-7.574837E-1,-7.444211E-1,-4.469508E-1,-7.5983685E-1,9.615681E0,-5.709184E-1,-4.5673475E-1,-1.9832052E-1,1.6090328E-1,1.0299828E0,-6.893024E-1,-6.235394E-1,3.2630472E0,1.968542E1,8.778412E1,-3.971124E-1,-5.69102E-1,-6.240232E-1,-7.4478126E-1,-6.3780504E-1,-7.427513E-1,-7.5922906E-1,-7.1193475E-1,-3.108083E-1,-7.541486E-1,-7.6013744E-1,-7.4571097E-1,-7.238434E-1,-5.029121E-1,-1.3129291E-1,-4.326743E-1,9.684635E0,-6.0506624E-1,-4.2619142E-1,-4.3019342E-1,-7.297591E-2,-6.623407E-3,4.0909147E-1,1.45066E-1,1.3320154E0,-6.786813E-1,-7.296414E-1,-5.985782E-1,-7.0080245E-1,2.551023E0,6.1384473E0,5.0515812E1,4.0994143E0,-1.67823E-1,-4.6980134E-1,-6.263582E-1,-5.411392E-1,-5.666172E-1,-6.4351636E-1,-7.554893E-1,-7.2999185E-1,-3.749761E-1,-6.887562E-1,-7.4444985E-1,-7.3173267E-1,3.7355384E-1,-5.223915E-1],"categories":[],"categories_nodes":[],"categories_segments":[],"categories_sizes":[],"default_left":[true,true,true,true,true,true,true,true,true,true,true,true,true,true,false,true,true,true,true,true,true,true,true,false,true,true,true,true,false,true,true,true,false,true,false,true,true,true,true,true,true,true,true,false,true,true,true,true,true,true,false,false,true,false,false,false,false,false,false,false,false,false,false,false,false,false,false,false,false,false,false,false,false,false,false,false,false,false,false,false,false,false,false,false,false,false,false,false,false,false,false],"id":1,"left_children":[1,3,5,7,9,11,13,15,17,19,21,23,25,27,-1,29,31,33,35,37,39,41,43,-1,45,47,49,51,-1,53,55,57,-1,59,-1,61,63,65,67,69,71,73,75,-1,77,79,81,83,85,87,-1,-1,89,-1,-1,-1,-1,-1,-1,-1,-1,-1,-1,-1,-1,-1,-1,-1,-1,-1,-1,-1,-1,-1,-1,-1,-1,-1,-1,-1,-1,-1,-1,-1,-1,-1,-1,-1,-1,-1,-1],"loss_changes":[3.2495406E4,6.773997E4,1.1210328E4,2.1301234E4,4.348545E4,5.825E2,2.5070233E5,6.483906E2,1.4985852E4,2.6596475E4,5.7693992E4,1.8139258E2,2.0859375E2,8.981496E1,0E0,4.7109375E0,5.302217E2,3.1639355E2,7.2188984E3,1.5677258E4,2.2961914E1,9.601289E3,2.7493727E4,0E0,3.777539E1,4.4570312E2,1.1203125E1,4.2733765E-1,0E0,1.0625E0,4.4921875E-1,2.3121704E2,0E0,1.10200195E2,0E0,1.8018594E3,4.3145503E3,2.5714443E3,8.349973E3,7.96875E0,1.3961914E1,7.3671016E3,1.709173E4,0E0,2.1157324E-2,2.9187988E1,4.4652344E1,1.4167969E1,8.992324E2,2.78125E0,0E0,0E0,1.0639384E0,0E0,0E0,0E0,0E0,0E0,0E0,0E0,0E0,0E0,0E0,0E0,0E0,0E0,0E0,0E0,0E0,0E0,0E0,0E0,0E0,0E0,0E0,0E0,0E0,0E0,0E0,0E0,0E0,0E0,0E0,0E0,0E0,0E0,0E0,0E0,0E0,0E0,0E0],"parents":[2147483647,0,0,1,1,2,2,3,3,4,4,5,5,6,6,7,7,8,8,9,9,10,10,11,11,12,12,13,13,15,15,16,16,17,17,18,18,19,19,20,20,21,21,22,22,24,24,25,25,26,26,27,27,29,29,30,30,31,31,33,33,35,35,36,36,37,37,38,38,39,39,40,40,41,41,42,42,44,44,45,45,46,46,47,47,48,48,49,49,52,52],"right_children":[2,4,6,8,10,12,14,16,18,20,22,24,26,28,-1,30,32,34,36,38,40,42,44,-1,46,48,50,52,-1,54,56,58,-1,60,-1,62,64,66,68,70,72,74,76,-1,78,80,82,84,86,88,-1,-1,90,-1,-1,-1,-1,-1,-1,-1,-1,-1,-1,-1,-1,-1,-1,-1,-1,-1,-1,-1,-1,-1,-1,-1,-1,-1,-1,-1,-1,-1,-1,-1,-1,-1,-1,-1,-1,-1,-1],"split_conditions":[-2.1335708E-1,-2.4124886E-1,8.975021E-1,-3.1471157E-1,-2.3024885E-1,-1.6043437E-1,3.3356614E0,-3.783649E-1,-2.0006198E-1,-2.3584569E-1,9.11126E-2,-1.9440384E-1,3.2988068E-1,3.88975E0,2.551745E0,-4.2575818E-1,-3.5098666E-1,8.1449544E-1,-1.1058114E-1,-3.6060184E-1,2.694503E-1,5.8447875E-2,2.1944618E-1,-7.5445417E-3,-3.8583812E-1,-6.1926497E-3,1.6626587E0,1.2895348E0,6.0917243E-2,-4.721957E-1,7.6121935E-3,-2.2059025E-1,-7.5983685E-3,-6.1138356E-1,-5.709184E-3,-3.3710934E-2,-2.5489086E-1,-5.506176E-1,-3.2160886E-2,8.795563E-3,1.5408084E-2,1.194379E-1,2.4430044E-2,8.778412E-1,9.9509016E-2,-1.7618838E-1,-1.8500225E-1,-1.0948087E-1,2.053602E-2,5.5257406E-2,-7.5922906E-3,-7.1193473E-3,1.5120809E0,-7.541486E-3,-7.6013743E-3,-7.4571096E-3,-7.2384337E-3,-5.029121E-3,-1.3129291E-3,-4.3267426E-3,9.684635E-2,-6.050662E-3,-4.261914E-3,-4.301934E-3,-7.297591E-4,-6.623407E-5,4.0909145E-3,1.4506599E-3,1.3320154E-2,-6.786813E-3,-7.2964136E-3,-5.985782E-3,-7.0080245E-3,2.551023E-2,6.1384473E-2,5.051581E-1,4.099414E-2,-1.67823E-3,-4.6980134E-3,-6.263582E-3,-5.4113916E-3,-5.6661717E-3,-6.4351633E-3,-7.554893E-3,-7.299918E-3,-3.7497608E-3,-6.887562E-3,-7.4444986E-3,-7.3173265E-3,3.7355383E-3,-5.223915E-3],"split_indices":[2,2,0,2,2,2,3,2,0,2,0,2,2,1,0,2,2,1,1,1,1,0,1,0,3,2,2,1,0,2,0,1,0,3,0,0,2,1,0,0,0,1,1,0,0,2,2,2,2,0,0,0,0,0,0,0,0,0,0,0,0,0,0,0,0,0,0,0,0,0,0,0,0,0,0,0,0,0,0,0,0,0,0,0,0,0,0,0,0,0,0],"split_type":[0,0,0,0,0,0,0,0,0,0,0,0,0,0,0,0,0,0,0,0,0,0,0,0,0,0,0,0,0,0,0,0,0,0,0,0,0,0,0,0,0,0,0,0,0,0,0,0,0,0,0,0,0,0,0,0,0,0,0,0,0,0,0,0,0,0,0,0,0,0,0,0,0,0,0,0,0,0,0,0,0,0,0,0,0,0,0,0,0,0,0],"sum_hessian":[1.377865E6,9.14584E5,4.63281E5,7.90632E5,1.23952E5,4.63186E5,9.5E1,2.44257E5,5.46375E5,1.20296E5,3.656E3,6.8383E4,3.94803E5,9.2E1,3E0,2.21919E5,2.2338E4,1.55E2,5.4622E5,9.3086E4,2.721E4,3.64E3,1.6E1,9.714E3,5.8669E4,1.60102E5,2.34701E5,9.1E1,1E0,1.84709E5,3.721E4,1.3092E4,9.246E3,1.52E2,3E0,3.9777E5,1.4845E5,6.1845E4,3.1241E4,1.9754E4,7.456E3,3.605E3,3.5E1,1.1E1,5E0,1.8441E4,4.0228E4,9.2934E4,6.7168E4,1.77392E5,5.7309E4,8.6E1,5E0,8.1973E4,1.02736E5,3.4982E4,2.228E3,1.112E4,1.972E3,1E0,1.51E2,6.7917E4,3.29853E5,5.2089E4,9.6361E4,3.6923E4,2.4922E4,7.95E3,2.3291E4,1.5651E4,4.103E3,5.642E3,1.814E3,2.891E3,7.14E2,1.1E1,2.4E1,2E0,3E0,6.044E3,1.2397E4,1.0205E4,3.0023E4,5.3876E4,3.9058E4,1.0908E4,5.626E4,1.53641E5,2.3751E4,1E0,4E0],"tree_param":{"num_deleted":"0","num_feature":"4","num_nodes":"91","size_leaf_vector":"0"}},{"base_weights":[-4.9004373E-1,-3.8183773E-1,-7.036568E-1,-4.885199E-1,2.986366E-1,-7.05878E-1,1.0020745E1,-7.3155725E-1,-3.798689E-1,1.9638401E-1,3.6621528E0,-6.2148273E-1,-7.2049433E-1,-5.489378E-1,2.5326068E2,-7.4774396E-1,-5.707225E-1,9.32252E0,-3.826392E-1,4.4806114E-1,-6.645937E-1,3.3922286E0,6.1258114E1,-7.469104E-1,-6.0070294E-1,-6.929066E-1,-7.393103E-1,-6.8667114E-1,6.0612655E0,-7.49909E-1,-7.369773E-1,-4.4248176E-1,-7.522393E-1,9.520128E0,-5.666365E-1,-4.5216742E-1,-1.9633736E-1,1.7711753E-1,1.0581135E0,-6.8241006E-1,-6.173057E-1,3.2304409E0,1.9503736E1,8.697943E1,-3.94204E-1,-5.634116E-1,-6.177833E-1,-7.373336E-1,-6.3142717E-1,-7.353236E-1,-7.5163645E-1,-7.0489717E-1,-3.0794826E-1,-7.466072E-1,-7.525361E-1,-7.382541E-1,-7.1660817E-1,-4.9587962E-1,-1.1810738E-1,-4.305109E-1,9.588426E0,-5.9901565E-1,-4.2192954E-1,-4.2589158E-1,-7.224616E-2,-6.5571815E-3,4.2339808E-1,1.7138058E-1,1.371457E0,-6.7255676E-1,-7.2505456E-1,-5.9259343E-1,-6.937983E-1,2.9567945E0,1.0583248E1,5.005275E1,4.06006E0,-1.667042E-1,-4.6627784E-1,-6.200957E-1,-5.357282E-1,-5.609516E-1,-6.370814E-1,-7.479345E-1,-7.226921E-1,-3.712267E-1,-6.818688E-1,-7.3700553E-1,-7.244178E-1,3.7168607E-1,-5.182123E-1],"categories":[],"categories_nodes":[],"categories_segments":[],"categories_sizes":[],"default_left":[true,true,true,true,true,true,true,true,true,true,true,true,true,true,false,true,true,true,true,true,true,true,true,false,true,true,true,true,false,true,true,true,false,true,false,true,true,true,true,true,true,true,true,false,true,true,true,true,true,true,false,false,true,false,false,false,false,false,false,false,false,false,false,false,false,false,false,false,false,false,false,false,false,false,false,false,false,false,false,false,false,false,false,false,false,false,false,false,false,false,false],"id":2,"left_children":[1,3,5,7,9,11,13,15,17,19,21,23,25,27,-1,29,31,33,35,37,39,41,43,-1,45,47,49,51,-1,53,55,57,-1,59,-1,61,63,65,67,69,71,73,75,-1,77,79,81,83,85,87,-1,-1,89,-1,-1,-1,-1,-1,-1,-1,-1,-1,-1,-1,-1,-1,-1,-1,-1,-1,-1,-1,-1,-1,-1,-1,-1,-1,-1,-1,-1,-1,-1,-1,-1,-1,-1,-1,-1,-1,-1],"loss_changes":[3.1848E4,6.639397E4,1.1043031E4,2.0877375E4,4.2630207E4,5.7090625E2,2.4695205E5,6.3546875E2,1.46893125E4,2.6067262E4,5.6645883E4,1.7778516E2,2.0442188E2,8.883353E1,0E0,4.625E0,5.196714E2,3.102461E2,7.075242E3,1.5386143E4,2.2504883E1,9.427785E3,2.6992527E4,0E0,3.7021484E1,4.3683594E2,1.0984375E1,4.1796875E-1,0E0,1.0390625E0,4.375E-1,2.2672388E2,0E0,1.0810742E2,0E0,1.766E3,4.2286934E3,2.9158833E3,7.9541113E3,7.8125E0,1.3684814E1,7.2242305E3,1.678119E4,0E0,2.0650268E-2,2.8607422E1,4.376367E1,1.3886719E1,8.8133594E2,2.7265625E0,0E0,0E0,1.0500283E0,0E0,0E0,0E0,0E0,0E0,0E0,0E0,0E0,0E0,0E0,0E0,0E0,0E0,0E0,0E0,0E0,0E0,0E0,0E0,0E0,0E0,0E0,0E0,0E0,0E0,0E0,0E0,0E0,0E0,0E0,0E0,0E0,0E0,0E0,0E0,0E0,0E0,0E0],"parents":[2147483647,0,0,1,1,2,2,3,3,4,4,5,5,6,6,7,7,8,8,9,9,10,10,11,11,12,12,13,13,15,15,16,16,17,17,18,18,19,19,20,20,21,21,22,22,24,24,25,25,26,26,27,27,29,29,30,30,31,31,33,33,35,35,36,36,37,37,38,38,39,39,40,40,41,41,42,42,44,44,45,45,46,46,47,47,48,48,49,49,52,52],"right_children":[2,4,6,8,10,12,14,16,18,20,22,24,26,28,-1,30,32,34,36,38,40,42,44,-1,46,48,50,52,-1,54,56,58,-1,60,-1,62,64,66,68,70,72,74,76,-1,78,80,82,84,86,88,-1,-1,90,-1,-1,-1,-1,-1,-1,-1,-1,-1,-1,-1,-1,-1,-1,-1,-1,-1,-1,-1,-1,-1,-1,-1,-1,-1,-1,-1,-1,-1,-1,-1,-1,-1,-1,-1,-1,-1,-1],"split_conditions":[-2.1335708E-1,-2.4124886E-1,8.975021E-1,-3.1471157E-1,-2.3024885E-1,-1.6043437E-1,3.3356614E0,-3.783649E-1,-2.0006198E-1,-2.3584569E-1,9.11126E-2,-1.9440384E-1,3.2988068E-1,3.88975E0,2.5326068E0,-4.2575818E-1,-3.5098666E-1,8.1449544E-1,-1.1058114E-1,-3.205985E-1,2.694503E-1,5.8447875E-2,2.1944618E-1,-7.4691037E-3,-3.8583812E-1,-6.1926497E-3,1.5297985E0,1.2895348E0,6.0612652E-2,-4.721957E-1,7.6121935E-3,-1.9058776E-1,-7.5223926E-3,-6.1138356E-1,-5.666365E-3,-3.3710934E-2,-2.5489086E-1,-5.506176E-1,-3.2160886E-2,1.0752462E-2,1.5408084E-2,1.0395141E0,2.4430044E-2,8.697943E-1,9.9509016E-2,-1.7618838E-1,-1.8500225E-1,-1.0948087E-1,2.053602E-2,5.5243686E-2,-7.516364E-3,-7.0489715E-3,1.5120809E0,-7.4660718E-3,-7.525361E-3,-7.3825405E-3,-7.1660816E-3,-4.9587963E-3,-1.1810737E-3,-4.305109E-3,9.5884256E-2,-5.9901564E-3,-4.2192955E-3,-4.258916E-3,-7.2246155E-4,-6.557181E-5,4.2339806E-3,1.7138057E-3,1.371457E-2,-6.7255674E-3,-7.2505455E-3,-5.9259343E-3,-6.937983E-3,2.9567944E-2,1.0583248E-1,5.005275E-1,4.0600598E-2,-1.6670419E-3,-4.662778E-3,-6.2009566E-3,-5.3572822E-3,-5.6095156E-3,-6.3708136E-3,-7.479345E-3,-7.2269207E-3,-3.712267E-3,-6.8186875E-3,-7.370055E-3,-7.244178E-3,3.7168607E-3,-5.1821233E-3],"split_indices":[2,2,0,2,2,2,3,2,0,2,0,2,2,1,0,2,2,1,1,1,1,0,1,0,3,2,2,1,0,2,0,1,0,3,0,0,2,1,0,0,0,1,1,0,0,2,2,2,2,0,0,0,0,0,0,0,0,0,0,0,0,0,0,0,0,0,0,0,0,0,0,0,0,0,0,0,0,0,0,0,0,0,0,0,0,0,0,0,0,0,0],"split_type":[0,0,0,0,0,0,0,0,0,0,0,0,0,0,0,0,0,0,0,0,0,0,0,0,0,0,0,0,0,0,0,0,0,0,0,0,0,0,0,0,0,0,0,0,0,0,0,0,0,0,0,0,0,0,0,0,0,0,0,0,0,0,0,0,0,0,0,0,0,0,0,0,0,0,0,0,0,0,0,0,0,0,0,0,0,0,0,0,0,0,0],"sum_hessian":[1.377865E6,9.14584E5,4.63281E5,7.90632E5,1.23952E5,4.63186E5,9.5E1,2.44257E5,5.46375E5,1.20296E5,3.656E3,6.8383E4,3.94803E5,9.2E1,3E0,2.21919E5,2.2338E4,1.55E2,5.4622E5,9.3086E4,2.721E4,3.64E3,1.6E1,9.714E3,5.8669E4,1.60102E5,2.34701E5,9.1E1,1E0,1.84709E5,3.721E4,1.3092E4,9.246E3,1.52E2,3E0,3.9777E5,1.4845E5,6.4459E4,2.8627E4,1.9754E4,7.456E3,3.605E3,3.5E1,1.1E1,5E0,1.8441E4,4.0228E4,9.2934E4,6.7168E4,1.77388E5,5.7313E4,8.6E1,5E0,8.1973E4,1.02736E5,3.4982E4,2.228E3,1.1241E4,1.851E3,1E0,1.51E2,6.7917E4,3.29853E5,5.2089E4,9.6361E4,3.6923E4,2.7536E4,7.475E3,2.1152E4,1.606E4,3.694E3,5.642E3,1.814E3,3.477E3,1.28E2,1.1E1,2.4E1,2E0,3E0,6.044E3,1.2397E4,1.0205E4,3.0023E4,5.3876E4,3.9058E4,1.0908E4,5.626E4,1.53629E5,2.3759E4,1E0,4E0],"tree_param":{"num_deleted":"0","num_feature":"4","num_nodes":"91","size_leaf_vector":"0"}},{"base_weights":[-4.8514035E-1,-3.7801766E-1,-6.966148E-1,-4.8363468E-1,2.9566258E-1,-6.988194E-1,9.947462E0,-7.2424185E-1,-3.7607008E-1,1.9442013E-1,3.6259522E0,-6.1526835E-1,-7.132895E-1,-5.428882E-1,2.5136124E2,-7.402667E-1,-5.650159E-1,9.229845E0,-3.7881282E-1,4.4358075E-1,-6.5794873E-1,3.3584921E0,6.0696327E1,-7.3944205E-1,-5.946963E-1,-6.8597776E-1,-7.319173E-1,-6.79897E-1,6.030959E0,-7.4240994E-1,-7.2960794E-1,-4.380574E-1,-7.447177E-1,9.425526E0,-5.6238675E-1,-4.4764578E-1,-1.94374E-1,1.7534642E-1,1.0475329E0,-6.7558664E-1,-6.111344E-1,3.198174E0,1.932373E1,8.618212E1,-3.913169E-1,-5.577781E-1,-6.1160576E-1,-7.2996044E-1,-6.2511307E-1,-7.279705E-1,-7.4412024E-1,-6.9792926E-1,-3.0511302E-1,-7.391412E-1,-7.4501085E-1,-7.3087174E-1,-7.094453E-1,-4.9292508E-1,-1.2856849E-1,-4.782151E-1,9.493828E0,-5.7704836E-1,-4.1395316E-1,-4.216327E-1,-7.152369E-2,-6.491617E-3,4.1916427E-1,1.69667E-1,1.3577431E0,-6.651698E-1,-7.151503E-1,-5.8666855E-1,-6.8686414E-1,2.495964E0,6.033969E0,4.9593933E1,4.0210834E0,-1.6559283E-1,-4.6278074E-1,-6.138957E-1,-5.3037137E-1,-5.553426E-1,-6.307108E-1,-7.404553E-1,-7.1546537E-1,-3.6751476E-1,-6.750502E-1,-7.2963804E-1,-7.171674E-1,3.6982763E-1,-5.140667E-1],"categories":[],"categories_nodes":[],"categories_segments":[],"categories_sizes":[],"default_left":[true,true,true,true,true,true,true,true,true,true,true,true,true,true,false,true,true,true,true,true,true,true,true,false,true,true,true,true,false,true,true,true,false,true,false,true,true,true,true,true,true,true,true,false,true,true,true,true,true,true,false,false,true,false,false,false,false,false,false,false,false,false,false,false,false,false,false,false,false,false,false,false,false,false,false,false,false,false,false,false,false,false,false,false,false,false,false,false,false,false,false],"id":3,"left_children":[1,3,5,7,9,11,13,15,17,19,21,23,25,27,-1,29,31,33,35,37,39,41,43,-1,45,47,49,51,-1,53,55,57,-1,59,-1,61,63,65,67,69,71,73,75,-1,77,79,81,83,85,87,-1,-1,89,-1,-1,-1,-1,-1,-1,-1,-1,-1,-1,-1,-1,-1,-1,-1,-1,-1,-1,-1,-1,-1,-1,-1,-1,-1,-1,-1,-1,-1,-1,-1,-1,-1,-1,-1,-1,-1,-1],"loss_changes":[3.1213531E4,6.507479E4,1.0878203E4,2.0461953E4,4.1792125E4,5.595469E2,2.432579E5,6.228281E2,1.4398656E4,2.5548578E4,5.561678E4,1.7424805E2,2.0035938E2,8.7863174E1,0E0,4.5234375E0,5.0933057E2,3.0421875E2,6.9344453E3,1.5079975E4,2.2055664E1,9.257398E3,2.6500465E4,0E0,3.6283203E1,4.2814062E2,1.0765625E1,4.0880585E-1,0E0,1.0234375E0,4.296875E-1,2.2226782E2,0E0,1.0803613E2,0E0,1.7340078E3,4.1445444E3,2.8578599E3,7.795832E3,7.6660156E0,1.341333E1,7.1656523E3,1.6476291E4,0E0,2.0153463E-2,2.8038574E1,4.289258E1,1.3609375E1,8.637969E2,2.671875E0,0E0,0E0,1.0363039E0,0E0,0E0,0E0,0E0,0E0,0E0,0E0,0E0,0E0,0E0,0E0,0E0,0E0,0E0,0E0,0E0,0E0,0E0,0E0,0E0,0E0,0E0,0E0,0E0,0E0,0E0,0E0,0E0,0E0,0E0,0E0,0E0,0E0,0E0,0E0,0E0,0E0,0E0],"parents":[2147483647,0,0,1,1,2,2,3,3,4,4,5,5,6,6,7,7,8,8,9,9,10,10,11,11,12,12,13,13,15,15,16,16,17,17,18,18,19,19,20,20,21,21,22,22,24,24,25,25,26,26,27,27,29,29,30,30,31,31,33,33,35,35,36,36,37,37,38,38,39,39,40,40,41,41,42,42,44,44,45,45,46,46,47,47,48,48,49,49,52,52],"right_children":[2,4,6,8,10,12,14,16,18,20,22,24,26,28,-1,30,32,34,36,38,40,42,44,-1,46,48,50,52,-1,54,56,58,-1,60,-1,62,64,66,68,70,72,74,76,-1,78,80,82,84,86,88,-1,-1,90,-1,-1,-1,-1,-1,-1,-1,-1,-1,-1,-1,-1,-1,-1,-1,-1,-1,-1,-1,-1,-1,-1,-1,-1,-1,-1,-1,-1,-1,-1,-1,-1,-1,-1,-1,-1,-1,-1],"split_conditions":[-2.1335708E-1,-2.4124886E-1,8.975021E-1,-3.1471157E-1,-2.3024885E-1,-1.6043437E-1,3.3356614E0,-3.783649E-1,-2.0006198E-1,-2.3584569E-1,9.11126E-2,-1.9440384E-1,3.2988068E-1,3.88975E0,2.5136123E0,-4.2575818E-1,-3.5098666E-1,8.1449544E-1,-1.1058114E-1,-3.205985E-1,2.694503E-1,5.8447875E-2,2.1944618E-1,-7.3944204E-3,-3.8583812E-1,-6.1926497E-3,1.5297985E0,1.2895348E0,6.030959E-2,-4.721957E-1,7.6121935E-3,-2.2059025E-1,-7.447177E-3,-2.015684E-1,-5.6238673E-3,-3.022793E-2,-2.5489086E-1,-5.506176E-1,-3.2160886E-2,8.795563E-3,1.5408084E-2,1.194379E-1,2.4430044E-2,8.618212E-1,9.9509016E-2,-1.7618838E-1,-1.8500225E-1,-1.0948087E-1,2.053602E-2,5.5195928E-2,-7.441202E-3,-6.9792923E-3,1.5120809E0,-7.3914123E-3,-7.4501084E-3,-7.3087174E-3,-7.0944526E-3,-4.9292506E-3,-1.2856849E-3,-4.782151E-3,9.493828E-2,-5.7704835E-3,-4.1395314E-3,-4.216327E-3,-7.152369E-4,-6.491617E-5,4.1916426E-3,1.69667E-3,1.3577431E-2,-6.6516977E-3,-7.1515027E-3,-5.8666854E-3,-6.8686414E-3,2.495964E-2,6.033969E-2,4.959393E-1,4.0210832E-2,-1.6559283E-3,-4.6278075E-3,-6.138957E-3,-5.3037135E-3,-5.553426E-3,-6.307108E-3,-7.4045532E-3,-7.1546533E-3,-3.6751474E-3,-6.7505017E-3,-7.29638E-3,-7.1716737E-3,3.6982761E-3,-5.140667E-3],"split_indices":[2,2,0,2,2,2,3,2,0,2,0,2,2,1,0,2,2,1,1,1,1,0,1,0,3,2,2,1,0,2,0,1,0,0,0,0,2,1,0,0,0,1,1,0,0,2,2,2,2,0,0,0,0,0,0,0,0,0,0,0,0,0,0,0,0,0,0,0,0,0,0,0,0,0,0,0,0,0,0,0,0,0,0,0,0,0,0,0,0,0,0],"split_type":[0,0,0,0,0,0,0,0,0,0,0,0,0,0,0,0,0,0,0,0,0,0,0,0,0,0,0,0,0,0,0,0,0,0,0,0,0,0,0,0,0,0,0,0,0,0,0,0,0,0,0,0,0,0,0,0,0,0,0,0,0,0,0,0,0,0,0,0,0,0,0,0,0,0,0,0,0,0,0,0,0,0,0,0,0,0,0,0,0,0,0],"sum_hessian":[1.377865E6,9.14584E5,4.63281E5,7.90632E5,1.23952E5,4.63186E5,9.5E1,2.44257E5,5.46375E5,1.20296E5,3.656E3,6.8383E4,3.94803E5,9.2E1,3E0,2.21919E5,2.2338E4,1.55E2,5.4622E5,9.3086E4,2.721E4,3.64E3,1.6E1,9.714E3,5.8669E4,1.60102E5,2.34701E5,9.1E1,1E0,1.84709E5,3.721E4,1.3092E4,9.246E3,1.52E2,3E0,3.9777E5,1.4845E5,6.4459E4,2.8627E4,1.9754E4,7.456E3,3.605E3,3.5E1,1.1E1,5E0,1.8441E4,4.0228E4,9.2934E4,6.7168E4,1.77388E5,5.7313E4,8.6E1,5E0,8.1973E4,1.02736E5,3.4982E4,2.228E3,1.112E4,1.972E3,1E0,1.51E2,8.2169E4,3.15601E5,5.2089E4,9.6361E4,3.6923E4,2.7536E4,7.475E3,2.1152E4,1.5651E4,4.103E3,5.642E3,1.814E3,2.891E3,7.14E2,1.1E1,2.4E1,2E0,3E0,6.044E3,1.2397E4,1.0205E4,3.0023E4,5.3876E4,3.9058E4,1.0908E4,5.626E4,1.5361E5,2.3778E4,1E0,4E0],"tree_param":{"num_deleted":"0","num_feature":"4","num_nodes":"91","size_leaf_vector":"0"}},{"base_weights":[-4.8028606E-1,-3.7423584E-1,-6.896433E-1,-4.787983E-1,2.927178E-1,-6.918314E-1,9.874711E0,-7.1699965E-1,-3.7230927E-1,1.9247586E-1,3.5900967E0,-6.0911614E-1,-7.0615673E-1,-5.369014E-1,2.4947603E2,-7.3286414E-1,-5.5936635E-1,7.834455E0,-3.7546405E-1,4.3914515E-1,-6.513702E-1,3.325078E0,6.0139687E1,-7.320484E-1,-5.8874977E-1,-6.791181E-1,-7.245983E-1,-6.731896E-1,6.0008044E0,-7.3498595E-1,-7.223122E-1,-4.3367732E-1,-7.3727137E-1,9.148903E0,2.0193295E0,-4.437173E-1,-1.9256105E-1,1.73593E-1,1.0370581E0,-6.6883147E-1,-6.0502476E-1,3.166216E0,1.9145386E1,8.539211E1,-3.8845104E-1,-5.52201E-1,-6.0549E-1,-7.22661E-1,-6.188621E-1,-7.206911E-1,-7.366796E-1,-6.910302E-1,-3.023023E-1,-7.317499E-1,-7.375608E-1,-7.2356325E-1,-7.023541E-1,-4.8603168E-1,-1.1564197E-1,9.71631E0,7.9372606E0,1.0525453E1,2.08677E-1,-5.905272E-1,-4.1350025E-1,-4.1741648E-1,-7.0978336E-2,-6.4267144E-3,4.1497278E-1,1.6797058E-1,1.3441664E0,-6.591676E-1,-7.106564E-1,-5.808029E-1,-6.799993E-1,2.8963213E0,1.0418364E1,4.913932E1,3.9824805E0,-1.6448887E-1,-4.593099E-1,-6.077578E-1,-5.2506804E-1,-5.497898E-1,-6.244039E-1,-7.3305094E-1,-7.083109E-1,-3.6383995E-1,-6.6829985E-1,-7.223426E-1,-7.0999277E-1,3.6797848E-1,-5.0995415E-1],"categories":[],"categories_nodes":[],"categories_segments":[],"categories_sizes":[],"default_left":[true,true,true,true,true,true,true,true,true,true,true,true,true,true,false,true,true,true,true,true,true,true,true,false,true,true,true,true,false,true,true,true,false,true,true,true,true,true,true,true,true,true,true,false,true,true,true,true,true,true,false,false,true,false,false,false,false,false,false,false,false,false,false,false,false,false,false,false,false,false,false,false,false,false,false,false,false,false,false,false,false,false,false,false,false,false,false,false,false,false,false,false,false],"id":4,"left_children":[1,3,5,7,9,11,13,15,17,19,21,23,25,27,-1,29,31,33,35,37,39,41,43,-1,45,47,49,51,-1,53,55,57,-1,59,61,63,65,67,69,71,73,75,77,-1,79,81,83,85,87,89,-1,-1,91,-1,-1,-1,-1,-1,-1,-1,-1,-1,-1,-1,-1,-1,-1,-1,-1,-1,-1,-1,-1,-1,-1,-1,-1,-1,-1,-1,-1,-1,-1,-1,-1,-1,-1,-1,-1,-1,-1,-1,-1],"loss_changes":[3.0591656E4,6.3781758E4,1.0715875E4,2.0054797E4,4.09702E4,5.484219E2,2.3961902E5,6.104219E2,1.4149E4,2.5040215E4,5.4606387E4,1.7078125E2,1.9635938E2,8.690378E1,0E0,4.4375E0,4.991963E2,1.5866973E3,6.818117E3,1.4779902E4,2.1615234E1,9.090105E3,2.6017375E4,0E0,3.55625E1,4.196172E2,1.05546875E1,3.9985275E-1,0E0,1E0,4.1992188E-1,2.1794922E2,0E0,4.0441406E1,6.1386896E2,1.7642031E3,4.0577197E3,2.8009905E3,7.640699E3,7.5166016E0,1.3147217E1,7.0279023E3,1.617693E4,0E0,1.966685E-2,2.7480469E1,4.2038086E1,1.33359375E1,8.4660547E2,2.625E0,0E0,0E0,1.0227624E0,0E0,0E0,0E0,0E0,0E0,0E0,0E0,0E0,0E0,0E0,0E0,0E0,0E0,0E0,0E0,0E0,0E0,0E0,0E0,0E0,0E0,0E0,0E0,0E0,0E0,0E0,0E0,0E0,0E0,0E0,0E0,0E0,0E0,0E0,0E0,0E0,0E0,0E0,0E0,0E0],"parents":[2147483647,0,0,1,1,2,2,3,3,4,4,5,5,6,6,7,7,8,8,9,9,10,10,11,11,12,12,13,13,15,15,16,16,17,17,18,18,19,19,20,20,21,21,22,22,24,24,25,25,26,26,27,27,29,29,30,30,31,31,33,33,34,34,35,35,36,36,37,37,38,38,39,39,40,40,41,41,42,42,44,44,45,45,46,46,47,47,48,48,49,49,52,52],"right_children":[2,4,6,8,10,12,14,16,18,20,22,24,26,28,-1,30,32,34,36,38,40,42,44,-1,46,48,50,52,-1,54,56,58,-1,60,62,64,66,68,70,72,74,76,78,-1,80,82,84,86,88,90,-1,-1,92,-1,-1,-1,-1,-1,-1,-1,-1,-1,-1,-1,-1,-1,-1,-1,-1,-1,-1,-1,-1,-1,-1,-1,-1,-1,-1,-1,-1,-1,-1,-1,-1,-1,-1,-1,-1,-1,-1,-1,-1],"split_conditions":[-2.1335708E-1,-2.4124886E-1,8.975021E-1,-3.1471157E-1,-2.3024885E-1,-1.6043437E-1,3.3356614E0,-3.783649E-1,-1.9679105E-1,-2.3584569E-1,9.11126E-2,-1.9440384E-1,3.2988068E-1,3.88975E0,2.4947603E0,-4.2575818E-1,-3.5098666E-1,-2.4845251E-1,-1.1058114E-1,-3.205985E-1,2.694503E-1,5.8447875E-2,2.1944618E-1,-7.3204837E-3,-3.8583812E-1,-6.1926497E-3,1.6626587E0,1.2895348E0,6.000804E-2,-4.721957E-1,7.6121935E-3,-1.9058776E-1,-7.3727136E-3,-2.006188E-1,-3.0559728E-1,-3.3710934E-2,-2.5489086E-1,-5.506176E-1,-3.2160886E-2,1.0752462E-2,1.5408084E-2,1.0395141E0,2.4430044E-2,8.539211E-1,9.9509016E-2,-1.7618838E-1,-1.8500225E-1,-1.0948087E-1,2.053602E-2,5.51935E-2,-7.366796E-3,-6.9103017E-3,1.5120809E0,-7.317499E-3,-7.3756077E-3,-7.2356323E-3,-7.023541E-3,-4.860317E-3,-1.1564196E-3,9.7163096E-2,7.937261E-2,1.0525452E-1,2.0867698E-3,-5.9052715E-3,-4.1350024E-3,-4.174165E-3,-7.0978334E-4,-6.4267144E-5,4.1497275E-3,1.6797058E-3,1.3441663E-2,-6.591676E-3,-7.106564E-3,-5.808029E-3,-6.7999926E-3,2.8963212E-2,1.0418364E-1,4.9139318E-1,3.9824806E-2,-1.6448887E-3,-4.593099E-3,-6.077578E-3,-5.2506803E-3,-5.4978975E-3,-6.2440387E-3,-7.3305094E-3,-7.0831086E-3,-3.6383995E-3,-6.6829985E-3,-7.223426E-3,-7.0999274E-3,3.6797847E-3,-5.0995415E-3],"split_indices":[2,2,0,2,2,2,3,2,0,2,0,2,2,1,0,2,2,2,1,1,1,0,1,0,3,2,2,1,0,2,0,1,0,0,1,0,2,1,0,0,0,1,1,0,0,2,2,2,2,0,0,0,0,0,0,0,0,0,0,0,0,0,0,0,0,0,0,0,0,0,0,0,0,0,0,0,0,0,0,0,0,0,0,0,0,0,0,0,0,0,0,0,0],"split_type":[0,0,0,0,0,0,0,0,0,0,0,0,0,0,0,0,0,0,0,0,0,0,0,0,0,0,0,0,0,0,0,0,0,0,0,0,0,0,0,0,0,0,0,0,0,0,0,0,0,0,0,0,0,0,0,0,0,0,0,0,0,0,0,0,0,0,0,0,0,0,0,0,0,0,0,0,0,0,0,0,0,0,0,0,0,0,0,0,0,0,0,0,0],"sum_hessian":[1.377865E6,9.14584E5,4.63281E5,7.90632E5,1.23952E5,4.63186E5,9.5E1,2.44257E5,5.46375E5,1.20296E5,3.656E3,6.8383E4,3.94803E5,9.2E1,3E0,2.21919E5,2.2338E4,2.09E2,5.46166E5,9.3086E4,2.721E4,3.64E3,1.6E1,9.714E3,5.8669E4,1.60102E5,2.34701E5,9.1E1,1E0,1.84709E5,3.721E4,1.3092E4,9.246E3,1.7E2,3.9E1,3.97741E5,1.48425E5,6.4459E4,2.8627E4,1.9754E4,7.456E3,3.605E3,3.5E1,1.1E1,5E0,1.8441E4,4.0228E4,9.2934E4,6.7168E4,1.77392E5,5.7309E4,8.6E1,5E0,8.1973E4,1.02736E5,3.4982E4,2.228E3,1.1241E4,1.851E3,1.11E2,5.9E1,6E0,3.3E1,6.7888E4,3.29853E5,5.2089E4,9.6336E4,3.6923E4,2.7536E4,7.475E3,2.1152E4,1.606E4,3.694E3,5.642E3,1.814E3,3.477E3,1.28E2,1.1E1,2.4E1,2E0,3E0,6.044E3,1.2397E4,1.0205E4,3.0023E4,5.3876E4,3.9058E4,1.0908E4,5.626E4,1.53612E5,2.378E4,1E0,4E0],"tree_param":{"num_deleted":"0","num_feature":"4","num_nodes":"93","size_leaf_vector":"0"}},{"base_weights":[-4.7548014E-1,-3.704916E-1,-6.827415E-1,-4.7401002E-1,2.898028E-1,-6.849132E-1,9.802489E0,-7.098298E-1,-3.6858568E-1,1.9055104E-1,3.554609E0,-6.0302544E-1,-6.990953E-1,-5.309767E-1,2.4760495E2,-7.2553563E-1,-5.537733E-1,7.7574625E0,-3.7170944E-1,4.347539E-1,-6.4485747E-1,3.2920096E0,5.9588154E1,-7.2472864E-1,-5.828626E-1,-6.723271E-1,-7.173524E-1,-6.665482E-1,5.9708004E0,-7.2763616E-1,-7.150895E-1,-4.29341E-1,-7.2989947E-1,9.058446E0,2.00182E0,-4.3928015E-1,-1.9063547E-1,1.543431E-1,9.898352E-1,-6.621438E-1,-5.989762E-1,3.1345906E0,1.8968687E1,8.460935E1,-3.856062E-1,-5.4667956E-1,-5.994354E-1,-7.1543455E-1,-6.1267364E-1,-7.134842E-1,-7.2931296E-1,-6.8419933E-1,-2.995159E-1,-7.2443247E-1,-7.3018533E-1,-7.163278E-1,-6.9533366E-1,-4.8313642E-1,-1.2590048E-1,9.620015E0,7.859211E0,1.0435235E1,2.0665163E-1,-5.8462197E-1,-4.0936527E-1,-4.132424E-1,-7.026857E-2,-6.3624633E-3,3.9242592E-1,1.3807882E-1,1.2805499E0,-6.5192723E-1,-7.00947E-1,-5.7499593E-1,-6.7320305E-1,2.4420598E0,5.931325E0,4.8688877E1,3.9442492E0,-1.6339228E-1,-4.558651E-1,-6.0168123E-1,-5.198178E-1,-5.442924E-1,-6.1816007E-1,-7.257205E-1,-7.0122796E-1,-3.6020193E-1,-6.61617E-1,-7.1511924E-1,-7.0289314E-1,3.6613858E-1,-5.058745E-1],"categories":[],"categories_nodes":[],"categories_segments":[],"categories_sizes":[],"default_left":[true,true,true,true,true,true,true,true,true,true,true,true,true,true,false,true,true,true,true,true,true,true,true,false,true,true,true,true,false,true,true,true,false,true,true,true,true,true,true,true,true,true,true,false,true,true,true,true,true,true,false,false,true,false,false,false,false,false,false,false,false,false,false,false,false,false,false,false,false,false,false,false,false,false,false,false,false,false,false,false,false,false,false,false,false,false,false,false,false,false,false,false,false],"id":5,"left_children":[1,3,5,7,9,11,13,15,17,19,21,23,25,27,-1,29,31,33,35,37,39,41,43,-1,45,47,49,51,-1,53,55,57,-1,59,61,63,65,67,69,71,73,75,77,-1,79,81,83,85,87,89,-1,-1,91,-1,-1,-1,-1,-1,-1,-1,-1,-1,-1,-1,-1,-1,-1,-1,-1,-1,-1,-1,-1,-1,-1,-1,-1,-1,-1,-1,-1,-1,-1,-1,-1,-1,-1,-1,-1,-1,-1,-1,-1],"loss_changes":[2.9982219E4,6.2514453E4,1.0555984E4,1.9655781E4,4.016477E4,5.375E2,2.3603453E5,5.9827344E2,1.3872055E4,2.454197E4,5.361433E4,1.6738477E2,1.9245312E2,8.59552E1,0E0,4.34375E0,4.8926318E2,1.5543457E3,6.6824297E3,1.4488912E4,2.118457E1,8.92582E3,2.5543086E4,0E0,3.4853516E1,4.1126562E2,1.034375E1,3.9109802E-1,0E0,9.84375E-1,4.1210938E-1,2.1366553E2,0E0,3.9555664E1,6.0341956E2,1.7291016E3,3.9769727E3,2.3663066E3,7.735908E3,7.375E0,1.288623E1,6.969703E3,1.5883009E4,0E0,1.9190192E-2,2.6934082E1,4.120117E1,1.30703125E1,8.2975586E2,2.5703125E0,0E0,0E0,1.0094013E0,0E0,0E0,0E0,0E0,0E0,0E0,0E0,0E0,0E0,0E0,0E0,0E0,0E0,0E0,0E0,0E0,0E0,0E0,0E0,0E0,0E0,0E0,0E0,0E0,0E0,0E0,0E0,0E0,0E0,0E0,0E0,0E0,0E0,0E0,0E0,0E0,0E0,0E0,0E0,0E0],"parents":[2147483647,0,0,1,1,2,2,3,3,4,4,5,5,6,6,7,7,8,8,9,9,10,10,11,11,12,12,13,13,15,15,16,16,17,17,18,18,19,19,20,20,21,21,22,22,24,24,25,25,26,26,27,27,29,29,30,30,31,31,33,33,34,34,35,35,36,36,37,37,38,38,39,39,40,40,41,41,42,42,44,44,45,45,46,46,47,47,48,48,49,49,52,52],"right_children":[2,4,6,8,10,12,14,16,18,20,22,24,26,28,-1,30,32,34,36,38,40,42,44,-1,46,48,50,52,-1,54,56,58,-1,60,62,64,66,68,70,72,74,76,78,-1,80,82,84,86,88,90,-1,-1,92,-1,-1,-1,-1,-1,-1,-1,-1,-1,-1,-1,-1,-1,-1,-1,-1,-1,-1,-1,-1,-1,-1,-1,-1,-1,-1,-1,-1,-1,-1,-1,-1,-1,-1,-1,-1,-1,-1,-1,-1],"split_conditions":[-2.1335708E-1,-2.4124886E-1,8.975021E-1,-3.1471157E-1,-2.3024885E-1,-1.6043437E-1,3.3356614E0,-3.783649E-1,-1.9679105E-1,-2.3584569E-1,9.11126E-2,-1.9440384E-1,3.2988068E-1,3.88975E0,2.4760494E0,-4.2575818E-1,-3.5098666E-1,-2.4845251E-1,-1.1058114E-1,-3.6060184E-1,2.694503E-1,5.8447875E-2,2.1944618E-1,-7.2472864E-3,-3.8583812E-1,-6.1926497E-3,1.6626587E0,1.2895348E0,5.9708003E-2,-4.721957E-1,7.6121935E-3,-2.2059025E-1,-7.2989943E-3,-2.006188E-1,-3.0559728E-1,-3.3710934E-2,-2.5489086E-1,-5.506176E-1,-3.2160886E-2,8.795563E-3,1.5408084E-2,1.194379E-1,2.4430044E-2,8.460935E-1,9.9509016E-2,-1.7618838E-1,-1.8500225E-1,-1.0948087E-1,2.053602E-2,5.51935E-2,-7.2931293E-3,-6.841993E-3,1.5120809E0,-7.2443243E-3,-7.301853E-3,-7.163278E-3,-6.9533363E-3,-4.831364E-3,-1.2590047E-3,9.6200146E-2,7.859211E-2,1.0435235E-1,2.0665163E-3,-5.8462196E-3,-4.0936526E-3,-4.132424E-3,-7.026857E-4,-6.362463E-5,3.924259E-3,1.3807882E-3,1.2805498E-2,-6.519272E-3,-7.00947E-3,-5.749959E-3,-6.7320303E-3,2.4420597E-2,5.931325E-2,4.8688877E-1,3.944249E-2,-1.6339227E-3,-4.558651E-3,-6.0168123E-3,-5.1981783E-3,-5.442924E-3,-6.1816005E-3,-7.257205E-3,-7.0122797E-3,-3.6020193E-3,-6.6161696E-3,-7.151192E-3,-7.0289313E-3,3.6613857E-3,-5.058745E-3],"split_indices":[2,2,0,2,2,2,3,2,0,2,0,2,2,1,0,2,2,2,1,1,1,0,1,0,3,2,2,1,0,2,0,1,0,0,1,0,2,1,0,0,0,1,1,0,0,2,2,2,2,0,0,0,0,0,0,0,0,0,0,0,0,0,0,0,0,0,0,0,0,0,0,0,0,0,0,0,0,0,0,0,0,0,0,0,0,0,0,0,0,0,0,0,0],"split_type":[0,0,0,0,0,0,0,0,0,0,0,0,0,0,0,0,0,0,0,0,0,0,0,0,0,0,0,0,0,0,0,0,0,0,0,0,0,0,0,0,0,0,0,0,0,0,0,0,0,0,0,0,0,0,0,0,0,0,0,0,0,0,0,0,0,0,0,0,0,0,0,0,0,0,0,0,0,0,0,0,0,0,0,0,0,0,0,0,0,0,0,0,0],"sum_hessian":[1.377865E6,9.14584E5,4.63281E5,7.90632E5,1.23952E5,4.63186E5,9.5E1,2.44257E5,5.46375E5,1.20296E5,3.656E3,6.8383E4,3.94803E5,9.2E1,3E0,2.21919E5,2.2338E4,2.09E2,5.46166E5,9.3086E4,2.721E4,3.64E3,1.6E1,9.714E3,5.8669E4,1.60102E5,2.34701E5,9.1E1,1E0,1.84709E5,3.721E4,1.3092E4,9.246E3,1.7E2,3.9E1,3.97741E5,1.48425E5,6.1845E4,3.1241E4,1.9754E4,7.456E3,3.605E3,3.5E1,1.1E1,5E0,1.8441E4,4.0228E4,9.2934E4,6.7168E4,1.77392E5,5.7309E4,8.6E1,5E0,8.1973E4,1.02736E5,3.4982E4,2.228E3,1.112E4,1.972E3,1.11E2,5.9E1,6E0,3.3E1,6.7888E4,3.29853E5,5.2089E4,9.6336E4,3.6923E4,2.4922E4,7.95E3,2.3291E4,1.5651E4,4.103E3,5.642E3,1.814E3,2.891E3,7.14E2,1.1E1,2.4E1,2E0,3E0,6.044E3,1.2397E4,1.0205E4,3.0023E4,5.3876E4,3.9058E4,1.0908E4,5.626E4,1.53612E5,2.378E4,1E0,4E0],"tree_param":{"num_deleted":"0","num_feature":"4","num_nodes":"93","size_leaf_vector":"0"}},{"base_weights":[-4.7072235E-1,-3.6678484E-1,-6.7590886E-1,-4.6926963E-1,2.8691638E-1,-6.780643E-1,9.730792E0,-7.0273167E-1,-3.6489934E-1,1.8864545E-1,3.5194595E0,-5.969956E-1,-6.9210446E-1,-5.251135E-1,2.4574791E2,-7.182804E-1,-5.4823613E-1,7.6812267E0,-3.6799237E-1,4.3040654E-1,-6.3840985E-1,3.259257E0,5.904168E1,-7.174821E-1,-5.770344E-1,-6.65604E-1,-7.101789E-1,-6.599723E-1,5.9409466E0,-7.2035986E-1,-7.0793897E-1,-4.2504805E-1,-7.2260123E-1,8.9688835E0,1.9844623E0,-4.3488738E-1,-1.8872915E-1,2.2187223E-1,1.1650076E0,-6.555231E-1,-5.9298813E-1,3.103268E0,1.8793621E1,8.383377E1,-3.8278222E-1,-5.4121333E-1,-5.9344137E-1,-7.082803E-1,-6.0654706E-1,-7.063495E-1,-7.220199E-1,-6.77436E-1,-2.9675364E-1,-7.1718824E-1,-7.228835E-1,-7.091625E-1,-6.8839973E-1,-4.763793E-1,-1.1322785E-1,9.524673E0,7.7819285E0,1.034579E1,2.0464592E-1,-5.6171113E-1,-4.0128314E-1,-5.280289E-1,-1.0946299E-1,7.87523E-3,4.7649676E-1,2.2969368E-1,1.5134817E0,-6.4604497E-1,-6.965442E-1,-5.69247E-1,-6.6647476E-1,2.837074E0,1.0256134E1,4.8242565E1,3.9063842E0,-1.6230302E-1,-4.524461E-1,-5.956654E-1,-5.1462007E-1,-5.3885E-1,-6.119787E-1,-7.184635E-1,-6.942159E-1,-3.5660022E-1,-6.550009E-1,-7.079674E-1,-6.958678E-1,3.6430788E-1,-5.0182754E-1],"categories":[],"categories_nodes":[],"categories_segments":[],"categories_sizes":[],"default_left":[true,true,true,true,true,true,true,true,true,true,true,true,true,true,false,true,true,true,true,true,true,true,true,false,true,true,true,true,false,true,true,true,false,true,true,true,true,true,true,true,true,true,true,false,true,true,true,true,true,true,false,false,true,false,false,false,false,false,false,false,false,false,false,false,false,false,false,false,false,false,false,false,false,false,false,false,false,false,false,false,false,false,false,false,false,false,false,false,false,false,false,false,false],"id":6,"left_children":[1,3,5,7,9,11,13,15,17,19,21,23,25,27,-1,29,31,33,35,37,39,41,43,-1,45,47,49,51,-1,53,55,57,-1,59,61,63,65,67,69,71,73,75,77,-1,79,81,83,85,87,89,-1,-1,91,-1,-1,-1,-1,-1,-1,-1,-1,-1,-1,-1,-1,-1,-1,-1,-1,-1,-1,-1,-1,-1,-1,-1,-1,-1,-1,-1,-1,-1,-1,-1,-1,-1,-1,-1,-1,-1,-1,-1,-1],"loss_changes":[2.9384906E4,6.1272242E4,1.03984375E4,1.9264703E4,3.9374867E4,5.267969E2,2.325037E5,5.863594E2,1.3600523E4,2.4053637E4,5.2640316E4,1.6405273E2,1.88625E2,8.501732E1,0E0,4.265625E0,4.7952783E2,1.5226523E3,6.549453E3,1.4259695E4,2.0762695E1,8.764512E3,2.5077457E4,0E0,3.4160156E1,4.0308594E2,1.01328125E1,3.8253784E-1,0E0,9.609375E-1,4.0234375E-1,2.0951416E2,0E0,3.8688477E1,5.931478E2,1.694875E3,3.9918574E3,3.950767E3,6.707996E3,7.2304688E0,1.2630371E1,6.83691E3,1.5594428E4,0E0,1.872325E-2,2.6398438E1,4.038086E1,1.2808594E1,8.132422E2,2.5234375E0,0E0,0E0,9.962185E-1,0E0,0E0,0E0,0E0,0E0,0E0,0E0,0E0,0E0,0E0,0E0,0E0,0E0,0E0,0E0,0E0,0E0,0E0,0E0,0E0,0E0,0E0,0E0,0E0,0E0,0E0,0E0,0E0,0E0,0E0,0E0,0E0,0E0,0E0,0E0,0E0,0E0,0E0,0E0,0E0],"parents":[2147483647,0,0,1,1,2,2,3,3,4,4,5,5,6,6,7,7,8,8,9,9,10,10,11,11,12,12,13,13,15,15,16,16,17,17,18,18,19,19,20,20,21,21,22,22,24,24,25,25,26,26,27,27,29,29,30,30,31,31,33,33,34,34,35,35,36,36,37,37,38,38,39,39,40,40,41,41,42,42,44,44,45,45,46,46,47,47,48,48,49,49,52,52],"right_children":[2,4,6,8,10,12,14,16,18,20,22,24,26,28,-1,30,32,34,36,38,40,42,44,-1,46,48,50,52,-1,54,56,58,-1,60,62,64,66,68,70,72,74,76,78,-1,80,82,84,86,88,90,-1,-1,92,-1,-1,-1,-1,-1,-1,-1,-1,-1,-1,-1,-1,-1,-1,-1,-1,-1,-1,-1,-1,-1,-1,-1,-1,-1,-1,-1,-1,-1,-1,-1,-1,-1,-1,-1,-1,-1,-1,-1,-1],"split_conditions":[-2.1335708E-1,-2.4124886E-1,8.975021E-1,-3.1471157E-1,-2.3024885E-1,-1.6043437E-1,3.3356614E0,-3.783649E-1,-1.9679105E-1,-2.3584569E-1,9.11126E-2,-1.9440384E-1,3.2988068E-1,3.88975E0,2.457479E0,-4.2575818E-1,-3.5098666E-1,-2.4845251E-1,-1.1058114E-1,-2.2059025E-1,2.694503E-1,5.8447875E-2,2.1944618E-1,-7.1748206E-3,-3.8583812E-1,-6.1926497E-3,1.6626587E0,1.2895348E0,5.9409466E-2,-4.721957E-1,7.6186922E-3,-1.9058776E-1,-7.226012E-3,-2.006188E-1,-3.0559728E-1,-2.9965242E-2,-4.836326E-2,-5.306159E-1,-3.3563904E-2,1.0752462E-2,1.5408084E-2,1.0395141E0,2.4430044E-2,8.3833766E-1,9.9509016E-2,-1.7618838E-1,-1.8500225E-1,-1.0948087E-1,2.053602E-2,5.5195928E-2,-7.220199E-3,-6.77436E-3,1.5120809E0,-7.1718823E-3,-7.228835E-3,-7.0916247E-3,-6.883997E-3,-4.7637927E-3,-1.1322785E-3,9.524673E-2,7.781928E-2,1.034579E-1,2.0464591E-3,-5.617111E-3,-4.0128315E-3,-5.280289E-3,-1.0946299E-3,7.87523E-5,4.7649676E-3,2.2969367E-3,1.5134817E-2,-6.4604497E-3,-6.9654416E-3,-5.69247E-3,-6.6647474E-3,2.837074E-2,1.0256134E-1,4.8242563E-1,3.906384E-2,-1.6230302E-3,-4.524461E-3,-5.956654E-3,-5.146201E-3,-5.3885E-3,-6.1197868E-3,-7.1846345E-3,-6.9421586E-3,-3.5660022E-3,-6.550009E-3,-7.079674E-3,-6.9586774E-3,3.6430787E-3,-5.018275E-3],"split_indices":[2,2,0,2,2,2,3,2,0,2,0,2,2,1,0,2,2,2,1,1,1,0,1,0,3,2,2,1,0,2,0,1,0,0,1,0,0,1,0,0,0,1,1,0,0,2,2,2,2,0,0,0,0,0,0,0,0,0,0,0,0,0,0,0,0,0,0,0,0,0,0,0,0,0,0,0,0,0,0,0,0,0,0,0,0,0,0,0,0,0,0,0,0],"split_type":[0,0,0,0,0,0,0,0,0,0,0,0,0,0,0,0,0,0,0,0,0,0,0,0,0,0,0,0,0,0,0,0,0,0,0,0,0,0,0,0,0,0,0,0,0,0,0,0,0,0,0,0,0,0,0,0,0,0,0,0,0,0,0,0,0,0,0,0,0,0,0,0,0,0,0,0,0,0,0,0,0,0,0,0,0,0,0,0,0,0,0,0,0],"sum_hessian":[1.377865E6,9.14584E5,4.63281E5,7.90632E5,1.23952E5,4.63186E5,9.5E1,2.44257E5,5.46375E5,1.20296E5,3.656E3,6.8383E4,3.94803E5,9.2E1,3E0,2.21919E5,2.2338E4,2.09E2,5.46166E5,9.3086E4,2.721E4,3.64E3,1.6E1,9.714E3,5.8669E4,1.60102E5,2.34701E5,9.1E1,1E0,1.84709E5,3.721E4,1.3092E4,9.246E3,1.7E2,3.9E1,3.97741E5,1.48425E5,7.2505E4,2.0581E4,1.9754E4,7.456E3,3.605E3,3.5E1,1.1E1,5E0,1.8441E4,4.0228E4,9.2934E4,6.7168E4,1.77392E5,5.7309E4,8.6E1,5E0,8.1973E4,1.02736E5,3.4984E4,2.226E3,1.1241E4,1.851E3,1.11E2,5.9E1,6E0,3.3E1,8.331E4,3.14431E5,2.8107E4,1.20318E5,3.9396E4,3.3109E4,5.587E3,1.4994E4,1.606E4,3.694E3,5.642E3,1.814E3,3.477E3,1.28E2,1.1E1,2.4E1,2E0,3E0,6.044E3,1.2397E4,1.0205E4,3.0023E4,5.3876E4,3.9058E4,1.0908E4,5.626E4,1.53614E5,2.3778E4,1E0,4E0],"tree_param":{"num_deleted":"0","num_feature":"4","num_nodes":"93","size_leaf_vector":"0"}},{"base_weights":[-4.6601212E-1,-3.6311513E-1,-6.691445E-1,-4.6457666E-1,2.8405917E-1,-6.712838E-1,9.659617E0,-6.957045E-1,-3.6124986E-1,1.8675898E-1,3.4846709E0,-5.9102607E-1,-6.851835E-1,-5.193112E-1,2.4390479E2,-7.110977E-1,-5.427544E-1,7.6057415E0,-3.6431247E-1,4.2610273E-1,-6.3202673E-1,3.2268436E0,5.8500214E1,-7.10308E-1,-5.7126445E-1,-6.5894806E-1,-7.0307726E-1,-6.5346116E-1,5.9112415E0,-7.1315634E-1,-7.0085996E-1,-4.2079803E-1,-7.1537596E-1,8.880208E0,1.9672552E0,-4.3053854E-1,-1.868419E-1,2.1965358E-1,1.1533583E0,-6.489685E-1,-5.870599E-1,3.0722716E0,1.862017E1,8.306529E1,-3.7997898E-1,-5.87572E-1,-5.354486E-1,-7.011977E-1,-6.004817E-1,-6.992861E-1,-7.147998E-1,-6.707395E-1,-2.9401532E-1,-7.100164E-1,-7.1565473E-1,-7.0207334E-1,-6.8150234E-1,-4.7354212E-1,-1.2328771E-1,9.430278E0,7.7054067E0,1.0257112E1,2.0265964E-1,-4.072758E-1,-6.1360383E-1,-4.0780878E-1,-6.736184E-2,7.7964966E-3,4.7173193E-1,2.2739717E-1,1.4983479E0,-6.389484E-1,-6.870258E-1,-5.6355554E-1,-6.5981364E-1,2.3892868E0,5.830482E0,4.780034E1,3.868883E0,-1.6122098E-1,-4.4905275E-1,-5.49879E-1,-6.061766E-1,-3.2451108E-1,-5.4710156E-1,-7.11279E-1,-6.872739E-1,-3.5303456E-1,-6.4845103E-1,-7.007214E-1,-6.877271E-1,3.6248633E-1,-4.9781293E-1],"categories":[],"categories_nodes":[],"categories_segments":[],"categories_sizes":[],"default_left":[true,true,true,true,true,true,true,true,true,true,true,true,true,true,false,true,true,true,true,true,true,true,true,false,true,true,true,true,false,true,true,true,false,true,true,true,true,true,true,true,true,true,true,false,true,true,true,true,true,true,false,false,true,false,false,false,false,false,false,false,false,false,false,false,false,false,false,false,false,false,false,false,false,false,false,false,false,false,false,false,false,false,false,false,false,false,false,false,false,false,false,false,false],"id":7,"left_children":[1,3,5,7,9,11,13,15,17,19,21,23,25,27,-1,29,31,33,35,37,39,41,43,-1,45,47,49,51,-1,53,55,57,-1,59,61,63,65,67,69,71,73,75,77,-1,79,81,83,85,87,89,-1,-1,91,-1,-1,-1,-1,-1,-1,-1,-1,-1,-1,-1,-1,-1,-1,-1,-1,-1,-1,-1,-1,-1,-1,-1,-1,-1,-1,-1,-1,-1,-1,-1,-1,-1,-1,-1,-1,-1,-1,-1,-1],"loss_changes":[2.8799531E4,6.0054805E4,1.0243266E4,1.8881406E4,3.860081E4,5.163125E2,2.2902567E5,5.746875E2,1.3334305E4,2.3575023E4,5.1683957E4,1.6078906E2,1.84875E2,8.408998E1,0E0,4.1796875E0,4.6998633E2,1.4916025E3,6.419117E3,1.3975951E4,2.034961E1,8.606105E3,2.4620309E4,0E0,3.3953125E1,3.950625E2,9.9296875E0,3.741684E-1,0E0,9.453125E-1,3.9453125E-1,2.0539575E2,0E0,3.7839844E1,5.83051E2,1.6935781E3,3.918588E3,3.8721487E3,6.5745137E3,7.09375E0,1.2379883E1,6.7791133E3,1.5311089E4,0E0,1.8265903E-2,2.793164E1,4.4969727E1,1.25546875E1,7.970586E2,2.46875E0,0E0,0E0,9.832112E-1,0E0,0E0,0E0,0E0,0E0,0E0,0E0,0E0,0E0,0E0,0E0,0E0,0E0,0E0,0E0,0E0,0E0,0E0,0E0,0E0,0E0,0E0,0E0,0E0,0E0,0E0,0E0,0E0,0E0,0E0,0E0,0E0,0E0,0E0,0E0,0E0,0E0,0E0,0E0,0E0],"parents":[2147483647,0,0,1,1,2,2,3,3,4,4,5,5,6,6,7,7,8,8,9,9,10,10,11,11,12,12,13,13,15,15,16,16,17,17,18,18,19,19,20,20,21,21,22,22,24,24,25,25,26,26,27,27,29,29,30,30,31,31,33,33,34,34,35,35,36,36,37,37,38,38,39,39,40,40,41,41,42,42,44,44,45,45,46,46,47,47,48,48,49,49,52,52],"right_children":[2,4,6,8,10,12,14,16,18,20,22,24,26,28,-1,30,32,34,36,38,40,42,44,-1,46,48,50,52,-1,54,56,58,-1,60,62,64,66,68,70,72,74,76,78,-1,80,82,84,86,88,90,-1,-1,92,-1,-1,-1,-1,-1,-1,-1,-1,-1,-1,-1,-1,-1,-1,-1,-1,-1,-1,-1,-1,-1,-1,-1,-1,-1,-1,-1,-1,-1,-1,-1,-1,-1,-1,-1,-1,-1,-1,-1,-1],"split_conditions":[-2.1335708E-1,-2.4124886E-1,8.975021E-1,-3.1471157E-1,-2.3024885E-1,-1.6043437E-1,3.3356614E0,-3.783649E-1,-1.9679105E-1,-2.3584569E-1,9.11126E-2,-1.9440384E-1,3.2988068E-1,3.88975E0,2.4390478E0,-4.2575818E-1,-3.5098666E-1,-2.4845251E-1,-1.1058114E-1,-2.2059025E-1,2.694503E-1,5.8447875E-2,2.1944618E-1,-7.10308E-3,2.5944948E-1,-6.1926497E-3,1.6626587E0,1.2895348E0,5.9112415E-2,-4.721957E-1,7.6121935E-3,-2.2059025E-1,-7.1537592E-3,-2.006188E-1,-3.0559728E-1,5.1156156E-2,-2.5489086E-1,-5.306159E-1,-3.3563904E-2,8.795563E-3,1.5408084E-2,1.194379E-1,2.4430044E-2,8.306529E-1,9.9509016E-2,-1.8500225E-1,-1.8500225E-1,-1.0948087E-1,2.053602E-2,6.6922724E-2,-7.147998E-3,-6.7073945E-3,1.5120809E0,-7.100164E-3,-7.156547E-3,-7.0207333E-3,-6.8150233E-3,-4.735421E-3,-1.232877E-3,9.430277E-2,7.705407E-2,1.02571115E-1,2.0265963E-3,-4.072758E-3,-6.1360383E-3,-4.078088E-3,-6.736184E-4,7.796496E-5,4.7173193E-3,2.2739717E-3,1.4983478E-2,-6.389484E-3,-6.8702577E-3,-5.6355554E-3,-6.5981364E-3,2.3892866E-2,5.830482E-2,4.7800338E-1,3.8688827E-2,-1.6122098E-3,-4.4905273E-3,-5.49879E-3,-6.061766E-3,-3.2451106E-3,-5.4710153E-3,-7.1127894E-3,-6.872739E-3,-3.5303454E-3,-6.4845104E-3,-7.007214E-3,-6.877271E-3,3.6248632E-3,-4.978129E-3],"split_indices":[2,2,0,2,2,2,3,2,0,2,0,2,2,1,0,2,2,2,1,1,1,0,1,0,1,2,2,1,0,2,0,1,0,0,1,3,2,1,0,0,0,1,1,0,0,2,2,2,2,0,0,0,0,0,0,0,0,0,0,0,0,0,0,0,0,0,0,0,0,0,0,0,0,0,0,0,0,0,0,0,0,0,0,0,0,0,0,0,0,0,0,0,0],"split_type":[0,0,0,0,0,0,0,0,0,0,0,0,0,0,0,0,0,0,0,0,0,0,0,0,0,0,0,0,0,0,0,0,0,0,0,0,0,0,0,0,0,0,0,0,0,0,0,0,0,0,0,0,0,0,0,0,0,0,0,0,0,0,0,0,0,0,0,0,0,0,0,0,0,0,0,0,0,0,0,0,0,0,0,0,0,0,0,0,0,0,0,0,0],"sum_hessian":[1.377865E6,9.14584E5,4.63281E5,7.90632E5,1.23952E5,4.63186E5,9.5E1,2.44257E5,5.46375E5,1.20296E5,3.656E3,6.8383E4,3.94803E5,9.2E1,3E0,2.21919E5,2.2338E4,2.09E2,5.46166E5,9.3086E4,2.721E4,3.64E3,1.6E1,9.714E3,5.8669E4,1.60102E5,2.34701E5,9.1E1,1E0,1.84709E5,3.721E4,1.3092E4,9.246E3,1.7E2,3.9E1,3.97741E5,1.48425E5,7.2505E4,2.0581E4,1.9754E4,7.456E3,3.605E3,3.5E1,1.1E1,5E0,4.0303E4,1.8366E4,9.2934E4,6.7168E4,1.77392E5,5.7309E4,8.6E1,5E0,8.1973E4,1.02736E5,3.4982E4,2.228E3,1.112E4,1.972E3,1.11E2,5.9E1,6E0,3.3E1,3.529E5,4.4841E4,5.2089E4,9.6336E4,3.9396E4,3.3109E4,5.587E3,1.4994E4,1.5651E4,4.103E3,5.642E3,1.814E3,2.891E3,7.14E2,1.1E1,2.4E1,2E0,3E0,1.3329E4,2.6974E4,9.63E2,1.7403E4,5.3876E4,3.9058E4,1.0908E4,5.626E4,1.57745E5,1.9647E4,1E0,4E0],"tree_param":{"num_deleted":"0","num_feature":"4","num_nodes":"93","size_leaf_vector":"0"}},{"base_weights":[-4.6134907E-1,-3.594822E-1,-6.6244787E-1,-4.5993063E-1,2.8123003E-1,-6.645711E-1,9.58896E0,-6.8874764E-1,-3.5763687E-1,1.8489137E-1,3.4502134E0,-5.851162E-1,-6.783318E-1,-5.135692E-1,2.4207552E2,-7.039869E-1,-5.3732747E-1,7.5309978E0,-3.6066937E-1,4.2184195E-1,-6.257074E-1,3.1947396E0,5.7963715E1,-7.0320565E-1,-5.655521E-1,-6.523588E-1,-6.960466E-1,-6.4701414E-1,5.8816853E0,-7.060249E-1,-6.938517E-1,-4.165905E-1,-7.08223E-1,8.792407E0,1.9501975E0,-4.2213497E-1,-1.7302993E-1,1.6615863E-1,9.975344E-1,-6.4206266E-1,-5.8005005E-1,3.0415716E0,1.8448322E1,8.230386E1,-3.771963E-1,-5.300805E-1,-5.817992E-1,-6.9418585E-1,-5.9447706E-1,-6.922933E-1,-7.07652E-1,-6.641092E-1,-2.913007E-1,-7.029164E-1,-7.084983E-1,-6.950528E-1,-6.7469037E-1,-4.6691865E-1,-1.1086399E-1,9.336817E0,7.629637E0,1.0169193E1,2.0069261E-1,-5.661164E-1,-3.917738E-1,-4.0170902E-1,-4.955717E-2,-6.4555304E-3,3.9760867E-1,1.5834354E-1,1.2940784E0,-6.319344E-1,-6.8024635E-1,-5.569975E-1,-6.5173167E-1,2.7790275E0,1.0096516E1,4.736217E1,3.8317418E0,-1.6014616E-1,-4.4568485E-1,-5.842001E-1,-5.036502E-1,-5.281184E-1,-6.0002744E-1,-7.0416635E-1,-6.804013E-1,-3.4950453E-1,-6.419666E-1,-6.9387907E-1,-6.8201566E-1,3.606739E-1,-4.938304E-1],"categories":[],"categories_nodes":[],"categories_segments":[],"categories_sizes":[],"default_left":[true,true,true,true,true,true,true,true,true,true,true,true,true,true,false,true,true,true,true,true,true,true,true,false,true,true,true,true,false,true,true,true,false,true,true,true,true,true,true,true,true,true,true,false,true,true,true,true,true,true,false,false,true,false,false,false,false,false,false,false,false,false,false,false,false,false,false,false,false,false,false,false,false,false,false,false,false,false,false,false,false,false,false,false,false,false,false,false,false,false,false,false,false],"id":8,"left_children":[1,3,5,7,9,11,13,15,17,19,21,23,25,27,-1,29,31,33,35,37,39,41,43,-1,45,47,49,51,-1,53,55,57,-1,59,61,63,65,67,69,71,73,75,77,-1,79,81,83,85,87,89,-1,-1,91,-1,-1,-1,-1,-1,-1,-1,-1,-1,-1,-1,-1,-1,-1,-1,-1,-1,-1,-1,-1,-1,-1,-1,-1,-1,-1,-1,-1,-1,-1,-1,-1,-1,-1,-1,-1,-1,-1,-1,-1],"loss_changes":[2.8225781E4,5.8861477E4,1.0090422E4,1.850575E4,3.7841676E4,5.0603125E2,2.2559975E5,5.632578E2,1.30733125E4,2.310593E4,5.0745E4,1.575918E2,1.8120312E2,8.317311E1,0E0,4.09375E0,4.6063477E2,1.4611846E3,6.2990703E3,1.370177E4,1.994629E1,8.450578E3,2.4171484E4,0E0,3.3503906E1,3.8720312E2,9.734375E0,3.6598969E-1,0E0,9.21875E-1,3.8671875E-1,2.0140576E2,0E0,3.7010742E1,5.7312604E2,1.7981953E3,3.805184E3,2.5752798E3,7.1240703E3,7.3154297E0,1.1513184E1,6.6511016E3,1.5032897E4,0E0,1.7817974E-2,2.608496E1,3.9046875E1,1.2308594E1,7.8119727E2,2.421875E0,0E0,0E0,9.7037715E-1,0E0,0E0,0E0,0E0,0E0,0E0,0E0,0E0,0E0,0E0,0E0,0E0,0E0,0E0,0E0,0E0,0E0,0E0,0E0,0E0,0E0,0E0,0E0,0E0,0E0,0E0,0E0,0E0,0E0,0E0,0E0,0E0,0E0,0E0,0E0,0E0,0E0,0E0,0E0,0E0],"parents":[2147483647,0,0,1,1,2,2,3,3,4,4,5,5,6,6,7,7,8,8,9,9,10,10,11,11,12,12,13,13,15,15,16,16,17,17,18,18,19,19,20,20,21,21,22,22,24,24,25,25,26,26,27,27,29,29,30,30,31,31,33,33,34,34,35,35,36,36,37,37,38,38,39,39,40,40,41,41,42,42,44,44,45,45,46,46,47,47,48,48,49,49,52,52],"right_children":[2,4,6,8,10,12,14,16,18,20,22,24,26,28,-1,30,32,34,36,38,40,42,44,-1,46,48,50,52,-1,54,56,58,-1,60,62,64,66,68,70,72,74,76,78,-1,80,82,84,86,88,90,-1,-1,92,-1,-1,-1,-1,-1,-1,-1,-1,-1,-1,-1,-1,-1,-1,-1,-1,-1,-1,-1,-1,-1,-1,-1,-1,-1,-1,-1,-1,-1,-1,-1,-1,-1,-1,-1,-1,-1,-1,-1,-1],"split_conditions":[-2.1335708E-1,-2.4124886E-1,8.975021E-1,-3.1471157E-1,-2.3024885E-1,-1.6043437E-1,3.3356614E0,-3.783649E-1,-1.9679105E-1,-2.3584569E-1,9.11126E-2,-1.9440384E-1,3.2988068E-1,3.88975E0,2.4207551E0,-4.2575818E-1,-3.5098666E-1,-2.4845251E-1,-4.057534E-2,-3.205985E-1,3.1945446E-1,5.8447875E-2,2.1944618E-1,-7.0320563E-3,-3.8583812E-1,-6.1926497E-3,1.6626587E0,1.2895348E0,5.881685E-2,-4.721957E-1,7.6121935E-3,-1.9058776E-1,-7.0822295E-3,-2.006188E-1,-3.0559728E-1,-3.3710934E-2,-2.5489086E-1,-5.506176E-1,-3.2160886E-2,8.795563E-3,1.5408084E-2,1.0395141E0,2.4430044E-2,8.2303864E-1,9.9509016E-2,-1.7618838E-1,-1.8500225E-1,-1.0948087E-1,2.053602E-2,5.521043E-2,-7.0765195E-3,-6.641092E-3,1.5120809E0,-7.0291637E-3,-7.084983E-3,-6.950528E-3,-6.7469035E-3,-4.669186E-3,-1.1086399E-3,9.3368165E-2,7.629637E-2,1.0169193E-1,2.006926E-3,-5.661164E-3,-3.917738E-3,-4.01709E-3,-4.955717E-4,-6.45553E-5,3.9760866E-3,1.5834353E-3,1.2940783E-2,-6.319344E-3,-6.8024634E-3,-5.5699744E-3,-6.5173167E-3,2.7790274E-2,1.0096516E-1,4.736217E-1,3.8317416E-2,-1.6014616E-3,-4.4568484E-3,-5.8420007E-3,-5.0365017E-3,-5.2811834E-3,-6.0002743E-3,-7.0416634E-3,-6.804013E-3,-3.4950452E-3,-6.4196656E-3,-6.9387904E-3,-6.8201562E-3,3.606739E-3,-4.938304E-3],"split_indices":[2,2,0,2,2,2,3,2,0,2,0,2,2,1,0,2,2,2,1,1,1,0,1,0,3,2,2,1,0,2,0,1,0,0,1,0,2,1,0,0,0,1,1,0,0,2,2,2,2,0,0,0,0,0,0,0,0,0,0,0,0,0,0,0,0,0,0,0,0,0,0,0,0,0,0,0,0,0,0,0,0,0,0,0,0,0,0,0,0,0,0,0,0],"split_type":[0,0,0,0,0,0,0,0,0,0,0,0,0,0,0,0,0,0,0,0,0,0,0,0,0,0,0,0,0,0,0,0,0,0,0,0,0,0,0,0,0,0,0,0,0,0,0,0,0,0,0,0,0,0,0,0,0,0,0,0,0,0,0,0,0,0,0,0,0,0,0,0,0,0,0,0,0,0,0,0,0,0,0,0,0,0,0,0,0,0,0,0,0],"sum_hessian":[1.377865E6,9.14584E5,4.63281E5,7.90632E5,1.23952E5,4.63186E5,9.5E1,2.44257E5,5.46375E5,1.20296E5,3.656E3,6.8383E4,3.94803E5,9.2E1,3E0,2.21919E5,2.2338E4,2.09E2,5.46166E5,9.3086E4,2.721E4,3.64E3,1.6E1,9.714E3,5.8669E4,1.60102E5,2.34701E5,9.1E1,1E0,1.84709E5,3.721E4,1.3092E4,9.246E3,1.7E2,3.9E1,4.11401E5,1.34765E5,6.4459E4,2.8627E4,2.0024E4,7.186E3,3.605E3,3.5E1,1.1E1,5E0,1.8441E4,4.0228E4,9.2934E4,6.7168E4,1.77392E5,5.7309E4,8.6E1,5E0,8.1973E4,1.02736E5,3.4982E4,2.228E3,1.1241E4,1.851E3,1.11E2,5.9E1,6E0,3.3E1,7.1641E4,3.3976E5,4.7251E4,8.7514E4,3.6923E4,2.7536E4,7.475E3,2.1152E4,1.584E4,4.184E3,5.444E3,1.742E3,3.477E3,1.28E2,1.1E1,2.4E1,2E0,3E0,6.044E3,1.2397E4,1.0205E4,3.0023E4,5.3876E4,3.9058E4,1.0908E4,5.626E4,1.53623E5,2.3769E4,1E0,4E0],"tree_param":{"num_deleted":"0","num_feature":"4","num_nodes":"93","size_leaf_vector":"0"}},{"base_weights":[-4.5673263E-1,-3.5588557E-1,-6.5581816E-1,-4.5533106E-1,2.7842945E-1,-6.5792555E-1,9.518816E0,-6.818603E-1,-3.5406005E-1,1.8304239E-1,3.4161098E0,-5.792655E-1,-6.715486E-1,-5.0788677E-1,2.4025995E2,-6.9694716E-1,-5.3195477E-1,7.45699E0,-3.5706273E-1,4.1762373E-1,-6.194512E-1,3.1629682E0,5.7432137E1,-6.961743E-1,-5.59897E-1,-6.4583534E-1,-6.890862E-1,-6.4063066E-1,5.852277E0,-6.989647E-1,-6.8691355E-1,-4.1242504E-1,-7.0114154E-1,8.705476E0,1.9332881E0,-4.220179E-1,-1.8299784E-1,2.1479674E-1,1.1321197E0,-6.360602E-1,-5.7536805E-1,3.0111918E0,1.8278059E1,8.154941E1,-3.7443405E-1,-5.760632E-1,-5.243919E-1,-6.872442E-1,-5.8853245E-1,-6.8537045E-1,-7.005756E-1,-6.5754443E-1,-2.8860962E-1,-6.9588727E-1,-7.0141333E-1,-6.881024E-1,-6.679465E-1,-4.683997E-1,-1.4290284E-1,9.229335E0,7.5257273E0,1.0082029E1,1.987447E-1,-3.9897856E-1,-6.0332507E-1,-5.2055055E-1,-1.0413986E-1,7.5294487E-3,4.6141392E-1,2.2354043E-1,1.470633E0,-6.2685233E-1,-6.759116E-1,-5.535282E-1,-6.507174E-1,2.3376215E0,5.7314076E0,4.6928017E1,3.7949567E0,-1.5907852E-1,-4.4234222E-1,-5.3893894E-1,-5.943872E-1,-3.1584063E-1,-5.359133E-1,-6.971248E-1,-6.7359746E-1,-3.460098E-1,-6.3554704E-1,-6.869419E-1,-6.751899E-1,3.5887054E-1,-4.898798E-1],"categories":[],"categories_nodes":[],"categories_segments":[],"categories_sizes":[],"default_left":[true,true,true,true,true,true,true,true,true,true,true,true,true,true,false,true,true,true,true,true,true,true,true,false,true,true,true,true,false,true,true,true,false,true,true,true,true,true,true,true,true,true,true,false,true,true,true,true,true,true,false,false,true,false,false,false,false,false,false,false,false,false,false,false,false,false,false,false,false,false,false,false,false,false,false,false,false,false,false,false,false,false,false,false,false,false,false,false,false,false,false,false,false],"id":9,"left_children":[1,3,5,7,9,11,13,15,17,19,21,23,25,27,-1,29,31,33,35,37,39,41,43,-1,45,47,49,51,-1,53,55,57,-1,59,61,63,65,67,69,71,73,75,77,-1,79,81,83,85,87,89,-1,-1,91,-1,-1,-1,-1,-1,-1,-1,-1,-1,-1,-1,-1,-1,-1,-1,-1,-1,-1,-1,-1,-1,-1,-1,-1,-1,-1,-1,-1,-1,-1,-1,-1,-1,-1,-1,-1,-1,-1,-1,-1],"loss_changes":[2.7663438E4,5.7691938E4,9.939859E3,1.8137562E4,3.7097773E4,4.9595312E2,2.2222498E5,5.520469E2,1.2817422E4,2.2646172E4,4.982308E4,1.5445508E2,1.7759375E2,8.226654E1,0E0,4.0078125E0,4.5146875E2,1.4313857E3,6.175117E3,1.3489836E4,1.9557617E1,8.297836E3,2.373086E4,0E0,3.3373047E1,3.794922E2,9.546875E0,3.579979E-1,0E0,9.0625E-1,3.8085938E-1,1.9745947E2,0E0,3.6223633E1,5.6337E2,1.6612031E3,3.950857E3,3.7061895E3,6.33E3,6.8251953E0,1.1911133E1,6.5937207E3,1.4759761E4,0E0,1.7379224E-2,2.709668E1,4.396289E1,1.20625E1,7.656504E2,2.375E0,0E0,0E0,9.5771396E-1,0E0,0E0,0E0,0E0,0E0,0E0,0E0,0E0,0E0,0E0,0E0,0E0,0E0,0E0,0E0,0E0,0E0,0E0,0E0,0E0,0E0,0E0,0E0,0E0,0E0,0E0,0E0,0E0,0E0,0E0,0E0,0E0,0E0,0E0,0E0,0E0,0E0,0E0,0E0,0E0],"parents":[2147483647,0,0,1,1,2,2,3,3,4,4,5,5,6,6,7,7,8,8,9,9,10,10,11,11,12,12,13,13,15,15,16,16,17,17,18,18,19,19,20,20,21,21,22,22,24,24,25,25,26,26,27,27,29,29,30,30,31,31,33,33,34,34,35,35,36,36,37,37,38,38,39,39,40,40,41,41,42,42,44,44,45,45,46,46,47,47,48,48,49,49,52,52],"right_children":[2,4,6,8,10,12,14,16,18,20,22,24,26,28,-1,30,32,34,36,38,40,42,44,-1,46,48,50,52,-1,54,56,58,-1,60,62,64,66,68,70,72,74,76,78,-1,80,82,84,86,88,90,-1,-1,92,-1,-1,-1,-1,-1,-1,-1,-1,-1,-1,-1,-1,-1,-1,-1,-1,-1,-1,-1,-1,-1,-1,-1,-1,-1,-1,-1,-1,-1,-1,-1,-1,-1,-1,-1,-1,-1,-1,-1,-1],"split_conditions":[-2.1335708E-1,-2.4124886E-1,8.975021E-1,-3.1471157E-1,-2.3024885E-1,-1.6043437E-1,3.3356614E0,-3.783649E-1,-1.9679105E-1,-2.3584569E-1,9.11126E-2,-1.9440384E-1,3.2988068E-1,3.88975E0,2.4025993E0,-4.2575818E-1,-3.5098666E-1,-2.4845251E-1,-1.1058114E-1,-2.2059025E-1,2.694503E-1,5.8447875E-2,2.1944618E-1,-6.961743E-3,2.5944948E-1,-6.1926497E-3,1.6626587E0,1.2895348E0,5.852277E-2,-4.721957E-1,7.6121935E-3,-2.405919E-1,-7.0114154E-3,-2.0054886E-1,-3.0559728E-1,5.1156156E-2,-4.836326E-2,-5.306159E-1,-3.3563904E-2,1.0752462E-2,1.7996144E-2,1.194379E-1,2.4430044E-2,8.1549406E-1,9.9509016E-2,-1.8500225E-1,-1.8500225E-1,-1.0948087E-1,2.053602E-2,5.5195928E-2,-7.005756E-3,-6.5754442E-3,1.5120809E0,-6.9588725E-3,-7.014133E-3,-6.881024E-3,-6.679465E-3,-4.683997E-3,-1.4290283E-3,9.2293344E-2,7.525727E-2,1.0082029E-1,1.987447E-3,-3.9897854E-3,-6.0332506E-3,-5.2055055E-3,-1.0413985E-3,7.529448E-5,4.614139E-3,2.2354042E-3,1.470633E-2,-6.268523E-3,-6.759116E-3,-5.5352817E-3,-6.5071736E-3,2.3376213E-2,5.7314076E-2,4.6928015E-1,3.7949566E-2,-1.5907852E-3,-4.4234223E-3,-5.389389E-3,-5.9438716E-3,-3.1584064E-3,-5.359133E-3,-6.9712475E-3,-6.7359745E-3,-3.4600978E-3,-6.35547E-3,-6.869419E-3,-6.751899E-3,3.5887053E-3,-4.8987977E-3],"split_indices":[2,2,0,2,2,2,3,2,0,2,0,2,2,1,0,2,2,2,1,1,1,0,1,0,1,2,2,1,0,2,0,1,0,0,1,3,0,1,0,0,0,1,1,0,0,2,2,2,2,0,0,0,0,0,0,0,0,0,0,0,0,0,0,0,0,0,0,0,0,0,0,0,0,0,0,0,0,0,0,0,0,0,0,0,0,0,0,0,0,0,0,0,0],"split_type":[0,0,0,0,0,0,0,0,0,0,0,0,0,0,0,0,0,0,0,0,0,0,0,0,0,0,0,0,0,0,0,0,0,0,0,0,0,0,0,0,0,0,0,0,0,0,0,0,0,0,0,0,0,0,0,0,0,0,0,0,0,0,0,0,0,0,0,0,0,0,0,0,0,0,0,0,0,0,0,0,0,0,0,0,0,0,0,0,0,0,0,0,0],"sum_hessian":[1.377865E6,9.14584E5,4.63281E5,7.90632E5,1.23952E5,4.63186E5,9.5E1,2.44257E5,5.46375E5,1.20296E5,3.656E3,6.8383E4,3.94803E5,9.2E1,3E0,2.21919E5,2.2338E4,2.09E2,5.46166E5,9.3086E4,2.721E4,3.64E3,1.6E1,9.714E3,5.8669E4,1.60102E5,2.34701E5,9.1E1,1E0,1.84709E5,3.721E4,1.3092E4,9.246E3,1.7E2,3.9E1,3.97741E5,1.48425E5,7.2505E4,2.0581E4,1.9754E4,7.456E3,3.605E3,3.5E1,1.1E1,5E0,4.0303E4,1.8366E4,9.2934E4,6.7168E4,1.77392E5,5.7309E4,8.6E1,5E0,8.1973E4,1.02736E5,3.4982E4,2.228E3,1.084E4,2.252E3,1.13E2,5.7E1,6E0,3.3E1,3.529E5,4.4841E4,2.8107E4,1.20318E5,3.9396E4,3.3109E4,5.587E3,1.4994E4,1.606E4,3.694E3,5.787E3,1.669E3,2.891E3,7.14E2,1.1E1,2.4E1,2E0,3E0,1.3329E4,2.6974E4,9.63E2,1.7403E4,5.3876E4,3.9058E4,1.0908E4,5.626E4,1.53614E5,2.3778E4,1E0,4E0],"tree_param":{"num_deleted":"0","num_feature":"4","num_nodes":"93","size_leaf_vector":"0"}},{"base_weights":[-4.521624E-1,-3.5232493E-1,-6.4925486E-1,-4.5077747E-1,2.756564E-1,-6.5134645E-1,9.4491825E0,-6.750419E-1,-3.5051897E-1,1.8121196E-1,3.382331E0,-5.734732E-1,-6.6483325E-1,-5.022634E-1,2.3845801E2,-6.8997777E-1,-5.2663577E-1,8.623485E0,-3.530813E-1,4.1344774E-1,-6.1325765E-1,3.1315E0,5.690543E1,-6.892133E-1,-5.5429834E-1,-6.393771E-1,-6.821954E-1,-6.3431007E-1,5.8230157E0,-6.919751E-1,-6.800448E-1,-4.0830126E-1,-6.941309E-1,8.807405E0,-5.6733435E-1,-4.1328076E-1,-1.6932626E-1,2.1264885E-1,1.1207993E0,-6.2929046E-1,-5.6850034E-1,2.9811022E0,1.8109367E1,8.080187E1,-3.716921E-1,-5.191727E-1,-5.7038707E-1,-6.803719E-1,-5.8264726E-1,-6.7851686E-1,-6.9356996E-1,-6.5104455E-1,-2.859419E-1,-6.889285E-1,-6.943993E-1,-6.812216E-1,-6.6127E-1,-4.5170343E-1,-6.665512E-2,-4.819344E-1,8.87169E0,-3.9030042E-1,-5.9482723E-1,-3.9644593E-1,-4.6729162E-2,7.4541694E-3,4.5679995E-1,2.2130542E-1,1.4559277E0,-6.19325E-1,-6.666353E-1,-5.4589427E-1,-6.387938E-1,2.7221575E0,9.939463E0,4.6497845E1,3.7585251E0,-1.5801801E-1,-4.3902466E-1,-5.729598E-1,-4.9290547E-1,-5.1760185E-1,-5.8831125E-1,-6.9015366E-1,-6.6686165E-1,-3.4255E-1,-6.291917E-1,-6.797995E-1,-6.66313E-1,3.570762E-1,-4.8596075E-1],"categories":[],"categories_nodes":[],"categories_segments":[],"categories_sizes":[],"default_left":[true,true,true,true,true,true,true,true,true,true,true,true,true,true,false,true,true,true,true,true,true,true,true,false,true,true,true,true,false,true,true,true,false,true,false,true,true,true,true,true,true,true,true,false,true,true,true,true,true,true,false,false,true,false,false,false,false,false,false,false,false,false,false,false,false,false,false,false,false,false,false,false,false,false,false,false,false,false,false,false,false,false,false,false,false,false,false,false,false,false,false],"id":10,"left_children":[1,3,5,7,9,11,13,15,17,19,21,23,25,27,-1,29,31,33,35,37,39,41,43,-1,45,47,49,51,-1,53,55,57,-1,59,-1,61,63,65,67,69,71,73,75,-1,77,79,81,83,85,87,-1,-1,89,-1,-1,-1,-1,-1,-1,-1,-1,-1,-1,-1,-1,-1,-1,-1,-1,-1,-1,-1,-1,-1,-1,-1,-1,-1,-1,-1,-1,-1,-1,-1,-1,-1,-1,-1,-1,-1,-1],"loss_changes":[2.7112344E4,5.6545586E4,9.791531E3,1.7776672E4,3.6368207E4,4.8607812E2,2.1890078E5,5.410547E2,1.256657E4,2.2195562E4,4.891792E4,1.5138281E2,1.740625E2,8.1370186E1,0E0,3.9296875E0,4.4248535E2,2.686953E2,6.042203E3,1.322141E4,1.9168945E1,8.147875E3,2.3298262E4,0E0,3.2859375E1,3.719453E2,9.3515625E0,3.5017776E-1,0E0,8.90625E-1,3.7304688E-1,1.9411548E2,0E0,9.56416E1,0E0,1.7162656E3,3.7531025E3,3.6324387E3,6.204039E3,7.040039E0,1.1071777E1,6.4703438E3,1.4491584E4,0E0,1.6949594E-2,2.577295E1,3.7757812E1,1.18203125E1,7.504121E2,2.328125E0,0E0,0E0,9.452194E-1,0E0,0E0,0E0,0E0,0E0,0E0,0E0,0E0,0E0,0E0,0E0,0E0,0E0,0E0,0E0,0E0,0E0,0E0,0E0,0E0,0E0,0E0,0E0,0E0,0E0,0E0,0E0,0E0,0E0,0E0,0E0,0E0,0E0,0E0,0E0,0E0,0E0,0E0],"parents":[2147483647,0,0,1,1,2,2,3,3,4,4,5,5,6,6,7,7,8,8,9,9,10,10,11,11,12,12,13,13,15,15,16,16,17,17,18,18,19,19,20,20,21,21,22,22,24,24,25,25,26,26,27,27,29,29,30,30,31,31,33,33,35,35,36,36,37,37,38,38,39,39,40,40,41,41,42,42,44,44,45,45,46,46,47,47,48,48,49,49,52,52],"right_children":[2,4,6,8,10,12,14,16,18,20,22,24,26,28,-1,30,32,34,36,38,40,42,44,-1,46,48,50,52,-1,54,56,58,-1,60,-1,62,64,66,68,70,72,74,76,-1,78,80,82,84,86,88,-1,-1,90,-1,-1,-1,-1,-1,-1,-1,-1,-1,-1,-1,-1,-1,-1,-1,-1,-1,-1,-1,-1,-1,-1,-1,-1,-1,-1,-1,-1,-1,-1,-1,-1,-1,-1,-1,-1,-1,-1],"split_conditions":[-2.1335708E-1,-2.4124886E-1,8.975021E-1,-3.1471157E-1,-2.3024885E-1,-1.6043437E-1,3.3356614E0,-3.783649E-1,-2.0006198E-1,-2.3584569E-1,9.11126E-2,-1.9440384E-1,3.2988068E-1,3.88975E0,2.3845801E0,-4.2575818E-1,-3.5098666E-1,8.1449544E-1,-4.057534E-2,-2.2059025E-1,3.1945446E-1,5.8447875E-2,2.1944618E-1,-6.8921326E-3,-3.8583812E-1,-6.1926497E-3,1.6626587E0,1.2895348E0,5.8230154E-2,-4.721957E-1,7.6121935E-3,-1.2058197E-1,-6.9413087E-3,-2.015684E-1,-5.6733433E-3,5.1156156E-2,-2.5489086E-1,-5.306159E-1,-3.3563904E-2,8.692403E-3,1.5408084E-2,1.0395141E0,2.4430044E-2,8.080187E-1,9.9509016E-2,-1.7618838E-1,-1.8500225E-1,-1.0948087E-1,2.053602E-2,7.694525E-2,-6.9356994E-3,-6.5104454E-3,1.5120809E0,-6.8892846E-3,-6.943993E-3,-6.812216E-3,-6.6127E-3,-4.517034E-3,-6.665512E-4,-4.819344E-3,8.8716894E-2,-3.903004E-3,-5.948272E-3,-3.964459E-3,-4.6729163E-4,7.454169E-5,4.5679994E-3,2.213054E-3,1.4559277E-2,-6.1932495E-3,-6.6663525E-3,-5.4589426E-3,-6.3879383E-3,2.7221574E-2,9.939463E-2,4.6497843E-1,3.758525E-2,-1.58018E-3,-4.3902467E-3,-5.7295975E-3,-4.9290545E-3,-5.1760185E-3,-5.8831125E-3,-6.9015366E-3,-6.6686166E-3,-3.4255001E-3,-6.2919166E-3,-6.797995E-3,-6.6631297E-3,3.570762E-3,-4.859607E-3],"split_indices":[2,2,0,2,2,2,3,2,0,2,0,2,2,1,0,2,2,1,1,1,1,0,1,0,3,2,2,1,0,2,0,1,0,0,0,3,2,1,0,0,0,1,1,0,0,2,2,2,2,0,0,0,0,0,0,0,0,0,0,0,0,0,0,0,0,0,0,0,0,0,0,0,0,0,0,0,0,0,0,0,0,0,0,0,0,0,0,0,0,0,0],"split_type":[0,0,0,0,0,0,0,0,0,0,0,0,0,0,0,0,0,0,0,0,0,0,0,0,0,0,0,0,0,0,0,0,0,0,0,0,0,0,0,0,0,0,0,0,0,0,0,0,0,0,0,0,0,0,0,0,0,0,0,0,0,0,0,0,0,0,0,0,0,0,0,0,0,0,0,0,0,0,0,0,0,0,0,0,0,0,0,0,0,0,0],"sum_hessian":[1.377865E6,9.14584E5,4.63281E5,7.90632E5,1.23952E5,4.63186E5,9.5E1,2.44257E5,5.46375E5,1.20296E5,3.656E3,6.8383E4,3.94803E5,9.2E1,3E0,2.21919E5,2.2338E4,1.55E2,5.4622E5,9.3086E4,2.721E4,3.64E3,1.6E1,9.714E3,5.8669E4,1.60102E5,2.34701E5,9.1E1,1E0,1.84709E5,3.721E4,1.3092E4,9.246E3,1.52E2,3E0,4.11431E5,1.34789E5,7.2505E4,2.0581E4,2.0024E4,7.186E3,3.605E3,3.5E1,1.1E1,5E0,1.8441E4,4.0228E4,9.2934E4,6.7168E4,1.77392E5,5.7309E4,8.6E1,5E0,8.1973E4,1.02736E5,3.4982E4,2.228E3,1.1616E4,1.476E3,1E0,1.51E2,3.65206E5,4.6225E4,4.7251E4,8.7538E4,3.9396E4,3.3109E4,5.587E3,1.4994E4,1.582E4,4.204E3,5.444E3,1.742E3,3.477E3,1.28E2,1.1E1,2.4E1,2E0,3E0,6.044E3,1.2397E4,1.0205E4,3.0023E4,5.3876E4,3.9058E4,1.0908E4,5.626E4,1.60471E5,1.6921E4,1E0,4E0],"tree_param":{"num_deleted":"0","num_feature":"4","num_nodes":"91","size_leaf_vector":"0"}},{"base_weights":[-4.47638E-1,-3.488001E-1,-6.4275724E-1,-4.4626966E-1,2.7291137E-1,-6.4483315E-1,9.380055E0,-6.682916E-1,-3.4701365E-1,1.7939982E-1,3.348899E0,-5.677389E-1,-6.58185E-1,-4.966985E-1,2.3666956E2,-6.830781E-1,-5.2136993E-1,7.3206306E0,-3.4996122E-1,4.093135E-1,-6.07126E-1,3.1003578E0,5.6383556E1,-6.8232185E-1,-5.4875576E-1,-6.329835E-1,-6.7537355E-1,-6.2805176E-1,5.7939005E0,-6.8505543E-1,-6.732447E-1,-4.0421864E-1,-6.8719035E-1,8.546869E0,1.8954419E0,-4.193751E-1,-1.9325088E-1,2.1052244E-1,1.1095921E0,-6.2340856E-1,-5.63909E-1,2.9513264E0,1.7942234E1,8.006119E1,-3.6897025E-1,-5.647815E-1,-5.135596E-1,-6.735683E-1,-5.768209E-1,-6.7173177E-1,-6.8663436E-1,-6.44609E-1,-2.8329727E-1,-6.820393E-1,-6.8745536E-1,-6.7440957E-1,-6.546603E-1,-4.550201E-1,-1.1766651E-1,9.140777E0,7.5593643E0,9.9328E0,1.8494338E-1,-5.445329E-1,-3.8715017E-1,-5.177621E-1,-1.1921782E-1,7.3796273E-3,4.522321E-1,5.7768483E-2,1.3908089E0,-6.143787E-1,-6.624898E-1,-5.424866E-1,-6.378184E-1,2.2870412E0,5.6340694E0,4.6071613E1,3.7224433E0,-1.5696456E-1,-4.3573198E-1,-5.282155E-1,-5.8283E-1,-3.073638E-1,-5.2495116E-1,-6.832523E-1,-6.601932E-1,-3.391248E-1,-6.228999E-1,-6.731145E-1,-6.6059464E-1,3.5529083E-1,-4.8207304E-1],"categories":[],"categories_nodes":[],"categories_segments":[],"categories_sizes":[],"default_left":[true,true,true,true,true,true,true,true,true,true,true,true,true,true,false,true,true,true,true,true,true,true,true,false,true,true,true,true,false,true,true,true,false,true,true,true,true,true,true,true,true,true,true,false,true,true,true,true,true,true,false,false,true,false,false,false,false,false,false,false,false,false,false,false,false,false,false,false,false,false,false,false,false,false,false,false,false,false,false,false,false,false,false,false,false,false,false,false,false,false,false,false,false],"id":11,"left_children":[1,3,5,7,9,11,13,15,17,19,21,23,25,27,-1,29,31,33,35,37,39,41,43,-1,45,47,49,51,-1,53,55,57,-1,59,61,63,65,67,69,71,73,75,77,-1,79,81,83,85,87,89,-1,-1,91,-1,-1,-1,-1,-1,-1,-1,-1,-1,-1,-1,-1,-1,-1,-1,-1,-1,-1,-1,-1,-1,-1,-1,-1,-1,-1,-1,-1,-1,-1,-1,-1,-1,-1,-1,-1,-1,-1,-1,-1],"loss_changes":[2.6572156E4,5.5422086E4,9.645422E3,1.7422969E4,3.565329E4,4.7642188E2,2.1562625E5,5.3028125E2,1.2351102E4,2.175392E4,4.802917E4,1.483711E2,1.7059375E2,8.0483894E1,0E0,3.859375E0,4.3368164E2,1.3808418E3,5.9410547E3,1.2958326E4,1.8795898E1,8.0006055E3,2.2873559E4,0E0,3.2802734E1,3.6454297E2,9.1640625E0,3.4253693E-1,0E0,8.75E-1,3.6523438E-1,1.9054443E2,0E0,3.119043E1,5.4807855E2,1.5263828E3,4.0278955E3,3.560156E3,6.087879E3,6.564453E0,1.14609375E1,6.4133906E3,1.4228281E4,0E0,1.6528785E-2,2.6291016E1,4.298047E1,1.1589844E1,7.3547656E2,2.2890625E0,0E0,0E0,9.3289137E-1,0E0,0E0,0E0,0E0,0E0,0E0,0E0,0E0,0E0,0E0,0E0,0E0,0E0,0E0,0E0,0E0,0E0,0E0,0E0,0E0,0E0,0E0,0E0,0E0,0E0,0E0,0E0,0E0,0E0,0E0,0E0,0E0,0E0,0E0,0E0,0E0,0E0,0E0,0E0,0E0],"parents":[2147483647,0,0,1,1,2,2,3,3,4,4,5,5,6,6,7,7,8,8,9,9,10,10,11,11,12,12,13,13,15,15,16,16,17,17,18,18,19,19,20,20,21,21,22,22,24,24,25,25,26,26,27,27,29,29,30,30,31,31,33,33,34,34,35,35,36,36,37,37,38,38,39,39,40,40,41,41,42,42,44,44,45,45,46,46,47,47,48,48,49,49,52,52],"right_children":[2,4,6,8,10,12,14,16,18,20,22,24,26,28,-1,30,32,34,36,38,40,42,44,-1,46,48,50,52,-1,54,56,58,-1,60,62,64,66,68,70,72,74,76,78,-1,80,82,84,86,88,90,-1,-1,92,-1,-1,-1,-1,-1,-1,-1,-1,-1,-1,-1,-1,-1,-1,-1,-1,-1,-1,-1,-1,-1,-1,-1,-1,-1,-1,-1,-1,-1,-1,-1,-1,-1,-1,-1,-1,-1,-1,-1,-1],"split_conditions":[-2.1335708E-1,-2.4124886E-1,8.975021E-1,-3.1471157E-1,-2.3024885E-1,-1.6043437E-1,3.3356614E0,-3.783649E-1,-1.9679105E-1,-2.3584569E-1,9.11126E-2,-1.9440384E-1,3.2988068E-1,3.88975E0,2.3666954E0,-4.2575818E-1,-3.5098666E-1,-2.4845251E-1,-1.9058776E-1,-2.2059025E-1,2.694503E-1,5.8447875E-2,2.1944618E-1,-6.8232184E-3,2.5944948E-1,-6.1926497E-3,1.6626587E0,1.2895348E0,5.7939004E-2,-4.721957E-1,7.6121935E-3,-2.2059025E-1,-6.8719033E-3,-2.0075698E-1,-3.0559728E-1,-2.9965242E-2,-4.836326E-2,-5.306159E-1,-4.131706E-2,1.0752462E-2,1.7996144E-2,1.194379E-1,2.4430044E-2,8.0061185E-1,9.9509016E-2,-1.8500225E-1,-1.8500225E-1,-1.0948087E-1,2.053602E-2,6.6924736E-2,-6.8663433E-3,-6.4460896E-3,1.5120809E0,-6.8203933E-3,-6.8745534E-3,-6.7440956E-3,-6.5466026E-3,-4.550201E-3,-1.1766651E-3,9.140776E-2,7.559364E-2,9.9328004E-2,1.8494338E-3,-5.445329E-3,-3.8715017E-3,-5.1776213E-3,-1.1921782E-3,7.379627E-5,4.522321E-3,5.7768484E-4,1.3908089E-2,-6.143787E-3,-6.6248975E-3,-5.424866E-3,-6.3781836E-3,2.2870412E-2,5.6340694E-2,4.6071613E-1,3.7224434E-2,-1.5696455E-3,-4.35732E-3,-5.2821552E-3,-5.8283E-3,-3.073638E-3,-5.2495115E-3,-6.832523E-3,-6.601932E-3,-3.391248E-3,-6.228999E-3,-6.7311446E-3,-6.6059465E-3,3.5529083E-3,-4.82073E-3],"split_indices":[2,2,0,2,2,2,3,2,0,2,0,2,2,1,0,2,2,2,1,1,1,0,1,0,1,2,2,1,0,2,0,1,0,0,1,0,0,1,0,0,0,1,1,0,0,2,2,2,2,0,0,0,0,0,0,0,0,0,0,0,0,0,0,0,0,0,0,0,0,0,0,0,0,0,0,0,0,0,0,0,0,0,0,0,0,0,0,0,0,0,0,0,0],"split_type":[0,0,0,0,0,0,0,0,0,0,0,0,0,0,0,0,0,0,0,0,0,0,0,0,0,0,0,0,0,0,0,0,0,0,0,0,0,0,0,0,0,0,0,0,0,0,0,0,0,0,0,0,0,0,0,0,0,0,0,0,0,0,0,0,0,0,0,0,0,0,0,0,0,0,0,0,0,0,0,0,0,0,0,0,0,0,0,0,0,0,0,0,0],"sum_hessian":[1.377865E6,9.14584E5,4.63281E5,7.90632E5,1.23952E5,4.63186E5,9.5E1,2.44257E5,5.46375E5,1.20296E5,3.656E3,6.8383E4,3.94803E5,9.2E1,3E0,2.21919E5,2.2338E4,2.09E2,5.46166E5,9.3086E4,2.721E4,3.64E3,1.6E1,9.714E3,5.8669E4,1.60102E5,2.34701E5,9.1E1,1E0,1.84709E5,3.721E4,1.3092E4,9.246E3,1.7E2,3.9E1,3.78507E5,1.67659E5,7.2505E4,2.0581E4,1.9754E4,7.456E3,3.605E3,3.5E1,1.1E1,5E0,4.0303E4,1.8366E4,9.2934E4,6.7168E4,1.77392E5,5.7309E4,8.6E1,5E0,8.1973E4,1.02736E5,3.4982E4,2.228E3,1.112E4,1.972E3,1.01E2,6.9E1,6E0,3.3E1,7.7498E4,3.01009E5,3.1143E4,1.36516E5,3.9396E4,3.3109E4,4.342E3,1.6239E4,1.606E4,3.694E3,5.787E3,1.669E3,2.891E3,7.14E2,1.1E1,2.4E1,2E0,3E0,1.3329E4,2.6974E4,9.63E2,1.7403E4,5.3876E4,3.9058E4,1.0908E4,5.626E4,1.57747E5,1.9645E4,1E0,4E0],"tree_param":{"num_deleted":"0","num_feature":"4","num_nodes":"93","size_leaf_vector":"0"}},{"base_weights":[-4.4315878E-1,-3.4531036E-1,-6.363246E-1,-4.418067E-1,2.7019328E-1,-6.38385E-1,9.311431E0,-6.616089E-1,-3.4354308E-1,1.7760578E-1,3.3157852E0,-5.620619E-1,-6.516033E-1,-4.9119148E-1,2.3489453E2,-6.762475E-1,-5.1615685E-1,7.248701E0,-3.4646165E-1,4.0522057E-1,-6.010556E-1,3.0695128E0,5.5866467E1,-6.754993E-1,-5.4326856E-1,-6.266538E-1,-6.6861993E-1,-6.218551E-1,5.764931E0,-6.7820495E-1,-6.665126E-1,-4.0017688E-1,-6.8031913E-1,8.462378E0,1.8790169E0,-4.0563712E-1,-1.658133E-1,1.4257742E-1,9.2513037E-1,-6.171751E-1,-5.5827147E-1,2.921835E0,1.7776644E1,7.932729E1,-3.662684E-1,-5.084856E-1,-5.592004E-1,-6.620452E-1,-5.6324595E-1,-6.650145E-1,-6.7976815E-1,-6.3823694E-1,-2.8067562E-1,-6.75219E-1,-6.8058085E-1,-6.676657E-1,-6.481166E-1,-4.42781E-1,-6.481316E-2,9.03512E0,7.461972E0,9.847662E0,1.8314835E-1,-5.4702353E-1,-3.7582317E-1,-3.9109346E-1,-4.4175822E-2,-6.6145826E-3,3.636031E-1,1.1752336E-1,1.2007769E0,-6.082353E-1,-6.558666E-1,-5.3588223E-1,-6.2757415E-1,2.6664405E0,9.784935E0,4.5649292E1,3.686708E0,-1.5591812E-1,-4.32464E-1,-5.619401E-1,-4.8238137E-1,-5.072962E-1,-5.768255E-1,-6.761193E-1,-6.457995E-1,2.1747422E0,-6.16671E-1,-6.665744E-1,-6.552993E-1,3.5351437E-1,-4.7821647E-1],"categories":[],"categories_nodes":[],"categories_segments":[],"categories_sizes":[],"default_left":[true,true,true,true,true,true,true,true,true,true,true,true,true,true,false,true,true,true,true,true,true,true,true,false,true,true,true,true,false,true,true,true,false,true,true,true,true,true,true,true,true,true,true,false,true,true,true,true,true,true,false,false,true,false,false,false,false,false,false,false,false,false,false,false,false,false,false,false,false,false,false,false,false,false,false,false,false,false,false,false,false,false,false,false,false,false,false,false,false,false,false,false,false],"id":12,"left_children":[1,3,5,7,9,11,13,15,17,19,21,23,25,27,-1,29,31,33,35,37,39,41,43,-1,45,47,49,51,-1,53,55,57,-1,59,61,63,65,67,69,71,73,75,77,-1,79,81,83,85,87,89,-1,-1,91,-1,-1,-1,-1,-1,-1,-1,-1,-1,-1,-1,-1,-1,-1,-1,-1,-1,-1,-1,-1,-1,-1,-1,-1,-1,-1,-1,-1,-1,-1,-1,-1,-1,-1,-1,-1,-1,-1,-1,-1],"loss_changes":[2.6042781E4,5.4320836E4,9.501531E3,1.7076297E4,3.495214E4,4.6692188E2,2.1240075E5,5.1972656E2,1.2109395E4,2.1321066E4,4.7156586E4,1.4541602E2,1.6720312E2,7.960759E1,0E0,3.78125E0,4.2505176E2,1.3526816E3,5.8384297E3,1.2710967E4,1.8421875E1,7.8560117E3,2.2456586E4,0E0,3.2228516E1,3.5891016E2,8.984375E0,3.3506012E-1,0E0,8.4375E-1,3.5742188E-1,1.8704272E2,0E0,3.0558594E1,5.3874744E2,1.7339688E3,3.6929097E3,2.0393904E3,6.9547656E3,6.434082E0,1.1234131E1,6.294494E3,1.3969762E4,0E0,1.611662E-2,2.546289E1,3.650879E1,2.3054688E1,8.391512E3,2.2578125E0,0E0,0E0,9.20727E-1,0E0,0E0,0E0,0E0,0E0,0E0,0E0,0E0,0E0,0E0,0E0,0E0,0E0,0E0,0E0,0E0,0E0,0E0,0E0,0E0,0E0,0E0,0E0,0E0,0E0,0E0,0E0,0E0,0E0,0E0,0E0,0E0,0E0,0E0,0E0,0E0,0E0,0E0,0E0,0E0],"parents":[2147483647,0,0,1,1,2,2,3,3,4,4,5,5,6,6,7,7,8,8,9,9,10,10,11,11,12,12,13,13,15,15,16,16,17,17,18,18,19,19,20,20,21,21,22,22,24,24,25,25,26,26,27,27,29,29,30,30,31,31,33,33,34,34,35,35,36,36,37,37,38,38,39,39,40,40,41,41,42,42,44,44,45,45,46,46,47,47,48,48,49,49,52,52],"right_children":[2,4,6,8,10,12,14,16,18,20,22,24,26,28,-1,30,32,34,36,38,40,42,44,-1,46,48,50,52,-1,54,56,58,-1,60,62,64,66,68,70,72,74,76,78,-1,80,82,84,86,88,90,-1,-1,92,-1,-1,-1,-1,-1,-1,-1,-1,-1,-1,-1,-1,-1,-1,-1,-1,-1,-1,-1,-1,-1,-1,-1,-1,-1,-1,-1,-1,-1,-1,-1,-1,-1,-1,-1,-1,-1,-1,-1,-1],"split_conditions":[-2.1335708E-1,-2.4124886E-1,8.975021E-1,-3.1471157E-1,-2.3024885E-1,-1.6043437E-1,3.3356614E0,-3.783649E-1,-1.9679105E-1,-2.3584569E-1,9.11126E-2,-1.9440384E-1,3.2988068E-1,3.88975E0,2.3489451E0,-4.2575818E-1,-3.5098666E-1,-2.4845251E-1,-4.057534E-2,-3.6060184E-1,2.694503E-1,5.8447875E-2,2.1944618E-1,-6.754993E-3,-3.8583812E-1,1.4351449E-2,1.6626587E0,1.2895348E0,5.764931E-2,-4.721957E-1,7.6121935E-3,-1.2058197E-1,-6.8031913E-3,-2.0069829E-1,-3.0559728E-1,-3.3710934E-2,-2.5489086E-1,-5.506176E-1,-3.2160886E-2,1.0752462E-2,1.5408084E-2,1.0395141E0,2.4430044E-2,7.932729E-1,9.9509016E-2,-1.7618838E-1,-1.8500225E-1,-6.5905616E-2,2.053602E-2,5.3340487E-2,-6.797681E-3,-6.3823694E-3,1.5120809E0,-6.7521897E-3,-6.8058083E-3,-6.676657E-3,-6.4811655E-3,-4.4278097E-3,-6.481316E-4,9.03512E-2,7.461972E-2,9.847662E-2,1.8314834E-3,-5.4702354E-3,-3.7582316E-3,-3.9109346E-3,-4.4175822E-4,-6.6145825E-5,3.6360307E-3,1.1752335E-3,1.2007769E-2,-6.0823527E-3,-6.558666E-3,-5.358822E-3,-6.2757414E-3,2.6664404E-2,9.784935E-2,4.564929E-1,3.686708E-2,-1.5591811E-3,-4.32464E-3,-5.6194006E-3,-4.8238137E-3,-5.072962E-3,-5.768255E-3,-6.7611933E-3,-6.457995E-3,2.1747421E-2,-6.16671E-3,-6.665744E-3,-6.552993E-3,3.5351436E-3,-4.7821645E-3],"split_indices":[2,2,0,2,2,2,3,2,0,2,0,2,2,1,0,2,2,2,1,1,1,0,1,0,3,2,2,1,0,2,0,1,0,0,1,0,2,1,0,0,0,1,1,0,0,2,2,2,2,0,0,0,0,0,0,0,0,0,0,0,0,0,0,0,0,0,0,0,0,0,0,0,0,0,0,0,0,0,0,0,0,0,0,0,0,0,0,0,0,0,0,0,0],"split_type":[0,0,0,0,0,0,0,0,0,0,0,0,0,0,0,0,0,0,0,0,0,0,0,0,0,0,0,0,0,0,0,0,0,0,0,0,0,0,0,0,0,0,0,0,0,0,0,0,0,0,0,0,0,0,0,0,0,0,0,0,0,0,0,0,0,0,0,0,0,0,0,0,0,0,0,0,0,0,0,0,0,0,0,0,0,0,0,0,0,0,0,0,0],"sum_hessian":[1.377865E6,9.14584E5,4.63281E5,7.90632E5,1.23952E5,4.63186E5,9.5E1,2.44257E5,5.46375E5,1.20296E5,3.656E3,6.8383E4,3.94803E5,9.2E1,3E0,2.21919E5,2.2338E4,2.09E2,5.46166E5,9.3086E4,2.721E4,3.64E3,1.6E1,9.714E3,5.8669E4,1.60102E5,2.34701E5,9.1E1,1E0,1.84709E5,3.721E4,1.3092E4,9.246E3,1.7E2,3.9E1,4.11401E5,1.34765E5,6.1845E4,3.1241E4,1.9754E4,7.456E3,3.605E3,3.5E1,1.1E1,5E0,1.8441E4,4.0228E4,1.02745E5,5.7357E4,1.77392E5,5.7309E4,8.6E1,5E0,8.1973E4,1.02736E5,3.4982E4,2.228E3,1.1616E4,1.476E3,1.03E2,6.7E1,6E0,3.3E1,7.1641E4,3.3976E5,4.7251E4,8.7514E4,3.6923E4,2.4922E4,7.95E3,2.3291E4,1.606E4,3.694E3,5.642E3,1.814E3,3.477E3,1.28E2,1.1E1,2.4E1,2E0,3E0,6.044E3,1.2397E4,1.0205E4,3.0023E4,5.503E4,4.7715E4,1.097E3,5.626E4,1.52791E5,2.4601E4,1E0,4E0],"tree_param":{"num_deleted":"0","num_feature":"4","num_nodes":"93","size_leaf_vector":"0"}},{"base_weights":[-4.387243E-1,-3.418555E-1,-6.2995625E-1,-4.3738836E-1,2.6750264E-1,-6.320012E-1,9.243306E0,-6.54993E-1,-3.4010717E-1,1.7582965E-1,3.2830114E0,-5.5644166E-1,-6.450873E-1,-4.857417E-1,2.3313284E2,-6.694851E-1,-5.109958E-1,7.1774774E0,-3.4299704E-1,4.0116853E-1,-5.95046E-1,3.0389874E0,5.535412E1,-6.6874504E-1,-5.378362E-1,-6.2038726E-1,-6.619338E-1,-6.1571944E-1,5.7361064E0,-6.7142296E-1,-6.5984786E-1,-3.961755E-1,-6.735167E-1,8.378718E0,1.8627344E0,-4.1113913E-1,-1.8915792E-1,2.0574787E-1,1.0895745E0,-6.1060894E-1,-5.5160034E-1,2.892651E0,1.7612581E1,7.860013E1,-3.6358634E-1,-5.5372226E-1,-5.029471E-1,-6.5542483E-1,-5.576132E-1,-6.583644E-1,-6.729706E-1,-6.3192797E-1,-2.7807668E-1,-6.6846687E-1,-6.7377514E-1,-6.5027016E-1,-6.6206664E-1,-4.502223E-1,-1.3593689E-1,8.901736E0,7.3156433E0,9.763253E0,1.8137076E-1,-5.339423E-1,-3.7952048E-1,-5.1101923E-1,-1.1572943E-1,7.139586E-3,4.4206214E-1,5.6015976E-2,1.3659078E0,-5.99808E-1,-6.431802E-1,-5.308292E-1,-6.237408E-1,2.2375233E0,5.538437E0,4.523084E1,3.6513155E0,-1.5487868E-1,-4.292205E-1,-5.177044E-1,-5.715003E-1,-2.990766E-1,-5.1421046E-1,-6.6935825E-1,-6.3934165E-1,2.1530147E0,-6.105044E-1,-6.598784E-1,-6.485564E-1,3.517468E-1,-4.7439072E-1],"categories":[],"categories_nodes":[],"categories_segments":[],"categories_sizes":[],"default_left":[true,true,true,true,true,true,true,true,true,true,true,true,true,true,false,true,true,true,true,true,true,true,true,false,true,true,true,true,false,true,true,true,false,true,true,true,true,true,true,true,true,true,true,false,true,true,true,true,true,true,false,false,true,false,false,false,false,false,false,false,false,false,false,false,false,false,false,false,false,false,false,false,false,false,false,false,false,false,false,false,false,false,false,false,false,false,false,false,false,false,false,false,false],"id":13,"left_children":[1,3,5,7,9,11,13,15,17,19,21,23,25,27,-1,29,31,33,35,37,39,41,43,-1,45,47,49,51,-1,53,55,57,-1,59,61,63,65,67,69,71,73,75,77,-1,79,81,83,85,87,89,-1,-1,91,-1,-1,-1,-1,-1,-1,-1,-1,-1,-1,-1,-1,-1,-1,-1,-1,-1,-1,-1,-1,-1,-1,-1,-1,-1,-1,-1,-1,-1,-1,-1,-1,-1,-1,-1,-1,-1,-1,-1,-1],"loss_changes":[2.5523938E4,5.3241508E4,9.359734E3,1.6736562E4,3.426507E4,4.5764062E2,2.092235E5,5.093828E2,1.1872402E4,2.089682E4,4.629984E4,1.4252734E2,1.63875E2,7.8741104E1,0E0,3.703125E0,4.1659424E2,1.3250928E3,5.7253438E3,1.2522653E4,1.8061523E1,7.7140117E3,2.2047223E4,0E0,3.223828E1,3.5177734E2,8.8046875E0,3.277588E-1,0E0,8.359375E-1,3.6035156E-1,1.8409277E2,0E0,2.9955078E1,5.295751E2,1.4694922E3,3.9623828E3,3.4029915E3,5.8782793E3,6.6586914E0,1.0437988E1,6.23799E3,1.3715938E4,0E0,1.5712976E-2,2.5511719E1,4.2021484E1,2.259375E1,8.224635E3,2.2109375E0,0E0,0E0,9.0872467E-1,0E0,0E0,0E0,0E0,0E0,0E0,0E0,0E0,0E0,0E0,0E0,0E0,0E0,0E0,0E0,0E0,0E0,0E0,0E0,0E0,0E0,0E0,0E0,0E0,0E0,0E0,0E0,0E0,0E0,0E0,0E0,0E0,0E0,0E0,0E0,0E0,0E0,0E0,0E0,0E0],"parents":[2147483647,0,0,1,1,2,2,3,3,4,4,5,5,6,6,7,7,8,8,9,9,10,10,11,11,12,12,13,13,15,15,16,16,17,17,18,18,19,19,20,20,21,21,22,22,24,24,25,25,26,26,27,27,29,29,30,30,31,31,33,33,34,34,35,35,36,36,37,37,38,38,39,39,40,40,41,41,42,42,44,44,45,45,46,46,47,47,48,48,49,49,52,52],"right_children":[2,4,6,8,10,12,14,16,18,20,22,24,26,28,-1,30,32,34,36,38,40,42,44,-1,46,48,50,52,-1,54,56,58,-1,60,62,64,66,68,70,72,74,76,78,-1,80,82,84,86,88,90,-1,-1,92,-1,-1,-1,-1,-1,-1,-1,-1,-1,-1,-1,-1,-1,-1,-1,-1,-1,-1,-1,-1,-1,-1,-1,-1,-1,-1,-1,-1,-1,-1,-1,-1,-1,-1,-1,-1,-1,-1,-1,-1],"split_conditions":[-2.1335708E-1,-2.4124886E-1,8.975021E-1,-3.1471157E-1,-2.3024885E-1,-1.6043437E-1,3.3356614E0,-3.783649E-1,-1.9679105E-1,-2.3584569E-1,9.11126E-2,-1.9440384E-1,3.2988068E-1,3.88975E0,2.3313284E0,-4.2575818E-1,-3.5098666E-1,-2.4845251E-1,-1.9058776E-1,-2.2059025E-1,3.1945446E-1,5.8447875E-2,2.1944618E-1,-6.68745E-3,2.5944948E-1,1.4351449E-2,1.6626587E0,1.2895348E0,5.7361063E-2,-4.721957E-1,-1.8519994E-2,-2.405919E-1,-6.7351665E-3,-2.006678E-1,-3.0559728E-1,-2.9965242E-2,-4.836326E-2,-5.306159E-1,-4.131706E-2,5.238554E-3,1.7996144E-2,1.194379E-1,2.4430044E-2,7.8600127E-1,9.9509016E-2,-1.8500225E-1,-1.8500225E-1,-6.5905616E-2,2.053602E-2,5.5195928E-2,-6.7297057E-3,-6.3192793E-3,1.5120809E0,-6.6846684E-3,-6.7377514E-3,-6.5027014E-3,-6.620666E-3,-4.502223E-3,-1.3593688E-3,8.901736E-2,7.315643E-2,9.763253E-2,1.8137076E-3,-5.3394227E-3,-3.7952047E-3,-5.110192E-3,-1.1572943E-3,7.139586E-5,4.4206213E-3,5.6015974E-4,1.3659078E-2,-5.9980797E-3,-6.4318017E-3,-5.308292E-3,-6.2374077E-3,2.2375233E-2,5.5384368E-2,4.523084E-1,3.6513153E-2,-1.5487868E-3,-4.292205E-3,-5.1770443E-3,-5.715003E-3,-2.9907657E-3,-5.1421043E-3,-6.6935825E-3,-6.3934163E-3,2.1530146E-2,-6.105044E-3,-6.5987837E-3,-6.485564E-3,3.517468E-3,-4.743907E-3],"split_indices":[2,2,0,2,2,2,3,2,0,2,0,2,2,1,0,2,2,2,1,1,1,0,1,0,1,2,2,1,0,2,0,1,0,0,1,0,0,1,0,0,0,1,1,0,0,2,2,2,2,0,0,0,0,0,0,0,0,0,0,0,0,0,0,0,0,0,0,0,0,0,0,0,0,0,0,0,0,0,0,0,0,0,0,0,0,0,0,0,0,0,0,0,0],"split_type":[0,0,0,0,0,0,0,0,0,0,0,0,0,0,0,0,0,0,0,0,0,0,0,0,0,0,0,0,0,0,0,0,0,0,0,0,0,0,0,0,0,0,0,0,0,0,0,0,0,0,0,0,0,0,0,0,0,0,0,0,0,0,0,0,0,0,0,0,0,0,0,0,0,0,0,0,0,0,0,0,0,0,0,0,0,0,0,0,0,0,0,0,0],"sum_hessian":[1.377865E6,9.14584E5,4.63281E5,7.90632E5,1.23952E5,4.63186E5,9.5E1,2.44257E5,5.46375E5,1.20296E5,3.656E3,6.8383E4,3.94803E5,9.2E1,3E0,2.21919E5,2.2338E4,2.09E2,5.46166E5,9.3086E4,2.721E4,3.64E3,1.6E1,9.714E3,5.8669E4,1.60102E5,2.34701E5,9.1E1,1E0,1.84709E5,3.721E4,1.3092E4,9.246E3,1.7E2,3.9E1,3.78507E5,1.67659E5,7.2505E4,2.0581E4,2.0024E4,7.186E3,3.605E3,3.5E1,1.1E1,5E0,4.0303E4,1.8366E4,1.02745E5,5.7357E4,1.77392E5,5.7309E4,8.6E1,5E0,8.1973E4,1.02736E5,7.054E3,3.0156E4,1.084E4,2.252E3,1.09E2,6.1E1,6E0,3.3E1,7.7498E4,3.01009E5,3.1143E4,1.36516E5,3.9396E4,3.3109E4,4.342E3,1.6239E4,1.5052E4,4.972E3,5.586E3,1.6E3,2.891E3,7.14E2,1.1E1,2.4E1,2E0,3E0,1.3329E4,2.6974E4,9.63E2,1.7403E4,5.503E4,4.7715E4,1.097E3,5.626E4,1.53614E5,2.3778E4,1E0,4E0],"tree_param":{"num_deleted":"0","num_feature":"4","num_nodes":"93","size_leaf_vector":"0"}},{"base_weights":[-4.3433425E-1,-3.3843526E-1,-6.236517E-1,-4.330142E-1,2.6483843E-1,-6.2568134E-1,9.175676E0,-5.910033E-1,-3.016194E-1,1.7407131E-1,3.2505498E0,-5.5087763E-1,-6.3863647E-1,-4.8034862E-1,2.3138434E2,-6.627904E-1,-4.7477123E-1,7.1069484E0,-3.052248E-1,3.9715704E-1,-5.8909637E-1,3.008753E0,5.484647E1,-6.620583E-1,-5.324582E-1,-6.1418337E-1,-6.5531456E-1,-6.096443E-1,5.707426E0,-6.6470885E-1,-6.5324974E-1,-5.4900163E-1,-4.1934633E-1,8.29588E0,1.8465931E0,-3.7637064E-1,-5.6639545E-2,2.0369044E-1,1.0786793E0,-6.04899E-1,-5.4715335E-1,2.8637462E0,1.7450035E1,7.787963E1,-3.6092398E-1,-5.652291E-1,-5.157275E-1,-6.488707E-1,-5.520368E-1,-6.5178084E-1,-6.6624105E-1,-6.256813E-1,-2.7550033E-1,-6.617823E-1,-6.670374E-1,-6.5439254E-1,-6.350207E-1,3.4025953E0,-5.493295E-1,-3.841674E-1,-5.129048E-1,8.872655E0,7.336923E0,9.679567E0,1.7961039E-1,-5.3256506E-1,-3.297078E-1,-4.900869E-1,9.901769E-2,7.0681833E-3,4.3764162E-1,2.1089168E-1,1.4019951E0,-5.9612346E-1,-6.428797E-1,-5.2519166E-1,-6.1513287E-1,2.6118534E0,9.632889E0,4.4816223E1,3.6162627E0,-1.5384614E-1,-4.2600137E-1,-5.665873E-1,1.0501435E0,-4.01014E-1,-5.3169394E-1,-6.6266483E-1,-6.329484E-1,2.131504E0,-6.043995E-1,-6.530198E-1,-6.399944E-1,3.4998807E-1,-4.7059563E-1],"categories":[],"categories_nodes":[],"categories_segments":[],"categories_sizes":[],"default_left":[true,true,true,true,true,true,true,true,true,true,true,true,true,true,false,true,true,true,true,true,true,true,true,false,true,true,true,true,false,true,true,true,true,true,true,true,true,true,true,true,true,true,true,false,true,true,true,true,true,true,false,false,true,false,false,false,false,false,false,false,false,false,false,false,false,false,false,false,false,false,false,false,false,false,false,false,false,false,false,false,false,false,false,false,false,false,false,false,false,false,false,false,false,false,false],"id":14,"left_children":[1,3,5,7,9,11,13,15,17,19,21,23,25,27,-1,29,31,33,35,37,39,41,43,-1,45,47,49,51,-1,53,55,57,59,61,63,65,67,69,71,73,75,77,79,-1,81,83,85,87,89,91,-1,-1,93,-1,-1,-1,-1,-1,-1,-1,-1,-1,-1,-1,-1,-1,-1,-1,-1,-1,-1,-1,-1,-1,-1,-1,-1,-1,-1,-1,-1,-1,-1,-1,-1,-1,-1,-1,-1,-1,-1,-1,-1,-1,-1],"loss_changes":[2.5015438E4,5.2183594E4,9.220094E3,1.6412516E4,3.359124E4,4.4853125E2,2.0609377E5,2.9950547E3,1.1531766E4,2.048102E4,4.5458668E4,1.396914E2,1.6060938E2,7.788438E1,0E0,3.625E0,5.6369336E2,1.2980635E3,7.630324E3,1.2273469E4,1.7705078E1,7.5745938E3,2.1645316E4,0E0,3.1876953E1,3.4477734E2,8.625E0,3.206215E-1,0E0,8.203125E-1,3.59375E-1,7.778125E1,2.5809668E2,2.9482422E1,5.2055884E2,2.4446367E3,6.4773633E3,3.3352734E3,5.774383E3,6.201172E0,1.0809814E1,6.123424E3,1.3466727E4,0E0,1.5317798E-2,4.407715E1,7.094629E1,2.2144531E1,8.061084E3,2.171875E0,0E0,0E0,8.9688194E-1,0E0,0E0,0E0,0E0,0E0,0E0,0E0,0E0,0E0,0E0,0E0,0E0,0E0,0E0,0E0,0E0,0E0,0E0,0E0,0E0,0E0,0E0,0E0,0E0,0E0,0E0,0E0,0E0,0E0,0E0,0E0,0E0,0E0,0E0,0E0,0E0,0E0,0E0,0E0,0E0,0E0,0E0],"parents":[2147483647,0,0,1,1,2,2,3,3,4,4,5,5,6,6,7,7,8,8,9,9,10,10,11,11,12,12,13,13,15,15,16,16,17,17,18,18,19,19,20,20,21,21,22,22,24,24,25,25,26,26,27,27,29,29,30,30,31,31,32,32,33,33,34,34,35,35,36,36,37,37,38,38,39,39,40,40,41,41,42,42,44,44,45,45,46,46,47,47,48,48,49,49,52,52],"right_children":[2,4,6,8,10,12,14,16,18,20,22,24,26,28,-1,30,32,34,36,38,40,42,44,-1,46,48,50,52,-1,54,56,58,60,62,64,66,68,70,72,74,76,78,80,-1,82,84,86,88,90,92,-1,-1,94,-1,-1,-1,-1,-1,-1,-1,-1,-1,-1,-1,-1,-1,-1,-1,-1,-1,-1,-1,-1,-1,-1,-1,-1,-1,-1,-1,-1,-1,-1,-1,-1,-1,-1,-1,-1,-1,-1,-1,-1,-1,-1],"split_conditions":[-2.1335708E-1,-2.4124886E-1,8.975021E-1,-3.021028E-1,-2.3024885E-1,-1.6043437E-1,3.3356614E0,-3.783649E-1,-1.9679105E-1,-2.3584569E-1,9.11126E-2,-1.9440384E-1,3.2988068E-1,3.88975E0,2.3138433E0,-4.2575818E-1,-4.0060514E-1,-2.4845251E-1,-9.057948E-2,-2.2059025E-1,2.694503E-1,5.8447875E-2,2.1944618E-1,-6.6205827E-3,-3.806035E-1,1.4351449E-2,1.6626587E0,1.2895348E0,5.707426E-2,-4.721957E-1,7.6121935E-3,-1.19199395E-1,4.454527E-3,-2.0075698E-1,-3.0559728E-1,-2.9965242E-2,-4.76886E-2,-5.306159E-1,-3.3563904E-2,1.0752462E-2,1.5408084E-2,1.0395141E0,2.4430044E-2,7.787963E-1,9.9509016E-2,7.758731E-2,-1.8500225E-1,-6.5905616E-2,2.053602E-2,7.6944E-2,-6.66241E-3,-6.2568127E-3,1.5120809E0,-6.617823E-3,-6.670374E-3,-6.543925E-3,-6.3502067E-3,3.4025952E-2,-5.493295E-3,-3.841674E-3,-5.129048E-3,8.872655E-2,7.336923E-2,9.679567E-2,1.7961038E-3,-5.3256503E-3,-3.297078E-3,-4.900869E-3,9.901768E-4,7.068183E-5,4.376416E-3,2.1089166E-3,1.401995E-2,-5.961234E-3,-6.4287973E-3,-5.2519166E-3,-6.1513283E-3,2.6118534E-2,9.6328884E-2,4.4816223E-1,3.6162626E-2,-1.5384614E-3,-4.260014E-3,-5.665873E-3,1.0501435E-2,-4.01014E-3,-5.316939E-3,-6.6266484E-3,-6.329484E-3,2.131504E-2,-6.043995E-3,-6.530198E-3,-6.3999435E-3,3.4998807E-3,-4.705956E-3],"split_indices":[2,2,0,2,2,2,3,2,0,2,0,2,2,1,0,2,1,2,1,1,1,0,1,0,1,2,2,1,0,2,0,0,0,0,1,0,0,1,0,0,0,1,1,0,0,0,2,2,2,0,0,0,0,0,0,0,0,0,0,0,0,0,0,0,0,0,0,0,0,0,0,0,0,0,0,0,0,0,0,0,0,0,0,0,0,0,0,0,0,0,0,0,0,0,0],"split_type":[0,0,0,0,0,0,0,0,0,0,0,0,0,0,0,0,0,0,0,0,0,0,0,0,0,0,0,0,0,0,0,0,0,0,0,0,0,0,0,0,0,0,0,0,0,0,0,0,0,0,0,0,0,0,0,0,0,0,0,0,0,0,0,0,0,0,0,0,0,0,0,0,0,0,0,0,0,0,0,0,0,0,0,0,0,0,0,0,0,0,0,0,0,0,0],"sum_hessian":[1.377865E6,9.14584E5,4.63281E5,7.90632E5,1.23952E5,4.63186E5,9.5E1,3.58985E5,4.31647E5,1.20296E5,3.656E3,6.8383E4,3.94803E5,9.2E1,3E0,2.21919E5,1.37066E5,2.09E2,4.31438E5,9.3086E4,2.721E4,3.64E3,1.6E1,9.714E3,5.8669E4,1.60102E5,2.34701E5,9.1E1,1E0,1.84709E5,3.721E4,5.8589E4,7.8477E4,1.7E2,3.9E1,3.35435E5,9.6003E4,7.2505E4,2.0581E4,1.9754E4,7.456E3,3.605E3,3.5E1,1.1E1,5E0,1.9818E4,3.8851E4,1.02745E5,5.7357E4,1.77392E5,5.7309E4,8.6E1,5E0,8.1973E4,1.02736E5,3.4982E4,2.228E3,4E0,5.8585E4,5.7036E4,2.1441E4,1.01E2,6.9E1,6E0,3.3E1,7.7157E4,2.58278E5,2.5366E4,7.0637E4,3.9396E4,3.3109E4,5.587E3,1.4994E4,1.606E4,3.694E3,5.642E3,1.814E3,3.477E3,1.28E2,1.1E1,2.4E1,2E0,3E0,1.9802E4,1.6E1,4.75E3,3.4101E4,5.503E4,4.7715E4,1.097E3,5.626E4,1.6047E5,1.6922E4,1E0,4E0],"tree_param":{"num_deleted":"0","num_feature":"4","num_nodes":"95","size_leaf_vector":"0"}},{"base_weights":[-4.2998806E-1,-3.3504915E-1,-6.174101E-1,-4.2868376E-1,2.6220113E-1,-6.194246E-1,9.108539E0,-5.850933E-1,-2.9860264E-1,1.7233056E-1,3.2184215E0,-5.45369E-1,-6.322502E-1,-4.7501168E-1,2.2964896E2,-6.561626E-1,-4.7002336E-1,8.214902E0,-3.0167988E-1,3.9318568E-1,-5.832063E-1,2.9788322E0,5.4343475E1,-6.5543836E-1,-5.2713364E-1,-6.080415E-1,-6.487615E-1,-6.0362893E-1,5.678889E0,-6.580618E-1,-6.4671755E-1,-5.4351115E-1,-4.15153E-1,8.390842E0,-5.6854737E-1,-3.7202734E-1,-5.5926986E-2,2.016536E-1,1.0678934E0,-5.9846264E-1,-5.4061675E-1,2.6526284E0,9.273048E0,7.716573E1,-3.5828114E-1,-4.926677E-1,-5.4292065E-1,-6.4711887E-1,-5.539651E-1,-6.4526314E-1,-6.5957874E-1,-6.194964E-1,-2.7294633E-1,-6.551646E-1,-6.6036713E-1,-6.372254E-1,-6.489168E-1,3.3753743E0,-5.438363E-1,-3.803258E-1,-5.07776E-1,-5.299417E-1,8.453018E0,-5.246623E-1,-3.2641074E-1,-4.842108E-1,9.802752E-2,6.9974926E-3,4.3326536E-1,5.3347483E-2,1.3391436E0,-5.878581E-1,-6.304417E-1,-5.20248E-1,-6.113598E-1,2.0373392E0,5.3949256E0,2.8010015E1,5.613147E0,-1.528205E-1,-4.2280635E-1,-5.458972E-1,-4.6667445E-1,-4.9211982E-1,-5.601712E-1,-6.563389E-1,-6.3438445E-1,-3.2497898E-1,-5.983556E-1,-6.464896E-1,-6.335948E-1,3.4823814E-1,-4.6683085E-1],"categories":[],"categories_nodes":[],"categories_segments":[],"categories_sizes":[],"default_left":[true,true,true,true,true,true,true,true,true,true,true,true,true,true,false,true,true,true,true,true,true,true,true,false,true,true,true,true,false,true,true,true,true,true,false,true,true,true,true,true,true,true,true,false,true,true,true,true,true,true,false,false,true,false,false,false,false,false,false,false,false,false,false,false,false,false,false,false,false,false,false,false,false,false,false,false,false,false,false,false,false,false,false,false,false,false,false,false,false,false,false,false,false],"id":15,"left_children":[1,3,5,7,9,11,13,15,17,19,21,23,25,27,-1,29,31,33,35,37,39,41,43,-1,45,47,49,51,-1,53,55,57,59,61,-1,63,65,67,69,71,73,75,77,-1,79,81,83,85,87,89,-1,-1,91,-1,-1,-1,-1,-1,-1,-1,-1,-1,-1,-1,-1,-1,-1,-1,-1,-1,-1,-1,-1,-1,-1,-1,-1,-1,-1,-1,-1,-1,-1,-1,-1,-1,-1,-1,-1,-1,-1,-1,-1],"loss_changes":[2.4517047E4,5.1146742E4,9.082531E3,1.6085984E4,3.293093E4,4.3960938E2,2.0301088E5,2.9354531E3,1.1310836E4,2.0073492E4,4.4632758E4,1.3691211E2,1.5740625E2,7.703725E1,0E0,3.5546875E0,5.524707E2,2.4584668E2,7.459668E3,1.2029248E4,1.7356445E1,7.451092E3,2.1250746E4,0E0,3.1655273E1,3.3796484E2,8.4609375E0,3.136444E-1,0E0,8.046875E-1,3.642578E-1,7.649805E1,2.5296094E2,8.934277E1,0E0,2.3355664E3,6.331837E3,3.2689043E3,5.664008E3,6.4208984E0,1.0038086E1,5.8321504E3,1.2117783E4,0E0,1.4930904E-2,2.5261719E1,3.4979492E1,1.0496094E1,6.825664E2,2.1328125E0,0E0,0E0,8.851966E-1,0E0,0E0,0E0,0E0,0E0,0E0,0E0,0E0,0E0,0E0,0E0,0E0,0E0,0E0,0E0,0E0,0E0,0E0,0E0,0E0,0E0,0E0,0E0,0E0,0E0,0E0,0E0,0E0,0E0,0E0,0E0,0E0,0E0,0E0,0E0,0E0,0E0,0E0,0E0,0E0],"parents":[2147483647,0,0,1,1,2,2,3,3,4,4,5,5,6,6,7,7,8,8,9,9,10,10,11,11,12,12,13,13,15,15,16,16,17,17,18,18,19,19,20,20,21,21,22,22,24,24,25,25,26,26,27,27,29,29,30,30,31,31,32,32,33,33,35,35,36,36,37,37,38,38,39,39,40,40,41,41,42,42,44,44,45,45,46,46,47,47,48,48,49,49,52,52],"right_children":[2,4,6,8,10,12,14,16,18,20,22,24,26,28,-1,30,32,34,36,38,40,42,44,-1,46,48,50,52,-1,54,56,58,60,62,-1,64,66,68,70,72,74,76,78,-1,80,82,84,86,88,90,-1,-1,92,-1,-1,-1,-1,-1,-1,-1,-1,-1,-1,-1,-1,-1,-1,-1,-1,-1,-1,-1,-1,-1,-1,-1,-1,-1,-1,-1,-1,-1,-1,-1,-1,-1,-1,-1,-1,-1,-1,-1,-1],"split_conditions":[-2.1335708E-1,-2.4124886E-1,8.975021E-1,-3.021028E-1,-2.3024885E-1,-1.6043437E-1,3.3356614E0,-3.783649E-1,-2.0006198E-1,-2.3584569E-1,9.11126E-2,-1.9440384E-1,3.2988068E-1,3.88975E0,2.2964895E0,-4.2575818E-1,-4.0060514E-1,8.1449544E-1,-9.057948E-2,-2.2059025E-1,3.1945446E-1,2.042855E-2,2.1944618E-1,-6.5543833E-3,-3.8583812E-1,-6.1926497E-3,1.6626587E0,1.2895348E0,5.6788888E-2,-4.721957E-1,-1.8519994E-2,-1.19199395E-1,4.454527E-3,-6.1138356E-1,-5.6854733E-3,-2.9965242E-2,-4.76886E-2,-5.306159E-1,-4.131706E-2,5.238554E-3,1.7996144E-2,1.194379E-1,-6.106225E-1,7.716573E-1,9.9509016E-2,-1.7618838E-1,-1.8500225E-1,-1.0948087E-1,2.053602E-2,7.6944E-2,-6.595787E-3,-6.194964E-3,1.5120809E0,-6.5516457E-3,-6.6036712E-3,-6.372254E-3,-6.4891675E-3,3.375374E-2,-5.4383627E-3,-3.8032578E-3,-5.07776E-3,-5.299417E-3,8.453018E-2,-5.246623E-3,-3.2641073E-3,-4.8421076E-3,9.802752E-4,6.997492E-5,4.3326537E-3,5.3347484E-4,1.3391436E-2,-5.8785807E-3,-6.3044173E-3,-5.2024797E-3,-6.1135977E-3,2.0373391E-2,5.3949255E-2,2.8010014E-1,5.6131467E-2,-1.528205E-3,-4.2280634E-3,-5.458972E-3,-4.6667443E-3,-4.921198E-3,-5.6017116E-3,-6.5633887E-3,-6.3438443E-3,-3.2497896E-3,-5.9835557E-3,-6.4648963E-3,-6.335948E-3,3.4823813E-3,-4.6683084E-3],"split_indices":[2,2,0,2,2,2,3,2,0,2,0,2,2,1,0,2,1,1,1,1,1,0,1,0,3,2,2,1,0,2,0,0,0,3,0,0,0,1,0,0,0,1,1,0,0,2,2,2,2,0,0,0,0,0,0,0,0,0,0,0,0,0,0,0,0,0,0,0,0,0,0,0,0,0,0,0,0,0,0,0,0,0,0,0,0,0,0,0,0,0,0,0,0],"split_type":[0,0,0,0,0,0,0,0,0,0,0,0,0,0,0,0,0,0,0,0,0,0,0,0,0,0,0,0,0,0,0,0,0,0,0,0,0,0,0,0,0,0,0,0,0,0,0,0,0,0,0,0,0,0,0,0,0,0,0,0,0,0,0,0,0,0,0,0,0,0,0,0,0,0,0,0,0,0,0,0,0,0,0,0,0,0,0,0,0,0,0,0,0],"sum_hessian":[1.377865E6,9.14584E5,4.63281E5,7.90632E5,1.23952E5,4.63186E5,9.5E1,3.58985E5,4.31647E5,1.20296E5,3.656E3,6.8383E4,3.94803E5,9.2E1,3E0,2.21919E5,1.37066E5,1.55E2,4.31492E5,9.3086E4,2.721E4,3.64E3,1.6E1,9.714E3,5.8669E4,1.60102E5,2.34701E5,9.1E1,1E0,1.84709E5,3.721E4,5.8589E4,7.8477E4,1.52E2,3E0,3.35464E5,9.6028E4,7.2505E4,2.0581E4,2.0024E4,7.186E3,3.462E3,1.78E2,1.1E1,5E0,1.8441E4,4.0228E4,9.2934E4,6.7168E4,1.77392E5,5.7309E4,8.6E1,5E0,8.1973E4,1.02736E5,7.054E3,3.0156E4,4E0,5.8585E4,5.7036E4,2.1441E4,1E0,1.51E2,7.7186E4,2.58278E5,2.5391E4,7.0637E4,3.9396E4,3.3109E4,4.342E3,1.6239E4,1.5052E4,4.972E3,5.586E3,1.6E3,2.829E3,6.33E2,2.8E1,1.5E2,2E0,3E0,6.044E3,1.2397E4,1.0205E4,3.0023E4,5.3876E4,3.9058E4,1.0908E4,5.626E4,1.6047E5,1.6922E4,1E0,4E0],"tree_param":{"num_deleted":"0","num_feature":"4","num_nodes":"93","size_leaf_vector":"0"}},{"base_weights":[-4.256856E-1,-3.3169731E-1,-6.112311E-1,-4.2439687E-1,2.5958857E-1,-6.1323047E-1,9.041889E0,-5.792424E-1,-2.9561648E-1,1.7060721E-1,3.186559E0,-5.3991574E-1,-6.2592775E-1,-4.697303E-1,2.2792657E2,-6.496011E-1,-4.65323E-1,6.9777465E0,-2.9915607E-1,3.8925403E-1,-5.773751E-1,2.9491568E0,5.3845093E1,-6.4888465E-1,-5.218627E-1,-6.0196126E-1,-6.4227396E-1,-5.976729E-1,5.650494E0,-6.514813E-1,-6.4025074E-1,-5.3807557E-1,-4.110016E-1,8.145054E0,1.8130649E0,-3.6888683E-1,-5.551509E-2,1.520223E-1,9.234013E-1,-5.92867E-1,-5.362567E-1,2.8062208E0,1.7184645E1,7.645838E1,-3.5565773E-1,-5.37575E-1,-4.8735568E-1,-6.3621867E-1,-5.40585E-1,-6.388106E-1,-6.5298307E-1,-6.133726E-1,-2.7041453E-1,-6.48613E-1,-6.5376353E-1,-6.413834E-1,-6.22187E-1,3.3483715E0,-5.38398E-1,-3.765226E-1,-5.0269854E-1,8.701097E0,7.218461E0,9.536971E0,1.6952355E-1,-5.219929E-1,-3.2314664E-1,-4.803443E-1,9.704725E-2,-6.7605157E-3,3.6492658E-1,1.3401222E-1,1.2023475E0,-5.842528E-1,-6.301499E-1,-5.1584923E-1,-6.066649E-1,2.5577574E0,9.483353E0,4.4204643E1,3.5276606E0,-1.518017E-1,-4.1963533E-1,-5.02271E-1,-5.5500096E-1,-2.8702015E-1,-4.9842417E-1,-6.494796E-1,-6.209115E-1,2.1134553E0,-5.923721E-1,-6.4031565E-1,-6.2943953E-1,3.4649694E-1,-4.630962E-1],"categories":[],"categories_nodes":[],"categories_segments":[],"categories_sizes":[],"default_left":[true,true,true,true,true,true,true,true,true,true,true,true,true,true,false,true,true,true,true,true,true,true,true,false,true,true,true,true,false,true,true,true,true,true,true,true,true,true,true,true,true,true,true,false,true,true,true,true,true,true,false,false,true,false,false,false,false,false,false,false,false,false,false,false,false,false,false,false,false,false,false,false,false,false,false,false,false,false,false,false,false,false,false,false,false,false,false,false,false,false,false,false,false,false,false],"id":16,"left_children":[1,3,5,7,9,11,13,15,17,19,21,23,25,27,-1,29,31,33,35,37,39,41,43,-1,45,47,49,51,-1,53,55,57,59,61,63,65,67,69,71,73,75,77,79,-1,81,83,85,87,89,91,-1,-1,93,-1,-1,-1,-1,-1,-1,-1,-1,-1,-1,-1,-1,-1,-1,-1,-1,-1,-1,-1,-1,-1,-1,-1,-1,-1,-1,-1,-1,-1,-1,-1,-1,-1,-1,-1,-1,-1,-1,-1,-1,-1,-1],"loss_changes":[2.4028562E4,5.013028E4,8.947016E3,1.5765891E4,3.2282498E4,4.3084375E2,1.9997406E5,2.8770469E3,1.1114695E4,1.9674072E4,4.382193E4,1.341875E2,1.5428125E2,7.619962E1,0E0,3.484375E0,5.4147266E2,1.2512744E3,7.3298125E3,1.1795536E4,1.7014648E1,7.360342E3,2.086336E4,0E0,3.1547852E1,3.3628906E2,8.2890625E0,3.0681992E-1,0E0,7.890625E-1,3.623047E-1,7.5240234E1,2.4792773E2,2.5294922E1,5.0616565E2,2.3489258E3,6.222348E3,2.1791074E3,6.3036406E3,5.9765625E0,1.0401611E1,5.9581836E3,1.312848E4,0E0,1.4551938E-2,2.4516602E1,4.0583984E1,2.0453125E1,7.88483E3,2.1015625E0,0E0,0E0,8.7366676E-1,0E0,0E0,0E0,0E0,0E0,0E0,0E0,0E0,0E0,0E0,0E0,0E0,0E0,0E0,0E0,0E0,0E0,0E0,0E0,0E0,0E0,0E0,0E0,0E0,0E0,0E0,0E0,0E0,0E0,0E0,0E0,0E0,0E0,0E0,0E0,0E0,0E0,0E0,0E0,0E0,0E0,0E0],"parents":[2147483647,0,0,1,1,2,2,3,3,4,4,5,5,6,6,7,7,8,8,9,9,10,10,11,11,12,12,13,13,15,15,16,16,17,17,18,18,19,19,20,20,21,21,22,22,24,24,25,25,26,26,27,