{"learner":{"attributes":{"best_iteration":"0","best_msg":"[0]\tvalidation_0-rmse:1.11776","best_ntree_limit":"1","best_score":"1.117762","scikit_learn":"{\"n_estimators\": 100, \"objective\": \"reg:squarederror\", \"max_depth\": null, \"learning_rate\": null, \"verbosity\": null, \"booster\": null, \"tree_method\": null, \"gamma\": null, \"min_child_weight\": null, \"max_delta_step\": null, \"subsample\": null, \"colsample_bytree\": null, \"colsample_bylevel\": null, \"colsample_bynode\": null, \"reg_alpha\": null, \"reg_lambda\": null, \"scale_pos_weight\": null, \"base_score\": null, \"missing\": NaN, \"num_parallel_tree\": null, \"random_state\": 42, \"n_jobs\": null, \"monotone_constraints\": null, \"interaction_constraints\": null, \"importance_type\": null, \"gpu_id\": null, \"validate_parameters\": null, \"predictor\": null, \"enable_categorical\": false, \"kwargs\": {\"eval_metric\": \"rmse\", \"eta\": 0.01}, \"evals_result_\": {\"validation_0\": {\"rmse\": [1.117762, 1.117819, 1.118193, 1.118876, 1.119858, 1.12113, 1.122635, 1.124505, 1.126474, 1.128855]}}, \"_estimator_type\": \"regressor\"}"},"feature_names":[],"feature_types":[],"gradient_booster":{"model":{"gbtree_model_param":{"num_trees":"11","size_leaf_vector":"0"},"tree_info":[0,0,0,0,0,0,0,0,0,0,0],"trees":[{"base_weights":[-4.9999976E-1,-3.807007E-1,-7.2937626E-1,-5.008528E-1,3.4168106E-1,-7.309092E-1,3.5501115E0,-7.587891E-1,-3.8359055E-1,2.3438548E-1,3.9399533E0,-6.4325285E-1,-7.4633574E-1,1.5392343E2,-6.9150853E-1,-7.7484787E-1,-5.902754E-1,9.340113E0,-3.865448E-1,4.849042E-1,-6.8544275E-1,3.6313753E0,7.612449E1,-7.7423066E-1,-6.208194E-1,-7.169338E-1,-7.663221E-1,2.659942E2,3.371795E0,-3.4595448E-1,-7.137528E-1,-7.773211E-1,-7.624955E-1,-4.4315442E-1,-7.797474E-1,9.853812E0,8.0647403E-1,-4.6335998E-1,-1.8725047E-1,1.7907101E-1,1.0732229E0,-7.0428085E-1,-6.3616127E-1,3.3522508E0,1.314776E1,9.628417E1,-4.0193444E-1,-5.789813E-1,-6.413107E-1,-7.639077E-1,-6.528482E-1,-7.6185066E-1,-7.7908397E-1,6.340966E0,2.6841584E-1,-6.619276E-1,9.225621E-2,-7.1968895E-1,-4.1928622E-1,-7.739042E-1,-7.8002644E-1,-7.640371E-1,-7.342045E-1,-5.0315106E-1,-9.006188E-2,1.0301429E1,6.9572864E0,7.149351E0,-7.1930325E-1,-6.2015736E-1,-4.3081573E-1,-4.371708E-1,-5.0859645E-2,1.02628805E-2,4.3123895E-1,1.8928532E-1,1.3628489E0,-6.934171E-1,-7.4618596E-1,-6.1132157E-1,-7.144205E-1,2.6612434E0,6.5140676E0,3.1452904E1,4.0429425E0,-1.6524436E-1,-4.7896838E-1,-6.4207673E-1,-5.5125344E-1,-5.8162534E-1,-6.6036963E-1,-7.751376E-1,-7.483053E-1,-3.7805733E-1,-7.049565E-1,-7.635882E-1,-7.5066674E-1,-1.6393667E-1,5.6656045E-1,-1.894693E-1,-6.933708E-1,9.694894E-3,2.2662677E-1,3.9555454E-1,-6.2101877E-1],"categories":[],"categories_nodes":[],"categories_segments":[],"categories_sizes":[],"default_left":[true,true,true,true,true,true,true,true,true,true,true,true,true,true,true,true,true,true,true,true,true,true,true,false,true,true,true,false,true,true,true,true,true,true,false,true,true,true,true,true,true,true,true,true,true,false,true,true,true,true,true,true,false,false,true,true,true,false,true,false,false,false,false,false,false,false,false,false,false,false,false,false,false,false,false,false,false,false,false,false,false,false,false,false,false,false,false,false,false,false,false,false,false,false,false,false,false,false,false,false,false,false,false,false,false],"id":0,"left_children":[1,3,5,7,9,11,13,15,17,19,21,23,25,27,29,31,33,35,37,39,41,43,45,-1,47,49,51,-1,53,55,57,59,61,63,-1,65,67,69,71,73,75,77,79,81,83,-1,85,87,89,91,93,95,-1,-1,97,99,101,-1,103,-1,-1,-1,-1,-1,-1,-1,-1,-1,-1,-1,-1,-1,-1,-1,-1,-1,-1,-1,-1,-1,-1,-1,-1,-1,-1,-1,-1,-1,-1,-1,-1,-1,-1,-1,-1,-1,-1,-1,-1,-1,-1,-1,-1,-1,-1],"loss_changes":[5.6916312E4,1.1876261E5,4.6712188E3,3.5483594E4,7.5335E4,9.615E2,1.6275219E5,9.9175E2,2.3171734E4,4.366346E4,1.2557484E5,3.1235547E2,3.549375E2,1.1721019E5,1.6670303E0,9.640625E0,8.890166E2,1.0660664E3,1.2343E4,2.6795133E4,3.720703E1,1.49026875E4,3.706467E4,0E0,7.75625E1,7.364844E2,1.9953125E1,0E0,3.5155838E1,2.4149342E0,1.05529785E-1,1.96875E0,1.8769531E0,3.8046826E2,0E0,2.2782812E2,1.5030981E2,2.9693984E3,7.6460312E3,4.1711055E3,1.3040184E4,1.2836914E1,2.1387695E1,1.1929367E4,2.6539236E4,0E0,3.0252218E-2,5.194922E1,6.9015625E1,2.4171875E1,1.4825234E3,4.625E0,0E0,0E0,4.795907E-1,1.718378E-2,8.6553365E-2,0E0,1.396306E0,0E0,0E0,0E0,0E0,0E0,0E0,0E0,0E0,0E0,0E0,0E0,0E0,0E0,0E0,0E0,0E0,0E0,0E0,0E0,0E0,0E0,0E0,0E0,0E0,0E0,0E0,0E0,0E0,0E0,0E0,0E0,0E0,0E0,0E0,0E0,0E0,0E0,0E0,0E0,0E0,0E0,0E0,0E0,0E0,0E0,0E0],"parents":[2147483647,0,0,1,1,2,2,3,3,4,4,5,5,6,6,7,7,8,8,9,9,10,10,11,11,12,12,13,13,14,14,15,15,16,16,17,17,18,18,19,19,20,20,21,21,22,22,24,24,25,25,26,26,28,28,29,29,30,30,31,31,32,32,33,33,35,35,36,36,37,37,38,38,39,39,40,40,41,41,42,42,43,43,44,44,46,46,47,47,48,48,49,49,50,50,51,51,54,54,55,55,56,56,58,58],"right_children":[2,4,6,8,10,12,14,16,18,20,22,24,26,28,30,32,34,36,38,40,42,44,46,-1,48,50,52,-1,54,56,58,60,62,64,-1,66,68,70,72,74,76,78,80,82,84,-1,86,88,90,92,94,96,-1,-1,98,100,102,-1,104,-1,-1,-1,-1,-1,-1,-1,-1,-1,-1,-1,-1,-1,-1,-1,-1,-1,-1,-1,-1,-1,-1,-1,-1,-1,-1,-1,-1,-1,-1,-1,-1,-1,-1,-1,-1,-1,-1,-1,-1,-1,-1,-1,-1,-1,-1],"split_conditions":[-2.215962E-1,-2.4964991E-1,9.135653E-1,-3.2353914E-1,-2.3858604E-1,-1.6836622E-1,2.10635E-2,-3.8756204E-1,-2.0369132E-1,-2.4421535E-1,9.4973855E-2,-2.0253292E-1,3.247955E-1,6.452971E-1,-4.6083778E-1,-4.352305E-1,-3.600248E-1,6.7453414E-1,-1.1973891E-1,-3.7312663E-1,2.993254E-1,3.352411E-2,2.0674144E-1,-7.742306E-3,-3.8985032E-1,-1.3229001E-2,1.6653113E0,2.659942E0,1.4227196E0,-4.8032913E-1,1.537027E0,-4.819376E-1,9.504101E-3,-1.8795867E-1,-7.797474E-3,-2.042903E-1,-2.050115E-1,-3.4996428E-2,-2.633711E-1,-5.388032E-1,-3.3256844E-2,8.294216E-3,1.5040487E-2,1.0441178E-1,-1.4410311E-1,9.628417E-1,1.0060784E-1,-1.842117E-1,-1.9307673E-1,-1.171169E-1,1.365485E-2,5.3634297E-2,-7.7908393E-3,6.3409664E-2,1.8245806E0,9.347266E-1,1.5038359E0,-7.1968893E-3,1.566264E0,-7.739042E-3,-7.8002643E-3,-7.6403706E-3,-7.3420447E-3,-5.0315103E-3,-9.006188E-4,1.0301428E-1,6.957286E-2,7.149351E-2,-7.193032E-3,-6.2015736E-3,-4.308157E-3,-4.371708E-3,-5.085964E-4,1.026288E-4,4.3123895E-3,1.8928532E-3,1.3628488E-2,-6.9341706E-3,-7.4618594E-3,-6.1132153E-3,-7.144205E-3,2.6612435E-2,6.514067E-2,3.1452903E-1,4.0429424E-2,-1.6524435E-3,-4.7896835E-3,-6.420767E-3,-5.512534E-3,-5.8162534E-3,-6.6036964E-3,-7.751376E-3,-7.483053E-3,-3.7805731E-3,-7.0495647E-3,-7.6358817E-3,-7.506667E-3,-1.6393667E-3,5.6656045E-3,-1.8946929E-3,-6.933708E-3,9.6948934E-5,2.2662675E-3,3.9555454E-3,-6.2101875E-3],"split_indices":[2,2,0,2,2,2,2,2,0,2,0,2,2,1,1,2,2,1,1,1,1,0,1,0,3,2,2,0,0,1,1,2,0,1,0,0,0,0,2,1,0,0,0,1,1,0,0,2,2,2,2,0,0,0,0,0,0,0,1,0,0,0,0,0,0,0,0,0,0,0,0,0,0,0,0,0,0,0,0,0,0,0,0,0,0,0,0,0,0,0,0,0,0,0,0,0,0,0,0,0,0,0,0,0,0],"split_type":[0,0,0,0,0,0,0,0,0,0,0,0,0,0,0,0,0,0,0,0,0,0,0,0,0,0,0,0,0,0,0,0,0,0,0,0,0,0,0,0,0,0,0,0,0,0,0,0,0,0,0,0,0,0,0,0,0,0,0,0,0,0,0,0,0,0,0,0,0,0,0,0,0,0,0,0,0,0,0,0,0,0,0,0,0,0,0,0,0,0,0,0,0,0,0,0,0,0,0,0,0,0,0,0,0],"sum_hessian":[2.079949E6,1.368298E6,7.11651E5,1.173168E6,1.9513E5,7.11397E5,2.54E2,3.66653E5,8.06515E5,1.89481E5,5.649E3,1.06468E5,6.04929E5,6E0,2.48E2,3.34749E5,3.1904E4,2.44E2,8.06271E5,1.48922E5,4.0559E4,5.626E3,2.3E1,1.5564E4,9.0904E4,2.44816E5,3.60113E5,3E0,3E0,1.6E1,2.32E2,2.78854E5,5.5895E4,1.7961E4,1.3943E4,2.3E2,1.4E1,5.81961E5,2.2431E5,9.7986E4,5.0936E4,2.9333E4,1.1226E4,5.467E3,1.59E2,1.8E1,5E0,2.9895E4,6.1009E4,1.41262E5,1.03554E5,2.66722E5,9.3391E4,1E0,2E0,9E0,7E0,2.26E2,6E0,1.23348E5,1.55506E5,5.2982E4,2.913E3,1.5352E4,2.609E3,1.97E2,3.3E1,2E0,1.2E1,1.00025E5,4.81936E5,7.9194E4,1.45116E5,5.8695E4,3.9291E4,1.2571E4,3.8365E4,2.3308E4,6.025E3,8.528E3,2.698E3,4.488E3,9.79E2,5.2E1,1.07E2,2E0,3E0,9.12E3,2.0775E4,1.4774E4,4.6235E4,8.2112E4,5.915E4,1.6508E4,8.7046E4,2.30798E5,3.5924E4,1E0,1E0,1E0,8E0,5E0,2E0,1E0,5E0],"tree_param":{"num_deleted":"0","num_feature":"4","num_nodes":"105","size_leaf_vector":"0"}},{"base_weights":[-4.9499774E-1,-3.7689257E-1,-7.220788E-1,-4.9584413E-1,3.3827138E-1,-7.2360027E-1,3.5252435E0,-7.5120133E-1,-3.7975436E-1,2.3204158E-1,3.9008021E0,-6.368206E-1,-7.3887247E-1,1.5277382E2,-6.8465734E-1,-7.670995E-1,-5.843731E-1,9.247679E0,-3.8267934E-1,4.8005527E-1,-6.78589E-1,3.595141E0,7.540309E1,-7.6648885E-1,-6.146115E-1,-7.0976454E-1,-7.586589E-1,2.6399927E2,3.354936E0,-3.4287524E-1,-7.066558E-1,-7.69548E-1,-7.5487083E-1,-4.387232E-1,-7.719505E-1,9.7560215E0,8.02696E-1,-4.5872638E-1,-1.8537799E-1,1.7728034E-1,1.0624909E0,-6.9723856E-1,-6.2980086E-1,3.3187451E0,1.3018501E1,9.5372E1,-3.9898878E-1,-5.731918E-1,-6.3489777E-1,-7.562687E-1,-6.463198E-1,-7.5423217E-1,-7.7129316E-1,6.3092613E0,2.6707375E-1,-6.561911E-1,9.162903E-2,-7.1252376E-1,-4.1541547E-1,-7.661652E-1,-7.722262E-1,-7.563969E-1,-7.2686493E-1,-4.981199E-1,-8.91616E-2,1.0198935E1,6.88976E0,7.101689E0,-7.1266353E-1,-6.1453736E-1,-4.2662668E-1,-4.3279913E-1,-5.0351042E-2,1.0160244E-2,4.2692667E-1,1.8739262E-1,1.3492208E0,-6.8648475E-1,-7.387278E-1,-6.052091E-1,-7.0727897E-1,2.6346369E0,6.448993E0,3.114431E1,4.0028877E0,-1.6414273E-1,-4.7537613E-1,-6.356567E-1,-5.457412E-1,-5.758095E-1,-6.537661E-1,-7.673863E-1,-7.4082243E-1,-3.74277E-1,-6.97907E-1,-7.559162E-1,-7.4294436E-1,-1.6311699E-1,5.637276E-1,-1.8852195E-1,-6.872075E-1,9.61408E-3,2.2511591E-1,3.9357677E-1,-6.1584365E-1],"categories":[],"categories_nodes":[],"categories_segments":[],"categories_sizes":[],"default_left":[true,true,true,true,true,true,true,true,true,true,true,true,true,true,true,true,true,true,true,true,true,true,true,false,true,true,true,false,true,true,true,true,true,true,false,true,true,true,true,true,true,true,true,true,true,false,true,true,true,true,true,true,false,false,true,true,true,false,true,false,false,false,false,false,false,false,false,false,false,false,false,false,false,false,false,false,false,false,false,false,false,false,false,false,false,false,false,false,false,false,false,false,false,false,false,false,false,false,false,false,false,false,false,false,false],"id":1,"left_children":[1,3,5,7,9,11,13,15,17,19,21,23,25,27,29,31,33,35,37,39,41,43,45,-1,47,49,51,-1,53,55,57,59,61,63,-1,65,67,69,71,73,75,77,79,81,83,-1,85,87,89,91,93,95,-1,-1,97,99,101,-1,103,-1,-1,-1,-1,-1,-1,-1,-1,-1,-1,-1,-1,-1,-1,-1,-1,-1,-1,-1,-1,-1,-1,-1,-1,-1,-1,-1,-1,-1,-1,-1,-1,-1,-1,-1,-1,-1,-1,-1,-1,-1,-1,-1,-1,-1,-1],"loss_changes":[5.5782844E4,1.1640117E5,4.60125E3,3.477753E4,7.3845836E4,9.42375E2,1.6032664E5,9.720156E2,2.2715188E4,4.2794617E4,1.2321236E5,3.0613672E2,3.4784375E2,1.1544858E5,1.6298599E0,9.4375E0,8.713262E2,1.0439395E3,1.2097367E4,2.6261926E4,3.6464844E1,1.4612758E4,3.63665E4,0E0,7.601953E1,7.2183594E2,1.95625E1,0E0,3.4805157E1,2.3744566E0,1.0220337E-1,1.9375E0,1.8398438E0,3.7289697E2,0E0,2.2298828E2,1.4823969E2,2.910414E3,7.4938765E3,4.088103E3,1.2780691E4,1.2581055E1,2.096289E1,1.1692336E4,2.602178E4,0E0,2.9606044E-2,5.0916016E1,6.764453E1,2.36875E1,1.4530195E3,4.515625E0,0E0,0E0,4.7480685E-1,1.5500069E-2,8.541907E-2,0E0,1.3773955E0,0E0,0E0,0E0,0E0,0E0,0E0,0E0,0E0,0E0,0E0,0E0,0E0,0E0,0E0,0E0,0E0,0E0,0E0,0E0,0E0,0E0,0E0,0E0,0E0,0E0,0E0,0E0,0E0,0E0,0E0,0E0,0E0,0E0,0E0,0E0,0E0,0E0,0E0,0E0,0E0,0E0,0E0,0E0,0E0,0E0,0E0],"parents":[2147483647,0,0,1,1,2,2,3,3,4,4,5,5,6,6,7,7,8,8,9,9,10,10,11,11,12,12,13,13,14,14,15,15,16,16,17,17,18,18,19,19,20,20,21,21,22,22,24,24,25,25,26,26,28,28,29,29,30,30,31,31,32,32,33,33,35,35,36,36,37,37,38,38,39,39,40,40,41,41,42,42,43,43,44,44,46,46,47,47,48,48,49,49,50,50,51,51,54,54,55,55,56,56,58,58],"right_children":[2,4,6,8,10,12,14,16,18,20,22,24,26,28,30,32,34,36,38,40,42,44,46,-1,48,50,52,-1,54,56,58,60,62,64,-1,66,68,70,72,74,76,78,80,82,84,-1,86,88,90,92,94,96,-1,-1,98,100,102,-1,104,-1,-1,-1,-1,-1,-1,-1,-1,-1,-1,-1,-1,-1,-1,-1,-1,-1,-1,-1,-1,-1,-1,-1,-1,-1,-1,-1,-1,-1,-1,-1,-1,-1,-1,-1,-1,-1,-1,-1,-1,-1,-1,-1,-1,-1,-1],"split_conditions":[-2.215962E-1,-2.4964991E-1,9.135653E-1,-3.2353914E-1,-2.3858604E-1,-1.6836622E-1,2.10635E-2,-3.8756204E-1,-2.0369132E-1,-2.4421535E-1,9.4973855E-2,-2.0253292E-1,3.247955E-1,6.452971E-1,-4.6083778E-1,-4.352305E-1,-3.600248E-1,6.7453414E-1,-1.1973891E-1,-3.7312663E-1,2.993254E-1,3.352411E-2,2.0674144E-1,-7.664888E-3,-3.8985032E-1,-1.3229001E-2,1.6653113E0,2.6399927E0,1.4227196E0,-4.8032913E-1,1.537027E0,-4.819376E-1,9.504101E-3,-1.8795867E-1,-7.7195046E-3,-2.042903E-1,-2.050115E-1,-3.510325E-2,-2.633711E-1,-5.388032E-1,-3.3256844E-2,8.298708E-3,1.5040487E-2,1.0441178E-1,-1.4410311E-1,9.5372E-1,1.0060784E-1,-1.842117E-1,-1.9307673E-1,-1.171169E-1,1.365485E-2,5.5530317E-2,-7.7129314E-3,6.309261E-2,1.8245806E0,9.347266E-1,1.5038359E0,-7.1252375E-3,1.566264E0,-7.661652E-3,-7.722262E-3,-7.5639687E-3,-7.268649E-3,-4.981199E-3,-8.916159E-4,1.01989344E-1,6.88976E-2,7.1016885E-2,-7.126635E-3,-6.1453735E-3,-4.2662667E-3,-4.327991E-3,-5.035104E-4,1.0160244E-4,4.2692665E-3,1.8739261E-3,1.3492207E-2,-6.8648476E-3,-7.387278E-3,-6.052091E-3,-7.0727896E-3,2.6346369E-2,6.448993E-2,3.114431E-1,4.0028878E-2,-1.6414273E-3,-4.753761E-3,-6.356567E-3,-5.457412E-3,-5.7580946E-3,-6.537661E-3,-7.673863E-3,-7.408224E-3,-3.7427698E-3,-6.9790697E-3,-7.5591616E-3,-7.4294433E-3,-1.6311699E-3,5.637276E-3,-1.8852195E-3,-6.872075E-3,9.61408E-5,2.2511592E-3,3.935768E-3,-6.158436E-3],"split_indices":[2,2,0,2,2,2,2,2,0,2,0,2,2,1,1,2,2,1,1,1,1,0,1,0,3,2,2,0,0,1,1,2,0,1,0,0,0,0,2,1,0,0,0,1,1,0,0,2,2,2,2,0,0,0,0,0,0,0,1,0,0,0,0,0,0,0,0,0,0,0,0,0,0,0,0,0,0,0,0,0,0,0,0,0,0,0,0,0,0,0,0,0,0,0,0,0,0,0,0,0,0,0,0,0,0],"split_type":[0,0,0,0,0,0,0,0,0,0,0,0,0,0,0,0,0,0,0,0,0,0,0,0,0,0,0,0,0,0,0,0,0,0,0,0,0,0,0,0,0,0,0,0,0,0,0,0,0,0,0,0,0,0,0,0,0,0,0,0,0,0,0,0,0,0,0,0,0,0,0,0,0,0,0,0,0,0,0,0,0,0,0,0,0,0,0,0,0,0,0,0,0,0,0,0,0,0,0,0,0,0,0,0,0],"sum_hessian":[2.079949E6,1.368298E6,7.11651E5,1.173168E6,1.9513E5,7.11397E5,2.54E2,3.66653E5,8.06515E5,1.89481E5,5.649E3,1.06468E5,6.04929E5,6E0,2.48E2,3.34749E5,3.1904E4,2.44E2,8.06271E5,1.48922E5,4.0559E4,5.626E3,2.3E1,1.5564E4,9.0904E4,2.44816E5,3.60113E5,3E0,3E0,1.6E1,2.32E2,2.78854E5,5.5895E4,1.7961E4,1.3943E4,2.3E2,1.4E1,5.81961E5,2.2431E5,9.7986E4,5.0936E4,2.9333E4,1.1226E4,5.467E3,1.59E2,1.8E1,5E0,2.9895E4,6.1009E4,1.41262E5,1.03554E5,2.66722E5,9.3391E4,1E0,2E0,9E0,7E0,2.26E2,6E0,1.23348E5,1.55506E5,5.2982E4,2.913E3,1.5352E4,2.609E3,1.97E2,3.3E1,2E0,1.2E1,9.941E4,4.82551E5,7.9194E4,1.45116E5,5.8695E4,3.9291E4,1.2571E4,3.8365E4,2.3309E4,6.024E3,8.528E3,2.698E3,4.488E3,9.79E2,5.2E1,1.07E2,2E0,3E0,9.12E3,2.0775E4,1.4774E4,4.6235E4,8.2112E4,5.915E4,1.6508E4,8.7046E4,2.32039E5,3.4683E4,1E0,1E0,1E0,8E0,5E0,2E0,1E0,5E0],"tree_param":{"num_deleted":"0","num_feature":"4","num_nodes":"105","size_leaf_vector":"0"}},{"base_weights":[-4.9004576E-1,-3.731225E-1,-7.1485436E-1,-4.9088553E-1,3.3489576E-1,-7.163644E-1,3.5005455E0,-7.436895E-1,-3.7595654E-1,2.2972111E-1,3.86204E0,-6.3045275E-1,-7.314838E-1,1.5163281E2,-6.778741E-1,-7.594286E-1,-5.785298E-1,9.15616E0,-3.7885258E-1,4.7525486E-1,-6.718038E-1,3.5592682E0,7.468853E1,-7.5882447E-1,-6.084657E-1,-7.02667E-1,-7.5107235E-1,2.620193E2,3.3381615E0,-3.398235E-1,-6.9962937E-1,-7.6185256E-1,-7.473224E-1,-4.343363E-1,-7.6423156E-1,9.659201E0,7.9892844E-1,-4.5413914E-1,-1.8352424E-1,1.7550758E-1,1.0518664E0,-6.9026667E-1,-6.2350404E-1,3.2855742E0,1.2890513E1,9.446848E1,-3.9606476E-1,-5.6746036E-1,-6.2854904E-1,-7.487061E-1,-6.398567E-1,-7.466899E-1,-7.635803E-1,6.277715E0,2.657384E-1,-6.5050495E-1,9.100615E-2,-7.054299E-1,-4.115788E-1,-7.585036E-1,-7.64504E-1,-7.48833E-1,-7.1959877E-1,-4.9313903E-1,-8.8270314E-2,1.009746E1,6.822889E0,7.054344E0,-7.0608515E-1,-6.078221E-1,-4.222413E-1,-4.284712E-1,-4.984754E-2,1.0058618E-2,4.2265752E-1,1.8551885E-1,1.3357289E0,-6.7961866E-1,-7.313394E-1,-5.9915775E-1,-7.002088E-1,2.6082962E0,6.384569E0,3.0838743E1,3.9632294E0,-1.6304845E-1,-4.7181082E-1,-6.2930083E-1,-5.4028404E-1,-5.700518E-1,-6.472286E-1,-7.597126E-1,-7.334143E-1,-3.7053442E-1,-6.90928E-1,-7.483573E-1,-7.355152E-1,-1.6230142E-1,5.6090903E-1,-1.8757935E-1,-6.8109894E-1,9.533961E-3,2.2361515E-1,3.916089E-1,-6.107116E-1],"categories":[],"categories_nodes":[],"categories_segments":[],"categories_sizes":[],"default_left":[true,true,true,true,true,true,true,true,true,true,true,true,true,true,true,true,true,true,true,true,true,true,true,false,true,true,true,false,true,true,true,true,true,true,false,true,true,true,true,true,true,true,true,true,true,false,true,true,true,true,true,true,false,false,true,true,true,false,true,false,false,false,false,false,false,false,false,false,false,false,false,false,false,false,false,false,false,false,false,false,false,false,false,false,false,false,false,false,false,false,false,false,false,false,false,false,false,false,false,false,false,false,false,false,false],"id":2,"left_children":[1,3,5,7,9,11,13,15,17,19,21,23,25,27,29,31,33,35,37,39,41,43,45,-1,47,49,51,-1,53,55,57,59,61,63,-1,65,67,69,71,73,75,77,79,81,83,-1,85,87,89,91,93,95,-1,-1,97,99,101,-1,103,-1,-1,-1,-1,-1,-1,-1,-1,-1,-1,-1,-1,-1,-1,-1,-1,-1,-1,-1,-1,-1,-1,-1,-1,-1,-1,-1,-1,-1,-1,-1,-1,-1,-1,-1,-1,-1,-1,-1,-1,-1,-1,-1,-1,-1,-1],"loss_changes":[5.467197E4,1.140867E5,4.532375E3,3.408553E4,7.238611E4,9.2359375E2,1.5793728E5,9.526719E2,2.2267625E4,4.1943062E4,1.2089431E5,3.0004688E2,3.409375E2,1.1371339E5,1.5934906E0,9.25E0,8.539873E2,1.02226953E3,1.1856625E4,2.5739332E4,3.5740234E1,1.4328469E4,3.5681484E4,0E0,7.450781E1,7.0746875E2,1.91875E1,0E0,3.4457985E1,2.334663E0,9.8976135E-2,1.890625E0,1.8007812E0,3.6547607E2,0E0,2.1824805E2,1.4619826E2,2.8526094E3,7.344751E3,4.0067532E3,1.2526363E4,1.2331055E1,2.0546387E1,1.1460031E4,2.551441E4,0E0,2.8972387E-2,4.990332E1,6.6296875E1,2.321875E1,1.4241055E3,4.421875E0,0E0,0E0,4.7007066E-1,1.3867855E-2,8.429964E-2,0E0,1.358747E0,0E0,0E0,0E0,0E0,0E0,0E0,0E0,0E0,0E0,0E0,0E0,0E0,0E0,0E0,0E0,0E0,0E0,0E0,0E0,0E0,0E0,0E0,0E0,0E0,0E0,0E0,0E0,0E0,0E0,0E0,0E0,0E0,0E0,0E0,0E0,0E0,0E0,0E0,0E0,0E0,0E0,0E0,0E0,0E0,0E0,0E0],"parents":[2147483647,0,0,1,1,2,2,3,3,4,4,5,5,6,6,7,7,8,8,9,9,10,10,11,11,12,12,13,13,14,14,15,15,16,16,17,17,18,18,19,19,20,20,21,21,22,22,24,24,25,25,26,26,28,28,29,29,30,30,31,31,32,32,33,33,35,35,36,36,37,37,38,38,39,39,40,40,41,41,42,42,43,43,44,44,46,46,47,47,48,48,49,49,50,50,51,51,54,54,55,55,56,56,58,58],"right_children":[2,4,6,8,10,12,14,16,18,20,22,24,26,28,30,32,34,36,38,40,42,44,46,-1,48,50,52,-1,54,56,58,60,62,64,-1,66,68,70,72,74,76,78,80,82,84,-1,86,88,90,92,94,96,-1,-1,98,100,102,-1,104,-1,-1,-1,-1,-1,-1,-1,-1,-1,-1,-1,-1,-1,-1,-1,-1,-1,-1,-1,-1,-1,-1,-1,-1,-1,-1,-1,-1,-1,-1,-1,-1,-1,-1,-1,-1,-1,-1,-1,-1,-1,-1,-1,-1,-1,-1],"split_conditions":[-2.215962E-1,-2.4964991E-1,9.135653E-1,-3.2353914E-1,-2.3858604E-1,-1.6836622E-1,2.10635E-2,-3.8756204E-1,-2.0369132E-1,-2.4421535E-1,9.4973855E-2,-2.0253292E-1,3.247955E-1,6.452971E-1,-4.6083778E-1,-4.352305E-1,-3.600248E-1,6.7453414E-1,-1.1973891E-1,-3.7312663E-1,2.993254E-1,3.352411E-2,2.0674144E-1,-7.5882445E-3,-3.8985032E-1,-1.3229001E-2,1.6653113E0,2.6201928E0,1.4227196E0,-4.8032913E-1,1.537027E0,-4.819376E-1,9.504101E-3,-1.8795867E-1,-7.6423152E-3,-2.042903E-1,-2.050115E-1,-3.4996428E-2,-2.633711E-1,-5.388032E-1,-3.3256844E-2,8.294216E-3,1.5040487E-2,1.0441178E-1,-1.4410311E-1,9.446848E-1,1.0060784E-1,-1.842117E-1,-1.9307673E-1,-1.171169E-1,1.365485E-2,5.552599E-2,-7.635803E-3,6.2777154E-2,1.8245806E0,9.347266E-1,1.5038359E0,-7.054299E-3,1.566264E0,-7.585036E-3,-7.64504E-3,-7.48833E-3,-7.1959877E-3,-4.9313903E-3,-8.827031E-4,1.009746E-1,6.8228886E-2,7.054344E-2,-7.0608514E-3,-6.078221E-3,-4.222413E-3,-4.284712E-3,-4.984754E-4,1.0058618E-4,4.226575E-3,1.8551884E-3,1.3357288E-2,-6.7961863E-3,-7.313394E-3,-5.991577E-3,-7.002088E-3,2.608296E-2,6.384569E-2,3.0838743E-1,3.9632294E-2,-1.6304845E-3,-4.718108E-3,-6.293008E-3,-5.40284E-3,-5.700518E-3,-6.472286E-3,-7.5971256E-3,-7.334143E-3,-3.7053442E-3,-6.9092796E-3,-7.4835727E-3,-7.3551517E-3,-1.6230142E-3,5.60909E-3,-1.8757934E-3,-6.810989E-3,9.533961E-5,2.2361516E-3,3.916089E-3,-6.1071157E-3],"split_indices":[2,2,0,2,2,2,2,2,0,2,0,2,2,1,1,2,2,1,1,1,1,0,1,0,3,2,2,0,0,1,1,2,0,1,0,0,0,0,2,1,0,0,0,1,1,0,0,2,2,2,2,0,0,0,0,0,0,0,1,0,0,0,0,0,0,0,0,0,0,0,0,0,0,0,0,0,0,0,0,0,0,0,0,0,0,0,0,0,0,0,0,0,0,0,0,0,0,0,0,0,0,0,0,0,0],"split_type":[0,0,0,0,0,0,0,0,0,0,0,0,0,0,0,0,0,0,0,0,0,0,0,0,0,0,0,0,0,0,0,0,0,0,0,0,0,0,0,0,0,0,0,0,0,0,0,0,0,0,0,0,0,0,0,0,0,0,0,0,0,0,0,0,0,0,0,0,0,0,0,0,0,0,0,0,0,0,0,0,0,0,0,0,0,0,0,0,0,0,0,0,0,0,0,0,0,0,0,0,0,0,0,0,0],"sum_hessian":[2.079949E6,1.368298E6,7.11651E5,1.173168E6,1.9513E5,7.11397E5,2.54E2,3.66653E5,8.06515E5,1.89481E5,5.649E3,1.06468E5,6.04929E5,6E0,2.48E2,3.34749E5,3.1904E4,2.44E2,8.06271E5,1.48922E5,4.0559E4,5.626E3,2.3E1,1.5564E4,9.0904E4,2.44816E5,3.60113E5,3E0,3E0,1.6E1,2.32E2,2.78854E5,5.5895E4,1.7961E4,1.3943E4,2.3E2,1.4E1,5.81961E5,2.2431E5,9.7986E4,5.0936E4,2.9333E4,1.1226E4,5.467E3,1.59E2,1.8E1,5E0,2.9895E4,6.1009E4,1.41262E5,1.03554E5,2.66722E5,9.3391E4,1E0,2E0,9E0,7E0,2.26E2,6E0,1.23348E5,1.55506E5,5.2982E4,2.913E3,1.5352E4,2.609E3,1.97E2,3.3E1,2E0,1.2E1,1.00025E5,4.81936E5,7.9194E4,1.45116E5,5.8695E4,3.9291E4,1.2571E4,3.8365E4,2.3308E4,6.025E3,8.528E3,2.698E3,4.488E3,9.79E2,5.2E1,1.07E2,2E0,3E0,9.12E3,2.0775E4,1.4774E4,4.6235E4,8.2112E4,5.915E4,1.6508E4,8.7046E4,2.32035E5,3.4687E4,1E0,1E0,1E0,8E0,5E0,2E0,1E0,5E0],"tree_param":{"num_deleted":"0","num_feature":"4","num_nodes":"105","size_leaf_vector":"0"}},{"base_weights":[-4.851433E-1,-3.6939013E-1,-7.0770216E-1,-4.8597652E-1,3.3155382E-1,-7.0920086E-1,3.4760158E0,-7.3625267E-1,-3.721967E-1,2.2742386E-1,3.8236632E0,-6.241485E-1,-7.241691E-1,1.5050034E2,-6.71158E-1,-7.518344E-1,-5.727449E-1,9.065548E0,-3.7506407E-1,4.7050244E-1,-6.650864E-1,3.5237534E0,7.398074E1,-7.5123674E-1,-6.023812E-1,-6.9564044E-1,-7.435617E-1,2.600541E2,3.3214705E0,-3.3679914E-1,-6.926728E-1,-7.542341E-1,-7.398494E-1,-4.2999327E-1,-7.565898E-1,9.563341E0,7.9517114E-1,-4.4959778E-1,-1.8168901E-1,1.7375253E-1,1.041348E0,-6.8336445E-1,-6.172702E-1,3.252735E0,1.2763783E1,9.357352E1,-3.9316222E-1,-5.617861E-1,-6.222637E-1,-7.4121916E-1,-6.3345826E-1,-7.392231E-1,-7.559446E-1,6.2463264E0,2.644097E-1,-6.4486855E-1,9.0387516E-2,-6.984067E-1,-4.0777603E-1,-7.509186E-1,-7.5685906E-1,-7.413448E-1,-7.1240526E-1,-4.816885E-1,-4.346608E-2,9.996995E0,6.756666E0,7.0073147E0,-6.9956744E-1,-6.023139E-1,-4.1813564E-1,-4.2418656E-1,-4.934906E-2,9.9580055E-3,4.1843107E-1,1.836638E-1,1.322372E0,-6.728227E-1,-7.240272E-1,-5.927885E-1,-6.920512E-1,2.5822191E0,6.3207884E0,3.0536175E1,3.923964E0,-1.6196145E-1,-4.6827224E-1,-6.230085E-1,-5.348815E-1,-5.643516E-1,-6.407564E-1,-7.5211555E-1,-7.260803E-1,-3.668293E-1,-6.840188E-1,-7.4090064E-1,-7.28317E-1,-1.614899E-1,5.5810446E-1,-1.8664145E-1,-6.750448E-1,9.454489E-3,2.221244E-1,3.8965085E-1,-6.056223E-1],"categories":[],"categories_nodes":[],"categories_segments":[],"categories_sizes":[],"default_left":[true,true,true,true,true,true,true,true,true,true,true,true,true,true,true,true,true,true,true,true,true,true,true,false,true,true,true,false,true,true,true,true,true,true,false,true,true,true,true,true,true,true,true,true,true,false,true,true,true,true,true,true,false,false,true,true,true,false,true,false,false,false,false,false,false,false,false,false,false,false,false,false,false,false,false,false,false,false,false,false,false,false,false,false,false,false,false,false,false,false,false,false,false,false,false,false,false,false,false,false,false,false,false,false,false],"id":3,"left_children":[1,3,5,7,9,11,13,15,17,19,21,23,25,27,29,31,33,35,37,39,41,43,45,-1,47,49,51,-1,53,55,57,59,61,63,-1,65,67,69,71,73,75,77,79,81,83,-1,85,87,89,91,93,95,-1,-1,97,99,101,-1,103,-1,-1,-1,-1,-1,-1,-1,-1,-1,-1,-1,-1,-1,-1,-1,-1,-1,-1,-1,-1,-1,-1,-1,-1,-1,-1,-1,-1,-1,-1,-1,-1,-1,-1,-1,-1,-1,-1,-1,-1,-1,-1,-1,-1,-1,-1],"loss_changes":[5.3583188E4,1.11818266E5,4.4645E3,3.3407312E4,7.0955234E4,9.0521875E2,1.5558353E5,9.337031E2,2.1828883E4,4.1108453E4,1.1861989E5,2.9408203E2,3.341875E2,1.12004234E5,1.55793E0,9.078125E0,8.3699414E2,1.0010449E3,1.162068E4,2.5227133E4,3.502539E1,1.4049719E4,3.5009375E4,0E0,7.302344E1,6.933828E2,1.878125E1,0E0,3.411426E1,2.2955413E0,9.5832825E-2,1.859375E0,1.7636719E0,3.5888892E2,0E0,2.1360938E2,1.4418507E2,2.7959531E3,7.1985923E3,3.9270215E3,1.2277098E4,1.2087891E1,2.0144043E1,1.1232332E4,2.5016934E4,0E0,2.835089E-2,4.8910156E1,6.497656E1,2.2757812E1,1.3957656E3,4.34375E0,0E0,0E0,4.6538168E-1,1.2284279E-2,8.3194844E-2,0E0,1.3403571E0,0E0,0E0,0E0,0E0,0E0,0E0,0E0,0E0,0E0,0E0,0E0,0E0,0E0,0E0,0E0,0E0,0E0,0E0,0E0,0E0,0E0,0E0,0E0,0E0,0E0,0E0,0E0,0E0,0E0,0E0,0E0,0E0,0E0,0E0,0E0,0E0,0E0,0E0,0E0,0E0,0E0,0E0,0E0,0E0,0E0,0E0],"parents":[2147483647,0,0,1,1,2,2,3,3,4,4,5,5,6,6,7,7,8,8,9,9,10,10,11,11,12,12,13,13,14,14,15,15,16,16,17,17,18,18,19,19,20,20,21,21,22,22,24,24,25,25,26,26,28,28,29,29,30,30,31,31,32,32,33,33,35,35,36,36,37,37,38,38,39,39,40,40,41,41,42,42,43,43,44,44,46,46,47,47,48,48,49,49,50,50,51,51,54,54,55,55,56,56,58,58],"right_children":[2,4,6,8,10,12,14,16,18,20,22,24,26,28,30,32,34,36,38,40,42,44,46,-1,48,50,52,-1,54,56,58,60,62,64,-1,66,68,70,72,74,76,78,80,82,84,-1,86,88,90,92,94,96,-1,-1,98,100,102,-1,104,-1,-1,-1,-1,-1,-1,-1,-1,-1,-1,-1,-1,-1,-1,-1,-1,-1,-1,-1,-1,-1,-1,-1,-1,-1,-1,-1,-1,-1,-1,-1,-1,-1,-1,-1,-1,-1,-1,-1,-1,-1,-1,-1,-1,-1,-1],"split_conditions":[-2.215962E-1,-2.4964991E-1,9.135653E-1,-3.2353914E-1,-2.3858604E-1,-1.6836622E-1,2.10635E-2,-3.8756204E-1,-2.0369132E-1,-2.4421535E-1,9.4973855E-2,-2.0253292E-1,3.247955E-1,6.452971E-1,-4.6083778E-1,-4.352305E-1,-3.600248E-1,6.7453414E-1,-1.1973891E-1,-3.7312663E-1,2.993254E-1,3.352411E-2,2.0674144E-1,-7.5123673E-3,-3.8985032E-1,-1.3229001E-2,1.6653113E0,2.600541E0,1.4227196E0,-4.8032913E-1,1.537027E0,-4.819376E-1,9.504101E-3,-1.4897595E-1,-7.5658974E-3,-2.042903E-1,-2.050115E-1,-3.510325E-2,-2.633711E-1,-5.388032E-1,-3.3256844E-2,8.294216E-3,1.43227335E-2,1.0441178E-1,-1.4410311E-1,9.3573517E-1,1.0060784E-1,-1.842117E-1,-1.9307673E-1,-1.171169E-1,1.365485E-2,5.4057203E-2,-7.559446E-3,6.2463265E-2,1.8245806E0,9.347266E-1,1.5038359E0,-6.9840667E-3,1.566264E0,-7.509186E-3,-7.5685903E-3,-7.413448E-3,-7.1240524E-3,-4.816885E-3,-4.346608E-4,9.9969946E-2,6.756666E-2,7.007314E-2,-6.995674E-3,-6.0231388E-3,-4.181356E-3,-4.2418656E-3,-4.9349054E-4,9.958005E-5,4.184311E-3,1.836638E-3,1.3223719E-2,-6.728227E-3,-7.240272E-3,-5.927885E-3,-6.9205114E-3,2.582219E-2,6.320788E-2,3.0536175E-1,3.9239638E-2,-1.6196144E-3,-4.6827225E-3,-6.2300847E-3,-5.3488147E-3,-5.643516E-3,-6.407564E-3,-7.5211553E-3,-7.2608027E-3,-3.668293E-3,-6.8401876E-3,-7.4090064E-3,-7.2831702E-3,-1.614899E-3,5.5810446E-3,-1.8664146E-3,-6.7504477E-3,9.4544885E-5,2.221244E-3,3.8965084E-3,-6.0562226E-3],"split_indices":[2,2,0,2,2,2,2,2,0,2,0,2,2,1,1,2,2,1,1,1,1,0,1,0,3,2,2,0,0,1,1,2,0,1,0,0,0,0,2,1,0,0,0,1,1,0,0,2,2,2,2,0,0,0,0,0,0,0,1,0,0,0,0,0,0,0,0,0,0,0,0,0,0,0,0,0,0,0,0,0,0,0,0,0,0,0,0,0,0,0,0,0,0,0,0,0,0,0,0,0,0,0,0,0,0],"split_type":[0,0,0,0,0,0,0,0,0,0,0,0,0,0,0,0,0,0,0,0,0,0,0,0,0,0,0,0,0,0,0,0,0,0,0,0,0,0,0,0,0,0,0,0,0,0,0,0,0,0,0,0,0,0,0,0,0,0,0,0,0,0,0,0,0,0,0,0,0,0,0,0,0,0,0,0,0,0,0,0,0,0,0,0,0,0,0,0,0,0,0,0,0,0,0,0,0,0,0,0,0,0,0,0,0],"sum_hessian":[2.079949E6,1.368298E6,7.11651E5,1.173168E6,1.9513E5,7.11397E5,2.54E2,3.66653E5,8.06515E5,1.89481E5,5.649E3,1.06468E5,6.04929E5,6E0,2.48E2,3.34749E5,3.1904E4,2.44E2,8.06271E5,1.48922E5,4.0559E4,5.626E3,2.3E1,1.5564E4,9.0904E4,2.44816E5,3.60113E5,3E0,3E0,1.6E1,2.32E2,2.78854E5,5.5895E4,1.7961E4,1.3943E4,2.3E2,1.4E1,5.81961E5,2.2431E5,9.7986E4,5.0936E4,2.9333E4,1.1226E4,5.467E3,1.59E2,1.8E1,5E0,2.9895E4,6.1009E4,1.41262E5,1.03554E5,2.66722E5,9.3391E4,1E0,2E0,9E0,7E0,2.26E2,6E0,1.23348E5,1.55506E5,5.2982E4,2.913E3,1.5842E4,2.119E3,1.97E2,3.3E1,2E0,1.2E1,9.941E4,4.82551E5,7.9194E4,1.45116E5,5.8695E4,3.9291E4,1.2571E4,3.8365E4,2.3308E4,6.025E3,8.464E3,2.762E3,4.488E3,9.79E2,5.2E1,1.07E2,2E0,3E0,9.12E3,2.0775E4,1.4774E4,4.6235E4,8.2112E4,5.915E4,1.6508E4,8.7046E4,2.31107E5,3.5615E4,1E0,1E0,1E0,8E0,5E0,2E0,1E0,5E0],"tree_param":{"num_deleted":"0","num_feature":"4","num_nodes":"105","size_leaf_vector":"0"}},{"base_weights":[-4.802899E-1,-3.6569512E-1,-7.0062155E-1,-4.8111662E-1,3.2824522E-1,-7.021089E-1,3.451654E0,-7.288903E-1,-3.6847448E-1,2.2514957E-1,3.785668E0,-6.1790735E-1,-7.1692747E-1,1.4937633E2,-6.6450846E-1,-7.4431616E-1,-5.6701785E-1,8.975834E0,-3.7131345E-1,4.657975E-1,-6.5843624E-1,3.4885929E0,7.327966E1,-7.437248E-1,-5.963577E-1,-6.8868417E-1,-7.361261E-1,2.5810373E2,3.3048632E0,-3.338018E-1,-6.857853E-1,-7.4669176E-1,-7.3245114E-1,-4.2569363E-1,-7.490244E-1,9.468432E0,7.914247E-1,-4.451018E-1,-1.7987214E-1,1.9978294E-1,1.0908598E0,-6.765313E-1,-6.110986E-1,3.220224E0,1.2638299E1,9.2687035E1,-3.90281E-1,-5.561687E-1,-6.160413E-1,-7.33807E-1,-6.271238E-1,-7.3183066E-1,-7.483848E-1,6.215095E0,2.6308766E-1,-6.392816E-1,8.9773126E-2,-6.914534E-1,-4.040068E-1,-7.434095E-1,-7.4929047E-1,-7.3393154E-1,-7.0528364E-1,-4.8339137E-1,-8.613072E-2,9.897531E0,6.6910872E0,6.9606E0,-6.9310987E-1,-5.9573215E-1,-4.1383755E-1,-4.1994476E-1,-4.885557E-2,9.858414E-3,4.4333473E-1,2.1067181E-1,1.3939552E0,-6.6581595E-1,-7.1575356E-1,-5.8723223E-1,-6.8629134E-1,2.5564027E0,6.257645E0,3.0236574E1,3.885088E0,-1.6088171E-1,-4.6476018E-1,-6.167791E-1,-5.295329E-1,-5.587085E-1,-6.34349E-1,-7.445945E-1,-7.188196E-1,-3.6316124E-1,-6.771787E-1,-7.334998E-1,-7.210816E-1,-1.6068247E-1,5.5531394E-1,-1.8570825E-1,-6.690444E-1,9.375711E-3,2.2064358E-1,3.8770258E-1,-6.0057545E-1],"categories":[],"categories_nodes":[],"categories_segments":[],"categories_sizes":[],"default_left":[true,true,true,true,true,true,true,true,true,true,true,true,true,true,true,true,true,true,true,true,true,true,true,false,true,true,true,false,true,true,true,true,true,true,false,true,true,true,true,true,true,true,true,true,true,false,true,true,true,true,true,true,false,false,true,true,true,false,true,false,false,false,false,false,false,false,false,false,false,false,false,false,false,false,false,false,false,false,false,false,false,false,false,false,false,false,false,false,false,false,false,false,false,false,false,false,false,false,false,false,false,false,false,false,false],"id":4,"left_children":[1,3,5,7,9,11,13,15,17,19,21,23,25,27,29,31,33,35,37,39,41,43,45,-1,47,49,51,-1,53,55,57,59,61,63,-1,65,67,69,71,73,75,77,79,81,83,-1,85,87,89,91,93,95,-1,-1,97,99,101,-1,103,-1,-1,-1,-1,-1,-1,-1,-1,-1,-1,-1,-1,-1,-1,-1,-1,-1,-1,-1,-1,-1,-1,-1,-1,-1,-1,-1,-1,-1,-1,-1,-1,-1,-1,-1,-1,-1,-1,-1,-1,-1,-1,-1,-1,-1,-1],"loss_changes":[5.2516094E4,1.0959491E5,4.3976562E3,3.2742594E4,6.955265E4,8.8721875E2,1.5326494E5,9.15125E2,2.1398805E4,4.029045E4,1.1638824E5,2.8823047E2,3.275E2,1.1032078E5,1.5231476E0,8.875E0,8.2033984E2,9.802539E2,1.138943E4,2.4762055E4,3.433008E1,1.3776391E4,3.4349914E4,0E0,7.157031E1,6.7958594E2,1.8421875E1,0E0,3.377397E1,2.2570808E0,9.278107E-2,1.828125E0,1.7304688E0,3.5187012E2,0E0,2.0906836E2,1.4219977E2,2.740414E3,7.0553433E3,4.8322227E3,1.1860254E4,1.1852539E1,1.9744629E1,1.1009156E4,2.4529152E4,0E0,2.7741373E-2,4.79375E1,6.3683594E1,2.2304688E1,1.3679883E3,4.265625E0,0E0,0E0,4.607395E-1,1.0748863E-2,8.210448E-2,0E0,1.3222214E0,0E0,0E0,0E0,0E0,0E0,0E0,0E0,0E0,0E0,0E0,0E0,0E0,0E0,0E0,0E0,0E0,0E0,0E0,0E0,0E0,0E0,0E0,0E0,0E0,0E0,0E0,0E0,0E0,0E0,0E0,0E0,0E0,0E0,0E0,0E0,0E0,0E0,0E0,0E0,0E0,0E0,0E0,0E0,0E0,0E0,0E0],"parents":[2147483647,0,0,1,1,2,2,3,3,4,4,5,5,6,6,7,7,8,8,9,9,10,10,11,11,12,12,13,13,14,14,15,15,16,16,17,17,18,18,19,19,20,20,21,21,22,22,24,24,25,25,26,26,28,28,29,29,30,30,31,31,32,32,33,33,35,35,36,36,37,37,38,38,39,39,40,40,41,41,42,42,43,43,44,44,46,46,47,47,48,48,49,49,50,50,51,51,54,54,55,55,56,56,58,58],"right_children":[2,4,6,8,10,12,14,16,18,20,22,24,26,28,30,32,34,36,38,40,42,44,46,-1,48,50,52,-1,54,56,58,60,62,64,-1,66,68,70,72,74,76,78,80,82,84,-1,86,88,90,92,94,96,-1,-1,98,100,102,-1,104,-1,-1,-1,-1,-1,-1,-1,-1,-1,-1,-1,-1,-1,-1,-1,-1,-1,-1,-1,-1,-1,-1,-1,-1,-1,-1,-1,-1,-1,-1,-1,-1,-1,-1,-1,-1,-1,-1,-1,-1,-1,-1,-1,-1,-1,-1],"split_conditions":[-2.215962E-1,-2.4964991E-1,9.135653E-1,-3.2353914E-1,-2.3858604E-1,-1.6836622E-1,2.10635E-2,-3.8756204E-1,-2.0369132E-1,-2.4421535E-1,9.4973855E-2,-2.0253292E-1,3.247955E-1,6.452971E-1,-4.6083778E-1,-4.352305E-1,-3.600248E-1,6.7453414E-1,-1.1973891E-1,-3.2439822E-1,2.993254E-1,3.352411E-2,2.0674144E-1,-7.4372482E-3,-3.8985032E-1,-1.3229001E-2,1.5316797E0,2.5810373E0,1.4227196E0,-4.8032913E-1,1.537027E0,-4.819376E-1,9.504101E-3,-1.8795867E-1,-7.4902438E-3,-2.042903E-1,-2.050115E-1,-3.4996428E-2,-2.633711E-1,-5.388032E-1,-3.329829E-2,7.434821E-3,1.5040487E-2,1.0441178E-1,-1.4410311E-1,9.2687035E-1,1.0060784E-1,-1.842117E-1,-1.9307673E-1,-1.171169E-1,1.365485E-2,5.3649493E-2,-7.4838474E-3,6.2150948E-2,1.8245806E0,9.347266E-1,1.5038359E0,-6.9145337E-3,1.566264E0,-7.434095E-3,-7.4929046E-3,-7.339315E-3,-7.0528365E-3,-4.8339134E-3,-8.613072E-4,9.89753E-2,6.691087E-2,6.9606E-2,-6.9310986E-3,-5.9573213E-3,-4.1383756E-3,-4.1994476E-3,-4.885557E-4,9.858413E-5,4.4333474E-3,2.106718E-3,1.3939552E-2,-6.658159E-3,-7.1575353E-3,-5.8723222E-3,-6.8629133E-3,2.5564026E-2,6.257645E-2,3.0236572E-1,3.8850877E-2,-1.6088171E-3,-4.647602E-3,-6.167791E-3,-5.295329E-3,-5.5870847E-3,-6.3434895E-3,-7.445945E-3,-7.188196E-3,-3.6316123E-3,-6.7717866E-3,-7.334998E-3,-7.210816E-3,-1.6068247E-3,5.5531394E-3,-1.8570825E-3,-6.6904435E-3,9.375711E-5,2.2064357E-3,3.8770258E-3,-6.005754E-3],"split_indices":[2,2,0,2,2,2,2,2,0,2,0,2,2,1,1,2,2,1,1,1,1,0,1,0,3,2,2,0,0,1,1,2,0,1,0,0,0,0,2,1,0,0,0,1,1,0,0,2,2,2,2,0,0,0,0,0,0,0,1,0,0,0,0,0,0,0,0,0,0,0,0,0,0,0,0,0,0,0,0,0,0,0,0,0,0,0,0,0,0,0,0,0,0,0,0,0,0,0,0,0,0,0,0,0,0],"split_type":[0,0,0,0,0,0,0,0,0,0,0,0,0,0,0,0,0,0,0,0,0,0,0,0,0,0,0,0,0,0,0,0,0,0,0,0,0,0,0,0,0,0,0,0,0,0,0,0,0,0,0,0,0,0,0,0,0,0,0,0,0,0,0,0,0,0,0,0,0,0,0,0,0,0,0,0,0,0,0,0,0,0,0,0,0,0,0,0,0,0,0,0,0,0,0,0,0,0,0,0,0,0,0,0,0],"sum_hessian":[2.079949E6,1.368298E6,7.11651E5,1.173168E6,1.9513E5,7.11397E5,2.54E2,3.66653E5,8.06515E5,1.89481E5,5.649E3,1.06468E5,6.04929E5,6E0,2.48E2,3.34749E5,3.1904E4,2.44E2,8.06271E5,1.48922E5,4.0559E4,5.626E3,2.3E1,1.5564E4,9.0904E4,2.44816E5,3.60113E5,3E0,3E0,1.6E1,2.32E2,2.78854E5,5.5895E4,1.7961E4,1.3943E4,2.3E2,1.4E1,5.81961E5,2.2431E5,1.04465E5,4.4457E4,2.9333E4,1.1226E4,5.467E3,1.59E2,1.8E1,5E0,2.9895E4,6.1009E4,1.41262E5,1.03554E5,2.66715E5,9.3398E4,1E0,2E0,9E0,7E0,2.26E2,6E0,1.23348E5,1.55506E5,5.2982E4,2.913E3,1.5352E4,2.609E3,1.97E2,3.3E1,2E0,1.2E1,1.00025E5,4.81936E5,7.9194E4,1.45116E5,5.8695E4,4.577E4,1.1388E4,3.3069E4,2.3053E4,6.28E3,8.528E3,2.698E3,4.488E3,9.79E2,5.2E1,1.07E2,2E0,3E0,9.12E3,2.0775E4,1.4774E4,4.6235E4,8.2112E4,5.915E4,1.6508E4,8.7046E4,2.30807E5,3.5908E4,1E0,1E0,1E0,8E0,5E0,2E0,1E0,5E0],"tree_param":{"num_deleted":"0","num_feature":"4","num_nodes":"105","size_leaf_vector":"0"}},{"base_weights":[-4.7548506E-1,-3.6203706E-1,-6.9361174E-1,-4.763053E-1,3.2496965E-1,-6.9508797E-1,3.427458E0,-7.216015E-1,-3.6478946E-1,2.2289805E-1,3.7480502E0,-6.1172855E-1,-7.097582E-1,1.4826073E2,-6.579248E-1,-7.368731E-1,-5.6134814E-1,8.887009E0,-3.6760032E-1,4.6113968E-1,-6.518525E-1,3.4537833E0,7.258523E1,-7.362881E-1,-5.903944E-1,-6.817974E-1,-7.2876495E-1,2.5616794E2,3.288339E0,-3.3083126E-1,-6.789663E-1,-7.392249E-1,-7.251269E-1,-4.2143703E-1,-7.415347E-1,9.374467E0,7.8768873E-1,-4.406508E-1,-1.7807344E-1,1.9778515E-1,1.0799515E0,-6.697664E-1,-6.0498875E-1,3.1880379E0,1.2514049E1,9.1808945E1,-3.874209E-1,-5.506073E-1,-6.098811E-1,-7.264691E-1,-6.2085265E-1,-7.2451264E-1,-7.4090147E-1,6.1840196E0,2.6177222E-1,-6.337435E-1,8.9162916E-2,-6.8456936E-1,-4.0027085E-1,-7.359755E-1,-7.417976E-1,-7.2659236E-1,-6.9823325E-1,-4.721612E-1,-4.2170707E-2,9.799055E0,6.626144E0,6.9141955E0,-6.867119E-1,-5.903335E-1,-4.098136E-1,-4.1574538E-1,-4.836702E-2,9.759826E-3,4.389015E-1,1.7874053E-1,1.3702193E0,-6.5943146E-1,-7.096318E-1,-5.809897E-1,-6.782957E-1,2.5308444E0,6.1951327E0,2.9939913E1,3.8465967E0,-1.5980917E-1,-4.6127447E-1,-6.10612E-1,-5.242379E-1,-5.531218E-1,-6.280057E-1,-7.3714864E-1,-7.1163154E-1,-3.5952985E-1,-6.7040694E-1,-7.26131E-1,-7.1366584E-1,-1.5987906E-1,5.525374E-1,-1.8477972E-1,-6.6309726E-1,9.2975795E-3,2.1917261E-1,3.8576406E-1,-5.955707E-1],"categories":[],"categories_nodes":[],"categories_segments":[],"categories_sizes":[],"default_left":[true,true,true,true,true,true,true,true,true,true,true,true,true,true,true,true,true,true,true,true,true,true,true,false,true,true,true,false,true,true,true,true,true,true,false,true,true,true,true,true,true,true,true,true,true,false,true,true,true,true,true,true,false,false,true,true,true,false,true,false,false,false,false,false,false,false,false,false,false,false,false,false,false,false,false,false,false,false,false,false,false,false,false,false,false,false,false,false,false,false,false,false,false,false,false,false,false,false,false,false,false,false,false,false,false],"id":5,"left_children":[1,3,5,7,9,11,13,15,17,19,21,23,25,27,29,31,33,35,37,39,41,43,45,-1,47,49,51,-1,53,55,57,59,61,63,-1,65,67,69,71,73,75,77,79,81,83,-1,85,87,89,91,93,95,-1,-1,97,99,101,-1,103,-1,-1,-1,-1,-1,-1,-1,-1,-1,-1,-1,-1,-1,-1,-1,-1,-1,-1,-1,-1,-1,-1,-1,-1,-1,-1,-1,-1,-1,-1,-1,-1,-1,-1,-1,-1,-1,-1,-1,-1,-1,-1,-1,-1,-1,-1],"loss_changes":[5.147025E4,1.0741581E5,4.3317812E3,3.2091094E4,6.81778E4,8.695625E2,1.5098088E5,8.9690625E2,2.0977203E4,3.948873E4,1.1419857E5,2.824922E2,3.2096875E2,1.0866258E5,1.4891281E0,8.703125E0,8.040156E2,9.5989453E2,1.1162781E4,2.4269307E4,3.364453E1,1.3508367E4,3.3702914E4,0E0,7.0146484E1,6.660625E2,1.8046875E1,0E0,3.343708E1,2.2192698E0,8.982849E-2,1.796875E0,1.6972656E0,3.4553247E2,0E0,2.04625E2,1.4024193E2,2.6859766E3,6.9149443E3,4.7360645E3,1.1629637E4,1.1618164E1,1.9357422E1,1.0790418E4,2.405089E4,0E0,2.7143776E-2,4.69834E1,6.2416016E1,2.1859375E1,1.3407617E3,4.171875E0,0E0,0E0,4.5614362E-1,9.260654E-3,8.1028365E-2,0E0,1.3043371E0,0E0,0E0,0E0,0E0,0E0,0E0,0E0,0E0,0E0,0E0,0E0,0E0,0E0,0E0,0E0,0E0,0E0,0E0,0E0,0E0,0E0,0E0,0E0,0E0,0E0,0E0,0E0,0E0,0E0,0E0,0E0,0E0,0E0,0E0,0E0,0E0,0E0,0E0,0E0,0E0,0E0,0E0,0E0,0E0,0E0,0E0],"parents":[2147483647,0,0,1,1,2,2,3,3,4,4,5,5,6,6,7,7,8,8,9,9,10,10,11,11,12,12,13,13,14,14,15,15,16,16,17,17,18,18,19,19,20,20,21,21,22,22,24,24,25,25,26,26,28,28,29,29,30,30,31,31,32,32,33,33,35,35,36,36,37,37,38,38,39,39,40,40,41,41,42,42,43,43,44,44,46,46,47,47,48,48,49,49,50,50,51,51,54,54,55,55,56,56,58,58],"right_children":[2,4,6,8,10,12,14,16,18,20,22,24,26,28,30,32,34,36,38,40,42,44,46,-1,48,50,52,-1,54,56,58,60,62,64,-1,66,68,70,72,74,76,78,80,82,84,-1,86,88,90,92,94,96,-1,-1,98,100,102,-1,104,-1,-1,-1,-1,-1,-1,-1,-1,-1,-1,-1,-1,-1,-1,-1,-1,-1,-1,-1,-1,-1,-1,-1,-1,-1,-1,-1,-1,-1,-1,-1,-1,-1,-1,-1,-1,-1,-1,-1,-1,-1,-1,-1,-1,-1,-1],"split_conditions":[-2.215962E-1,-2.4964991E-1,9.135653E-1,-3.2353914E-1,-2.3858604E-1,-1.6836622E-1,2.10635E-2,-3.8756204E-1,-2.0369132E-1,-2.4421535E-1,9.4973855E-2,-2.0253292E-1,3.247955E-1,6.452971E-1,-4.6083778E-1,-4.352305E-1,-3.600248E-1,6.7453414E-1,-1.1973891E-1,-3.2439822E-1,2.993254E-1,3.352411E-2,2.0674144E-1,-7.3628807E-3,-3.8985032E-1,-1.3229001E-2,1.6653113E0,2.5616794E0,1.4227196E0,-4.8032913E-1,1.537027E0,-4.819376E-1,9.504101E-3,-1.4897595E-1,-7.415347E-3,-2.042903E-1,-2.050115E-1,-3.510325E-2,-2.633711E-1,-5.388032E-1,-3.4615334E-2,8.294216E-3,1.43227335E-2,1.0441178E-1,-1.4410311E-1,9.1808945E-1,1.0060784E-1,-1.842117E-1,-1.9307673E-1,-1.171169E-1,1.365485E-2,5.5528905E-2,-7.4090147E-3,6.1840195E-2,1.8245806E0,9.347266E-1,1.5038359E0,-6.8456936E-3,1.566264E0,-7.3597548E-3,-7.417976E-3,-7.2659235E-3,-6.982332E-3,-4.7216117E-3,-4.2170705E-4,9.799055E-2,6.626144E-2,6.9141954E-2,-6.867119E-3,-5.9033353E-3,-4.098136E-3,-4.157454E-3,-4.8367018E-4,9.7598255E-5,4.389015E-3,1.7874052E-3,1.3702193E-2,-6.5943142E-3,-7.096318E-3,-5.809897E-3,-6.7829564E-3,2.5308443E-2,6.1951324E-2,2.993991E-1,3.8465966E-2,-1.5980917E-3,-4.612745E-3,-6.1061196E-3,-5.2423785E-3,-5.531218E-3,-6.2800567E-3,-7.371486E-3,-7.1163154E-3,-3.5952984E-3,-6.704069E-3,-7.2613102E-3,-7.1366583E-3,-1.5987905E-3,5.525374E-3,-1.8477972E-3,-6.6309725E-3,9.2975795E-5,2.1917261E-3,3.8576405E-3,-5.955707E-3],"split_indices":[2,2,0,2,2,2,2,2,0,2,0,2,2,1,1,2,2,1,1,1,1,0,1,0,3,2,2,0,0,1,1,2,0,1,0,0,0,0,2,1,0,0,0,1,1,0,0,2,2,2,2,0,0,0,0,0,0,0,1,0,0,0,0,0,0,0,0,0,0,0,0,0,0,0,0,0,0,0,0,0,0,0,0,0,0,0,0,0,0,0,0,0,0,0,0,0,0,0,0,0,0,0,0,0,0],"split_type":[0,0,0,0,0,0,0,0,0,0,0,0,0,0,0,0,0,0,0,0,0,0,0,0,0,0,0,0,0,0,0,0,0,0,0,0,0,0,0,0,0,0,0,0,0,0,0,0,0,0,0,0,0,0,0,0,0,0,0,0,0,0,0,0,0,0,0,0,0,0,0,0,0,0,0,0,0,0,0,0,0,0,0,0,0,0,0,0,0,0,0,0,0,0,0,0,0,0,0,0,0,0,0,0,0],"sum_hessian":[2.079949E6,1.368298E6,7.11651E5,1.173168E6,1.9513E5,7.11397E5,2.54E2,3.66653E5,8.06515E5,1.89481E5,5.649E3,1.06468E5,6.04929E5,6E0,2.48E2,3.34749E5,3.1904E4,2.44E2,8.06271E5,1.48922E5,4.0559E4,5.626E3,2.3E1,1.5564E4,9.0904E4,2.44816E5,3.60113E5,3E0,3E0,1.6E1,2.32E2,2.78854E5,5.5895E4,1.7961E4,1.3943E4,2.3E2,1.4E1,5.81961E5,2.2431E5,1.04465E5,4.4457E4,2.9333E4,1.1226E4,5.467E3,1.59E2,1.8E1,5E0,2.9895E4,6.1009E4,1.41262E5,1.03554E5,2.66722E5,9.3391E4,1E0,2E0,9E0,7E0,2.26E2,6E0,1.23348E5,1.55506E5,5.2982E4,2.913E3,1.5842E4,2.119E3,1.97E2,3.3E1,2E0,1.2E1,9.941E4,4.82551E5,7.9194E4,1.45116E5,5.8695E4,4.577E4,1.0831E4,3.3626E4,2.3308E4,6.025E3,8.464E3,2.762E3,4.488E3,9.79E2,5.2E1,1.07E2,2E0,3E0,9.12E3,2.0775E4,1.4774E4,4.6235E4,8.2112E4,5.915E4,1.6508E4,8.7046E4,2.32036E5,3.4686E4,1E0,1E0,1E0,8E0,5E0,2E0,1E0,5E0],"tree_param":{"num_deleted":"0","num_feature":"4","num_nodes":"105","size_leaf_vector":"0"}},{"base_weights":[-4.7072825E-1,-3.584156E-1,-6.866721E-1,-4.715421E-1,3.2172677E-1,-6.881372E-1,3.4034278E0,-7.1438557E-1,-3.611413E-1,2.2066905E-1,3.7108064E0,-6.0561156E-1,-7.0266074E-1,1.4715347E2,-6.5140635E-1,-7.295044E-1,-5.5573505E-1,8.799063E0,-3.6392432E-1,4.5652843E-1,-6.453346E-1,3.419321E0,7.189737E1,-7.2892565E-1,-5.844907E-1,-6.7497957E-1,-7.214774E-1,2.5424667E2,3.271897E0,-3.2788733E-1,-6.72215E-1,-7.3183274E-1,-7.178759E-1,-4.1722295E-1,-7.341199E-1,9.281433E0,7.8396356E-1,-4.362443E-1,-1.7629273E-1,1.6835995E-1,1.0108663E0,-6.6306925E-1,-5.9893996E-1,3.0605752E0,1.0010925E1,9.093918E1,-3.8458183E-1,-5.4510164E-1,-6.037825E-1,-7.192045E-1,-6.146442E-1,-7.1726733E-1,-7.334921E-1,6.153099E0,2.604634E-1,-6.2825394E-1,8.855687E-2,-6.777538E-1,-3.9656785E-1,-7.286158E-1,-7.343797E-1,-7.1932656E-1,-6.912533E-1,-4.7383648E-1,-8.404093E-2,9.701559E0,6.5618315E0,6.868101E0,-6.803731E-1,-5.8388275E-1,-4.0560105E-1,-4.1158795E-1,-4.7883365E-2,-7.340139E-2,3.2586953E-1,1.769149E-1,1.2841141E0,-6.522639E-1,-7.0046765E-1,-5.7554406E-1,-6.726506E-1,2.435325E0,6.0802984E0,2.432414E1,6.092016E0,-1.5874378E-1,-4.5781493E-1,-6.0450655E-1,-5.189957E-1,-5.47591E-1,-6.2172574E-1,-7.297773E-1,-7.0451534E-1,-3.5593477E-1,-6.6370296E-1,-7.1890366E-1,-7.067295E-1,-1.5907964E-1,5.497747E-1,-1.8385582E-1,-6.572031E-1,9.2200935E-3,2.1771146E-1,3.8383526E-1,-5.906076E-1],"categories":[],"categories_nodes":[],"categories_segments":[],"categories_sizes":[],"default_left":[true,true,true,true,true,true,true,true,true,true,true,true,true,true,true,true,true,true,true,true,true,true,true,false,true,true,true,false,true,true,true,true,true,true,false,true,true,true,true,true,true,true,true,true,true,false,true,true,true,true,true,true,false,false,true,true,true,false,true,false,false,false,false,false,false,false,false,false,false,false,false,false,false,false,false,false,false,false,false,false,false,false,false,false,false,false,false,false,false,false,false,false,false,false,false,false,false,false,false,false,false,false,false,false,false],"id":6,"left_children":[1,3,5,7,9,11,13,15,17,19,21,23,25,27,29,31,33,35,37,39,41,43,45,-1,47,49,51,-1,53,55,57,59,61,63,-1,65,67,69,71,73,75,77,79,81,83,-1,85,87,89,91,93,95,-1,-1,97,99,101,-1,103,-1,-1,-1,-1,-1,-1,-1,-1,-1,-1,-1,-1,-1,-1,-1,-1,-1,-1,-1,-1,-1,-1,-1,-1,-1,-1,-1,-1,-1,-1,-1,-1,-1,-1,-1,-1,-1,-1,-1,-1,-1,-1,-1,-1,-1,-1],"loss_changes":[5.044525E4,1.0528E5,4.2669375E3,3.1452531E4,6.6830125E4,8.5221875E2,1.487309E5,8.790469E2,2.0563898E4,3.8702957E4,1.12050086E5,2.76875E2,3.1459375E2,1.0702931E5,1.4558563E0,8.53125E0,7.880176E2,9.399531E2,1.0940641E4,2.3789195E4,3.2976562E1,1.3275586E4,3.3068062E4,0E0,6.874805E1,6.528125E2,1.7703125E1,0E0,3.310353E1,2.1820974E0,8.695984E-2,1.75E0,1.6621094E0,3.387705E2,0E0,2.0027344E2,1.3831125E2,2.6326406E3,6.7773384E3,3.731342E3,1.16070625E4,1.1397461E1,1.8974121E1,1.0063777E4,1.6118551E4,0E0,2.6557624E-2,4.6049805E1,6.1171875E1,2.1429688E1,1.314082E3,4.09375E0,0E0,0E0,4.5159364E-1,7.818937E-3,7.996637E-2,0E0,1.2867007E0,0E0,0E0,0E0,0E0,0E0,0E0,0E0,0E0,0E0,0E0,0E0,0E0,0E0,0E0,0E0,0E0,0E0,0E0,0E0,0E0,0E0,0E0,0E0,0E0,0E0,0E0,0E0,0E0,0E0,0E0,0E0,0E0,0E0,0E0,0E0,0E0,0E0,0E0,0E0,0E0,0E0,0E0,0E0,0E0,0E0,0E0],"parents":[2147483647,0,0,1,1,2,2,3,3,4,4,5,5,6,6,7,7,8,8,9,9,10,10,11,11,12,12,13,13,14,14,15,15,16,16,17,17,18,18,19,19,20,20,21,21,22,22,24,24,25,25,26,26,28,28,29,29,30,30,31,31,32,32,33,33,35,35,36,36,37,37,38,38,39,39,40,40,41,41,42,42,43,43,44,44,46,46,47,47,48,48,49,49,50,50,51,51,54,54,55,55,56,56,58,58],"right_children":[2,4,6,8,10,12,14,16,18,20,22,24,26,28,30,32,34,36,38,40,42,44,46,-1,48,50,52,-1,54,56,58,60,62,64,-1,66,68,70,72,74,76,78,80,82,84,-1,86,88,90,92,94,96,-1,-1,98,100,102,-1,104,-1,-1,-1,-1,-1,-1,-1,-1,-1,-1,-1,-1,-1,-1,-1,-1,-1,-1,-1,-1,-1,-1,-1,-1,-1,-1,-1,-1,-1,-1,-1,-1,-1,-1,-1,-1,-1,-1,-1,-1,-1,-1,-1,-1,-1,-1],"split_conditions":[-2.215962E-1,-2.4964991E-1,9.135653E-1,-3.2353914E-1,-2.3858604E-1,-1.6836622E-1,2.10635E-2,-3.8756204E-1,-2.0369132E-1,-2.4421535E-1,9.4973855E-2,-2.0253292E-1,3.247955E-1,6.452971E-1,-4.6083778E-1,-4.352305E-1,-3.600248E-1,6.7453414E-1,-1.1973891E-1,-3.7312663E-1,2.993254E-1,1.8945992E-2,2.0674144E-1,-7.2892564E-3,-3.8985032E-1,-1.3229001E-2,1.5316797E0,2.5424666E0,1.4227196E0,-4.8032913E-1,1.537027E0,-4.819376E-1,9.504101E-3,-1.8795867E-1,-7.3411986E-3,-2.042903E-1,-2.050115E-1,-3.4996428E-2,-2.633711E-1,-5.972773E-1,-3.3256844E-2,6.588896E-3,1.5040487E-2,1.0441178E-1,-5.875316E-1,9.0939176E-1,1.0060784E-1,-1.842117E-1,-1.9307673E-1,-1.171169E-1,1.365485E-2,5.3649828E-2,-7.3349206E-3,6.153099E-2,1.8245806E0,9.347266E-1,1.5038359E0,-6.777538E-3,1.566264E0,-7.286158E-3,-7.343797E-3,-7.1932655E-3,-6.9125327E-3,-4.738365E-3,-8.404093E-4,9.701559E-2,6.5618314E-2,6.868101E-2,-6.8037305E-3,-5.838827E-3,-4.0560104E-3,-4.1158795E-3,-4.7883365E-4,-7.340139E-4,3.2586951E-3,1.769149E-3,1.2841141E-2,-6.5226387E-3,-7.0046764E-3,-5.7554403E-3,-6.7265057E-3,2.4353249E-2,6.080298E-2,2.432414E-1,6.092016E-2,-1.5874378E-3,-4.5781494E-3,-6.0450654E-3,-5.189957E-3,-5.4759094E-3,-6.217257E-3,-7.2977724E-3,-7.045153E-3,-3.5593477E-3,-6.6370293E-3,-7.1890363E-3,-7.067295E-3,-1.5907964E-3,5.497747E-3,-1.8385581E-3,-6.5720305E-3,9.2200935E-5,2.1771146E-3,3.8383524E-3,-5.9060757E-3],"split_indices":[2,2,0,2,2,2,2,2,0,2,0,2,2,1,1,2,2,1,1,1,1,0,1,0,3,2,2,0,0,1,1,2,0,1,0,0,0,0,2,1,0,0,0,1,1,0,0,2,2,2,2,0,0,0,0,0,0,0,1,0,0,0,0,0,0,0,0,0,0,0,0,0,0,0,0,0,0,0,0,0,0,0,0,0,0,0,0,0,0,0,0,0,0,0,0,0,0,0,0,0,0,0,0,0,0],"split_type":[0,0,0,0,0,0,0,0,0,0,0,0,0,0,0,0,0,0,0,0,0,0,0,0,0,0,0,0,0,0,0,0,0,0,0,0,0,0,0,0,0,0,0,0,0,0,0,0,0,0,0,0,0,0,0,0,0,0,0,0,0,0,0,0,0,0,0,0,0,0,0,0,0,0,0,0,0,0,0,0,0,0,0,0,0,0,0,0,0,0,0,0,0,0,0,0,0,0,0,0,0,0,0,0,0],"sum_hessian":[2.079949E6,1.368298E6,7.11651E5,1.173168E6,1.9513E5,7.11397E5,2.54E2,3.66653E5,8.06515E5,1.89481E5,5.649E3,1.06468E5,6.04929E5,6E0,2.48E2,3.34749E5,3.1904E4,2.44E2,8.06271E5,1.48922E5,4.0559E4,5.626E3,2.3E1,1.5564E4,9.0904E4,2.44816E5,3.60113E5,3E0,3E0,1.6E1,2.32E2,2.78854E5,5.5895E4,1.7961E4,1.3943E4,2.3E2,1.4E1,5.81961E5,2.2431E5,9.7986E4,5.0936E4,2.9333E4,1.1226E4,5.337E3,2.89E2,1.8E1,5E0,2.9895E4,6.1009E4,1.41262E5,1.03554E5,2.66715E5,9.3398E4,1E0,2E0,9E0,7E0,2.26E2,6E0,1.23348E5,1.55506E5,5.2982E4,2.913E3,1.5352E4,2.609E3,1.97E2,3.3E1,2E0,1.2E1,1.00025E5,4.81936E5,7.9194E4,1.45116E5,3.8655E4,5.9331E4,1.2571E4,3.8365E4,2.2772E4,6.561E3,8.528E3,2.698E3,4.423E3,9.14E2,6.1E1,2.28E2,2E0,3E0,9.12E3,2.0775E4,1.4774E4,4.6235E4,8.2112E4,5.915E4,1.6508E4,8.7046E4,2.30808E5,3.5907E4,1E0,1E0,1E0,8E0,5E0,2E0,1E0,5E0],"tree_param":{"num_deleted":"0","num_feature":"4","num_nodes":"105","size_leaf_vector":"0"}},{"base_weights":[-4.6601906E-1,-3.5483038E-1,-6.798018E-1,-4.6682653E-1,3.1851608E-1,-6.8125594E-1,3.3795621E0,-7.0724183E-1,-3.575296E-1,2.184623E-1,3.673927E0,-5.995557E-1,-6.956342E-1,1.460545E2,-6.449525E-1,-7.2220945E-1,-5.5017805E-1,8.129301E0,-3.6047658E-1,4.5196325E-1,-6.388819E-1,3.385197E0,7.1216034E1,-7.2163683E-1,-5.7864606E-1,-6.682298E-1,-7.1426266E-1,2.5233984E2,3.2555377E0,-3.2496968E-1,-6.655308E-1,-7.245145E-1,-7.1069735E-1,-4.13051E-1,-7.267792E-1,9.175587E0,2.3088737E0,-4.3839255E-1,-1.8937796E-1,1.9355527E-1,1.059152E0,-6.56439E-1,-5.9295166E-1,3.1240623E0,1.2288319E1,9.007765E1,-3.817636E-1,-5.3965104E-1,-5.977448E-1,-7.120125E-1,-6.0849786E-1,-7.10095E-1,-7.261577E-1,6.122334E0,2.5916103E-1,-6.2281245E-1,8.795496E-2,-6.7100614E-1,-3.9289758E-1,-7.213297E-1,-7.2703594E-1,-7.121334E-1,-6.8434316E-1,-4.6282238E-1,-4.0909205E-2,9.671578E0,8.061177E0,1.1303971E1,-3.2712224E-1,-5.8651483E-1,-4.0897405E-1,-5.3455114E-1,-1.0875364E-1,9.033054E-3,4.301794E-1,1.8160667E-1,1.3459523E0,-6.46304E-1,-6.955331E-1,-5.694257E-1,-6.648136E-1,2.4796896E0,6.072496E0,2.9459112E1,3.7481308E0,-1.5768547E-1,-4.543813E-1,-6.0392106E-1,-5.157671E-1,-5.421154E-1,-6.155086E-1,-7.224796E-1,-6.974703E-1,-3.5237563E-1,-6.5706605E-1,-7.11694E-1,-6.995325E-1,-1.5828425E-1,5.470258E-1,-1.8293653E-1,-6.513613E-1,9.143253E-3,2.1626006E-1,3.8191608E-1,-5.8568585E-1],"categories":[],"categories_nodes":[],"categories_segments":[],"categories_sizes":[],"default_left":[true,true,true,true,true,true,true,true,true,true,true,true,true,true,true,true,true,true,true,true,true,true,true,false,true,true,true,false,true,true,true,true,true,true,false,true,true,true,true,true,true,true,true,true,true,false,true,true,true,true,true,true,false,false,true,true,true,false,true,false,false,false,false,false,false,false,false,false,false,false,false,false,false,false,false,false,false,false,false,false,false,false,false,false,false,false,false,false,false,false,false,false,false,false,false,false,false,false,false,false,false,false,false,false,false],"id":7,"left_children":[1,3,5,7,9,11,13,15,17,19,21,23,25,27,29,31,33,35,37,39,41,43,45,-1,47,49,51,-1,53,55,57,59,61,63,-1,65,67,69,71,73,75,77,79,81,83,-1,85,87,89,91,93,95,-1,-1,97,99,101,-1,103,-1,-1,-1,-1,-1,-1,-1,-1,-1,-1,-1,-1,-1,-1,-1,-1,-1,-1,-1,-1,-1,-1,-1,-1,-1,-1,-1,-1,-1,-1,-1,-1,-1,-1,-1,-1,-1,-1,-1,-1,-1,-1,-1,-1,-1,-1],"loss_changes":[4.9440656E4,1.0318661E5,4.2030312E3,3.0826688E4,6.550888E4,8.3528125E2,1.4651453E5,8.615625E2,2.0174242E4,3.7932824E4,1.0994205E5,2.7136328E2,3.0834375E2,1.0542055E5,1.423317E0,8.359375E0,7.7233594E2,1.6839668E3,1.0748117E4,2.3366174E4,3.231836E1,1.304391E4,3.2445195E4,0E0,6.737695E1,6.398203E2,1.734375E1,0E0,3.277334E1,2.1455522E0,8.417511E-2,1.71875E0,1.6289062E0,3.326731E2,0E0,5.3035156E1,1.0469836E3,2.4136875E3,7.0204805E3,4.5612324E3,1.1188957E4,1.1172852E1,1.8601807E1,1.0373543E4,2.3352273E4,0E0,2.5982916E-2,4.55791E1,5.995508E1,2.1E1,1.2879258E3,4.015625E0,0E0,0E0,4.470889E-1,6.421566E-3,7.891822E-2,0E0,1.2693076E0,0E0,0E0,0E0,0E0,0E0,0E0,0E0,0E0,0E0,0E0,0E0,0E0,0E0,0E0,0E0,0E0,0E0,0E0,0E0,0E0,0E0,0E0,0E0,0E0,0E0,0E0,0E0,0E0,0E0,0E0,0E0,0E0,0E0,0E0,0E0,0E0,0E0,0E0,0E0,0E0,0E0,0E0,0E0,0E0,0E0,0E0],"parents":[2147483647,0,0,1,1,2,2,3,3,4,4,5,5,6,6,7,7,8,8,9,9,10,10,11,11,12,12,13,13,14,14,15,15,16,16,17,17,18,18,19,19,20,20,21,21,22,22,24,24,25,25,26,26,28,28,29,29,30,30,31,31,32,32,33,33,35,35,36,36,37,37,38,38,39,39,40,40,41,41,42,42,43,43,44,44,46,46,47,47,48,48,49,49,50,50,51,51,54,54,55,55,56,56,58,58],"right_children":[2,4,6,8,10,12,14,16,18,20,22,24,26,28,30,32,34,36,38,40,42,44,46,-1,48,50,52,-1,54,56,58,60,62,64,-1,66,68,70,72,74,76,78,80,82,84,-1,86,88,90,92,94,96,-1,-1,98,100,102,-1,104,-1,-1,-1,-1,-1,-1,-1,-1,-1,-1,-1,-1,-1,-1,-1,-1,-1,-1,-1,-1,-1,-1,-1,-1,-1,-1,-1,-1,-1,-1,-1,-1,-1,-1,-1,-1,-1,-1,-1,-1,-1,-1,-1,-1,-1,-1],"split_conditions":[-2.215962E-1,-2.4964991E-1,9.135653E-1,-3.2353914E-1,-2.3858604E-1,-1.6836622E-1,2.10635E-2,-3.8756204E-1,-2.0314033E-1,-2.4421535E-1,9.4973855E-2,-2.0253292E-1,3.247955E-1,6.452971E-1,-4.6083778E-1,-4.352305E-1,-3.600248E-1,-2.568954E-1,-1.9770436E-1,-3.2439822E-1,2.993254E-1,3.352411E-2,2.0674144E-1,-7.2163683E-3,-3.8985032E-1,-1.3229001E-2,1.6653113E0,2.5233984E0,1.4227196E0,-4.8032913E-1,1.537027E0,-4.819376E-1,9.504101E-3,-1.4897595E-1,-7.2677922E-3,-2.0475315E-1,-3.097797E-1,-3.510325E-2,-4.9157396E-2,-5.388032E-1,-3.4317326E-2,8.294216E-3,1.43227335E-2,1.0441178E-1,-1.4410311E-1,9.007765E-1,1.0060784E-1,-4.6083778E-1,-1.9307673E-1,-1.171169E-1,1.365485E-2,5.484587E-2,-7.261577E-3,6.122334E-2,1.8245806E0,9.347266E-1,1.5038359E0,-6.7100613E-3,1.566264E0,-7.213297E-3,-7.2703594E-3,-7.121334E-3,-6.8434314E-3,-4.628224E-3,-4.0909203E-4,9.6715786E-2,8.061177E-2,1.1303971E-1,-3.2712223E-3,-5.8651483E-3,-4.0897406E-3,-5.3455113E-3,-1.0875363E-3,9.033054E-5,4.301794E-3,1.8160666E-3,1.3459522E-2,-6.46304E-3,-6.9553307E-3,-5.694257E-3,-6.648136E-3,2.4796896E-2,6.072496E-2,2.9459113E-1,3.7481308E-2,-1.5768547E-3,-4.543813E-3,-6.0392106E-3,-5.157671E-3,-5.4211537E-3,-6.155086E-3,-7.224796E-3,-6.9747027E-3,-3.5237563E-3,-6.5706605E-3,-7.11694E-3,-6.995325E-3,-1.5828424E-3,5.4702577E-3,-1.8293653E-3,-6.513613E-3,9.143253E-5,2.1626006E-3,3.8191606E-3,-5.8568586E-3],"split_indices":[2,2,0,2,2,2,2,2,0,2,0,2,2,1,1,2,2,2,1,1,1,0,1,0,3,2,2,0,0,1,1,2,0,1,0,0,1,0,0,1,0,0,0,1,1,0,0,1,2,2,2,0,0,0,0,0,0,0,1,0,0,0,0,0,0,0,0,0,0,0,0,0,0,0,0,0,0,0,0,0,0,0,0,0,0,0,0,0,0,0,0,0,0,0,0,0,0,0,0,0,0,0,0,0,0],"split_type":[0,0,0,0,0,0,0,0,0,0,0,0,0,0,0,0,0,0,0,0,0,0,0,0,0,0,0,0,0,0,0,0,0,0,0,0,0,0,0,0,0,0,0,0,0,0,0,0,0,0,0,0,0,0,0,0,0,0,0,0,0,0,0,0,0,0,0,0,0,0,0,0,0,0,0,0,0,0,0,0,0,0,0,0,0,0,0,0,0,0,0,0,0,0,0,0,0,0,0,0,0,0,0,0,0],"sum_hessian":[2.079949E6,1.368298E6,7.11651E5,1.173168E6,1.9513E5,7.11397E5,2.54E2,3.66653E5,8.06515E5,1.89481E5,5.649E3,1.06468E5,6.04929E5,6E0,2.48E2,3.34749E5,3.1904E4,2.79E2,8.06236E5,1.48922E5,4.0559E4,5.626E3,2.3E1,1.5564E4,9.0904E4,2.44816E5,3.60113E5,3E0,3E0,1.6E1,2.32E2,2.78854E5,5.5895E4,1.7961E4,1.3943E4,2.36E2,4.3E1,5.53966E5,2.5227E5,1.04465E5,4.4457E4,2.9333E4,1.1226E4,5.467E3,1.59E2,1.8E1,5E0,2.9895E4,6.1009E4,1.41262E5,1.03554E5,2.66722E5,9.3391E4,1E0,2E0,9E0,7E0,2.26E2,6E0,1.23348E5,1.55506E5,5.2982E4,2.913E3,1.5842E4,2.119E3,1.58E2,7.8E1,9E0,3.4E1,9.1789E4,4.62177E5,4.7766E4,2.04504E5,5.8695E4,4.577E4,1.0951E4,3.3506E4,2.3308E4,6.025E3,8.464E3,2.762E3,4.488E3,9.79E2,5.2E1,1.07E2,2E0,3E0,8.093E3,2.1802E4,1.4774E4,4.6235E4,8.2112E4,5.915E4,1.6508E4,8.7046E4,2.31595E5,3.5127E4,1E0,1E0,1E0,8E0,5E0,2E0,1E0,5E0],"tree_param":{"num_deleted":"0","num_feature":"4","num_nodes":"105","size_leaf_vector":"0"}},{"base_weights":[-4.6135694E-1,-3.5128096E-1,-6.730003E-1,-4.6215805E-1,3.1533763E-1,-6.744435E-1,3.3558593E0,-7.0016956E-1,-3.53954E-1,2.1627766E-1,3.63742E0,-5.935604E-1,-6.8867797E-1,1.4496375E2,-6.3856256E-1,-7.1498746E-1,-5.4467666E-1,8.049034E0,-3.5687184E-1,4.4744378E-1,-6.3249373E-1,3.3514192E0,7.0541145E1,-7.14421E-1,-5.728598E-1,-6.6154766E-1,-7.0712006E-1,2.5044728E2,3.23926E0,-3.2207817E-1,-6.589131E-1,-7.1726936E-1,-7.035907E-1,-4.089208E-1,-7.195119E-1,9.0845785E0,2.2882798E0,-4.2787194E-1,-1.726586E-1,1.9161977E-1,1.0485609E0,-6.498751E-1,-5.8702326E-1,2.9990413E0,9.826044E0,8.922428E1,-3.789661E-1,-5.342549E-1,-5.9176755E-1,-7.048925E-1,-6.0241294E-1,-7.029938E-1,-7.1889573E-1,6.091722E0,2.5786522E-1,-6.174186E-1,8.735717E-2,-6.6432565E-1,-3.892597E-1,-7.1411645E-1,-7.1976566E-1,-7.050122E-1,-6.775021E-1,-4.644705E-1,-8.199982E-2,9.575471E0,7.9815855E0,1.1202236E1,-3.2394448E-1,-4.0412232E-1,-6.156388E-1,-4.0615702E-1,-4.521668E-2,8.942733E-3,4.258777E-1,1.7336838E-1,1.3304485E0,-6.3927877E-1,-6.8654996E-1,-5.643101E-1,-6.5999895E-1,2.386186E0,5.9589033E0,2.389942E1,5.972877E0,-1.5663426E-1,-4.5097345E-1,1.4064665E0,-5.350163E-1,-5.366946E-1,-6.0935366E-1,-7.1525484E-1,-6.904957E-1,-3.4885207E-1,-6.504954E-1,-7.0457685E-1,-6.925374E-1,-1.5749285E-1,5.4429066E-1,-1.8202186E-1,-6.4557135E-1,9.067059E-3,2.1481834E-1,3.800065E-1,-5.808051E-1],"categories":[],"categories_nodes":[],"categories_segments":[],"categories_sizes":[],"default_left":[true,true,true,true,true,true,true,true,true,true,true,true,true,true,true,true,true,true,true,true,true,true,true,false,true,true,true,false,true,true,true,true,true,true,false,true,true,true,true,true,true,true,true,true,true,false,true,true,true,true,true,true,false,false,true,true,true,false,true,false,false,false,false,false,false,false,false,false,false,false,false,false,false,false,false,false,false,false,false,false,false,false,false,false,false,false,false,false,false,false,false,false,false,false,false,false,false,false,false,false,false,false,false,false,false],"id":8,"left_children":[1,3,5,7,9,11,13,15,17,19,21,23,25,27,29,31,33,35,37,39,41,43,45,-1,47,49,51,-1,53,55,57,59,61,63,-1,65,67,69,71,73,75,77,79,81,83,-1,85,87,89,91,93,95,-1,-1,97,99,101,-1,103,-1,-1,-1,-1,-1,-1,-1,-1,-1,-1,-1,-1,-1,-1,-1,-1,-1,-1,-1,-1,-1,-1,-1,-1,-1,-1,-1,-1,-1,-1,-1,-1,-1,-1,-1,-1,-1,-1,-1,-1,-1,-1,-1,-1,-1,-1],"loss_changes":[4.8456062E4,1.01134875E5,4.1400938E3,3.0213344E4,6.4213977E4,8.18625E2,1.4433117E5,8.4440625E2,1.9777594E4,3.717801E4,1.0787366E5,2.6596484E2,3.0221875E2,1.0383594E5,1.3914871E0,8.203125E0,7.5696875E2,1.6495566E3,1.054482E4,2.2901205E4,3.1674805E1,1.2808617E4,3.1834047E4,0E0,6.603906E1,6.2708594E2,1.6984375E1,0E0,3.2446423E1,2.1096237E0,8.1474304E-2,1.6875E0,1.5957031E0,3.2615845E2,0E0,5.1898438E1,1.0281799E3,2.5948594E3,6.6744673E3,4.470466E3,1.0967824E4,1.0959961E1,1.8236328E1,9.668738E3,1.5583098E4,0E0,2.5419235E-2,4.4927734E1,5.876172E1,2.0585938E1,1.2622969E3,3.9375E0,0E0,0E0,4.4262922E-1,5.0680637E-3,7.7883825E-2,0E0,1.2521557E0,0E0,0E0,0E0,0E0,0E0,0E0,0E0,0E0,0E0,0E0,0E0,0E0,0E0,0E0,0E0,0E0,0E0,0E0,0E0,0E0,0E0,0E0,0E0,0E0,0E0,0E0,0E0,0E0,0E0,0E0,0E0,0E0,0E0,0E0,0E0,0E0,0E0,0E0,0E0,0E0,0E0,0E0,0E0,0E0,0E0,0E0],"parents":[2147483647,0,0,1,1,2,2,3,3,4,4,5,5,6,6,7,7,8,8,9,9,10,10,11,11,12,12,13,13,14,14,15,15,16,16,17,17,18,18,19,19,20,20,21,21,22,22,24,24,25,25,26,26,28,28,29,29,30,30,31,31,32,32,33,33,35,35,36,36,37,37,38,38,39,39,40,40,41,41,42,42,43,43,44,44,46,46,47,47,48,48,49,49,50,50,51,51,54,54,55,55,56,56,58,58],"right_children":[2,4,6,8,10,12,14,16,18,20,22,24,26,28,30,32,34,36,38,40,42,44,46,-1,48,50,52,-1,54,56,58,60,62,64,-1,66,68,70,72,74,76,78,80,82,84,-1,86,88,90,92,94,96,-1,-1,98,100,102,-1,104,-1,-1,-1,-1,-1,-1,-1,-1,-1,-1,-1,-1,-1,-1,-1,-1,-1,-1,-1,-1,-1,-1,-1,-1,-1,-1,-1,-1,-1,-1,-1,-1,-1,-1,-1,-1,-1,-1,-1,-1,-1,-1,-1,-1,-1,-1],"split_conditions":[-2.215962E-1,-2.4964991E-1,9.135653E-1,-3.2353914E-1,-2.3858604E-1,-1.6836622E-1,2.10635E-2,-3.8756204E-1,-2.0314033E-1,-2.4421535E-1,9.4973855E-2,-2.0253292E-1,3.247955E-1,6.452971E-1,-4.6083778E-1,-4.352305E-1,-3.600248E-1,-2.568954E-1,-1.1973891E-1,-3.2439822E-1,2.993254E-1,1.8945992E-2,2.0674144E-1,-7.1442095E-3,-3.8985032E-1,-1.3229001E-2,1.5316797E0,2.5044727E0,1.4227196E0,-4.8032913E-1,1.537027E0,-4.819376E-1,9.504101E-3,-1.8795867E-1,-7.1951193E-3,-2.0475315E-1,-3.097797E-1,4.214983E-2,-2.633711E-1,-5.388032E-1,-3.4615334E-2,6.588896E-3,1.5534343E-2,1.0441178E-1,-5.875316E-1,8.922428E-1,1.0060784E-1,-1.1808873E-1,-1.9307673E-1,-1.171169E-1,1.365485E-2,5.484587E-2,-7.188957E-3,6.0917217E-2,1.8245806E0,9.347266E-1,1.5038359E0,-6.643256E-3,1.566264E0,-7.1411645E-3,-7.1976567E-3,-7.0501217E-3,-6.7750206E-3,-4.644705E-3,-8.199982E-4,9.5754705E-2,7.981585E-2,1.1202236E-1,-3.2394447E-3,-4.0412233E-3,-6.1563877E-3,-4.06157E-3,-4.5216677E-4,8.9427325E-5,4.258777E-3,1.7336837E-3,1.3304485E-2,-6.3927877E-3,-6.8654995E-3,-5.6431005E-3,-6.5999893E-3,2.3861859E-2,5.9589032E-2,2.389942E-1,5.9728768E-2,-1.5663425E-3,-4.5097345E-3,1.4064665E-2,-5.3501627E-3,-5.3669456E-3,-6.0935365E-3,-7.152548E-3,-6.9049574E-3,-3.4885206E-3,-6.504954E-3,-7.045768E-3,-6.9253743E-3,-1.5749284E-3,5.4429066E-3,-1.8202185E-3,-6.4557134E-3,9.067058E-5,2.1481833E-3,3.8000648E-3,-5.808051E-3],"split_indices":[2,2,0,2,2,2,2,2,0,2,0,2,2,1,1,2,2,2,1,1,1,0,1,0,3,2,2,0,0,1,1,2,0,1,0,0,1,3,2,1,0,0,0,1,1,0,0,0,2,2,2,0,0,0,0,0,0,0,1,0,0,0,0,0,0,0,0,0,0,0,0,0,0,0,0,0,0,0,0,0,0,0,0,0,0,0,0,0,0,0,0,0,0,0,0,0,0,0,0,0,0,0,0,0,0],"split_type":[0,0,0,0,0,0,0,0,0,0,0,0,0,0,0,0,0,0,0,0,0,0,0,0,0,0,0,0,0,0,0,0,0,0,0,0,0,0,0,0,0,0,0,0,0,0,0,0,0,0,0,0,0,0,0,0,0,0,0,0,0,0,0,0,0,0,0,0,0,0,0,0,0,0,0,0,0,0,0,0,0,0,0,0,0,0,0,0,0,0,0,0,0,0,0,0,0,0,0,0,0,0,0,0,0],"sum_hessian":[2.079949E6,1.368298E6,7.11651E5,1.173168E6,1.9513E5,7.11397E5,2.54E2,3.66653E5,8.06515E5,1.89481E5,5.649E3,1.06468E5,6.04929E5,6E0,2.48E2,3.34749E5,3.1904E4,2.79E2,8.06236E5,1.48922E5,4.0559E4,5.626E3,2.3E1,1.5564E4,9.0904E4,2.44816E5,3.60113E5,3E0,3E0,1.6E1,2.32E2,2.78854E5,5.5895E4,1.7961E4,1.3943E4,2.36E2,4.3E1,5.81941E5,2.24295E5,1.04465E5,4.4457E4,2.9333E4,1.1226E4,5.337E3,2.89E2,1.8E1,5E0,2.9895E4,6.1009E4,1.41262E5,1.03554E5,2.66715E5,9.3398E4,1E0,2E0,9E0,7E0,2.26E2,6E0,1.23348E5,1.55506E5,5.2982E4,2.913E3,1.5352E4,2.609E3,1.58E2,7.8E1,9E0,3.4E1,5.16602E5,6.5339E4,7.9194E4,1.45101E5,5.8695E4,4.577E4,1.0831E4,3.3626E4,2.2772E4,6.561E3,8.568E3,2.658E3,4.423E3,9.14E2,6.1E1,2.28E2,2E0,3E0,1.1E1,2.9884E4,1.4774E4,4.6235E4,8.2112E4,5.915E4,1.6508E4,8.7046E4,2.31588E5,3.5127E4,1E0,1E0,1E0,8E0,5E0,2E0,1E0,5E0],"tree_param":{"num_deleted":"0","num_feature":"4","num_nodes":"105","size_leaf_vector":"0"}},{"base_weights":[-4.5674145E-1,-3.4776706E-1,-6.6626674E-1,-4.5753628E-1,3.1219074E-1,-6.676991E-1,3.3323183E0,-6.93168E-1,-3.504141E-1,2.1411486E-1,3.6012704E0,-5.876249E-1,-6.8179125E-1,1.4388113E2,-6.322359E-1,-7.0783764E-1,-5.3923035E-1,7.969559E0,-3.5330313E-1,4.4296947E-1,-6.2616944E-1,3.317973E0,6.987266E1,-7.072772E-1,-5.671313E-1,-6.5493226E-1,-7.000489E-1,2.4856891E2,3.2230637E0,-3.192125E-1,-6.5236104E-1,-7.100967E-1,-6.96555E-1,-4.0483192E-1,-7.123173E-1,8.994473E0,2.2678692E0,-4.2973363E-1,-1.8546648E-1,1.8970363E-1,1.0380756E0,-6.433768E-1,-5.811541E-1,3.0613682E0,1.20667E1,8.8379E1,-3.761891E-1,-5.28912E-1,-5.8585006E-1,-6.9784373E-1,-5.9638894E-1,-6.9596416E-1,-7.1170735E-1,6.0612636E0,2.565759E-1,-6.1207205E-1,8.676346E-2,-6.577117E-1,-3.8565394E-1,-7.0697534E-1,-7.1256804E-1,-6.9797474E-1,-6.709562E-1,-4.5366836E-1,-3.968068E-2,9.480319E0,7.90278E0,1.1101417E1,-3.2079756E-1,-5.764467E-1,-4.00595E-1,-5.2805716E-1,-1.05445385E-1,8.85333E-3,4.2161903E-1,1.9986422E-1,1.3267164E0,-6.334393E-1,-6.81717E-1,-5.580897E-1,-6.5160626E-1,2.4295638E0,5.9522953E0,2.898633E1,3.6518207E0,-1.5559001E-1,-4.4759116E-1,-5.8755976E-1,-5.0313926E-1,-5.31328E-1,-6.032603E-1,-7.081024E-1,-6.835909E-1,-3.453638E-1,-6.439906E-1,-6.9755304E-1,-6.8573934E-1,-1.5670538E-1,5.4156923E-1,-1.8111175E-1,-6.39833E-1,8.99151E-3,2.133862E-1,3.7810645E-1,-5.7596505E-1],"categories":[],"categories_nodes":[],"categories_segments":[],"categories_sizes":[],"default_left":[true,true,true,true,true,true,true,true,true,true,true,true,true,true,true,true,true,true,true,true,true,true,true,false,true,true,true,false,true,true,true,true,true,true,false,true,true,true,true,true,true,true,true,true,true,false,true,true,true,true,true,true,false,false,true,true,true,false,true,false,false,false,false,false,false,false,false,false,false,false,false,false,false,false,false,false,false,false,false,false,false,false,false,false,false,false,false,false,false,false,false,false,false,false,false,false,false,false,false,false,false,false,false,false,false],"id":9,"left_children":[1,3,5,7,9,11,13,15,17,19,21,23,25,27,29,31,33,35,37,39,41,43,45,-1,47,49,51,-1,53,55,57,59,61,63,-1,65,67,69,71,73,75,77,79,81,83,-1,85,87,89,91,93,95,-1,-1,97,99,101,-1,103,-1,-1,-1,-1,-1,-1,-1,-1,-1,-1,-1,-1,-1,-1,-1,-1,-1,-1,-1,-1,-1,-1,-1,-1,-1,-1,-1,-1,-1,-1,-1,-1,-1,-1,-1,-1,-1,-1,-1,-1,-1,-1,-1,-1,-1,-1],"loss_changes":[4.749103E4,9.912392E4,4.0780938E3,2.9612156E4,6.294446E4,8.0234375E2,1.4218038E5,8.276094E2,1.938875E4,3.6438223E4,1.0584416E5,2.6067188E2,2.9621875E2,1.02275125E5,1.3603668E0,8.03125E0,7.419053E2,1.6158496E3,1.0342195E4,2.2445482E4,3.1042969E1,1.2595477E4,3.1234414E4,0E0,6.472461E1,6.146094E2,1.665625E1,0E0,3.2122765E1,2.0743022E0,7.884979E-2,1.640625E0,1.5644531E0,3.2029272E2,0E0,5.0783203E1,1.00971423E3,2.3679844E3,6.915824E3,4.381506E3,1.0755992E4,1.0745117E1,1.7879639E1,9.972844E3,2.2674408E4,0E0,2.486664E-2,4.489258E1,5.759375E1,2.0171875E1,1.2371758E3,3.859375E0,0E0,0E0,4.3821403E-1,3.7574768E-3,7.68629E-2,0E0,1.2352408E0,0E0,0E0,0E0,0E0,0E0,0E0,0E0,0E0,0E0,0E0,0E0,0E0,0E0,0E0,0E0,0E0,0E0,0E0,0E0,0E0,0E0,0E0,0E0,0E0,0E0,0E0,0E0,0E0,0E0,0E0,0E0,0E0,0E0,0E0,0E0,0E0,0E0,0E0,0E0,0E0,0E0,0E0,0E0,0E0,0E0,0E0],"parents":[2147483647,0,0,1,1,2,2,3,3,4,4,5,5,6,6,7,7,8,8,9,9,10,10,11,11,12,12,13,13,14,14,15,15,16,16,17,17,18,18,19,19,20,20,21,21,22,22,24,24,25,25,26,26,28,28,29,29,30,30,31,31,32,32,33,33,35,35,36,36,37,37,38,38,39,39,40,40,41,41,42,42,43,43,44,44,46,46,47,47,48,48,49,49,50,50,51,51,54,54,55,55,56,56,58,58],"right_children":[2,4,6,8,10,12,14,16,18,20,22,24,26,28,30,32,34,36,38,40,42,44,46,-1,48,50,52,-1,54,56,58,60,62,64,-1,66,68,70,72,74,76,78,80,82,84,-1,86,88,90,92,94,96,-1,-1,98,100,102,-1,104,-1,-1,-1,-1,-1,-1,-1,-1,-1,-1,-1,-1,-1,-1,-1,-1,-1,-1,-1,-1,-1,-1,-1,-1,-1,-1,-1,-1,-1,-1,-1,-1,-1,-1,-1,-1,-1,-1,-1,-1,-1,-1,-1,-1,-1,-1],"split_conditions":[-2.215962E-1,-2.4964991E-1,9.135653E-1,-3.2353914E-1,-2.3858604E-1,-1.6836622E-1,2.10635E-2,-3.8756204E-1,-2.0314033E-1,-2.4421535E-1,9.4973855E-2,-2.0253292E-1,3.247955E-1,6.452971E-1,-4.6083778E-1,-4.352305E-1,-3.600248E-1,-2.568954E-1,-1.9770436E-1,-3.2439822E-1,2.993254E-1,3.352411E-2,2.0674144E-1,-7.0727714E-3,-3.8985032E-1,-1.3229001E-2,1.6653113E0,2.485689E0,1.4227196E0,-4.8032913E-1,1.537027E0,-4.819376E-1,9.271156E-3,-1.4897595E-1,-7.1231727E-3,-2.0475315E-1,-3.097797E-1,-3.510325E-2,-4.9157396E-2,-5.388032E-1,-3.329829E-2,8.298708E-3,1.43227335E-2,1.0441178E-1,-1.4410311E-1,8.8378996E-1,1.0060784E-1,-1.842117E-1,-1.9307673E-1,-1.171169E-1,1.365485E-2,5.360751E-2,-7.1170735E-3,6.0612634E-2,1.8245806E0,9.347266E-1,1.5038359E0,-6.577117E-3,1.566264E0,-7.0697535E-3,-7.1256803E-3,-6.979747E-3,-6.7095617E-3,-4.5366837E-3,-3.9680678E-4,9.480319E-2,7.90278E-2,1.11014165E-1,-3.2079755E-3,-5.764467E-3,-4.00595E-3,-5.2805715E-3,-1.0544538E-3,8.85333E-5,4.21619E-3,1.9986422E-3,1.3267164E-2,-6.334393E-3,-6.8171695E-3,-5.5808965E-3,-6.5160627E-3,2.4295637E-2,5.9522953E-2,2.898633E-1,3.6518205E-2,-1.5559001E-3,-4.4759116E-3,-5.8755972E-3,-5.0313924E-3,-5.31328E-3,-6.032603E-3,-7.081024E-3,-6.8359086E-3,-3.453638E-3,-6.4399056E-3,-6.97553E-3,-6.8573933E-3,-1.5670537E-3,5.415692E-3,-1.8111175E-3,-6.3983295E-3,8.99151E-5,2.1338619E-3,3.7810644E-3,-5.7596504E-3],"split_indices":[2,2,0,2,2,2,2,2,0,2,0,2,2,1,1,2,2,2,1,1,1,0,1,0,3,2,2,0,0,1,1,2,0,1,0,0,1,0,0,1,0,0,0,1,1,0,0,2,2,2,2,0,0,0,0,0,0,0,1,0,0,0,0,0,0,0,0,0,0,0,0,0,0,0,0,0,0,0,0,0,0,0,0,0,0,0,0,0,0,0,0,0,0,0,0,0,0,0,0,0,0,0,0,0,0],"split_type":[0,0,0,0,0,0,0,0,0,0,0,0,0,0,0,0,0,0,0,0,0,0,0,0,0,0,0,0,0,0,0,0,0,0,0,0,0,0,0,0,0,0,0,0,0,0,0,0,0,0,0,0,0,0,0,0,0,0,0,0,0,0,0,0,0,0,0,0,0,0,0,0,0,0,0,0,0,0,0,0,0,0,0,0,0,0,0,0,0,0,0,0,0,0,0,0,0,0,0,0,0,0,0,0,0],"sum_hessian":[2.079949E6,1.368298E6,7.11651E5,1.173168E6,1.9513E5,7.11397E5,2.54E2,3.66653E5,8.06515E5,1.89481E5,5.649E3,1.06468E5,6.04929E5,6E0,2.48E2,3.34749E5,3.1904E4,2.79E2,8.06236E5,1.48922E5,4.0559E4,5.626E3,2.3E1,1.5564E4,9.0904E4,2.44816E5,3.60113E5,3E0,3E0,1.6E1,2.32E2,2.78854E5,5.5895E4,1.7961E4,1.3943E4,2.36E2,4.3E1,5.53966E5,2.5227E5,1.04465E5,4.4457E4,2.9333E4,1.1226E4,5.467E3,1.59E2,1.8E1,5E0,2.9895E4,6.1009E4,1.41262E5,1.03554E5,2.66722E5,9.3391E4,1E0,2E0,9E0,7E0,2.26E2,6E0,1.23348E5,1.55506E5,5.2933E4,2.962E3,1.5842E4,2.119E3,1.58E2,7.8E1,9E0,3.4E1,9.1789E4,4.62177E5,4.7766E4,2.04504E5,5.8695E4,4.577E4,1.1388E4,3.3069E4,2.3309E4,6.024E3,8.464E3,2.762E3,4.488E3,9.79E2,5.2E1,1.07E2,2E0,3E0,9.12E3,2.0775E4,1.4774E4,4.6235E4,8.2112E4,5.915E4,1.6508E4,8.7046E4,2.30791E5,3.5931E4,1E0,1E0,1E0,8E0,5E0,2E0,1E0,5E0],"tree_param":{"num_deleted":"0","num_feature":"4","num_nodes":"105","size_leaf_vector":"0"}},{"base_weights":[-4.5217213E-1,-3.442883E-1,-6.596006E-1,-4.5296073E-1,3.090754E-1,-6.6102225E-1,3.3089387E0,-6.862364E-1,-3.4690964E-1,2.1197368E-1,3.5654855E0,-5.817489E-1,-6.749734E-1,1.4280663E2,-6.25972E-1,-7.0075935E-1,-5.338384E-1,8.46127E0,-3.4958574E-1,4.3853992E-1,-6.1990833E-1,3.284866E0,6.92105E1,-7.002049E-1,-5.614602E-1,-6.48383E-1,-6.9304854E-1,2.4670465E2,3.2069483E0,-3.1637248E-1,-6.458742E-1,-7.029958E-1,-6.895897E-1,-4.0078387E-1,-7.0519465E-1,8.925391E0,7.497208E-1,-4.191767E-1,-1.6903444E-1,2.4401353E-1,1.2018633E0,-6.3694346E-1,-5.7534367E-1,2.9387436E0,9.644577E0,8.7541725E1,-3.7343252E-1,-5.236233E-1,-5.7999176E-1,-6.9086534E-1,-5.9042513E-1,-6.890046E-1,-7.045904E-1,6.030957E0,2.5529304E-1,-6.0677224E-1,8.617378E-2,-6.511635E-1,-3.8208005E-1,-6.9990563E-1,-7.054424E-1,-6.909234E-1,-6.629124E-1,-4.5528972E-1,-8.000625E-2,9.328214E0,6.317031E0,6.630798E0,-6.651216E-1,-3.9561823E-1,-6.054397E-1,-4.0081516E-1,-4.2543106E-2,8.764816E-3,4.74203E-1,1.7023419E-1,1.5192666E0,-6.2655216E-1,-6.729089E-1,-5.53076E-1,-6.4688784E-1,2.3380392E0,5.8399215E0,2.3481892E1,5.856114E0,-1.5455276E-1,-4.4423422E-1,-5.87064E-1,-5.000479E-1,-5.260151E-1,-5.9722775E-1,-7.0102143E-1,-6.767551E-1,-3.4191036E-1,-6.375507E-1,-6.906237E-1,-6.7900497E-1,-1.5592185E-1,5.388614E-1,-1.802062E-1,-6.3414556E-1,8.916557E-3,2.1196364E-1,3.762159E-1,-5.711654E-1],"categories":[],"categories_nodes":[],"categories_segments":[],"categories_sizes":[],"default_left":[true,true,true,true,true,true,true,true,true,true,true,true,true,true,true,true,true,true,true,true,true,true,true,false,true,true,true,false,true,true,true,true,true,true,false,true,true,true,true,true,true,true,true,true,true,false,true,true,true,true,true,true,false,false,true,true,true,false,true,false,false,false,false,false,false,false,false,false,false,false,false,false,false,false,false,false,false,false,false,false,false,false,false,false,false,false,false,false,false,false,false,false,false,false,false,false,false,false,false,false,false,false,false,false,false],"id":10,"left_children":[1,3,5,7,9,11,13,15,17,19,21,23,25,27,29,31,33,35,37,39,41,43,45,-1,47,49,51,-1,53,55,57,59,61,63,-1,65,67,69,71,73,75,77,79,81,83,-1,85,87,89,91,93,95,-1,-1,97,99,101,-1,103,-1,-1,-1,-1,-1,-1,-1,-1,-1,-1,-1,-1,-1,-1,-1,-1,-1,-1,-1,-1,-1,-1,-1,-1,-1,-1,-1,-1,-1,-1,-1,-1,-1,-1,-1,-1,-1,-1,-1,-1,-1,-1,-1,-1,-1,-1],"loss_changes":[4.654528E4,9.715297E4,4.0170625E3,2.9022953E4,6.1700242E4,7.86375E2,1.4006167E5,8.11125E2,1.9013734E4,3.5713152E4,1.0385285E5,2.5548828E2,2.903125E2,1.0073775E5,1.3299255E0,7.875E0,7.271426E2,8.7018555E2,1.0130531E4,2.2112768E4,3.0425781E1,1.2358027E4,3.0646086E4,0E0,6.34375E1,6.02375E2,1.6328125E1,0E0,3.1802341E1,2.0395768E0,7.6309204E-2,1.625E0,1.53125E0,3.1401587E2,0E0,1.8378711E2,1.2922224E2,2.5534453E3,6.576389E3,6.426728E3,9.902914E3,1.0541016E1,1.7528076E1,9.289148E3,1.5064916E4,0E0,2.4324775E-2,4.441992E1,5.6447266E1,1.9765625E1,1.2125547E3,3.859375E0,0E0,0E0,4.3384287E-1,2.4883747E-3,7.5855404E-2,0E0,1.2185599E0,0E0,0E0,0E0,0E0,0E0,0E0,0E0,0E0,0E0,0E0,0E0,0E0,0E0,0E0,0E0,0E0,0E0,0E0,0E0,0E0,0E0,0E0,0E0,0E0,0E0,0E0,0E0,0E0,0E0,0E0,0E0,0E0,0E0,0E0,0E0,0E0,0E0,0E0,0E0,0E0,0E0,0E0,0E0,0E0,0E0,0E0],"parents":[2147483647,0,0,1,1,2,2,3,3,4,4,5,5,6,6,7,7,8,8,9,9,10,10,11,11,12,12,13,13,14,14,15,15,16,16,17,17,18,18,19,19,20,20,21,21,22,22,24,24,25,25,26,26,28,28,29,29,30,30,31,31,32,32,33,33,35,35,36,36,37,37,38,38,39,39,40,40,41,41,42,42,43,43,44,44,46,46,47,47,48,48,49,49,50,50,51,51,54,54,55,55,56,56,58,58],"right_children":[2,4,6,8,10,12,14,16,18,20,22,24,26,28,30,32,34,36,38,40,42,44,46,-1,48,50,52,-1,54,56,58,60,62,64,-1,66,68,70,72,74,76,78,80,82,84,-1,86,88,90,92,94,96,-1,-1,98,100,102,-1,104,-1,-1,-1,-1,-1,-1,-1,-1,-1,-1,-1,-1,-1,-1,-1,-1,-1,-1,-1,-1,-1,-1,-1,-1,-1,-1,-1,-1,-1,-1,-1,-1,-1,-1,-1,-1,-1,-1,-1,-1,-1,-1,-1,-1,-1,-1],"split_conditions":[-2.215962E-1,-2.4964991E-1,9.135653E-1,-3.2353914E-1,-2.3858604E-1,-1.6836622E-1,2.10635E-2,-3.8756204E-1,-2.0369132E-1,-2.4421535E-1,9.4973855E-2,-2.0253292E-1,3.247955E-1,6.452971E-1,-4.6083778E-1,-4.352305E-1,-3.600248E-1,6.7453414E-1,-1.1973891E-1,-1.9770436E-1,2.993254E-1,1.8945992E-2,2.0674144E-1,-7.002049E-3,-3.8985032E-1,-1.3229001E-2,1.6653113E0,2.4670465E0,1.4227196E0,-4.8032913E-1,1.537027E0,-4.819376E-1,1.0275781E-2,-1.8795867E-1,-7.0519466E-3,-2.042903E-1,-2.050115E-1,4.214983E-2,-2.633711E-1,-5.388032E-1,-3.9177135E-2,6.588896E-3,1.5534343E-2,1.0441178E-1,-5.875316E-1,8.7541723E-1,1.0060784E-1,-4.6083778E-1,-1.9307673E-1,-1.171169E-1,1.365485E-2,1.3791883E0,-7.0459037E-3,6.030957E-2,1.8245806E0,9.347266E-1,1.5038359E0,-6.511635E-3,1.566264E0,-6.9990563E-3,-7.054424E-3,-6.909234E-3,-6.6291243E-3,-4.552897E-3,-8.000625E-4,9.328213E-2,6.317031E-2,6.630798E-2,-6.651216E-3,-3.9561824E-3,-6.054397E-3,-4.0081516E-3,-4.2543106E-4,8.7648164E-5,4.7420296E-3,1.7023418E-3,1.5192666E-2,-6.2655215E-3,-6.7290887E-3,-5.53076E-3,-6.468878E-3,2.3380391E-2,5.839921E-2,2.348189E-1,5.856114E-2,-1.5455276E-3,-4.442342E-3,-5.8706403E-3,-5.000479E-3,-5.260151E-3,-5.9722774E-3,-7.010214E-3,-6.7675505E-3,-3.4191036E-3,-6.375507E-3,-6.906237E-3,-6.7900494E-3,-1.5592184E-3,5.388614E-3,-1.8020619E-3,-6.3414555E-3,8.9165565E-5,2.1196364E-3,3.762159E-3,-5.7116537E-3],"split_indices":[2,2,0,2,2,2,2,2,0,2,0,2,2,1,1,2,2,1,1,1,1,0,1,0,3,2,2,0,0,1,1,2,0,1,0,0,0,3,2,1,0,0,0,1,1,0,0,1,2,2,2,2,0,0,0,0,0,0,1,0,0,0,0,0,0,0,0,0,0,0,0,0,0,0,0,0,0,0,0,0,0,0,0,0,0,0,0,0,0,0,0,0,0,0,0,0,0,0,0,0,0,0,0,0,0],"split_type":[0,0,0,0,0,0,0,0,0,0,0,0,0,0,0,0,0,0,0,0,0,0,0,0,0,0,0,0,0,0,0,0,0,0,0,0,0,0,0,0,0,0,0,0,0,0,0,0,0,0,0,0,0,0,0,0,0,0,0,0,0,0,0,0,0,0,0,0,0,0,0,0,0,0,0,0,0,0,0,0,0,0,0,0,0,0,0,0,0,0,0,0,0,0,0,0,0,0,0,0,0,0,0,0,0],"sum_hessian":[2.079949E6,1.368298E6,7.11651E5,1.173168E6,1.9513E5,7.11397E5,2.54E2,3.66653E5,8.06515E5,1.89481E5,5.649E3,1.06468E5,6.04929E5,6E0,2.48E2,3.34749E5,3.1904E4,2.44E2,8.06271E5,1.48922E5,4.0559E4,5.626E3,2.3E1,1.5564E4,9.0904E4,2.44816E5,3.60113E5,3E0,3E0,1.6E1,2.32E2,2.78854E5,5.5895E4,1.7961E4,1.3943E4,2.3E2,1.4E1,5.81961E5,2.2431E5,1.18679E5,3.0243E4,2.9333E4,1.1226E4,5.337E3,2.89E2,1.8E1,5E0,2.9895E4,6.1009E4,1.41262E5,1.03554E5,2.66722E5,9.3391E4,1E0,2E0,9E0,7E0,2.26E2,6E0,1.23348E5,1.55506E5,5.321E4,2.685E3,1.5352E4,2.609E3,1.97E2,3.3E1,2E0,1.2E1,5.16622E5,6.5339E4,7.9194E4,1.45116E5,5.8695E4,5.9984E4,7.116E3,2.3127E4,2.2772E4,6.561E3,8.568E3,2.658E3,4.423E3,9.14E2,6.1E1,2.28E2,2E0,3E0,8.093E3,2.1802E4,1.4774E4,4.6235E4,8.2112E4,5.915E4,1.6508E4,8.7046E4,2.29494E5,3.7228E4,1E0,1E0,1E0,8E0,5E0,2E0,1E0,5E0],"tree_param":{"num_deleted":"0","num_feature":"4","num_nodes":"105","size_leaf_vector":"0"}}]},"name":"gbtree"},"learner_model_param":{"base_score":"5E-1","num_class":"0","num_feature":"4"},"objective":{"name":"reg:squarederror","reg_loss_param":{"scale_pos_weight":"1"}}},"version":[1,5,1]}