{"learner":{"attributes":{"best_iteration":"0","best_msg":"[0]\tvalidation_0-rmse:1.13625","best_ntree_limit":"1","best_score":"1.136251","scikit_learn":"{\"n_estimators\": 100, \"objective\": \"reg:squarederror\", \"max_depth\": null, \"learning_rate\": null, \"verbosity\": null, \"booster\": null, \"tree_method\": null, \"gamma\": null, \"min_child_weight\": null, \"max_delta_step\": null, \"subsample\": null, \"colsample_bytree\": null, \"colsample_bylevel\": null, \"colsample_bynode\": null, \"reg_alpha\": null, \"reg_lambda\": null, \"scale_pos_weight\": null, \"base_score\": null, \"missing\": NaN, \"num_parallel_tree\": null, \"random_state\": 42, \"n_jobs\": null, \"monotone_constraints\": null, \"interaction_constraints\": null, \"importance_type\": null, \"gpu_id\": null, \"validate_parameters\": null, \"predictor\": null, \"enable_categorical\": false, \"kwargs\": {\"eval_metric\": \"rmse\", \"eta\": 0.01}, \"evals_result_\": {\"validation_0\": {\"rmse\": [1.136251, 1.179143, 1.243634, 1.32609, 1.422961, 1.531096, 1.647907, 1.771355, 1.899836, 2.032104]}}, \"_estimator_type\": \"regressor\"}"},"feature_names":[],"feature_types":[],"gradient_booster":{"model":{"gbtree_model_param":{"num_trees":"11","size_leaf_vector":"0"},"tree_info":[0,0,0,0,0,0,0,0,0,0,0],"trees":[{"base_weights":[-4.9999976E-1,-3.808317E-1,-7.2918284E-1,-5.0096136E-1,3.4291455E-1,-7.30703E-1,3.5236099E0,-7.5906E-1,-3.8307482E-1,2.34861E-1,3.9476018E0,-6.4282906E-1,-7.4617267E-1,1.5418755E2,-6.922114E-1,-7.749839E-1,-5.9073305E-1,9.355409E0,-3.8603088E-1,4.8716888E-1,-6.855759E-1,3.642668E0,7.625574E1,-7.7434677E-1,-6.2016714E-1,-7.16441E-1,-7.664245E-1,2.6644977E2,3.3784497E0,-3.45427E-1,-7.1435237E-1,-7.774416E-1,-7.6273155E-1,-4.4257444E-1,-7.798924E-1,9.865458E0,8.0896187E-1,-4.6317315E-1,-1.8602173E-1,1.7937021E-1,1.0748565E0,-7.0443016E-1,-6.359349E-1,3.3690617E0,1.2922931E1,9.6449875E1,-4.0163088E-1,-5.777569E-1,-6.410833E-1,-7.6400757E-1,-6.519065E-1,-7.619607E-1,-7.792227E-1,6.352399E0,2.696671E-1,-6.619891E-1,9.345402E-2,-7.2026163E-1,-4.18984E-1,-7.7400786E-1,-7.8017116E-1,-7.642421E-1,-7.351393E-1,-5.026809E-1,-8.971561E-2,1.0308301E1,6.9703317E0,7.162363E0,-7.1943545E-1,-6.197082E-1,-4.3060732E-1,-4.367361E-1,-4.9804132E-2,1.09815635E-2,4.30916E-1,1.866224E-1,1.3669754E0,-6.932752E-1,-7.451306E-1,-6.110274E-1,-7.144315E-1,2.6689892E0,6.5773897E0,3.0910032E1,3.9754171E0,-1.6473435E-1,-4.7889555E-1,-6.4072216E-1,-5.5010146E-1,-5.805649E-1,-6.603869E-1,-7.752771E-1,-7.4844676E-1,-3.6968872E-1,-7.050809E-1,-7.636591E-1,-7.505954E-1,-1.6362254E-1,5.6812316E-1,-1.8919879E-1,-6.9349927E-1,1.0702054E-2,2.2780661E-1,3.9682502E-1,-6.210897E-1],"categories":[],"categories_nodes":[],"categories_segments":[],"categories_sizes":[],"default_left":[true,true,true,true,true,true,true,true,true,true,true,true,true,true,true,true,true,true,true,true,true,true,true,false,true,true,true,false,true,true,true,true,true,true,false,true,true,true,true,true,true,true,true,true,true,false,true,true,true,true,true,true,false,false,true,true,true,false,true,false,false,false,false,false,false,false,false,false,false,false,false,false,false,false,false,false,false,false,false,false,false,false,false,false,false,false,false,false,false,false,false,false,false,false,false,false,false,false,false,false,false,false,false,false,false],"id":0,"left_children":[1,3,5,7,9,11,13,15,17,19,21,23,25,27,29,31,33,35,37,39,41,43,45,-1,47,49,51,-1,53,55,57,59,61,63,-1,65,67,69,71,73,75,77,79,81,83,-1,85,87,89,91,93,95,-1,-1,97,99,101,-1,103,-1,-1,-1,-1,-1,-1,-1,-1,-1,-1,-1,-1,-1,-1,-1,-1,-1,-1,-1,-1,-1,-1,-1,-1,-1,-1,-1,-1,-1,-1,-1,-1,-1,-1,-1,-1,-1,-1,-1,-1,-1,-1,-1,-1,-1,-1],"loss_changes":[5.738375E4,1.2018544E5,4.6492812E3,3.6071875E4,7.66459E4,9.7625E2,1.6334598E5,9.9590625E2,2.343196E4,4.4370164E4,1.25998016E5,3.2010156E2,3.673125E2,1.1761094E5,1.6804504E0,9.625E0,9.001172E2,1.0687168E3,1.2552969E4,2.7124727E4,3.8023438E1,1.4439703E4,3.7191438E4,0E0,8.102734E1,7.5941406E2,2.0171875E1,0E0,3.5268414E1,2.4237282E0,1.0839844E-1,2.0625E0,1.8046875E0,3.8214282E2,0E0,2.26875E2,1.508107E2,2.9927734E3,7.733872E3,4.1684775E3,1.3373344E4,1.3003906E1,2.1705078E1,1.2430117E4,2.6110312E4,0E0,3.093183E-2,5.2439453E1,7.139258E1,2.4414062E1,1.5761875E3,4.640625E0,0E0,0E0,4.8091155E-1,1.7767906E-2,8.6505525E-2,0E0,1.4006214E0,0E0,0E0,0E0,0E0,0E0,0E0,0E0,0E0,0E0,0E0,0E0,0E0,0E0,0E0,0E0,0E0,0E0,0E0,0E0,0E0,0E0,0E0,0E0,0E0,0E0,0E0,0E0,0E0,0E0,0E0,0E0,0E0,0E0,0E0,0E0,0E0,0E0,0E0,0E0,0E0,0E0,0E0,0E0,0E0,0E0,0E0],"parents":[2147483647,0,0,1,1,2,2,3,3,4,4,5,5,6,6,7,7,8,8,9,9,10,10,11,11,12,12,13,13,14,14,15,15,16,16,17,17,18,18,19,19,20,20,21,21,22,22,24,24,25,25,26,26,28,28,29,29,30,30,31,31,32,32,33,33,35,35,36,36,37,37,38,38,39,39,40,40,41,41,42,42,43,43,44,44,46,46,47,47,48,48,49,49,50,50,51,51,54,54,55,55,56,56,58,58],"right_children":[2,4,6,8,10,12,14,16,18,20,22,24,26,28,30,32,34,36,38,40,42,44,46,-1,48,50,52,-1,54,56,58,60,62,64,-1,66,68,70,72,74,76,78,80,82,84,-1,86,88,90,92,94,96,-1,-1,98,100,102,-1,104,-1,-1,-1,-1,-1,-1,-1,-1,-1,-1,-1,-1,-1,-1,-1,-1,-1,-1,-1,-1,-1,-1,-1,-1,-1,-1,-1,-1,-1,-1,-1,-1,-1,-1,-1,-1,-1,-1,-1,-1,-1,-1,-1,-1,-1,-1],"split_conditions":[-2.1861053E-1,-2.4633318E-1,9.09466E-1,-3.1935042E-1,-2.3539987E-1,-1.6600876E-1,2.118545E-2,-3.8261777E-1,-2.0280357E-1,-2.4096277E-1,9.452849E-2,-1.9977224E-1,3.2133305E-1,6.4525104E-1,-4.610166E-1,-4.2972368E-1,-3.5540554E-1,6.744916E-1,-1.19876795E-1,-3.7329492E-1,2.9923782E-1,3.335303E-2,2.0664272E-1,-7.7434676E-3,-3.8792914E-1,-1.2702355E-2,1.646029E0,2.6644976E0,1.4163477E0,-4.805103E-1,1.5370879E0,-4.7587958E-1,9.440237E-3,-1.8810475E-1,-7.7989236E-3,-2.0339987E-1,-2.0411785E-1,-3.4861658E-2,-2.5989246E-1,-5.3899145E-1,-3.312984E-2,7.380193E-3,1.4951911E-2,1.0430078E-1,-1.4424393E-1,9.644987E-1,1.0013733E-1,-1.8166724E-1,-1.9042766E-1,-1.1536424E-1,1.3864232E-2,5.5256702E-2,-7.792227E-3,6.3523985E-2,1.8164148E0,9.3053293E-1,1.497102E0,-7.202616E-3,1.5663285E0,-7.7400785E-3,-7.8017116E-3,-7.642421E-3,-7.351393E-3,-5.026809E-3,-8.971561E-4,1.0308301E-1,6.970332E-2,7.162363E-2,-7.194354E-3,-6.197082E-3,-4.3060733E-3,-4.367361E-3,-4.9804134E-4,1.09815635E-4,4.30916E-3,1.8662239E-3,1.3669754E-2,-6.932752E-3,-7.4513056E-3,-6.1102742E-3,-7.144315E-3,2.668989E-2,6.57739E-2,3.0910033E-1,3.975417E-2,-1.6473434E-3,-4.788955E-3,-6.4072213E-3,-5.5010146E-3,-5.805649E-3,-6.603869E-3,-7.7527706E-3,-7.4844672E-3,-3.696887E-3,-7.050809E-3,-7.636591E-3,-7.505954E-3,-1.6362254E-3,5.6812316E-3,-1.8919879E-3,-6.9349925E-3,1.0702054E-4,2.278066E-3,3.96825E-3,-6.2108967E-3],"split_indices":[2,2,0,2,2,2,2,2,0,2,0,2,2,1,1,2,2,1,1,1,1,0,1,0,3,2,2,0,0,1,1,2,0,1,0,0,0,0,2,1,0,0,0,1,1,0,0,2,2,2,2,0,0,0,0,0,0,0,1,0,0,0,0,0,0,0,0,0,0,0,0,0,0,0,0,0,0,0,0,0,0,0,0,0,0,0,0,0,0,0,0,0,0,0,0,0,0,0,0,0,0,0,0,0,0],"split_type":[0,0,0,0,0,0,0,0,0,0,0,0,0,0,0,0,0,0,0,0,0,0,0,0,0,0,0,0,0,0,0,0,0,0,0,0,0,0,0,0,0,0,0,0,0,0,0,0,0,0,0,0,0,0,0,0,0,0,0,0,0,0,0,0,0,0,0,0,0,0,0,0,0,0,0,0,0,0,0,0,0,0,0,0,0,0,0,0,0,0,0,0,0,0,0,0,0,0,0,0,0,0,0,0,0],"sum_hessian":[2.101108E6,1.382338E6,7.1877E5,1.185556E6,1.96782E5,7.18514E5,2.56E2,3.71718E5,8.13838E5,1.91056E5,5.726E3,1.07562E5,6.10952E5,6E0,2.5E2,3.39589E5,3.2129E4,2.46E2,8.13592E5,1.49952E5,4.1104E4,5.703E3,2.3E1,1.5805E4,9.1757E4,2.47554E5,3.63398E5,3E0,3E0,1.6E1,2.34E2,2.82799E5,5.679E4,1.8019E4,1.411E4,2.32E2,1.4E1,5.87136E5,2.26456E5,9.8411E4,5.1541E4,2.978E4,1.1324E4,5.541E3,1.62E2,1.8E1,5E0,3.0316E4,6.1441E4,1.42506E5,1.05048E5,2.69472E5,9.3926E4,1E0,2E0,9E0,7E0,2.28E2,6E0,1.25369E5,1.5743E5,5.3817E4,2.973E3,1.5396E4,2.623E3,1.99E2,3.3E1,2E0,1.2E1,1.0111E5,4.86026E5,7.9722E4,1.46734E5,5.895E4,3.9461E4,1.2756E4,3.8785E4,2.3388E4,6.392E3,8.603E3,2.721E3,4.55E3,9.91E2,5.3E1,1.09E2,2E0,3E0,9.245E3,2.1071E4,1.4866E4,4.6575E4,8.2621E4,5.9885E4,1.6656E4,8.8392E4,2.3438E5,3.5092E4,1E0,1E0,1E0,8E0,5E0,2E0,1E0,5E0],"tree_param":{"num_deleted":"0","num_feature":"4","num_nodes":"105","size_leaf_vector":"0"}},{"base_weights":[-4.9499777E-1,-3.7702224E-1,-7.2188735E-1,-4.9595162E-1,3.3949247E-1,-7.2339606E-1,3.4989426E0,-7.5146955E-1,-3.7924382E-1,2.3251235E-1,3.9083703E0,-6.3640106E-1,-7.3871106E-1,1.5303596E2,-6.8535256E-1,-7.6723415E-1,-5.848261E-1,9.262815E0,-3.821706E-1,4.8229733E-1,-6.787208E-1,3.6063187E0,7.5533104E1,-7.666038E-1,-6.1396575E-1,-7.092767E-1,-7.587603E-1,2.644514E2,3.3615575E0,-3.4235168E-1,-7.0724905E-1,-7.6966727E-1,-7.551045E-1,-4.38149E-1,-7.72094E-1,9.767545E0,8.0516756E-1,-4.5854145E-1,-1.8416154E-1,1.7757657E-1,1.0641083E0,-6.973863E-1,-6.2957674E-1,3.335388E0,1.2795841E1,9.553613E1,-3.9868727E-1,-5.719797E-1,-6.3467264E-1,-7.5636756E-1,-6.4538753E-1,-7.543411E-1,-7.714306E-1,6.3206367E0,2.6831877E-1,-6.562519E-1,9.281759E-2,-7.130905E-1,-4.1511455E-1,-7.6626784E-1,-7.723695E-1,-7.5659984E-1,-7.2779036E-1,-4.9765438E-1,-8.881878E-2,1.0205734E1,6.902678E0,7.1146145E0,-7.127946E-1,-6.1351115E-1,-4.2630124E-1,-4.3236881E-1,-4.9306102E-2,1.0871776E-2,4.2660695E-1,1.8475632E-1,1.353306E0,-6.863428E-1,-7.376805E-1,-6.049179E-1,-7.072899E-1,2.6423051E0,6.511682E0,3.0606657E1,3.9360244E0,-1.636361E-1,-4.7530383E-1,-6.343156E-1,-5.446007E-1,-5.7475966E-1,-6.537832E-1,-7.6752436E-1,-7.4096245E-1,-3.6599204E-1,-6.9803023E-1,-7.560236E-1,-7.4308777E-1,-1.6280442E-1,5.652826E-1,-1.882528E-1,-6.8733484E-1,1.0612845E-2,2.2628789E-1,3.948409E-1,-6.159139E-1],"categories":[],"categories_nodes":[],"categories_segments":[],"categories_sizes":[],"default_left":[true,true,true,true,true,true,true,true,true,true,true,true,true,true,true,true,true,true,true,true,true,true,true,false,true,true,true,false,true,true,true,true,true,true,false,true,true,true,true,true,true,true,true,true,true,false,true,true,true,true,true,true,false,false,true,true,true,false,true,false,false,false,false,false,false,false,false,false,false,false,false,false,false,false,false,false,false,false,false,false,false,false,false,false,false,false,false,false,false,false,false,false,false,false,false,false,false,false,false,false,false,false,false,false,false],"id":1,"left_children":[1,3,5,7,9,11,13,15,17,19,21,23,25,27,29,31,33,35,37,39,41,43,45,-1,47,49,51,-1,53,55,57,59,61,63,-1,65,67,69,71,73,75,77,79,81,83,-1,85,87,89,91,93,95,-1,-1,97,99,101,-1,103,-1,-1,-1,-1,-1,-1,-1,-1,-1,-1,-1,-1,-1,-1,-1,-1,-1,-1,-1,-1,-1,-1,-1,-1,-1,-1,-1,-1,-1,-1,-1,-1,-1,-1,-1,-1,-1,-1,-1,-1,-1,-1,-1,-1,-1,-1],"loss_changes":[5.624097E4,1.177957E5,4.5796562E3,3.5354125E4,7.513064E4,9.568125E2,1.609116E5,9.760781E2,2.2970242E4,4.348726E4,1.2362758E5,3.1373438E2,3.6E2,1.158433E5,1.6430054E0,9.4375E0,8.822051E2,1.0465352E3,1.2303164E4,2.6584957E4,3.7265625E1,1.4158719E4,3.6490875E4,0E0,7.941406E1,7.443047E2,1.9765625E1,0E0,3.4916607E1,2.3831072E0,1.0500336E-1,2.015625E0,1.7695312E0,3.745381E2,0E0,2.2204883E2,1.4873378E2,2.9332266E3,7.5799707E3,4.085526E3,1.310723E4,1.2746094E1,2.1274414E1,1.2183145E4,2.5601023E4,0E0,3.027594E-2,5.1395508E1,6.997266E1,2.3929688E1,1.5448203E3,4.546875E0,0E0,0E0,4.761145E-1,1.6074657E-2,8.537358E-2,0E0,1.3816577E0,0E0,0E0,0E0,0E0,0E0,0E0,0E0,0E0,0E0,0E0,0E0,0E0,0E0,0E0,0E0,0E0,0E0,0E0,0E0,0E0,0E0,0E0,0E0,0E0,0E0,0E0,0E0,0E0,0E0,0E0,0E0,0E0,0E0,0E0,0E0,0E0,0E0,0E0,0E0,0E0,0E0,0E0,0E0,0E0,0E0,0E0],"parents":[2147483647,0,0,1,1,2,2,3,3,4,4,5,5,6,6,7,7,8,8,9,9,10,10,11,11,12,12,13,13,14,14,15,15,16,16,17,17,18,18,19,19,20,20,21,21,22,22,24,24,25,25,26,26,28,28,29,29,30,30,31,31,32,32,33,33,35,35,36,36,37,37,38,38,39,39,40,40,41,41,42,42,43,43,44,44,46,46,47,47,48,48,49,49,50,50,51,51,54,54,55,55,56,56,58,58],"right_children":[2,4,6,8,10,12,14,16,18,20,22,24,26,28,30,32,34,36,38,40,42,44,46,-1,48,50,52,-1,54,56,58,60,62,64,-1,66,68,70,72,74,76,78,80,82,84,-1,86,88,90,92,94,96,-1,-1,98,100,102,-1,104,-1,-1,-1,-1,-1,-1,-1,-1,-1,-1,-1,-1,-1,-1,-1,-1,-1,-1,-1,-1,-1,-1,-1,-1,-1,-1,-1,-1,-1,-1,-1,-1,-1,-1,-1,-1,-1,-1,-1,-1,-1,-1,-1,-1,-1,-1],"split_conditions":[-2.1861053E-1,-2.4633318E-1,9.09466E-1,-3.1935042E-1,-2.3539987E-1,-1.6600876E-1,2.118545E-2,-3.8261777E-1,-2.0280357E-1,-2.4096277E-1,9.452849E-2,-1.9977224E-1,3.2133305E-1,6.4525104E-1,-4.610166E-1,-4.2972368E-1,-3.5540554E-1,6.744916E-1,-1.19876795E-1,-3.7329492E-1,2.9923782E-1,3.335303E-2,2.0664272E-1,-7.666038E-3,-3.8792914E-1,-1.2702355E-2,1.646029E0,2.6445138E0,1.4163477E0,-4.805103E-1,1.5370879E0,-4.7587958E-1,9.440237E-3,-1.8810475E-1,-7.72094E-3,-2.0339987E-1,-2.0411785E-1,-3.4861658E-2,-2.5989246E-1,-5.3899145E-1,-3.312984E-2,7.380193E-3,1.4951911E-2,1.0430078E-1,-1.4424393E-1,9.553613E-1,1.0013733E-1,-1.8166724E-1,-1.9042766E-1,-1.1536424E-1,1.3864232E-2,5.52436E-2,-7.714306E-3,6.320637E-2,1.8164148E0,9.3053293E-1,1.497102E0,-7.1309046E-3,1.5663285E0,-7.662678E-3,-7.7236947E-3,-7.5659985E-3,-7.2779036E-3,-4.9765436E-3,-8.881878E-4,1.0205734E-1,6.9026776E-2,7.1146145E-2,-7.127946E-3,-6.135111E-3,-4.263012E-3,-4.323688E-3,-4.9306103E-4,1.0871776E-4,4.2660693E-3,1.8475632E-3,1.353306E-2,-6.863428E-3,-7.376805E-3,-6.0491785E-3,-7.0728986E-3,2.642305E-2,6.5116815E-2,3.0606657E-1,3.9360244E-2,-1.636361E-3,-4.7530383E-3,-6.343156E-3,-5.446007E-3,-5.7475963E-3,-6.537832E-3,-7.6752435E-3,-7.4096243E-3,-3.6599203E-3,-6.9803023E-3,-7.560236E-3,-7.4308775E-3,-1.6280442E-3,5.652826E-3,-1.8825281E-3,-6.8733483E-3,1.0612845E-4,2.262879E-3,3.9484086E-3,-6.1591393E-3],"split_indices":[2,2,0,2,2,2,2,2,0,2,0,2,2,1,1,2,2,1,1,1,1,0,1,0,3,2,2,0,0,1,1,2,0,1,0,0,0,0,2,1,0,0,0,1,1,0,0,2,2,2,2,0,0,0,0,0,0,0,1,0,0,0,0,0,0,0,0,0,0,0,0,0,0,0,0,0,0,0,0,0,0,0,0,0,0,0,0,0,0,0,0,0,0,0,0,0,0,0,0,0,0,0,0,0,0],"split_type":[0,0,0,0,0,0,0,0,0,0,0,0,0,0,0,0,0,0,0,0,0,0,0,0,0,0,0,0,0,0,0,0,0,0,0,0,0,0,0,0,0,0,0,0,0,0,0,0,0,0,0,0,0,0,0,0,0,0,0,0,0,0,0,0,0,0,0,0,0,0,0,0,0,0,0,0,0,0,0,0,0,0,0,0,0,0,0,0,0,0,0,0,0,0,0,0,0,0,0,0,0,0,0,0,0],"sum_hessian":[2.101108E6,1.382338E6,7.1877E5,1.185556E6,1.96782E5,7.18514E5,2.56E2,3.71718E5,8.13838E5,1.91056E5,5.726E3,1.07562E5,6.10952E5,6E0,2.5E2,3.39589E5,3.2129E4,2.46E2,8.13592E5,1.49952E5,4.1104E4,5.703E3,2.3E1,1.5805E4,9.1757E4,2.47554E5,3.63398E5,3E0,3E0,1.6E1,2.34E2,2.82799E5,5.679E4,1.8019E4,1.411E4,2.32E2,1.4E1,5.87136E5,2.26456E5,9.8411E4,5.1541E4,2.978E4,1.1324E4,5.541E3,1.62E2,1.8E1,5E0,3.0316E4,6.1441E4,1.42506E5,1.05048E5,2.69472E5,9.3926E4,1E0,2E0,9E0,7E0,2.28E2,6E0,1.25369E5,1.5743E5,5.3817E4,2.973E3,1.5396E4,2.623E3,1.99E2,3.3E1,2E0,1.2E1,1.0111E5,4.86026E5,7.9722E4,1.46734E5,5.895E4,3.9461E4,1.2756E4,3.8785E4,2.3388E4,6.392E3,8.603E3,2.721E3,4.55E3,9.91E2,5.3E1,1.09E2,2E0,3E0,9.245E3,2.1071E4,1.4866E4,4.6575E4,8.2621E4,5.9885E4,1.6656E4,8.8392E4,2.34367E5,3.5105E4,1E0,1E0,1E0,8E0,5E0,2E0,1E0,5E0],"tree_param":{"num_deleted":"0","num_feature":"4","num_nodes":"105","size_leaf_vector":"0"}},{"base_weights":[-4.9004582E-1,-3.732509E-1,-7.146649E-1,-4.9099195E-1,3.3610457E-1,-7.161622E-1,3.4744434E0,-7.4395496E-1,-3.754511E-1,2.301872E-1,3.8695285E0,-6.300373E-1,-7.31324E-1,1.5189299E2,-6.7856175E-1,-7.595619E-1,-5.789783E-1,9.171139E0,-3.783489E-1,4.7747448E-1,-6.7193425E-1,3.570332E0,7.4817314E1,-7.5893825E-1,-6.0782635E-1,-7.02184E-1,-7.511728E-1,2.62468E2,3.34475E0,-3.3930388E-1,-7.002163E-1,-7.6197064E-1,-7.475537E-1,-4.3376786E-1,-7.643736E-1,9.670603E0,8.013838E-1,-4.5395604E-1,-1.8231995E-1,1.7580085E-1,1.0534674E0,-6.9041294E-1,-6.232821E-1,3.3020504E0,1.2670002E1,9.463106E1,-3.957653E-1,-5.662603E-1,-6.283261E-1,-7.4880403E-1,-6.389338E-1,-7.467978E-1,-7.637164E-1,6.289034E0,2.6697716E-1,-6.50565E-1,9.218552E-2,-7.0599073E-1,-4.112792E-1,-7.586052E-1,-7.646459E-1,-7.49034E-1,-7.205149E-1,-4.9267817E-1,-8.793092E-2,1.0104186E1,6.8356814E0,7.0671835E0,-7.062149E-1,-6.073761E-1,-4.2203826E-1,-4.2804518E-1,-4.8813056E-2,1.0763059E-2,4.2234096E-1,1.8290891E-1,1.3397734E0,-6.7976415E-1,-7.3138756E-1,-5.988694E-1,-7.002196E-1,2.6158879E0,6.446631E0,3.030626E1,3.897022E0,-1.6254519E-1,-4.7173905E-1,-6.2797314E-1,-5.39155E-1,-5.6901246E-1,-6.4724547E-1,-7.5984925E-1,-7.3355293E-1,-3.6233234E-1,-6.9105E-1,-7.4846244E-1,-7.3565817E-1,-1.619904E-1,5.6245613E-1,-1.8731153E-1,-6.8122524E-1,1.0524382E-2,2.247793E-1,3.928667E-1,-6.107813E-1],"categories":[],"categories_nodes":[],"categories_segments":[],"categories_sizes":[],"default_left":[true,true,true,true,true,true,true,true,true,true,true,true,true,true,true,true,true,true,true,true,true,true,true,false,true,true,true,false,true,true,true,true,true,true,false,true,true,true,true,true,true,true,true,true,true,false,true,true,true,true,true,true,false,false,true,true,true,false,true,false,false,false,false,false,false,false,false,false,false,false,false,false,false,false,false,false,false,false,false,false,false,false,false,false,false,false,false,false,false,false,false,false,false,false,false,false,false,false,false,false,false,false,false,false,false],"id":2,"left_children":[1,3,5,7,9,11,13,15,17,19,21,23,25,27,29,31,33,35,37,39,41,43,45,-1,47,49,51,-1,53,55,57,59,61,63,-1,65,67,69,71,73,75,77,79,81,83,-1,85,87,89,91,93,95,-1,-1,97,99,101,-1,103,-1,-1,-1,-1,-1,-1,-1,-1,-1,-1,-1,-1,-1,-1,-1,-1,-1,-1,-1,-1,-1,-1,-1,-1,-1,-1,-1,-1,-1,-1,-1,-1,-1,-1,-1,-1,-1,-1,-1,-1,-1,-1,-1,-1,-1,-1],"loss_changes":[5.512097E4,1.1545345E5,4.5110938E3,3.4650688E4,7.3645336E4,9.3778125E2,1.5851352E5,9.5665625E2,2.2517617E4,4.262192E4,1.2130176E5,3.074922E2,3.528125E2,1.1410216E5,1.6063766E0,9.25E0,8.6465137E2,1.0248066E3,1.2058336E4,2.6055934E4,3.6523438E1,1.3883195E4,3.5803516E4,0E0,7.783203E1,7.294922E2,1.9390625E1,0E0,3.456832E1,2.3431728E0,1.0172272E-1,1.96875E0,1.734375E0,3.6708472E2,0E0,2.1733008E2,1.4668562E2,2.8748516E3,7.4291304E3,4.0042258E3,1.2846398E4,1.249707E1,2.085205E1,1.1941074E4,2.510167E4,0E0,2.9632807E-2,5.0374023E1,6.858203E1,2.3453125E1,1.5140742E3,4.453125E0,0E0,0E0,4.7136515E-1,1.4433384E-2,8.42564E-2,0E0,1.3629572E0,0E0,0E0,0E0,0E0,0E0,0E0,0E0,0E0,0E0,0E0,0E0,0E0,0E0,0E0,0E0,0E0,0E0,0E0,0E0,0E0,0E0,0E0,0E0,0E0,0E0,0E0,0E0,0E0,0E0,0E0,0E0,0E0,0E0,0E0,0E0,0E0,0E0,0E0,0E0,0E0,0E0,0E0,0E0,0E0,0E0,0E0],"parents":[2147483647,0,0,1,1,2,2,3,3,4,4,5,5,6,6,7,7,8,8,9,9,10,10,11,11,12,12,13,13,14,14,15,15,16,16,17,17,18,18,19,19,20,20,21,21,22,22,24,24,25,25,26,26,28,28,29,29,30,30,31,31,32,32,33,33,35,35,36,36,37,37,38,38,39,39,40,40,41,41,42,42,43,43,44,44,46,46,47,47,48,48,49,49,50,50,51,51,54,54,55,55,56,56,58,58],"right_children":[2,4,6,8,10,12,14,16,18,20,22,24,26,28,30,32,34,36,38,40,42,44,46,-1,48,50,52,-1,54,56,58,60,62,64,-1,66,68,70,72,74,76,78,80,82,84,-1,86,88,90,92,94,96,-1,-1,98,100,102,-1,104,-1,-1,-1,-1,-1,-1,-1,-1,-1,-1,-1,-1,-1,-1,-1,-1,-1,-1,-1,-1,-1,-1,-1,-1,-1,-1,-1,-1,-1,-1,-1,-1,-1,-1,-1,-1,-1,-1,-1,-1,-1,-1,-1,-1,-1,-1],"split_conditions":[-2.1861053E-1,-2.4633318E-1,9.09466E-1,-3.1935042E-1,-2.3539987E-1,-1.6600876E-1,2.118545E-2,-3.8261777E-1,-2.0280357E-1,-2.4096277E-1,9.452849E-2,-1.9977224E-1,3.2133305E-1,6.4525104E-1,-4.610166E-1,-4.2972368E-1,-3.5540554E-1,6.744916E-1,-1.19876795E-1,-3.7329492E-1,2.9923782E-1,3.335303E-2,2.0664272E-1,-7.5893826E-3,-3.8792914E-1,-1.2702355E-2,1.646029E0,2.6246798E0,1.4163477E0,-4.805103E-1,1.5370879E0,-4.7587958E-1,9.440237E-3,-1.8810475E-1,-7.643736E-3,-2.0339987E-1,-2.0411785E-1,-3.4861658E-2,-2.5989246E-1,-5.3899145E-1,-3.312984E-2,8.235753E-3,1.4951911E-2,1.0430078E-1,-1.4424393E-1,9.463106E-1,1.0013733E-1,-1.8166724E-1,-1.9042766E-1,-1.1536424E-1,1.3864232E-2,5.5259604E-2,-7.6371636E-3,6.2890336E-2,1.8164148E0,9.3053293E-1,1.497102E0,-7.059907E-3,1.5663285E0,-7.5860517E-3,-7.6464587E-3,-7.4903397E-3,-7.2051487E-3,-4.9267816E-3,-8.7930914E-4,1.0104186E-1,6.835681E-2,7.0671834E-2,-7.062149E-3,-6.073761E-3,-4.2203823E-3,-4.2804517E-3,-4.8813055E-4,1.0763059E-4,4.2234096E-3,1.829089E-3,1.3397734E-2,-6.7976415E-3,-7.3138755E-3,-5.988694E-3,-7.0021953E-3,2.6158879E-2,6.4466305E-2,3.030626E-1,3.897022E-2,-1.6254518E-3,-4.7173905E-3,-6.279731E-3,-5.39155E-3,-5.6901244E-3,-6.4724544E-3,-7.5984923E-3,-7.335529E-3,-3.6233233E-3,-6.9104997E-3,-7.484624E-3,-7.3565817E-3,-1.619904E-3,5.624561E-3,-1.8731153E-3,-6.812252E-3,1.0524382E-4,2.247793E-3,3.928667E-3,-6.107813E-3],"split_indices":[2,2,0,2,2,2,2,2,0,2,0,2,2,1,1,2,2,1,1,1,1,0,1,0,3,2,2,0,0,1,1,2,0,1,0,0,0,0,2,1,0,0,0,1,1,0,0,2,2,2,2,0,0,0,0,0,0,0,1,0,0,0,0,0,0,0,0,0,0,0,0,0,0,0,0,0,0,0,0,0,0,0,0,0,0,0,0,0,0,0,0,0,0,0,0,0,0,0,0,0,0,0,0,0,0],"split_type":[0,0,0,0,0,0,0,0,0,0,0,0,0,0,0,0,0,0,0,0,0,0,0,0,0,0,0,0,0,0,0,0,0,0,0,0,0,0,0,0,0,0,0,0,0,0,0,0,0,0,0,0,0,0,0,0,0,0,0,0,0,0,0,0,0,0,0,0,0,0,0,0,0,0,0,0,0,0,0,0,0,0,0,0,0,0,0,0,0,0,0,0,0,0,0,0,0,0,0,0,0,0,0,0,0],"sum_hessian":[2.101108E6,1.382338E6,7.1877E5,1.185556E6,1.96782E5,7.18514E5,2.56E2,3.71718E5,8.13838E5,1.91056E5,5.726E3,1.07562E5,6.10952E5,6E0,2.5E2,3.39589E5,3.2129E4,2.46E2,8.13592E5,1.49952E5,4.1104E4,5.703E3,2.3E1,1.5805E4,9.1757E4,2.47554E5,3.63398E5,3E0,3E0,1.6E1,2.34E2,2.82799E5,5.679E4,1.8019E4,1.411E4,2.32E2,1.4E1,5.87136E5,2.26456E5,9.8411E4,5.1541E4,2.978E4,1.1324E4,5.541E3,1.62E2,1.8E1,5E0,3.0316E4,6.1441E4,1.42506E5,1.05048E5,2.69472E5,9.3926E4,1E0,2E0,9E0,7E0,2.28E2,6E0,1.25369E5,1.5743E5,5.3817E4,2.973E3,1.5396E4,2.623E3,1.99E2,3.3E1,2E0,1.2E1,1.0111E5,4.86026E5,7.9722E4,1.46734E5,5.895E4,3.9461E4,1.2756E4,3.8785E4,2.3651E4,6.129E3,8.603E3,2.721E3,4.55E3,9.91E2,5.3E1,1.09E2,2E0,3E0,9.245E3,2.1071E4,1.4866E4,4.6575E4,8.2621E4,5.9885E4,1.6656E4,8.8392E4,2.34381E5,3.5091E4,1E0,1E0,1E0,8E0,5E0,2E0,1E0,5E0],"tree_param":{"num_deleted":"0","num_feature":"4","num_nodes":"105","size_leaf_vector":"0"}},{"base_weights":[-4.8514336E-1,-3.6951727E-1,-7.075146E-1,-4.8608187E-1,3.3275044E-1,-7.090007E-1,3.4501116E0,-7.365155E-1,-3.7169632E-1,2.2788528E-1,3.8310728E0,-6.237373E-1,-7.240108E-1,1.5075858E2,-6.7183816E-1,-7.5196636E-1,-5.7318896E-1,9.080371E0,-3.7456542E-1,4.7269985E-1,-6.6521555E-1,3.5347047E0,7.410831E1,-7.5134933E-1,-6.0174835E-1,-6.951623E-1,-7.436611E-1,2.6049948E2,3.3280258E0,-3.3628333E-1,-6.9325346E-1,-7.5435096E-1,-7.4007845E-1,-4.2943048E-1,-7.5673044E-1,9.574624E0,7.9761046E-1,-4.494165E-1,-1.8049678E-1,1.7404287E-1,1.0429331E0,-6.835093E-1,-6.170504E-1,3.1739857E0,1.0185474E1,9.373455E1,-3.9286482E-1,-5.605981E-1,-6.220431E-1,-7.413161E-1,-6.325445E-1,-7.393299E-1,-7.560793E-1,6.2575884E0,2.656423E-1,-6.449279E-1,9.155778E-2,-6.989616E-1,-4.0747774E-1,-7.510192E-1,-7.5699943E-1,-7.415438E-1,-7.1331215E-1,-4.8124284E-1,-4.3501724E-2,1.000365E1,6.7693357E0,7.0200686E0,-6.9969606E-1,-6.013024E-1,-4.1781786E-1,-4.237648E-1,-4.8324935E-2,1.0655412E-2,4.1811767E-1,1.8107997E-1,1.326376E0,-6.726823E-1,-7.2301334E-1,-5.925046E-1,-6.9206995E-1,2.520399E0,6.333442E0,2.4949442E1,6.1960287E0,-1.6146158E-1,-4.6820104E-1,-6.216941E-1,-5.337637E-1,-5.633227E-1,-6.407732E-1,-7.5225085E-1,-7.262175E-1,-3.5870922E-1,-6.8413955E-1,-7.409906E-1,-7.2837484E-1,-1.6118045E-1,5.5964386E-1,-1.8637499E-1,-6.751699E-1,1.0436664E-2,2.2328074E-1,3.9090237E-1,-6.056915E-1],"categories":[],"categories_nodes":[],"categories_segments":[],"categories_sizes":[],"default_left":[true,true,true,true,true,true,true,true,true,true,true,true,true,true,true,true,true,true,true,true,true,true,true,false,true,true,true,false,true,true,true,true,true,true,false,true,true,true,true,true,true,true,true,true,true,false,true,true,true,true,true,true,false,false,true,true,true,false,true,false,false,false,false,false,false,false,false,false,false,false,false,false,false,false,false,false,false,false,false,false,false,false,false,false,false,false,false,false,false,false,false,false,false,false,false,false,false,false,false,false,false,false,false,false,false],"id":3,"left_children":[1,3,5,7,9,11,13,15,17,19,21,23,25,27,29,31,33,35,37,39,41,43,45,-1,47,49,51,-1,53,55,57,59,61,63,-1,65,67,69,71,73,75,77,79,81,83,-1,85,87,89,91,93,95,-1,-1,97,99,101,-1,103,-1,-1,-1,-1,-1,-1,-1,-1,-1,-1,-1,-1,-1,-1,-1,-1,-1,-1,-1,-1,-1,-1,-1,-1,-1,-1,-1,-1,-1,-1,-1,-1,-1,-1,-1,-1,-1,-1,-1,-1,-1,-1,-1,-1,-1,-1],"loss_changes":[5.402325E4,1.1315783E5,4.4435312E3,3.3961188E4,7.21894E4,9.19125E2,1.561512E5,9.376094E2,2.2073914E4,4.1773805E4,1.1901967E5,3.01375E2,3.458125E2,1.123872E5,1.5705566E0,9.0625E0,8.474453E2,1.00352734E3,1.1818375E4,2.553743E4,3.5796875E1,1.3651898E4,3.5129094E4,0E0,7.628125E1,7.1497656E2,1.8984375E1,0E0,3.4223503E1,2.3039122E0,9.854126E-2,1.9375E0,1.6972656E0,3.603047E2,0E0,2.1270898E2,1.4466582E2,2.8176484E3,7.281292E3,3.9245442E3,1.2590762E4,1.2251953E1,2.0443848E1,1.1159703E4,1.7103125E4,0E0,2.9001772E-2,4.937207E1,6.721484E1,2.2976562E1,1.4839414E3,4.375E0,0E0,0E0,4.666633E-1,1.2840748E-2,8.3153814E-2,0E0,1.3445156E0,0E0,0E0,0E0,0E0,0E0,0E0,0E0,0E0,0E0,0E0,0E0,0E0,0E0,0E0,0E0,0E0,0E0,0E0,0E0,0E0,0E0,0E0,0E0,0E0,0E0,0E0,0E0,0E0,0E0,0E0,0E0,0E0,0E0,0E0,0E0,0E0,0E0,0E0,0E0,0E0,0E0,0E0,0E0,0E0,0E0,0E0],"parents":[2147483647,0,0,1,1,2,2,3,3,4,4,5,5,6,6,7,7,8,8,9,9,10,10,11,11,12,12,13,13,14,14,15,15,16,16,17,17,18,18,19,19,20,20,21,21,22,22,24,24,25,25,26,26,28,28,29,29,30,30,31,31,32,32,33,33,35,35,36,36,37,37,38,38,39,39,40,40,41,41,42,42,43,43,44,44,46,46,47,47,48,48,49,49,50,50,51,51,54,54,55,55,56,56,58,58],"right_children":[2,4,6,8,10,12,14,16,18,20,22,24,26,28,30,32,34,36,38,40,42,44,46,-1,48,50,52,-1,54,56,58,60,62,64,-1,66,68,70,72,74,76,78,80,82,84,-1,86,88,90,92,94,96,-1,-1,98,100,102,-1,104,-1,-1,-1,-1,-1,-1,-1,-1,-1,-1,-1,-1,-1,-1,-1,-1,-1,-1,-1,-1,-1,-1,-1,-1,-1,-1,-1,-1,-1,-1,-1,-1,-1,-1,-1,-1,-1,-1,-1,-1,-1,-1,-1,-1,-1,-1],"split_conditions":[-2.1861053E-1,-2.4633318E-1,9.09466E-1,-3.1935042E-1,-2.3539987E-1,-1.6600876E-1,2.118545E-2,-3.8261777E-1,-2.0280357E-1,-2.4096277E-1,9.452849E-2,-1.9977224E-1,3.2133305E-1,6.4525104E-1,-4.610166E-1,-4.2972368E-1,-3.5540554E-1,6.744916E-1,-1.19876795E-1,-3.7329492E-1,2.9923782E-1,1.8839983E-2,2.0664272E-1,-7.5134933E-3,-3.8792914E-1,-1.2702355E-2,1.646029E0,2.6049948E0,1.4163477E0,-4.805103E-1,1.5370879E0,-4.7587958E-1,9.440237E-3,-1.4911735E-1,-7.567304E-3,-2.0339987E-1,-2.0411785E-1,-3.4861658E-2,-2.5989246E-1,-5.3899145E-1,-3.312984E-2,7.380193E-3,1.423736E-2,1.0430078E-1,-5.8772564E-1,9.373455E-1,1.0013733E-1,-1.8166724E-1,-1.9042766E-1,-1.1536424E-1,1.3864232E-2,5.4584235E-2,-7.560793E-3,6.2575884E-2,1.8164148E0,9.3053293E-1,1.497102E0,-6.989616E-3,1.5663285E0,-7.5101918E-3,-7.5699943E-3,-7.415438E-3,-7.133121E-3,-4.8124283E-3,-4.3501722E-4,1.00036494E-1,6.769335E-2,7.020068E-2,-6.9969604E-3,-6.0130237E-3,-4.1781785E-3,-4.2376476E-3,-4.8324934E-4,1.0655412E-4,4.1811764E-3,1.8107997E-3,1.3263759E-2,-6.726823E-3,-7.2301333E-3,-5.9250463E-3,-6.9206995E-3,2.520399E-2,6.333442E-2,2.4949442E-1,6.1960287E-2,-1.6146158E-3,-4.6820105E-3,-6.216941E-3,-5.337637E-3,-5.633227E-3,-6.4077317E-3,-7.5225085E-3,-7.262175E-3,-3.587092E-3,-6.8413955E-3,-7.4099055E-3,-7.283748E-3,-1.6118045E-3,5.5964384E-3,-1.8637499E-3,-6.751699E-3,1.0436664E-4,2.2328075E-3,3.9090235E-3,-6.0569146E-3],"split_indices":[2,2,0,2,2,2,2,2,0,2,0,2,2,1,1,2,2,1,1,1,1,0,1,0,3,2,2,0,0,1,1,2,0,1,0,0,0,0,2,1,0,0,0,1,1,0,0,2,2,2,2,0,0,0,0,0,0,0,1,0,0,0,0,0,0,0,0,0,0,0,0,0,0,0,0,0,0,0,0,0,0,0,0,0,0,0,0,0,0,0,0,0,0,0,0,0,0,0,0,0,0,0,0,0,0],"split_type":[0,0,0,0,0,0,0,0,0,0,0,0,0,0,0,0,0,0,0,0,0,0,0,0,0,0,0,0,0,0,0,0,0,0,0,0,0,0,0,0,0,0,0,0,0,0,0,0,0,0,0,0,0,0,0,0,0,0,0,0,0,0,0,0,0,0,0,0,0,0,0,0,0,0,0,0,0,0,0,0,0,0,0,0,0,0,0,0,0,0,0,0,0,0,0,0,0,0,0,0,0,0,0,0,0],"sum_hessian":[2.101108E6,1.382338E6,7.1877E5,1.185556E6,1.96782E5,7.18514E5,2.56E2,3.71718E5,8.13838E5,1.91056E5,5.726E3,1.07562E5,6.10952E5,6E0,2.5E2,3.39589E5,3.2129E4,2.46E2,8.13592E5,1.49952E5,4.1104E4,5.703E3,2.3E1,1.5805E4,9.1757E4,2.47554E5,3.63398E5,3E0,3E0,1.6E1,2.34E2,2.82799E5,5.679E4,1.8019E4,1.411E4,2.32E2,1.4E1,5.87136E5,2.26456E5,9.8411E4,5.1541E4,2.978E4,1.1324E4,5.411E3,2.92E2,1.8E1,5E0,3.0316E4,6.1441E4,1.42506E5,1.05048E5,2.69472E5,9.3926E4,1E0,2E0,9E0,7E0,2.28E2,6E0,1.25369E5,1.5743E5,5.3817E4,2.973E3,1.5886E4,2.133E3,1.99E2,3.3E1,2E0,1.2E1,1.0111E5,4.86026E5,7.9722E4,1.46734E5,5.895E4,3.9461E4,1.2756E4,3.8785E4,2.3388E4,6.392E3,8.539E3,2.785E3,4.485E3,9.26E2,6.1E1,2.31E2,2E0,3E0,9.245E3,2.1071E4,1.4866E4,4.6575E4,8.2621E4,5.9885E4,1.6656E4,8.8392E4,2.33942E5,3.553E4,1E0,1E0,1E0,8E0,5E0,2E0,1E0,5E0],"tree_param":{"num_deleted":"0","num_feature":"4","num_nodes":"105","size_leaf_vector":"0"}},{"base_weights":[-4.8029E-1,-3.6582103E-1,-7.004359E-1,-4.812209E-1,3.2942966E-1,-7.019108E-1,3.4259455E0,-7.291505E-1,-3.6797908E-1,2.2560638E-1,3.7929945E0,-6.175002E-1,-7.167708E-1,1.4963264E2,-6.6518116E-1,-7.4444675E-1,-5.6745744E-1,8.990501E0,-3.708198E-1,4.67973E-1,-6.585641E-1,3.4994276E0,7.340601E1,-7.4383634E-1,-5.957311E-1,-6.882108E-1,-7.3622453E-1,2.5854572E2,3.3113859E0,-3.332898E-1,-6.8635976E-1,-7.468075E-1,-7.3267794E-1,-4.2513648E-1,-7.491636E-1,9.479597E0,7.9384804E-1,-4.4492236E-1,-1.7869183E-1,2.0005405E-1,1.0920401E0,-6.7667466E-1,-6.1088103E-1,3.2358015E0,1.2441251E1,9.284654E1,-3.899856E-1,-5.549925E-1,-6.158228E-1,-7.3390305E-1,-6.2621915E-1,-7.3193663E-1,-7.485186E-1,6.2263007E0,2.643141E-1,-6.3934016E-1,9.093435E-2,-6.9200253E-1,-4.037098E-1,-7.4350905E-1,-7.4942946E-1,-7.341285E-1,-7.0618147E-1,-4.829396E-1,-8.579966E-2,9.904113E0,6.7036333E0,6.9732685E0,-6.932373E-1,-5.958551E-1,-4.137547E-1,-4.195272E-1,-4.7841694E-2,1.054884E-2,4.4309908E-1,1.8404761E-1,1.3898087E0,-6.662362E-1,-7.168483E-1,-5.8694965E-1,-6.8630177E-1,2.5630224E0,6.319049E0,2.9819498E1,3.7970088E0,-1.6038515E-1,-4.6468952E-1,-6.154778E-1,-5.2842635E-1,-5.5768985E-1,-6.3436556E-1,-7.4472845E-1,-7.1895546E-1,-3.5512233E-1,-6.7729825E-1,-7.3358077E-1,-7.210905E-1,-1.6037455E-1,5.5684566E-1,-1.854431E-1,-6.6916835E-1,1.0349691E-2,2.2179222E-1,3.8894784E-1,-6.0064405E-1],"categories":[],"categories_nodes":[],"categories_segments":[],"categories_sizes":[],"default_left":[true,true,true,true,true,true,true,true,true,true,true,true,true,true,true,true,true,true,true,true,true,true,true,false,true,true,true,false,true,true,true,true,true,true,false,true,true,true,true,true,true,true,true,true,true,false,true,true,true,true,true,true,false,false,true,true,true,false,true,false,false,false,false,false,false,false,false,false,false,false,false,false,false,false,false,false,false,false,false,false,false,false,false,false,false,false,false,false,false,false,false,false,false,false,false,false,false,false,false,false,false,false,false,false,false],"id":4,"left_children":[1,3,5,7,9,11,13,15,17,19,21,23,25,27,29,31,33,35,37,39,41,43,45,-1,47,49,51,-1,53,55,57,59,61,63,-1,65,67,69,71,73,75,77,79,81,83,-1,85,87,89,91,93,95,-1,-1,97,99,101,-1,103,-1,-1,-1,-1,-1,-1,-1,-1,-1,-1,-1,-1,-1,-1,-1,-1,-1,-1,-1,-1,-1,-1,-1,-1,-1,-1,-1,-1,-1,-1,-1,-1,-1,-1,-1,-1,-1,-1,-1,-1,-1,-1,-1,-1,-1,-1],"loss_changes":[5.2947406E4,1.10907766E5,4.3770312E3,3.3285438E4,7.076206E4,9.008125E2,1.5382411E5,9.189375E2,2.1638969E4,4.0942562E4,1.1678053E5,2.953789E2,3.389375E2,1.10697984E5,1.5355225E0,8.890625E0,8.30583E2,9.8268555E2,1.158318E4,2.5071832E4,3.508203E1,1.3405773E4,3.44674E4,0E0,7.476172E1,7.007578E2,1.8609375E1,0E0,3.388212E1,2.265315E0,9.5436096E-2,1.90625E0,1.6660156E0,3.5341602E2,0E0,2.0818164E2,1.4267401E2,2.7617734E3,7.1363965E3,4.832155E3,1.2177285E4,1.2011719E1,2.0038086E1,1.147982E4,2.4372926E4,0E0,2.8383017E-2,4.838965E1,6.587695E1,2.2515625E1,1.4544102E3,4.28125E0,0E0,0E0,4.6200842E-1,1.1297226E-2,8.206562E-2,0E0,1.3263292E0,0E0,0E0,0E0,0E0,0E0,0E0,0E0,0E0,0E0,0E0,0E0,0E0,0E0,0E0,0E0,0E0,0E0,0E0,0E0,0E0,0E0,0E0,0E0,0E0,0E0,0E0,0E0,0E0,0E0,0E0,0E0,0E0,0E0,0E0,0E0,0E0,0E0,0E0,0E0,0E0,0E0,0E0,0E0,0E0,0E0,0E0],"parents":[2147483647,0,0,1,1,2,2,3,3,4,4,5,5,6,6,7,7,8,8,9,9,10,10,11,11,12,12,13,13,14,14,15,15,16,16,17,17,18,18,19,19,20,20,21,21,22,22,24,24,25,25,26,26,28,28,29,29,30,30,31,31,32,32,33,33,35,35,36,36,37,37,38,38,39,39,40,40,41,41,42,42,43,43,44,44,46,46,47,47,48,48,49,49,50,50,51,51,54,54,55,55,56,56,58,58],"right_children":[2,4,6,8,10,12,14,16,18,20,22,24,26,28,30,32,34,36,38,40,42,44,46,-1,48,50,52,-1,54,56,58,60,62,64,-1,66,68,70,72,74,76,78,80,82,84,-1,86,88,90,92,94,96,-1,-1,98,100,102,-1,104,-1,-1,-1,-1,-1,-1,-1,-1,-1,-1,-1,-1,-1,-1,-1,-1,-1,-1,-1,-1,-1,-1,-1,-1,-1,-1,-1,-1,-1,-1,-1,-1,-1,-1,-1,-1,-1,-1,-1,-1,-1,-1,-1,-1,-1,-1],"split_conditions":[-2.1861053E-1,-2.4633318E-1,9.09466E-1,-3.1935042E-1,-2.3539987E-1,-1.6600876E-1,2.118545E-2,-3.8261777E-1,-2.0280357E-1,-2.4096277E-1,9.452849E-2,-1.9977224E-1,3.2133305E-1,6.4525104E-1,-4.610166E-1,-4.2972368E-1,-3.5540554E-1,6.744916E-1,-1.19876795E-1,-3.2456067E-1,2.9923782E-1,3.335303E-2,2.0664272E-1,-7.438363E-3,-3.8792914E-1,-1.2702355E-2,1.646029E0,2.585457E0,1.4163477E0,-4.805103E-1,1.5370879E0,-4.7587958E-1,9.440237E-3,-1.8810475E-1,-7.491636E-3,-2.0339987E-1,-2.0411785E-1,-3.4968004E-2,-2.5989246E-1,-5.3899145E-1,-3.418559E-2,8.240225E-3,1.4951911E-2,1.0430078E-1,-1.4424393E-1,9.284654E-1,1.0013733E-1,-1.8166724E-1,-1.9042766E-1,-1.1536424E-1,1.3864232E-2,5.458724E-2,-7.4851857E-3,6.2263004E-2,1.8164148E0,9.3053293E-1,1.497102E0,-6.920025E-3,1.5663285E0,-7.4350904E-3,-7.4942946E-3,-7.341285E-3,-7.0618144E-3,-4.829396E-3,-8.579965E-4,9.904113E-2,6.703633E-2,6.973268E-2,-6.9323727E-3,-5.958551E-3,-4.1375468E-3,-4.195272E-3,-4.7841694E-4,1.054884E-4,4.4309907E-3,1.8404761E-3,1.3898086E-2,-6.6623623E-3,-7.168483E-3,-5.869496E-3,-6.8630176E-3,2.5630223E-2,6.319049E-2,2.9819497E-1,3.797009E-2,-1.6038514E-3,-4.646895E-3,-6.154778E-3,-5.2842633E-3,-5.5768983E-3,-6.3436553E-3,-7.447284E-3,-7.1895546E-3,-3.551223E-3,-6.7729824E-3,-7.3358077E-3,-7.2109047E-3,-1.6037455E-3,5.5684564E-3,-1.854431E-3,-6.6916835E-3,1.0349691E-4,2.2179221E-3,3.8894783E-3,-6.0064406E-3],"split_indices":[2,2,0,2,2,2,2,2,0,2,0,2,2,1,1,2,2,1,1,1,1,0,1,0,3,2,2,0,0,1,1,2,0,1,0,0,0,0,2,1,0,0,0,1,1,0,0,2,2,2,2,0,0,0,0,0,0,0,1,0,0,0,0,0,0,0,0,0,0,0,0,0,0,0,0,0,0,0,0,0,0,0,0,0,0,0,0,0,0,0,0,0,0,0,0,0,0,0,0,0,0,0,0,0,0],"split_type":[0,0,0,0,0,0,0,0,0,0,0,0,0,0,0,0,0,0,0,0,0,0,0,0,0,0,0,0,0,0,0,0,0,0,0,0,0,0,0,0,0,0,0,0,0,0,0,0,0,0,0,0,0,0,0,0,0,0,0,0,0,0,0,0,0,0,0,0,0,0,0,0,0,0,0,0,0,0,0,0,0,0,0,0,0,0,0,0,0,0,0,0,0,0,0,0,0,0,0,0,0,0,0,0,0],"sum_hessian":[2.101108E6,1.382338E6,7.1877E5,1.185556E6,1.96782E5,7.18514E5,2.56E2,3.71718E5,8.13838E5,1.91056E5,5.726E3,1.07562E5,6.10952E5,6E0,2.5E2,3.39589E5,3.2129E4,2.46E2,8.13592E5,1.49952E5,4.1104E4,5.703E3,2.3E1,1.5805E4,9.1757E4,2.47554E5,3.63398E5,3E0,3E0,1.6E1,2.34E2,2.82799E5,5.679E4,1.8019E4,1.411E4,2.32E2,1.4E1,5.87136E5,2.26456E5,1.04913E5,4.5039E4,2.978E4,1.1324E4,5.541E3,1.62E2,1.8E1,5E0,3.0316E4,6.1441E4,1.42506E5,1.05048E5,2.69472E5,9.3926E4,1E0,2E0,9E0,7E0,2.28E2,6E0,1.25369E5,1.5743E5,5.3817E4,2.973E3,1.5396E4,2.623E3,1.99E2,3.3E1,2E0,1.2E1,1.00489E5,4.86647E5,7.9722E4,1.46734E5,5.895E4,4.5963E4,1.1123E4,3.3916E4,2.3652E4,6.128E3,8.603E3,2.721E3,4.55E3,9.91E2,5.3E1,1.09E2,2E0,3E0,9.245E3,2.1071E4,1.4866E4,4.6575E4,8.2621E4,5.9885E4,1.6656E4,8.8392E4,2.33943E5,3.5529E4,1E0,1E0,1E0,8E0,5E0,2E0,1E0,5E0],"tree_param":{"num_deleted":"0","num_feature":"4","num_nodes":"105","size_leaf_vector":"0"}},{"base_weights":[-4.7548518E-1,-3.6216173E-1,-6.934279E-1,-4.7640857E-1,3.261422E-1,-6.948918E-1,3.4019446E0,-7.218591E-1,-3.6429903E-1,2.2335029E-1,3.7552998E0,-6.1132544E-1,-7.096032E-1,1.4851512E2,-6.5859014E-1,-7.370024E-1,-5.6178325E-1,8.901524E0,-3.6711162E-1,4.632934E-1,-6.519791E-1,3.4645078E0,7.271038E1,-7.3639846E-1,-5.89774E-1,-6.813288E-1,-7.2886235E-1,2.5660663E2,3.294829E0,-3.3032307E-1,-6.795346E-1,-7.393395E-1,-7.253514E-1,-4.208854E-1,-7.416725E-1,9.385514E0,7.900962E-1,-4.4047314E-1,-1.7690493E-1,1.9805354E-1,1.08112E0,-6.6990834E-1,-6.0477334E-1,3.1102102E0,9.996913E0,9.196694E1,-3.8712752E-1,-5.4944295E-1,-6.096648E-1,-7.265641E-1,-6.199571E-1,-7.246173E-1,-7.410335E-1,6.195169E0,2.629925E-1,-6.3380134E-1,9.031519E-2,-6.851127E-1,-3.9997515E-1,-7.3607403E-1,-7.4193525E-1,-7.267873E-1,-6.99122E-1,-4.717241E-1,-4.2209294E-2,9.805568E0,6.638569E0,6.92678E0,-6.868382E-1,-5.893421E-1,-4.0950218E-1,-4.1533196E-1,-4.7363274E-2,1.0443342E-2,4.3866816E-1,2.0532574E-1,1.3837904E0,-6.589918E-1,-7.075835E-1,-5.807114E-1,-6.78314E-1,2.4695761E0,6.2070537E0,2.4516094E1,6.073697E0,-1.5931593E-1,-4.6120435E-1,-6.0932374E-1,-5.2314234E-1,-5.5211335E-1,-6.28022E-1,-7.3728126E-1,-7.11766E-1,-3.5157132E-1,-6.705253E-1,-7.2625846E-1,-7.1396106E-1,-1.5957268E-1,5.540614E-1,-1.845159E-1,-6.632202E-1,1.0263463E-2,2.203136E-1,3.870031E-1,-5.956387E-1],"categories":[],"categories_nodes":[],"categories_segments":[],"categories_sizes":[],"default_left":[true,true,true,true,true,true,true,true,true,true,true,true,true,true,true,true,true,true,true,true,true,true,true,false,true,true,true,false,true,true,true,true,true,true,false,true,true,true,true,true,true,true,true,true,true,false,true,true,true,true,true,true,false,false,true,true,true,false,true,false,false,false,false,false,false,false,false,false,false,false,false,false,false,false,false,false,false,false,false,false,false,false,false,false,false,false,false,false,false,false,false,false,false,false,false,false,false,false,false,false,false,false,false,false,false],"id":5,"left_children":[1,3,5,7,9,11,13,15,17,19,21,23,25,27,29,31,33,35,37,39,41,43,45,-1,47,49,51,-1,53,55,57,59,61,63,-1,65,67,69,71,73,75,77,79,81,83,-1,85,87,89,91,93,95,-1,-1,97,99,101,-1,103,-1,-1,-1,-1,-1,-1,-1,-1,-1,-1,-1,-1,-1,-1,-1,-1,-1,-1,-1,-1,-1,-1,-1,-1,-1,-1,-1,-1,-1,-1,-1,-1,-1,-1,-1,-1,-1,-1,-1,-1,-1,-1,-1,-1,-1,-1],"loss_changes":[5.1893E4,1.0870255E5,4.3115E3,3.2623094E4,6.936313E4,8.82875E2,1.5153177E5,9.0065625E2,2.121261E4,4.012786E4,1.1458351E5,2.895E2,3.321875E2,1.0903411E5,1.5012512E0,8.703125E0,8.140547E2,9.622715E2,1.135268E4,2.4572922E4,3.4384766E1,1.3170336E4,3.3818164E4,0E0,7.327539E1,6.868047E2,1.8234375E1,0E0,3.3544147E1,2.2273698E0,9.2430115E-2,1.859375E0,1.6308594E0,3.4689038E2,0E0,2.037539E2,1.4070976E2,2.7068203E3,6.9943853E3,4.7359976E3,1.1938781E4,1.1782227E1,1.9645996E1,1.0721773E4,1.654093E4,0E0,2.7776122E-2,4.7427734E1,6.456641E1,2.2078125E1,1.4254688E3,4.203125E0,0E0,0E0,4.573998E-1,9.799957E-3,8.0991596E-2,0E0,1.3083948E0,0E0,0E0,0E0,0E0,0E0,0E0,0E0,0E0,0E0,0E0,0E0,0E0,0E0,0E0,0E0,0E0,0E0,0E0,0E0,0E0,0E0,0E0,0E0,0E0,0E0,0E0,0E0,0E0,0E0,0E0,0E0,0E0,0E0,0E0,0E0,0E0,0E0,0E0,0E0,0E0,0E0,0E0,0E0,0E0,0E0,0E0],"parents":[2147483647,0,0,1,1,2,2,3,3,4,4,5,5,6,6,7,7,8,8,9,9,10,10,11,11,12,12,13,13,14,14,15,15,16,16,17,17,18,18,19,19,20,20,21,21,22,22,24,24,25,25,26,26,28,28,29,29,30,30,31,31,32,32,33,33,35,35,36,36,37,37,38,38,39,39,40,40,41,41,42,42,43,43,44,44,46,46,47,47,48,48,49,49,50,50,51,51,54,54,55,55,56,56,58,58],"right_children":[2,4,6,8,10,12,14,16,18,20,22,24,26,28,30,32,34,36,38,40,42,44,46,-1,48,50,52,-1,54,56,58,60,62,64,-1,66,68,70,72,74,76,78,80,82,84,-1,86,88,90,92,94,96,-1,-1,98,100,102,-1,104,-1,-1,-1,-1,-1,-1,-1,-1,-1,-1,-1,-1,-1,-1,-1,-1,-1,-1,-1,-1,-1,-1,-1,-1,-1,-1,-1,-1,-1,-1,-1,-1,-1,-1,-1,-1,-1,-1,-1,-1,-1,-1,-1,-1,-1,-1],"split_conditions":[-2.1861053E-1,-2.4633318E-1,9.09466E-1,-3.1935042E-1,-2.3539987E-1,-1.6600876E-1,2.118545E-2,-3.8261777E-1,-2.0280357E-1,-2.4096277E-1,9.452849E-2,-1.9977224E-1,3.2133305E-1,6.4525104E-1,-4.610166E-1,-4.2972368E-1,-3.5540554E-1,6.744916E-1,-1.19876795E-1,-3.2456067E-1,2.9923782E-1,1.8839983E-2,2.0664272E-1,-7.3639844E-3,-3.8792914E-1,-1.2702355E-2,1.646029E0,2.5660663E0,1.4163477E0,-4.805103E-1,1.5370879E0,-4.7587958E-1,9.440237E-3,-1.4911735E-1,-7.416725E-3,-2.0339987E-1,-2.0411785E-1,-3.4861658E-2,-2.5989246E-1,-5.3899145E-1,-3.3171102E-2,6.5380437E-3,1.423736E-2,1.0430078E-1,-5.8772564E-1,9.196694E-1,1.0013733E-1,-1.8166724E-1,-1.9042766E-1,-1.1536424E-1,1.3864232E-2,5.38053E-2,-7.410335E-3,6.195169E-2,1.8164148E0,9.3053293E-1,1.497102E0,-6.851127E-3,1.5663285E0,-7.36074E-3,-7.4193524E-3,-7.2678733E-3,-6.99122E-3,-4.717241E-3,-4.2209294E-4,9.8055676E-2,6.638569E-2,6.92678E-2,-6.868382E-3,-5.893421E-3,-4.0950216E-3,-4.1533196E-3,-4.7363274E-4,1.0443342E-4,4.3866816E-3,2.0532573E-3,1.3837904E-2,-6.589918E-3,-7.0758346E-3,-5.8071143E-3,-6.7831394E-3,2.4695762E-2,6.2070534E-2,2.4516094E-1,6.073697E-2,-1.5931593E-3,-4.6120435E-3,-6.093237E-3,-5.2314233E-3,-5.5211335E-3,-6.28022E-3,-7.3728124E-3,-7.11766E-3,-3.5157131E-3,-6.705253E-3,-7.2625843E-3,-7.1396106E-3,-1.5957267E-3,5.540614E-3,-1.8451589E-3,-6.6322023E-3,1.0263462E-4,2.203136E-3,3.8700309E-3,-5.9563867E-3],"split_indices":[2,2,0,2,2,2,2,2,0,2,0,2,2,1,1,2,2,1,1,1,1,0,1,0,3,2,2,0,0,1,1,2,0,1,0,0,0,0,2,1,0,0,0,1,1,0,0,2,2,2,2,0,0,0,0,0,0,0,1,0,0,0,0,0,0,0,0,0,0,0,0,0,0,0,0,0,0,0,0,0,0,0,0,0,0,0,0,0,0,0,0,0,0,0,0,0,0,0,0,0,0,0,0,0,0],"split_type":[0,0,0,0,0,0,0,0,0,0,0,0,0,0,0,0,0,0,0,0,0,0,0,0,0,0,0,0,0,0,0,0,0,0,0,0,0,0,0,0,0,0,0,0,0,0,0,0,0,0,0,0,0,0,0,0,0,0,0,0,0,0,0,0,0,0,0,0,0,0,0,0,0,0,0,0,0,0,0,0,0,0,0,0,0,0,0,0,0,0,0,0,0,0,0,0,0,0,0,0,0,0,0,0,0],"sum_hessian":[2.101108E6,1.382338E6,7.1877E5,1.185556E6,1.96782E5,7.18514E5,2.56E2,3.71718E5,8.13838E5,1.91056E5,5.726E3,1.07562E5,6.10952E5,6E0,2.5E2,3.39589E5,3.2129E4,2.46E2,8.13592E5,1.49952E5,4.1104E4,5.703E3,2.3E1,1.5805E4,9.1757E4,2.47554E5,3.63398E5,3E0,3E0,1.6E1,2.34E2,2.82799E5,5.679E4,1.8019E4,1.411E4,2.32E2,1.4E1,5.87136E5,2.26456E5,1.04913E5,4.5039E4,2.978E4,1.1324E4,5.411E3,2.92E2,1.8E1,5E0,3.0316E4,6.1441E4,1.42506E5,1.05048E5,2.69472E5,9.3926E4,1E0,2E0,9E0,7E0,2.28E2,6E0,1.25369E5,1.5743E5,5.3817E4,2.973E3,1.5886E4,2.133E3,1.99E2,3.3E1,2E0,1.2E1,1.0111E5,4.86026E5,7.9722E4,1.46734E5,5.895E4,4.5963E4,1.1568E4,3.3471E4,2.3104E4,6.676E3,8.539E3,2.785E3,4.485E3,9.26E2,6.1E1,2.31E2,2E0,3E0,9.245E3,2.1071E4,1.4866E4,4.6575E4,8.2621E4,5.9885E4,1.6656E4,8.8392E4,2.33452E5,3.602E4,1E0,1E0,1E0,8E0,5E0,2E0,1E0,5E0],"tree_param":{"num_deleted":"0","num_feature":"4","num_nodes":"105","size_leaf_vector":"0"}},{"base_weights":[-4.707284E-1,-3.5853904E-1,-6.864901E-1,-4.7164434E-1,3.2288736E-1,-6.87943E-1,3.3781073E0,-7.146406E-1,-3.6065578E-1,2.2111675E-1,3.717975E0,-6.052125E-1,-7.0250726E-1,1.4740598E2,-6.5206444E-1,-7.2963244E-1,-5.561658E-1,8.813427E0,-3.634405E-1,4.586606E-1,-6.454599E-1,3.4299316E0,7.202134E1,-7.290349E-1,-5.8387655E-1,-6.7451555E-1,-7.215738E-1,2.546821E2,3.2783546E0,-3.2738286E-1,-6.727773E-1,-7.319462E-1,-7.180981E-1,-4.1667688E-1,-7.342563E-1,9.292365E0,7.8635514E-1,-4.3606842E-1,-1.7513593E-1,1.9607306E-1,1.0703092E0,-6.6320974E-1,-5.9872675E-1,3.1708791E0,1.2216674E1,9.109568E1,-3.8429043E-1,-5.439489E-1,-6.035683E-1,-7.1929854E-1,-6.137576E-1,-7.173712E-1,-7.336232E-1,6.164193E0,2.6167753E-1,-6.283111E-1,8.970027E-2,-6.782915E-1,-3.9627343E-1,-7.287134E-1,-7.345159E-1,-7.195196E-1,-6.921332E-1,-4.733936E-1,-8.371798E-2,9.708002E0,6.574135E0,6.880601E0,-6.804982E-1,-5.8400327E-1,-4.0551984E-1,-4.111787E-1,-4.6889666E-2,1.0338915E-2,4.342816E-1,1.8015422E-1,1.362228E0,-6.529717E-1,-7.02604E-1,-5.752671E-1,-6.7266065E-1,2.5112202E0,6.1940017E0,2.9340849E1,3.6991992E0,-1.582538E-1,-4.577453E-1,-6.0323113E-1,-5.179112E-1,-5.4659253E-1,-6.2174195E-1,-7.299085E-1,-7.046485E-1,-3.480558E-1,-6.6382015E-1,-7.1897155E-1,-7.06667E-1,-1.5877481E-1,5.512911E-1,-1.8359333E-1,-6.573249E-1,1.017793E-2,2.1884485E-1,3.850681E-1,-5.9067506E-1],"categories":[],"categories_nodes":[],"categories_segments":[],"categories_sizes":[],"default_left":[true,true,true,true,true,true,true,true,true,true,true,true,true,true,true,true,true,true,true,true,true,true,true,false,true,true,true,false,true,true,true,true,true,true,false,true,true,true,true,true,true,true,true,true,true,false,true,true,true,true,true,true,false,false,true,true,true,false,true,false,false,false,false,false,false,false,false,false,false,false,false,false,false,false,false,false,false,false,false,false,false,false,false,false,false,false,false,false,false,false,false,false,false,false,false,false,false,false,false,false,false,false,false,false,false],"id":6,"left_children":[1,3,5,7,9,11,13,15,17,19,21,23,25,27,29,31,33,35,37,39,41,43,45,-1,47,49,51,-1,53,55,57,59,61,63,-1,65,67,69,71,73,75,77,79,81,83,-1,85,87,89,91,93,95,-1,-1,97,99,101,-1,103,-1,-1,-1,-1,-1,-1,-1,-1,-1,-1,-1,-1,-1,-1,-1,-1,-1,-1,-1,-1,-1,-1,-1,-1,-1,-1,-1,-1,-1,-1,-1,-1,-1,-1,-1,-1,-1,-1,-1,-1,-1,-1,-1,-1,-1,-1],"loss_changes":[5.0859594E4,1.0654105E5,4.2469062E3,3.1974E4,6.7991664E4,8.6534375E2,1.4927358E5,8.827344E2,2.0794633E4,3.932937E4,1.1242781E5,2.837422E2,3.255625E2,1.0739522E5,1.4677429E0,8.53125E0,7.9785645E2,9.4227734E2,1.1126758E4,2.4083936E4,3.369922E1,1.2944867E4,3.3181164E4,0E0,7.181641E1,6.731406E2,1.7875E1,0E0,3.320954E1,2.1900651E0,8.950806E-2,1.8125E0,1.5976562E0,3.402561E2,0E0,1.9942188E2,1.387727E2,2.6531484E3,6.855197E3,4.641754E3,1.1703535E4,1.1552734E1,1.925586E1,1.1036469E4,2.3665783E4,0E0,2.718097E-2,4.64834E1,6.328125E1,2.1632812E1,1.3970977E3,4.125E0,0E0,0E0,4.5283723E-1,8.34918E-3,7.993164E-2,0E0,1.2907082E0,0E0,0E0,0E0,0E0,0E0,0E0,0E0,0E0,0E0,0E0,0E0,0E0,0E0,0E0,0E0,0E0,0E0,0E0,0E0,0E0,0E0,0E0,0E0,0E0,0E0,0E0,0E0,0E0,0E0,0E0,0E0,0E0,0E0,0E0,0E0,0E0,0E0,0E0,0E0,0E0,0E0,0E0,0E0,0E0,0E0,0E0],"parents":[2147483647,0,0,1,1,2,2,3,3,4,4,5,5,6,6,7,7,8,8,9,9,10,10,11,11,12,12,13,13,14,14,15,15,16,16,17,17,18,18,19,19,20,20,21,21,22,22,24,24,25,25,26,26,28,28,29,29,30,30,31,31,32,32,33,33,35,35,36,36,37,37,38,38,39,39,40,40,41,41,42,42,43,43,44,44,46,46,47,47,48,48,49,49,50,50,51,51,54,54,55,55,56,56,58,58],"right_children":[2,4,6,8,10,12,14,16,18,20,22,24,26,28,30,32,34,36,38,40,42,44,46,-1,48,50,52,-1,54,56,58,60,62,64,-1,66,68,70,72,74,76,78,80,82,84,-1,86,88,90,92,94,96,-1,-1,98,100,102,-1,104,-1,-1,-1,-1,-1,-1,-1,-1,-1,-1,-1,-1,-1,-1,-1,-1,-1,-1,-1,-1,-1,-1,-1,-1,-1,-1,-1,-1,-1,-1,-1,-1,-1,-1,-1,-1,-1,-1,-1,-1,-1,-1,-1,-1,-1,-1],"split_conditions":[-2.1861053E-1,-2.4633318E-1,9.09466E-1,-3.1935042E-1,-2.3539987E-1,-1.6600876E-1,2.118545E-2,-3.8261777E-1,-2.0280357E-1,-2.4096277E-1,9.452849E-2,-1.9977224E-1,3.2133305E-1,6.4525104E-1,-4.610166E-1,-4.2972368E-1,-3.5540554E-1,6.744916E-1,-1.19876795E-1,-3.2456067E-1,2.9923782E-1,3.335303E-2,2.0664272E-1,-7.290349E-3,-3.8792914E-1,-1.2702355E-2,1.646029E0,2.5468209E0,1.4163477E0,-4.805103E-1,1.5370879E0,-4.7587958E-1,9.440237E-3,-1.8810475E-1,-7.342563E-3,-2.0339987E-1,-2.0411785E-1,-3.4968004E-2,-2.5989246E-1,-5.3899145E-1,-3.418559E-2,8.235753E-3,1.4951911E-2,1.0430078E-1,-1.4424393E-1,9.109568E-1,1.0013733E-1,-1.8166724E-1,-1.9042766E-1,-1.1536424E-1,1.3864232E-2,5.52436E-2,-7.336232E-3,6.164193E-2,1.8164148E0,9.3053293E-1,1.497102E0,-6.782915E-3,1.5663285E0,-7.287134E-3,-7.345159E-3,-7.195196E-3,-6.921332E-3,-4.733936E-3,-8.371798E-4,9.708002E-2,6.5741345E-2,6.880601E-2,-6.8049817E-3,-5.8400324E-3,-4.0551983E-3,-4.111787E-3,-4.6889664E-4,1.03389146E-4,4.342816E-3,1.8015421E-3,1.362228E-2,-6.529717E-3,-7.02604E-3,-5.7526706E-3,-6.7266063E-3,2.5112202E-2,6.1940014E-2,2.9340848E-1,3.699199E-2,-1.582538E-3,-4.5774532E-3,-6.0323114E-3,-5.179112E-3,-5.465925E-3,-6.217419E-3,-7.299085E-3,-7.046485E-3,-3.480558E-3,-6.6382014E-3,-7.1897153E-3,-7.06667E-3,-1.5877481E-3,5.512911E-3,-1.8359333E-3,-6.573249E-3,1.017793E-4,2.1884483E-3,3.8506808E-3,-5.9067504E-3],"split_indices":[2,2,0,2,2,2,2,2,0,2,0,2,2,1,1,2,2,1,1,1,1,0,1,0,3,2,2,0,0,1,1,2,0,1,0,0,0,0,2,1,0,0,0,1,1,0,0,2,2,2,2,0,0,0,0,0,0,0,1,0,0,0,0,0,0,0,0,0,0,0,0,0,0,0,0,0,0,0,0,0,0,0,0,0,0,0,0,0,0,0,0,0,0,0,0,0,0,0,0,0,0,0,0,0,0],"split_type":[0,0,0,0,0,0,0,0,0,0,0,0,0,0,0,0,0,0,0,0,0,0,0,0,0,0,0,0,0,0,0,0,0,0,0,0,0,0,0,0,0,0,0,0,0,0,0,0,0,0,0,0,0,0,0,0,0,0,0,0,0,0,0,0,0,0,0,0,0,0,0,0,0,0,0,0,0,0,0,0,0,0,0,0,0,0,0,0,0,0,0,0,0,0,0,0,0,0,0,0,0,0,0,0,0],"sum_hessian":[2.101108E6,1.382338E6,7.1877E5,1.185556E6,1.96782E5,7.18514E5,2.56E2,3.71718E5,8.13838E5,1.91056E5,5.726E3,1.07562E5,6.10952E5,6E0,2.5E2,3.39589E5,3.2129E4,2.46E2,8.13592E5,1.49952E5,4.1104E4,5.703E3,2.3E1,1.5805E4,9.1757E4,2.47554E5,3.63398E5,3E0,3E0,1.6E1,2.34E2,2.82799E5,5.679E4,1.8019E4,1.411E4,2.32E2,1.4E1,5.87136E5,2.26456E5,1.04913E5,4.5039E4,2.978E4,1.1324E4,5.541E3,1.62E2,1.8E1,5E0,3.0316E4,6.1441E4,1.42506E5,1.05048E5,2.69472E5,9.3926E4,1E0,2E0,9E0,7E0,2.28E2,6E0,1.25369E5,1.5743E5,5.3817E4,2.973E3,1.5396E4,2.623E3,1.99E2,3.3E1,2E0,1.2E1,1.00489E5,4.86647E5,7.9722E4,1.46734E5,5.895E4,4.5963E4,1.1123E4,3.3916E4,2.3651E4,6.129E3,8.603E3,2.721E3,4.55E3,9.91E2,5.3E1,1.09E2,2E0,3E0,9.245E3,2.1071E4,1.4866E4,4.6575E4,8.2621E4,5.9885E4,1.6656E4,8.8392E4,2.34367E5,3.5105E4,1E0,1E0,1E0,8E0,5E0,2E0,1E0,5E0],"tree_param":{"num_deleted":"0","num_feature":"4","num_nodes":"105","size_leaf_vector":"0"}},{"base_weights":[-4.660192E-1,-3.5495257E-1,-6.796217E-1,-4.6692774E-1,3.196652E-1,-6.8106365E-1,3.354433E0,-7.074943E-1,-3.5704896E-1,2.1890555E-1,3.681026E0,-5.991606E-1,-6.9548225E-1,1.4630511E2,-6.456034E-1,-7.223362E-1,-5.506046E-1,8.146879E0,-3.599962E-1,4.540741E-1,-6.3900596E-1,3.3957055E0,7.133882E1,-7.21745E-1,-5.7803804E-1,-6.677705E-1,-7.1435815E-1,2.5277197E2,3.261963E0,-3.24469E-1,-6.6608715E-1,-7.246267E-1,-7.1091735E-1,-4.125104E-1,-7.269143E-1,9.186614E0,2.3140705E0,-4.3827623E-1,-1.882742E-1,1.6683774E-1,1.0025017E0,-6.565781E-1,-5.927406E-1,3.0477152E0,9.811841E0,9.0232666E1,-3.814742E-1,-5.385098E-1,-5.975328E-1,-7.121057E-1,-6.076201E-1,-7.1019757E-1,-7.2628707E-1,6.1333723E0,2.6036912E-1,-6.228689E-1,8.908953E-2,-6.715382E-1,-3.926044E-1,-7.214263E-1,-7.271708E-1,-7.1232456E-1,-6.8521416E-1,-4.623937E-1,-4.0950622E-2,9.690007E0,8.085056E0,1.1324852E1,-3.2655504E-1,-5.860841E-1,-4.08857E-1,-5.3457123E-1,-1.0707416E-1,-7.229671E-2,3.2259834E-1,1.7200655E-1,1.2756318E0,-6.458728E-1,-6.9352436E-1,-5.69153E-1,-6.648315E-1,2.4197793E0,6.083177E0,2.4090069E1,5.953815E0,-1.5719877E-1,-4.543122E-1,-5.971995E-1,-5.127323E-1,-5.41127E-1,-6.1552465E-1,-7.226095E-1,-6.976021E-1,-3.4457546E-1,-6.5718204E-1,-7.1181494E-1,-6.9979644E-1,-1.5798093E-1,5.4853463E-1,-1.8267536E-1,-6.5148205E-1,1.0093093E-2,2.1738589E-1,3.8314274E-1,-5.857527E-1],"categories":[],"categories_nodes":[],"categories_segments":[],"categories_sizes":[],"default_left":[true,true,true,true,true,true,true,true,true,true,true,true,true,true,true,true,true,true,true,true,true,true,true,false,true,true,true,false,true,true,true,true,true,true,false,true,true,true,true,true,true,true,true,true,true,false,true,true,true,true,true,true,false,false,true,true,true,false,true,false,false,false,false,false,false,false,false,false,false,false,false,false,false,false,false,false,false,false,false,false,false,false,false,false,false,false,false,false,false,false,false,false,false,false,false,false,false,false,false,false,false,false,false,false,false],"id":7,"left_children":[1,3,5,7,9,11,13,15,17,19,21,23,25,27,29,31,33,35,37,39,41,43,45,-1,47,49,51,-1,53,55,57,59,61,63,-1,65,67,69,71,73,75,77,79,81,83,-1,85,87,89,91,93,95,-1,-1,97,99,101,-1,103,-1,-1,-1,-1,-1,-1,-1,-1,-1,-1,-1,-1,-1,-1,-1,-1,-1,-1,-1,-1,-1,-1,-1,-1,-1,-1,-1,-1,-1,-1,-1,-1,-1,-1,-1,-1,-1,-1,-1,-1,-1,-1,-1,-1,-1,-1],"loss_changes":[4.9846688E4,1.0442266E5,4.1833438E3,3.133775E4,6.664753E4,8.4809375E2,1.470491E5,8.651719E2,2.0400281E4,3.854677E4,1.1031267E5,2.7809766E2,3.1909375E2,1.0578097E5,1.434967E0,8.375E0,7.819795E2,1.6889531E3,1.0936094E4,2.3621684E4,3.3027344E1,1.2705719E4,3.2556156E4,0E0,7.038672E1,6.597422E2,1.7515625E1,0E0,3.2878277E1,2.1533904E0,8.667755E-2,1.78125E0,1.5664062E0,3.339751E2,0E0,5.4183594E1,1.0506385E3,2.4297188E3,7.16309E3,3.665647E3,1.1691219E4,1.1331055E1,1.8879395E1,1.0300965E4,1.5996701E4,0E0,2.6597321E-2,4.555957E1,6.2021484E1,2.1203125E1,1.3692969E3,4.046875E0,0E0,0E0,4.483202E-1,6.9434643E-3,7.888553E-2,0E0,1.2732668E0,0E0,0E0,0E0,0E0,0E0,0E0,0E0,0E0,0E0,0E0,0E0,0E0,0E0,0E0,0E0,0E0,0E0,0E0,0E0,0E0,0E0,0E0,0E0,0E0,0E0,0E0,0E0,0E0,0E0,0E0,0E0,0E0,0E0,0E0,0E0,0E0,0E0,0E0,0E0,0E0,0E0,0E0,0E0,0E0,0E0,0E0],"parents":[2147483647,0,0,1,1,2,2,3,3,4,4,5,5,6,6,7,7,8,8,9,9,10,10,11,11,12,12,13,13,14,14,15,15,16,16,17,17,18,18,19,19,20,20,21,21,22,22,24,24,25,25,26,26,28,28,29,29,30,30,31,31,32,32,33,33,35,35,36,36,37,37,38,38,39,39,40,40,41,41,42,42,43,43,44,44,46,46,47,47,48,48,49,49,50,50,51,51,54,54,55,55,56,56,58,58],"right_children":[2,4,6,8,10,12,14,16,18,20,22,24,26,28,30,32,34,36,38,40,42,44,46,-1,48,50,52,-1,54,56,58,60,62,64,-1,66,68,70,72,74,76,78,80,82,84,-1,86,88,90,92,94,96,-1,-1,98,100,102,-1,104,-1,-1,-1,-1,-1,-1,-1,-1,-1,-1,-1,-1,-1,-1,-1,-1,-1,-1,-1,-1,-1,-1,-1,-1,-1,-1,-1,-1,-1,-1,-1,-1,-1,-1,-1,-1,-1,-1,-1,-1,-1,-1,-1,-1,-1,-1],"split_conditions":[-2.1861053E-1,-2.4633318E-1,9.09466E-1,-3.1935042E-1,-2.3539987E-1,-1.6600876E-1,2.118545E-2,-3.8261777E-1,-2.0225504E-1,-2.4096277E-1,9.452849E-2,-1.9977224E-1,3.2133305E-1,6.4525104E-1,-4.610166E-1,-4.2972368E-1,-3.5540554E-1,-2.5349316E-1,-1.978516E-1,-3.7329492E-1,2.9923782E-1,1.8839983E-2,2.0664272E-1,-7.21745E-3,-3.8792914E-1,-1.2702355E-2,1.646029E0,2.5277197E0,1.4163477E0,-4.805103E-1,1.5370879E0,-4.7587958E-1,9.440237E-3,-1.4911735E-1,-7.2691427E-3,-2.0386066E-1,-3.099404E-1,-3.4968004E-2,-4.895942E-2,-5.9747255E-1,-3.312984E-2,6.5380437E-3,1.423736E-2,1.0430078E-1,-5.8772564E-1,9.0232664E-1,1.0013733E-1,-1.8166724E-1,-1.9042766E-1,-1.1536424E-1,1.3864232E-2,5.338663E-2,-7.2628707E-3,6.1333723E-2,1.8164148E0,9.3053293E-1,1.497102E0,-6.7153815E-3,1.5663285E0,-7.214263E-3,-7.271708E-3,-7.1232454E-3,-6.8521416E-3,-4.623937E-3,-4.095062E-4,9.690007E-2,8.0850564E-2,1.1324852E-1,-3.2655504E-3,-5.8608414E-3,-4.08857E-3,-5.3457124E-3,-1.0707416E-3,-7.229671E-4,3.2259834E-3,1.7200655E-3,1.2756318E-2,-6.4587276E-3,-6.9352435E-3,-5.69153E-3,-6.648315E-3,2.4197793E-2,6.083177E-2,2.4090068E-1,5.953815E-2,-1.5719876E-3,-4.543122E-3,-5.9719947E-3,-5.1273233E-3,-5.41127E-3,-6.1552464E-3,-7.226095E-3,-6.976021E-3,-3.4457545E-3,-6.57182E-3,-7.118149E-3,-6.9979643E-3,-1.5798094E-3,5.485346E-3,-1.8267536E-3,-6.5148203E-3,1.0093093E-4,2.173859E-3,3.8314273E-3,-5.8575273E-3],"split_indices":[2,2,0,2,2,2,2,2,0,2,0,2,2,1,1,2,2,2,1,1,1,0,1,0,3,2,2,0,0,1,1,2,0,1,0,0,1,0,0,1,0,0,0,1,1,0,0,2,2,2,2,0,0,0,0,0,0,0,1,0,0,0,0,0,0,0,0,0,0,0,0,0,0,0,0,0,0,0,0,0,0,0,0,0,0,0,0,0,0,0,0,0,0,0,0,0,0,0,0,0,0,0,0,0,0],"split_type":[0,0,0,0,0,0,0,0,0,0,0,0,0,0,0,0,0,0,0,0,0,0,0,0,0,0,0,0,0,0,0,0,0,0,0,0,0,0,0,0,0,0,0,0,0,0,0,0,0,0,0,0,0,0,0,0,0,0,0,0,0,0,0,0,0,0,0,0,0,0,0,0,0,0,0,0,0,0,0,0,0,0,0,0,0,0,0,0,0,0,0,0,0,0,0,0,0,0,0,0,0,0,0,0,0],"sum_hessian":[2.101108E6,1.382338E6,7.1877E5,1.185556E6,1.96782E5,7.18514E5,2.56E2,3.71718E5,8.13838E5,1.91056E5,5.726E3,1.07562E5,6.10952E5,6E0,2.5E2,3.39589E5,3.2129E4,2.81E2,8.13557E5,1.49952E5,4.1104E4,5.703E3,2.3E1,1.5805E4,9.1757E4,2.47554E5,3.63398E5,3E0,3E0,1.6E1,2.34E2,2.82799E5,5.679E4,1.8019E4,1.411E4,2.38E2,4.3E1,5.58817E5,2.5474E5,9.8411E4,5.1541E4,2.978E4,1.1324E4,5.411E3,2.92E2,1.8E1,5E0,3.0316E4,6.1441E4,1.42506E5,1.05048E5,2.69472E5,9.3926E4,1E0,2E0,9E0,7E0,2.28E2,6E0,1.25369E5,1.5743E5,5.3817E4,2.973E3,1.5886E4,2.133E3,1.58E2,8E1,9E0,3.4E1,9.2759E4,4.66058E5,4.8385E4,2.06355E5,3.8817E4,5.9594E4,1.2756E4,3.8785E4,2.3104E4,6.676E3,8.539E3,2.785E3,4.485E3,9.26E2,6.1E1,2.31E2,2E0,3E0,9.245E3,2.1071E4,1.4866E4,4.6575E4,8.2621E4,5.9885E4,1.6656E4,8.8392E4,2.33149E5,3.6323E4,1E0,1E0,1E0,8E0,5E0,2E0,1E0,5E0],"tree_param":{"num_deleted":"0","num_feature":"4","num_nodes":"105","size_leaf_vector":"0"}},{"base_weights":[-4.6135712E-1,-3.5140195E-1,-6.72822E-1,-4.6225828E-1,3.16475E-1,-6.7425317E-1,3.3309207E0,-7.004195E-1,-3.5347813E-1,2.1671644E-1,3.6444395E0,-5.9316933E-1,-6.8852746E-1,1.452125E2,-6.3920635E-1,-7.151129E-1,-5.450989E-1,8.06643E0,-3.5639626E-1,4.495335E-1,-6.326165E-1,3.361816E0,7.066278E1,-7.14528E-1,-5.722579E-1,-6.610929E-1,-7.072146E-1,2.5087619E2,3.2456532E0,-3.2158116E-1,-6.5946347E-1,-7.173805E-1,-7.038085E-1,-4.0838557E-1,-7.196456E-1,9.095491E0,2.2934291E0,-4.2769793E-1,-1.7152429E-1,1.9187991E-1,1.0496893E0,-6.500128E-1,-5.868143E-1,3.1072571E0,1.1996193E1,8.937783E1,-3.7867865E-1,-5.331251E-1,-5.915577E-1,-7.049847E-1,-6.01544E-1,-7.030956E-1,-7.1902424E-1,6.1027055E0,2.590673E-1,-6.174744E-1,8.8483E-2,-6.6485214E-1,-3.889678E-1,-7.142121E-1,-7.198991E-1,-7.0520145E-1,-6.7836434E-1,-4.6403632E-1,-8.168477E-2,9.593716E0,8.005204E0,1.1222928E1,-3.233828E-1,-4.0417302E-1,-6.1560005E-1,-4.0576798E-1,-4.4242527E-2,9.609797E-3,4.2564577E-1,1.7015149E-1,1.3339404E0,-6.3997567E-1,-6.8864983E-1,-5.638171E-1,-6.592907E-1,2.4604597E0,6.0714383E0,2.8870173E1,3.6035466E0,-1.561508E-1,-4.5090485E-1,1.4101251E0,-5.3387696E-1,-5.357161E-1,-6.093696E-1,-7.1538347E-1,-6.906262E-1,-3.4112993E-1,-6.5061027E-1,-7.046642E-1,-6.926018E-1,-1.5719102E-1,5.45792E-1,-1.8176198E-1,-6.456911E-1,1.0009001E-2,2.1593666E-1,3.8122702E-1,-5.8087146E-1],"categories":[],"categories_nodes":[],"categories_segments":[],"categories_sizes":[],"default_left":[true,true,true,true,true,true,true,true,true,true,true,true,true,true,true,true,true,true,true,true,true,true,true,false,true,true,true,false,true,true,true,true,true,true,false,true,true,true,true,true,true,true,true,true,true,false,true,true,true,true,true,true,false,false,true,true,true,false,true,false,false,false,false,false,false,false,false,false,false,false,false,false,false,false,false,false,false,false,false,false,false,false,false,false,false,false,false,false,false,false,false,false,false,false,false,false,false,false,false,false,false,false,false,false,false],"id":8,"left_children":[1,3,5,7,9,11,13,15,17,19,21,23,25,27,29,31,33,35,37,39,41,43,45,-1,47,49,51,-1,53,55,57,59,61,63,-1,65,67,69,71,73,75,77,79,81,83,-1,85,87,89,91,93,95,-1,-1,97,99,101,-1,103,-1,-1,-1,-1,-1,-1,-1,-1,-1,-1,-1,-1,-1,-1,-1,-1,-1,-1,-1,-1,-1,-1,-1,-1,-1,-1,-1,-1,-1,-1,-1,-1,-1,-1,-1,-1,-1,-1,-1,-1,-1,-1,-1,-1,-1,-1],"loss_changes":[4.8854E4,1.023463E5,4.1207188E3,3.0714219E4,6.5329773E4,8.3121875E2,1.448578E5,8.479531E2,1.9999148E4,3.7779742E4,1.0823732E5,2.725625E2,3.1278125E2,1.0419095E5,1.4029083E0,8.203125E0,7.664199E2,1.6544375E3,1.0723984E4,2.3187375E4,3.2371094E1,1.2499867E4,3.1942914E4,0E0,6.8984375E1,6.466094E2,1.7171875E1,0E0,3.255032E1,2.1173344E0,8.39386E-2,1.734375E0,1.5351562E0,3.2758618E2,0E0,5.3027344E1,1.0317694E3,2.595039E3,6.751338E3,4.4702275E3,1.1260207E4,1.1109375E1,1.8504395E1,1.0610324E4,2.297959E4,0E0,2.6024938E-2,4.504785E1,6.078711E1,2.078125E1,1.3420469E3,3.953125E0,0E0,0E0,4.438482E-1,5.5816174E-3,7.785307E-2,0E0,1.2560661E0,0E0,0E0,0E0,0E0,0E0,0E0,0E0,0E0,0E0,0E0,0E0,0E0,0E0,0E0,0E0,0E0,0E0,0E0,0E0,0E0,0E0,0E0,0E0,0E0,0E0,0E0,0E0,0E0,0E0,0E0,0E0,0E0,0E0,0E0,0E0,0E0,0E0,0E0,0E0,0E0,0E0,0E0,0E0,0E0,0E0,0E0],"parents":[2147483647,0,0,1,1,2,2,3,3,4,4,5,5,6,6,7,7,8,8,9,9,10,10,11,11,12,12,13,13,14,14,15,15,16,16,17,17,18,18,19,19,20,20,21,21,22,22,24,24,25,25,26,26,28,28,29,29,30,30,31,31,32,32,33,33,35,35,36,36,37,37,38,38,39,39,40,40,41,41,42,42,43,43,44,44,46,46,47,47,48,48,49,49,50,50,51,51,54,54,55,55,56,56,58,58],"right_children":[2,4,6,8,10,12,14,16,18,20,22,24,26,28,30,32,34,36,38,40,42,44,46,-1,48,50,52,-1,54,56,58,60,62,64,-1,66,68,70,72,74,76,78,80,82,84,-1,86,88,90,92,94,96,-1,-1,98,100,102,-1,104,-1,-1,-1,-1,-1,-1,-1,-1,-1,-1,-1,-1,-1,-1,-1,-1,-1,-1,-1,-1,-1,-1,-1,-1,-1,-1,-1,-1,-1,-1,-1,-1,-1,-1,-1,-1,-1,-1,-1,-1,-1,-1,-1,-1,-1,-1],"split_conditions":[-2.1861053E-1,-2.4633318E-1,9.09466E-1,-3.1935042E-1,-2.3539987E-1,-1.6600876E-1,2.118545E-2,-3.8261777E-1,-2.0225504E-1,-2.4096277E-1,9.452849E-2,-1.9977224E-1,3.2133305E-1,6.4525104E-1,-4.610166E-1,-4.2972368E-1,-3.5540554E-1,-2.5349316E-1,-1.19876795E-1,-3.2456067E-1,2.9923782E-1,3.335303E-2,2.0664272E-1,-7.14528E-3,-3.8792914E-1,-1.2702355E-2,1.646029E0,2.508762E0,1.4163477E0,-4.805103E-1,1.5370879E0,-4.7587958E-1,9.440237E-3,-1.8810475E-1,-7.196456E-3,-2.0386066E-1,-3.099404E-1,4.609265E-2,-2.5989246E-1,-5.3899145E-1,-3.4482267E-2,8.244967E-3,1.4951911E-2,1.0430078E-1,-1.4424393E-1,8.9377826E-1,1.0013733E-1,-1.17583066E-1,-1.9042766E-1,-1.1536424E-1,1.3864232E-2,5.525036E-2,-7.1902424E-3,6.1027054E-2,1.8164148E0,9.3053293E-1,1.497102E0,-6.6485214E-3,1.5663285E0,-7.142121E-3,-7.198991E-3,-7.052014E-3,-6.7836433E-3,-4.640363E-3,-8.1684766E-4,9.5937155E-2,8.005204E-2,1.1222928E-1,-3.2338279E-3,-4.04173E-3,-6.1560003E-3,-4.05768E-3,-4.4242525E-4,9.609797E-5,4.2564576E-3,1.7015148E-3,1.3339404E-2,-6.3997563E-3,-6.886498E-3,-5.6381705E-3,-6.5929065E-3,2.4604596E-2,6.0714383E-2,2.887017E-1,3.6035467E-2,-1.561508E-3,-4.5090485E-3,1.4101251E-2,-5.3387694E-3,-5.357161E-3,-6.0936958E-3,-7.1538347E-3,-6.9062617E-3,-3.4112993E-3,-6.5061026E-3,-7.046642E-3,-6.926018E-3,-1.5719102E-3,5.4579196E-3,-1.8176198E-3,-6.4569106E-3,1.0009001E-4,2.1593666E-3,3.81227E-3,-5.8087143E-3],"split_indices":[2,2,0,2,2,2,2,2,0,2,0,2,2,1,1,2,2,2,1,1,1,0,1,0,3,2,2,0,0,1,1,2,0,1,0,0,1,3,2,1,0,0,0,1,1,0,0,0,2,2,2,0,0,0,0,0,0,0,1,0,0,0,0,0,0,0,0,0,0,0,0,0,0,0,0,0,0,0,0,0,0,0,0,0,0,0,0,0,0,0,0,0,0,0,0,0,0,0,0,0,0,0,0,0,0],"split_type":[0,0,0,0,0,0,0,0,0,0,0,0,0,0,0,0,0,0,0,0,0,0,0,0,0,0,0,0,0,0,0,0,0,0,0,0,0,0,0,0,0,0,0,0,0,0,0,0,0,0,0,0,0,0,0,0,0,0,0,0,0,0,0,0,0,0,0,0,0,0,0,0,0,0,0,0,0,0,0,0,0,0,0,0,0,0,0,0,0,0,0,0,0,0,0,0,0,0,0,0,0,0,0,0,0],"sum_hessian":[2.101108E6,1.382338E6,7.1877E5,1.185556E6,1.96782E5,7.18514E5,2.56E2,3.71718E5,8.13838E5,1.91056E5,5.726E3,1.07562E5,6.10952E5,6E0,2.5E2,3.39589E5,3.2129E4,2.81E2,8.13557E5,1.49952E5,4.1104E4,5.703E3,2.3E1,1.5805E4,9.1757E4,2.47554E5,3.63398E5,3E0,3E0,1.6E1,2.34E2,2.82799E5,5.679E4,1.8019E4,1.411E4,2.38E2,4.3E1,5.87116E5,2.26441E5,1.04913E5,4.5039E4,2.978E4,1.1324E4,5.541E3,1.62E2,1.8E1,5E0,3.0316E4,6.1441E4,1.42506E5,1.05048E5,2.69472E5,9.3926E4,1E0,2E0,9E0,7E0,2.28E2,6E0,1.25369E5,1.5743E5,5.3817E4,2.973E3,1.5396E4,2.623E3,1.58E2,8E1,9E0,3.4E1,5.21792E5,6.5324E4,7.9722E4,1.46719E5,5.895E4,4.5963E4,1.1001E4,3.4038E4,2.3653E4,6.127E3,8.603E3,2.721E3,4.55E3,9.91E2,5.3E1,1.09E2,2E0,3E0,1.1E1,3.0305E4,1.4866E4,4.6575E4,8.2621E4,5.9885E4,1.6656E4,8.8392E4,2.34374E5,3.5098E4,1E0,1E0,1E0,8E0,5E0,2E0,1E0,5E0],"tree_param":{"num_deleted":"0","num_feature":"4","num_nodes":"105","size_leaf_vector":"0"}},{"base_weights":[-4.5674163E-1,-3.4788683E-1,-6.660903E-1,-4.576355E-1,3.133168E-1,-6.675107E-1,3.3075688E0,-6.934154E-1,-3.4994304E-1,2.1454923E-1,3.6082218E0,-5.872377E-1,-6.816423E-1,1.4412804E2,-6.328727E-1,-7.0796186E-1,-5.396483E-1,7.986777E0,-3.5283232E-1,4.4503826E-1,-6.26291E-1,3.3282697E0,6.999314E1,-7.073832E-1,-5.6653535E-1,-6.5448207E-1,-7.001425E-1,2.4899463E2,3.229425E0,-3.1871918E-1,-6.5290564E-1,-7.1020675E-1,-6.967706E-1,-4.04302E-1,-7.1244967E-1,9.005273E0,2.2729723E0,-4.2962012E-1,-1.8438374E-1,1.8996115E-1,1.0391927E0,-6.435131E-1,-5.809472E-1,2.9864752E0,9.630192E0,8.853109E1,-3.759036E-1,-5.277935E-1,-5.856423E-1,-6.979349E-1,-5.9552866E-1,-6.960647E-1,-7.118341E-1,6.0721917E0,2.57772E-1,-6.1212707E-1,8.788061E-2,-6.582327E-1,-3.8536334E-1,-7.0707005E-1,-7.127002E-1,-6.980703E-1,-6.700706E-1,-4.532479E-1,-3.9724827E-2,9.498383E0,7.926141E0,1.11219225E1,-3.2024136E-1,-5.760217E-1,-4.0048084E-1,-5.280862E-1,-1.0379208E-1,9.513714E-3,4.2138937E-1,1.9702488E-1,1.3302419E0,-6.3301486E-1,-6.797447E-1,-5.578246E-1,-6.51617E-1,2.3709877E0,5.961762E0,2.367124E1,5.8363338E0,-1.5510978E-1,-4.475231E-1,-5.9103906E-1,-5.042672E-1,-5.303593E-1,-6.0327595E-1,-7.082297E-1,-6.8372005E-1,-3.3771884E-1,-6.4410424E-1,-6.976854E-1,-6.8603367E-1,-1.5640506E-1,5.4306304E-1,-1.8085316E-1,-6.399516E-1,9.925604E-3,2.1449709E-1,3.793209E-1,-5.7603085E-1],"categories":[],"categories_nodes":[],"categories_segments":[],"categories_sizes":[],"default_left":[true,true,true,true,true,true,true,true,true,true,true,true,true,true,true,true,true,true,true,true,true,true,true,false,true,true,true,false,true,true,true,true,true,true,false,true,true,true,true,true,true,true,true,true,true,false,true,true,true,true,true,true,false,false,true,true,true,false,true,false,false,false,false,false,false,false,false,false,false,false,false,false,false,false,false,false,false,false,false,false,false,false,false,false,false,false,false,false,false,false,false,false,false,false,false,false,false,false,false,false,false,false,false,false,false],"id":9,"left_children":[1,3,5,7,9,11,13,15,17,19,21,23,25,27,29,31,33,35,37,39,41,43,45,-1,47,49,51,-1,53,55,57,59,61,63,-1,65,67,69,71,73,75,77,79,81,83,-1,85,87,89,91,93,95,-1,-1,97,99,101,-1,103,-1,-1,-1,-1,-1,-1,-1,-1,-1,-1,-1,-1,-1,-1,-1,-1,-1,-1,-1,-1,-1,-1,-1,-1,-1,-1,-1,-1,-1,-1,-1,-1,-1,-1,-1,-1,-1,-1,-1,-1,-1,-1,-1,-1,-1,-1],"loss_changes":[4.7881094E4,1.00311266E5,4.0590312E3,3.0103062E4,6.4038266E4,8.146875E2,1.4269917E5,8.310781E2,1.9605922E4,3.7027977E4,1.06200984E5,2.6714062E2,3.0653125E2,1.026248E5,1.3715515E0,8.03125E0,7.511699E2,1.620627E3,1.0523125E4,2.272596E4,3.1725586E1,1.2257441E4,3.1341227E4,0E0,6.761328E1,6.337422E2,1.6828125E1,0E0,3.2225628E1,2.0818872E0,8.126831E-2,1.703125E0,1.5039062E0,3.2154102E2,0E0,5.189453E1,1.0132392E3,2.3837031E3,7.0561562E3,4.3812705E3,1.1039594E4,1.0897461E1,1.8142334E1,9.896598E3,1.5469879E4,0E0,2.5463581E-2,4.4811523E1,5.957617E1,2.0375E1,1.3153398E3,3.90625E0,0E0,0E0,4.3942082E-1,4.2624474E-3,7.683408E-2,0E0,1.2391038E0,0E0,0E0,0E0,0E0,0E0,0E0,0E0,0E0,0E0,0E0,0E0,0E0,0E0,0E0,0E0,0E0,0E0,0E0,0E0,0E0,0E0,0E0,0E0,0E0,0E0,0E0,0E0,0E0,0E0,0E0,0E0,0E0,0E0,0E0,0E0,0E0,0E0,0E0,0E0,0E0,0E0,0E0,0E0,0E0,0E0,0E0],"parents":[2147483647,0,0,1,1,2,2,3,3,4,4,5,5,6,6,7,7,8,8,9,9,10,10,11,11,12,12,13,13,14,14,15,15,16,16,17,17,18,18,19,19,20,20,21,21,22,22,24,24,25,25,26,26,28,28,29,29,30,30,31,31,32,32,33,33,35,35,36,36,37,37,38,38,39,39,40,40,41,41,42,42,43,43,44,44,46,46,47,47,48,48,49,49,50,50,51,51,54,54,55,55,56,56,58,58],"right_children":[2,4,6,8,10,12,14,16,18,20,22,24,26,28,30,32,34,36,38,40,42,44,46,-1,48,50,52,-1,54,56,58,60,62,64,-1,66,68,70,72,74,76,78,80,82,84,-1,86,88,90,92,94,96,-1,-1,98,100,102,-1,104,-1,-1,-1,-1,-1,-1,-1,-1,-1,-1,-1,-1,-1,-1,-1,-1,-1,-1,-1,-1,-1,-1,-1,-1,-1,-1,-1,-1,-1,-1,-1,-1,-1,-1,-1,-1,-1,-1,-1,-1,-1,-1,-1,-1,-1,-1],"split_conditions":[-2.1861053E-1,-2.4633318E-1,9.09466E-1,-3.1935042E-1,-2.3539987E-1,-1.6600876E-1,2.118545E-2,-3.8261777E-1,-2.0225504E-1,-2.4096277E-1,9.452849E-2,-1.9977224E-1,3.2133305E-1,6.4525104E-1,-4.610166E-1,-4.2972368E-1,-3.5540554E-1,-2.5349316E-1,-1.978516E-1,-3.2456067E-1,2.9923782E-1,1.8839983E-2,2.0664272E-1,-7.073832E-3,-3.8792914E-1,-1.2702355E-2,1.646029E0,2.4899461E0,1.4163477E0,-4.805103E-1,1.5370879E0,-4.7587958E-1,1.0611856E-2,-1.4911735E-1,-7.1244966E-3,-2.0386066E-1,-3.099404E-1,-3.4968004E-2,-4.895942E-2,-5.3899145E-1,-3.3171102E-2,6.5380437E-3,1.423736E-2,1.0430078E-1,-5.8772564E-1,8.853109E-1,1.0013733E-1,-4.610166E-1,-1.9042766E-1,-1.1536424E-1,1.3864232E-2,1.3632827E0,-7.1183406E-3,6.0721915E-2,1.8164148E0,9.3053293E-1,1.497102E0,-6.5823267E-3,1.5663285E0,-7.0707E-3,-7.127002E-3,-6.9807027E-3,-6.7007057E-3,-4.5324787E-3,-3.9724825E-4,9.498382E-2,7.926141E-2,1.1121922E-1,-3.2024134E-3,-5.7602166E-3,-4.004808E-3,-5.2808616E-3,-1.0379207E-3,9.513714E-5,4.213894E-3,1.9702488E-3,1.3302419E-2,-6.3301483E-3,-6.797447E-3,-5.578246E-3,-6.5161698E-3,2.3709876E-2,5.961762E-2,2.367124E-1,5.8363337E-2,-1.5510977E-3,-4.475231E-3,-5.9103905E-3,-5.042672E-3,-5.3035934E-3,-6.0327593E-3,-7.082297E-3,-6.8372004E-3,-3.3771885E-3,-6.4410423E-3,-6.976854E-3,-6.8603363E-3,-1.5640506E-3,5.4306304E-3,-1.8085316E-3,-6.3995156E-3,9.925604E-5,2.144971E-3,3.7932089E-3,-5.7603084E-3],"split_indices":[2,2,0,2,2,2,2,2,0,2,0,2,2,1,1,2,2,2,1,1,1,0,1,0,3,2,2,0,0,1,1,2,0,1,0,0,1,0,0,1,0,0,0,1,1,0,0,1,2,2,2,2,0,0,0,0,0,0,1,0,0,0,0,0,0,0,0,0,0,0,0,0,0,0,0,0,0,0,0,0,0,0,0,0,0,0,0,0,0,0,0,0,0,0,0,0,0,0,0,0,0,0,0,0,0],"split_type":[0,0,0,0,0,0,0,0,0,0,0,0,0,0,0,0,0,0,0,0,0,0,0,0,0,0,0,0,0,0,0,0,0,0,0,0,0,0,0,0,0,0,0,0,0,0,0,0,0,0,0,0,0,0,0,0,0,0,0,0,0,0,0,0,0,0,0,0,0,0,0,0,0,0,0,0,0,0,0,0,0,0,0,0,0,0,0,0,0,0,0,0,0,0,0,0,0,0,0,0,0,0,0,0,0],"sum_hessian":[2.101108E6,1.382338E6,7.1877E5,1.185556E6,1.96782E5,7.18514E5,2.56E2,3.71718E5,8.13838E5,1.91056E5,5.726E3,1.07562E5,6.10952E5,6E0,2.5E2,3.39589E5,3.2129E4,2.81E2,8.13557E5,1.49952E5,4.1104E4,5.703E3,2.3E1,1.5805E4,9.1757E4,2.47554E5,3.63398E5,3E0,3E0,1.6E1,2.34E2,2.82799E5,5.679E4,1.8019E4,1.411E4,2.38E2,4.3E1,5.58817E5,2.5474E5,1.04913E5,4.5039E4,2.978E4,1.1324E4,5.411E3,2.92E2,1.8E1,5E0,3.0316E4,6.1441E4,1.42506E5,1.05048E5,2.69472E5,9.3926E4,1E0,2E0,9E0,7E0,2.28E2,6E0,1.25369E5,1.5743E5,5.413E4,2.66E3,1.5886E4,2.133E3,1.58E2,8E1,9E0,3.4E1,9.2759E4,4.66058E5,4.8385E4,2.06355E5,5.895E4,4.5963E4,1.1568E4,3.3471E4,2.3104E4,6.676E3,8.539E3,2.785E3,4.485E3,9.26E2,6.1E1,2.31E2,2E0,3E0,8.213E3,2.2103E4,1.4866E4,4.6575E4,8.2621E4,5.9885E4,1.6656E4,8.8392E4,2.31931E5,3.7541E4,1E0,1E0,1E0,8E0,5E0,2E0,1E0,5E0],"tree_param":{"num_deleted":"0","num_feature":"4","num_nodes":"105","size_leaf_vector":"0"}},{"base_weights":[-4.5217234E-1,-3.444069E-1,-6.59426E-1,-4.5305896E-1,3.1019E-1,-6.608357E-1,3.2843761E0,-6.8648136E-1,-3.4644327E-1,2.1240371E-1,3.572359E0,-5.813656E-1,-6.748259E-1,1.4305168E2,-6.266018E-1,-7.008824E-1,-5.3425217E-1,8.475034E0,-3.4912097E-1,4.4058803E-1,-6.200287E-1,3.2950535E0,6.932984E1,-7.003098E-1,-5.6087023E-1,-6.4793736E-1,-6.9314116E-1,2.4712717E2,3.2132778E0,-3.158828E-1,-6.4641297E-1,-7.031048E-1,-6.898032E-1,-4.0025926E-1,-7.053257E-1,8.935851E0,7.5201035E-1,-4.19008E-1,-1.6792275E-1,2.4517387E-1,1.2025592E0,-6.370784E-1,-5.751388E-1,3.0449095E0,1.1779734E1,8.7692375E1,-3.7314895E-1,-5.2251595E-1,-5.7978606E-1,-6.909557E-1,-5.8957344E-1,-6.8910414E-1,-7.0471585E-1,6.041831E0,2.564831E-1,-6.068266E-1,8.728234E-2,-6.516791E-1,-3.8179073E-1,-6.999994E-1,-7.0557326E-1,-6.9116896E-1,-6.6485506E-1,-4.5486405E-1,-7.9698935E-2,9.334393E0,6.32867E0,6.64285E0,-6.6526115E-1,-3.956726E-1,-6.054036E-1,-4.0044588E-1,-4.1588817E-2,9.418587E-3,4.7528073E-1,1.6870941E-1,1.5227048E0,-6.272326E-1,-6.749634E-1,-5.52595E-1,-6.461864E-1,2.4107203E0,5.95131E0,2.8407331E1,3.5100062E0,-1.5407571E-1,-4.4416666E-1,-5.8045787E-1,-4.9706736E-1,-5.2505606E-1,-5.9724337E-1,-7.0114756E-1,-6.76883E-1,-3.3434185E-1,-6.3766325E-1,-6.906903E-1,-6.7890704E-1,-1.5562303E-1,5.403477E-1,-1.799489E-1,-6.3426316E-1,9.842902E-3,2.130671E-1,3.774243E-1,-5.712306E-1],"categories":[],"categories_nodes":[],"categories_segments":[],"categories_sizes":[],"default_left":[true,true,true,true,true,true,true,true,true,true,true,true,true,true,true,true,true,true,true,true,true,true,true,false,true,true,true,false,true,true,true,true,true,true,false,true,true,true,true,true,true,true,true,true,true,false,true,true,true,true,true,true,false,false,true,true,true,false,true,false,false,false,false,false,false,false,false,false,false,false,false,false,false,false,false,false,false,false,false,false,false,false,false,false,false,false,false,false,false,false,false,false,false,false,false,false,false,false,false,false,false,false,false,false,false],"id":10,"left_children":[1,3,5,7,9,11,13,15,17,19,21,23,25,27,29,31,33,35,37,39,41,43,45,-1,47,49,51,-1,53,55,57,59,61,63,-1,65,67,69,71,73,75,77,79,81,83,-1,85,87,89,91,93,95,-1,-1,97,99,101,-1,103,-1,-1,-1,-1,-1,-1,-1,-1,-1,-1,-1,-1,-1,-1,-1,-1,-1,-1,-1,-1,-1,-1,-1,-1,-1,-1,-1,-1,-1,-1,-1,-1,-1,-1,-1,-1,-1,-1,-1,-1,-1,-1,-1,-1,-1,-1],"loss_changes":[4.6927594E4,9.831666E4,3.99825E3,2.950411E4,6.2772105E4,7.984375E2,1.4057273E5,8.1453125E2,1.9226875E4,3.6291168E4,1.0420299E5,2.6182422E2,3.004375E2,1.0108214E5,1.340889E0,7.875E0,7.362217E2,8.723281E2,1.0302789E4,2.2327703E4,3.1092773E1,1.2070258E4,3.0750875E4,0E0,6.626758E1,6.211328E2,1.65E1,0E0,3.1904179E1,2.047038E0,7.867432E-2,1.671875E0,1.4765625E0,3.1538818E2,0E0,1.830293E2,1.2965302E2,2.5535781E3,6.652284E3,6.4744404E3,1.0130121E4,1.0685547E1,1.7781982E1,1.0200711E4,2.2313719E4,0E0,2.4913132E-2,4.4416016E1,5.838867E1,1.9960938E1,1.2891602E3,3.8984375E0,0E0,0E0,4.3503755E-1,2.9857159E-3,7.5828396E-2,0E0,1.2223755E0,0E0,0E0,0E0,0E0,0E0,0E0,0E0,0E0,0E0,0E0,0E0,0E0,0E0,0E0,0E0,0E0,0E0,0E0,0E0,0E0,0E0,0E0,0E0,0E0,0E0,0E0,0E0,0E0,0E0,0E0,0E0,0E0,0E0,0E0,0E0,0E0,0E0,0E0,0E0,0E0,0E0,0E0,0E0,0E0,0E0,0E0],"parents":[2147483647,0,0,1,1,2,2,3,3,4,4,5,5,6,6,7,7,8,8,9,9,10,10,11,11,12,12,13,13,14,14,15,15,16,16,17,17,18,18,19,19,20,20,21,21,22,22,24,24,25,25,26,26,28,28,29,29,30,30,31,31,32,32,33,33,35,35,36,36,37,37,38,38,39,39,40,40,41,41,42,42,43,43,44,44,46,46,47,47,48,48,49,49,50,50,51,51,54,54,55,55,56,56,58,58],"right_children":[2,4,6,8,10,12,14,16,18,20,22,24,26,28,30,32,34,36,38,40,42,44,46,-1,48,50,52,-1,54,56,58,60,62,64,-1,66,68,70,72,74,76,78,80,82,84,-1,86,88,90,92,94,96,-1,-1,98,100,102,-1,104,-1,-1,-1,-1,-1,-1,-1,-1,-1,-1,-1,-1,-1,-1,-1,-1,-1,-1,-1,-1,-1,-1,-1,-1,-1,-1,-1,-1,-1,-1,-1,-1,-1,-1,-1,-1,-1,-1,-1,-1,-1,-1,-1,-1,-1,-1],"split_conditions":[-2.1861053E-1,-2.4633318E-1,9.09466E-1,-3.1935042E-1,-2.3539987E-1,-1.6600876E-1,2.118545E-2,-3.8261777E-1,-2.0280357E-1,-2.4096277E-1,9.452849E-2,-1.9977224E-1,3.2133305E-1,6.4525104E-1,-4.610166E-1,-4.2972368E-1,-3.5540554E-1,6.744916E-1,-1.19876795E-1,-1.978516E-1,2.9923782E-1,3.335303E-2,2.0664272E-1,-7.003098E-3,-3.8792914E-1,-1.2702355E-2,1.646029E0,2.4712715E0,1.4163477E0,-4.805103E-1,1.5370879E0,-4.7587958E-1,9.440237E-3,-1.8810475E-1,-7.053257E-3,-2.0339987E-1,-2.0411785E-1,4.609265E-2,-2.5989246E-1,-5.3899145E-1,-3.8985662E-2,8.235753E-3,1.4951911E-2,1.0430078E-1,-1.4424393E-1,8.7692374E-1,1.0013733E-1,-1.8166724E-1,-1.9042766E-1,-1.1536424E-1,1.3864232E-2,5.337346E-2,-7.047158E-3,6.0418308E-2,1.8164148E0,9.3053293E-1,1.497102E0,-6.516791E-3,1.5663285E0,-6.9999937E-3,-7.0557324E-3,-6.9116894E-3,-6.6485503E-3,-4.5486405E-3,-7.969893E-4,9.334392E-2,6.32867E-2,6.64285E-2,-6.6526113E-3,-3.956726E-3,-6.054036E-3,-4.004459E-3,-4.1588815E-4,9.418587E-5,4.7528073E-3,1.6870941E-3,1.5227048E-2,-6.2723258E-3,-6.749634E-3,-5.52595E-3,-6.461864E-3,2.4107203E-2,5.95131E-2,2.8407332E-1,3.510006E-2,-1.5407571E-3,-4.4416664E-3,-5.8045783E-3,-4.9706735E-3,-5.2505606E-3,-5.9724334E-3,-7.0114755E-3,-6.7688297E-3,-3.3434185E-3,-6.3766325E-3,-6.9069024E-3,-6.78907E-3,-1.5562304E-3,5.403477E-3,-1.7994889E-3,-6.3426313E-3,9.842902E-5,2.130671E-3,3.774243E-3,-5.7123057E-3],"split_indices":[2,2,0,2,2,2,2,2,0,2,0,2,2,1,1,2,2,1,1,1,1,0,1,0,3,2,2,0,0,1,1,2,0,1,0,0,0,3,2,1,0,0,0,1,1,0,0,2,2,2,2,0,0,0,0,0,0,0,1,0,0,0,0,0,0,0,0,0,0,0,0,0,0,0,0,0,0,0,0,0,0,0,0,0,0,0,0,0,0,0,0,0,0,0,0,0,0,0,0,0,0,0,0,0,0],"split_type":[0,0,0,0,0,0,0,0,0,0,0,0,0,0,0,0,0,0,0,0,0,0,0,0,0,0,0,0,0,0,0,0,0,0,0,0,0,0,0,0,0,0,0,0,0,0,0,0,0,0,0,0,0,0,0,0,0,0,0,0,0,0,0,0,0,0,0,0,0,0,0,0,0,0,0,0,0,0,0,0,0,0,0,0,0,0,0,0,0,0,0,0,0,0,0,0,0,0,0,0,0,0,0,0,0],"sum_hessian":[2.101108E6,1.382338E6,7.1877E5,1.185556E6,1.96782E5,7.18514E5,2.56E2,3.71718E5,8.13838E5,1.91056E5,5.726E3,1.07562E5,6.10952E5,6E0,2.5E2,3.39589E5,3.2129E4,2.46E2,8.13592E5,1.49952E5,4.1104E4,5.703E3,2.3E1,1.5805E4,9.1757E4,2.47554E5,3.63398E5,3E0,3E0,1.6E1,2.34E2,2.82799E5,5.679E4,1.8019E4,1.411E4,2.32E2,1.4E1,5.87136E5,2.26456E5,1.19346E5,3.0606E4,2.978E4,1.1324E4,5.541E3,1.62E2,1.8E1,5E0,3.0316E4,6.1441E4,1.42506E5,1.05048E5,2.69472E5,9.3926E4,1E0,2E0,9E0,7E0,2.28E2,6E0,1.25369E5,1.5743E5,5.3817E4,2.973E3,1.5396E4,2.623E3,1.99E2,3.3E1,2E0,1.2E1,5.21812E5,6.5324E4,7.9722E4,1.46734E5,5.895E4,6.0396E4,7.237E3,2.3369E4,2.3651E4,6.129E3,8.603E3,2.721E3,4.55E3,9.91E2,5.3E1,1.09E2,2E0,3E0,9.245E3,2.1071E4,1.4866E4,4.6575E4,8.2621E4,5.9885E4,1.6656E4,8.8392E4,2.3314E5,3.6332E4,1E0,1E0,1E0,8E0,5E0,2E0,1E0,5E0],"tree_param":{"num_deleted":"0","num_feature":"4","num_nodes":"105","size_leaf_vector":"0"}}]},"name":"gbtree"},"learner_model_param":{"base_score":"5E-1","num_class":"0","num_feature":"4"},"objective":{"name":"reg:squarederror","reg_loss_param":{"scale_pos_weight":"1"}}},"version":[1,5,1]}