{"learner":{"attributes":{"best_iteration":"24","best_msg":"[24]\tvalidation_0-rmse:35.01519","best_ntree_limit":"25","best_score":"35.01519","scikit_learn":"{\"n_estimators\": 100, \"objective\": \"reg:squarederror\", \"max_depth\": null, \"learning_rate\": null, \"verbosity\": null, \"booster\": null, \"tree_method\": null, \"gamma\": null, \"min_child_weight\": null, \"max_delta_step\": null, \"subsample\": null, \"colsample_bytree\": null, \"colsample_bylevel\": null, \"colsample_bynode\": null, \"reg_alpha\": null, \"reg_lambda\": null, \"scale_pos_weight\": null, \"base_score\": null, \"missing\": NaN, \"num_parallel_tree\": null, \"random_state\": 1128, \"n_jobs\": null, \"monotone_constraints\": null, \"interaction_constraints\": null, \"importance_type\": null, \"gpu_id\": null, \"validate_parameters\": null, \"predictor\": null, \"enable_categorical\": false, \"kwargs\": {\"eval_metric\": \"rmse\", \"eta\": 0.01}, \"evals_result_\": {\"validation_0\": {\"rmse\": [35.448284, 35.409637, 35.368935, 35.33028, 35.293762, 35.258785, 35.226463, 35.196175, 35.170689, 35.1488, 35.127846, 35.101574, 35.085964, 35.072777, 35.060444, 35.050617, 35.034142, 35.028797, 35.021408, 35.020782, 35.01667, 35.01862, 35.018822, 35.024246, 35.01519, 35.017937, 35.02248, 35.034401, 35.041073, 35.048557, 35.06575, 35.075657, 35.070827, 35.08543]}}, \"_estimator_type\": \"regressor\"}"},"feature_names":[],"feature_types":[],"gradient_booster":{"model":{"gbtree_model_param":{"num_trees":"35","size_leaf_vector":"0"},"tree_info":[0,0,0,0,0,0,0,0,0,0,0,0,0,0,0,0,0,0,0,0,0,0,0,0,0,0,0,0,0,0,0,0,0,0,0],"trees":[{"base_weights":[1.0636825E1,2.6540087E1,6.0778103E0,7.809878E0,9.632865E1,9.11817E0,1.1231226E0,1.0347363E0,1.0525753E1,8.5395905E1,2.2213132E2,6.4395003E0,1.4305331E1,1.2561083E0,-2.7390146E-1,9.622706E0,-2.9197094E-1,1.9880456E0,1.2575593E1,3.2665573E1,1.0435012E2,2.768716E2,5.778846E1,7.3237696E0,2.3248336E0,3.2784116E0,1.7165226E1,2.2570333E0,9.772309E-1,-4.184886E-1,-1.2160493E-2,1.3655729E1,2.7373135E0,-3.508188E-1,7.1484375E-1,1.8240275E0,8.733334E0,4.1719013E1,1.1821782E1,1.2841726E1,4.897006E1,1.3531201E2,5.7367954E1,1.2814815E2,3.547604E2,7.676923E1,3.6035713E1,3.120262E0,8.796605E0,5.456809E0,1.8728704E0,1.9988388E0,9.0046015E0,2.477849E1,1.0729411E1,3.7976027E-1,2.6892636E0,1.1242669E0,-4.0908957E-1,-4.6994358E-1,-3.7565163E-1,1.3353509E-1,-1.3983077E-1,9.523938E0,5.0727272E1,-5.4166663E-2,3.2866073E0,-3.782026E-1,-2.5066456E-1,3.8945312E0,4.946209E-1,4.817165E-1,2.4441164E0,6.25E-1,1.0708333E1,5.9801758E1,1.0903846E1,1.4029384E1,3.4046206E0,2.7905405E0,2.3916666E1,2.60875E2,4.3503048E1,8.976145E1,1.8308098E2,7.5908485E1,2.043421E1,3.173256E2,5.639167E2,2.3891964E1,2.449954E0,1.894103E1,7.7667384E0,2.3134303E0,2.1830044E1,4.354014E0,1.2066705E0,4.4E-1,3.3059046E0,3.3059372E1,6.343243E0,5.2733334E1,2.1560495E1,7.68902E0,3.8497284E1,-3.113653E-1,8.875909E0,2.839829E0,1.578366E0,8.9965016E-1,1.5428876E0,-4.2036295E-1,-3.405741E-1,-2.2349122E-1,-4.1978723E-1,-2.6239133E-2,2.3811594E-1,-2.391293E-1,-5.902055E-2],"categories":[],"categories_nodes":[],"categories_segments":[],"categories_sizes":[],"default_left":[true,true,false,false,true,true,true,false,true,true,true,true,true,false,true,true,false,false,true,true,true,true,true,true,true,true,false,true,false,true,true,true,true,true,true,true,true,true,true,true,true,true,true,false,true,false,false,true,true,true,true,true,true,true,false,true,true,false,true,false,true,true,true,false,false,false,false,false,false,false,false,false,false,false,false,false,false,false,false,false,false,false,false,false,false,false,false,false,false,false,false,false,false,false,false,false,false,false,false,false,false,false,false,false,false,false,false,false,false,false,false,false,false,false,false,false,false,false,false],"id":0,"left_children":[1,3,5,7,9,11,13,15,17,19,21,23,25,27,29,31,33,35,37,39,41,43,45,47,49,51,53,55,57,59,61,63,65,67,69,71,73,75,77,79,81,83,85,-1,87,-1,-1,89,91,93,95,97,99,101,103,105,107,109,111,-1,113,115,117,-1,-1,-1,-1,-1,-1,-1,-1,-1,-1,-1,-1,-1,-1,-1,-1,-1,-1,-1,-1,-1,-1,-1,-1,-1,-1,-1,-1,-1,-1,-1,-1,-1,-1,-1,-1,-1,-1,-1,-1,-1,-1,-1,-1,-1,-1,-1,-1,-1,-1,-1,-1,-1,-1,-1,-1],"loss_changes":[1.9163155E6,7.6970805E6,3.0948025E5,8.544078E4,1.694739E6,1.7681512E5,1.4520615E3,1.5156458E4,5.7990562E4,1.143973E6,8.746215E5,3.0538875E4,1.3665162E5,1.9894248E3,2.5729084E1,4.905494E3,6.856476E1,6.9545264E2,5.822897E4,9.79525E4,1.219968E6,8.117465E5,7.968547E3,4.276525E4,2.0946846E3,6.532407E3,1.6838375E5,1.259916E3,1.1382891E3,7.8889465E-1,4.538714E0,1.6672127E4,1.0291196E2,2.894638E0,4.288903E1,5.223721E2,2.3351672E2,3.668185E4,4.8394812E4,1.5406221E4,1.821184E5,1.088926E6,2.2921675E5,0E0,1.968815E5,0E0,0E0,2.493403E4,5.332272E4,9.573878E3,2.1452178E3,1.4899985E3,1.022529E4,1.4063769E5,1.573258E5,1.7173601E3,2.0677051E2,4.7317725E2,2.708435E-1,0E0,1.5448074E0,1.9111109E0,1.0290504E0,0E0,0E0,0E0,0E0,0E0,0E0,0E0,0E0,0E0,0E0,0E0,0E0,0E0,0E0,0E0,0E0,0E0,0E0,0E0,0E0,0E0,0E0,0E0,0E0,0E0,0E0,0E0,0E0,0E0,0E0,0E0,0E0,0E0,0E0,0E0,0E0,0E0,0E0,0E0,0E0,0E0,0E0,0E0,0E0,0E0,0E0,0E0,0E0,0E0,0E0,0E0,0E0,0E0,0E0,0E0,0E0],"parents":[2147483647,0,0,1,1,2,2,3,3,4,4,5,5,6,6,7,7,8,8,9,9,10,10,11,11,12,12,13,13,14,14,15,15,16,16,17,17,18,18,19,19,20,20,21,21,22,22,23,23,24,24,25,25,26,26,27,27,28,28,29,29,30,30,31,31,32,32,33,33,34,34,35,35,36,36,37,37,38,38,39,39,40,40,41,41,42,42,44,44,47,47,48,48,49,49,50,50,51,51,52,52,53,53,54,54,55,55,56,56,57,57,58,58,60,60,61,61,62,62],"right_children":[2,4,6,8,10,12,14,16,18,20,22,24,26,28,30,32,34,36,38,40,42,44,46,48,50,52,54,56,58,60,62,64,66,68,70,72,74,76,78,80,82,84,86,-1,88,-1,-1,90,92,94,96,98,100,102,104,106,108,110,112,-1,114,116,118,-1,-1,-1,-1,-1,-1,-1,-1,-1,-1,-1,-1,-1,-1,-1,-1,-1,-1,-1,-1,-1,-1,-1,-1,-1,-1,-1,-1,-1,-1,-1,-1,-1,-1,-1,-1,-1,-1,-1,-1,-1,-1,-1,-1,-1,-1,-1,-1,-1,-1,-1,-1,-1,-1,-1,-1],"split_conditions":[-6.955979E-1,-7.053243E-1,3.935621E-1,-8.724234E-1,1.4811546E-1,-3.043189E-1,1.0451014E0,-9.7386855E-1,1.3853282E-1,2.7075094E-1,5.908741E-1,5.1435715E-1,-3.0380508E-1,7.9033744E-1,2.602573E-1,1.3651459E-1,-9.029156E-1,1.013279E-6,-8.656664E-1,1.2756507E-1,4.6745497E-1,2.9496473E-1,6.8702376E-1,-9.950317E-1,-7.8382194E-1,-5.115142E-1,-5.1618254E-1,-1.3854425E-2,3.0759888E0,-1.9604401E-1,1.3068035E0,3.2106657E-2,1.1520783E-2,1.853445E0,2.06449E-1,-3.7746474E-2,-6.0906853E-3,5.1539135E-1,5.179143E-1,-4.783321E-1,1.3209596E-1,-6.2140965E-1,5.5526173E-1,1.2814815E0,5.579665E-1,7.676923E-1,3.6035714E-1,-2.8769755E0,-2.5378326E-1,-7.915559E-1,5.5966973E-1,-2.872431E0,-4.8724538E-1,-1.4430824E-1,1.4057897E-1,1.072319E0,8.4373593E-1,1.0188556E0,3.5693133E-1,-4.6994356E-3,1.2880594E0,1.064585E0,8.7510407E-1,9.523938E-2,5.072727E-1,-5.4166664E-4,3.2866072E-2,-3.7820258E-3,-2.5066456E-3,3.894531E-2,4.9462086E-3,4.817165E-3,2.4441162E-2,6.2499996E-3,1.0708333E-1,5.980176E-1,1.0903846E-1,1.4029384E-1,3.4046207E-2,2.7905405E-2,2.3916666E-1,2.6087499E0,4.3503046E-1,8.976145E-1,1.8308097E0,7.590848E-1,2.043421E-1,3.173256E0,5.639167E0,2.3891963E-1,2.449954E-2,1.894103E-1,7.7667385E-2,2.3134302E-2,2.1830043E-1,4.354014E-2,1.2066705E-2,4.4E-3,3.3059046E-2,3.305937E-1,6.343243E-2,5.273333E-1,2.1560495E-1,7.68902E-2,3.8497284E-1,-3.113653E-3,8.875909E-2,2.8398288E-2,1.578366E-2,8.996502E-3,1.5428876E-2,-4.203629E-3,-3.4057407E-3,-2.2349122E-3,-4.1978722E-3,-2.6239132E-4,2.3811592E-3,-2.391293E-3,-5.902055E-4],"split_indices":[2,2,2,2,1,1,0,2,0,0,0,0,0,2,1,1,2,2,2,0,0,0,0,0,1,0,2,0,2,1,0,1,0,1,0,0,0,0,0,1,0,1,0,0,0,0,0,0,0,1,0,0,0,0,2,1,0,2,1,0,0,1,1,0,0,0,0,0,0,0,0,0,0,0,0,0,0,0,0,0,0,0,0,0,0,0,0,0,0,0,0,0,0,0,0,0,0,0,0,0,0,0,0,0,0,0,0,0,0,0,0,0,0,0,0,0,0,0,0],"split_type":[0,0,0,0,0,0,0,0,0,0,0,0,0,0,0,0,0,0,0,0,0,0,0,0,0,0,0,0,0,0,0,0,0,0,0,0,0,0,0,0,0,0,0,0,0,0,0,0,0,0,0,0,0,0,0,0,0,0,0,0,0,0,0,0,0,0,0,0,0,0,0,0,0,0,0,0,0,0,0,0,0,0,0,0,0,0,0,0,0,0,0,0,0,0,0,0,0,0,0,0,0,0,0,0,0,0,0,0,0,0,0,0,0,0,0,0,0,0,0],"sum_hessian":[2.6432E4,5.888E3,2.0544E4,4.643E3,1.245E3,1.2731E4,7.813E3,1.329E3,3.314E3,1.147E3,9.8E1,8.397E3,4.334E3,7.134E3,6.79E2,1.77E2,1.152E3,6.42E2,2.672E3,3.04E2,8.43E2,7.3E1,2.5E1,6.911E3,1.486E3,8.93E2,3.441E3,1.553E3,5.581E3,4.37E2,2.42E2,1.11E2,6.6E1,1.089E3,6.3E1,6.28E2,1.4E1,6.6E1,2.606E3,1.38E2,1.66E2,5.07E2,3.36E2,2.6E1,4.7E1,1.2E1,1.3E1,1.794E3,5.117E3,1.86E2,1.3E3,7.31E2,1.62E2,1.575E3,1.866E3,2.91E2,1.262E3,5.046E3,5.35E2,1.94E2,2.43E2,1.13E2,1.29E2,1.01E2,1E1,1.1E1,5.5E1,8.53E2,2.36E2,3E0,6E1,1.99E2,4.29E2,3E0,1.1E1,4.1E1,2.5E1,2.064E3,5.42E2,7.3E1,6.5E1,3E0,1.63E2,2.61E2,2.46E2,2.23E2,1.13E2,4.2E1,5E0,5.5E1,1.739E3,4.7E2,4.647E3,1.57E2,2.9E1,2.74E2,1.026E3,3.34E2,3.97E2,1.5E1,1.47E2,1.61E2,1.414E3,1.683E3,1.83E2,2.7E2,2.1E1,1.11E3,1.52E2,3.286E3,1.76E3,4.55E2,8E1,5.6E1,1.87E2,4.5E1,6.8E1,5.7E1,7.2E1],"tree_param":{"num_deleted":"0","num_feature":"3","num_nodes":"119","size_leaf_vector":"0"}},{"base_weights":[1.0531308E1,2.6278069E1,6.0171585E0,7.7321444E0,9.537999E1,9.027182E0,1.1119086E0,1.0248945E0,1.0420805E1,8.454805E1,2.2002336E2,6.375204E0,1.4162655E1,1.2435678E0,-2.711801E-1,9.5300455E0,-2.8901863E-1,1.9683868E0,1.2450167E1,3.2349773E1,1.0331099E2,2.7423932E2,5.7253963E1,7.250609E0,2.3017852E0,3.2461102E0,1.6993925E1,2.2345467E0,9.6746165E-1,-4.143291E-1,-1.20424405E-2,1.3524551E1,2.7104228E0,-3.4731638E-1,7.083811E-1,1.8058337E0,8.653556E0,4.1312374E1,1.1703631E1,1.2715231E1,4.8498585E1,1.3396426E2,5.679713E1,1.2691413E2,3.5139642E2,7.606059E1,3.57011E1,3.089206E0,8.708692E0,5.403532E0,1.8541845E0,1.9789016E0,8.916972E0,2.4531176E1,1.0622364E1,3.7625596E-1,2.662406E0,1.113029E0,-4.0501288E-1,-4.6526825E-1,-3.7192148E-1,1.3221833E-1,-1.384554E-1,9.429632E0,5.0266117E1,-5.367014E-2,3.254328E0,-3.7442496E-1,-2.481685E-1,3.8653224E0,4.8975575E-1,4.769234E-1,2.4197319E0,6.2031245E-1,1.0610174E1,5.921798E1,1.0799002E1,1.3889157E1,3.3706372E0,2.7630122E0,2.3681124E1,2.5891843E2,4.307067E1,8.886726E1,1.8125757E2,7.515279E1,2.023166E1,3.1422614E2,5.5921735E2,2.365731E1,2.4254684E0,1.8752022E1,7.689088E0,2.2904425E0,2.1619019E1,4.310632E0,1.1946156E0,4.3561313E-1,3.2729285E0,3.2749443E1,6.280239E0,5.2209255E1,2.1345041E1,7.6121755E0,3.8114403E1,-3.0826315E-1,8.791184E0,2.8114562E0,1.5626855E0,8.906564E-1,1.5274674E0,-4.1616854E-1,-3.3721036E-1,-2.2129554E-1,-4.1561168E-1,-2.5982456E-2,2.357693E-1,-2.3677926E-1,-5.8438428E-2],"categories":[],"categories_nodes":[],"categories_segments":[],"categories_sizes":[],"default_left":[true,true,false,false,true,true,true,false,true,true,true,true,true,false,true,true,false,false,true,true,true,true,true,true,true,true,false,true,false,true,true,true,true,true,true,true,true,true,true,true,true,true,true,false,true,false,false,true,true,true,true,true,true,true,false,true,true,false,true,false,true,true,true,false,false,false,false,false,false,false,false,false,false,false,false,false,false,false,false,false,false,false,false,false,false,false,false,false,false,false,false,false,false,false,false,false,false,false,false,false,false,false,false,false,false,false,false,false,false,false,false,false,false,false,false,false,false,false,false],"id":1,"left_children":[1,3,5,7,9,11,13,15,17,19,21,23,25,27,29,31,33,35,37,39,41,43,45,47,49,51,53,55,57,59,61,63,65,67,69,71,73,75,77,79,81,83,85,-1,87,-1,-1,89,91,93,95,97,99,101,103,105,107,109,111,-1,113,115,117,-1,-1,-1,-1,-1,-1,-1,-1,-1,-1,-1,-1,-1,-1,-1,-1,-1,-1,-1,-1,-1,-1,-1,-1,-1,-1,-1,-1,-1,-1,-1,-1,-1,-1,-1,-1,-1,-1,-1,-1,-1,-1,-1,-1,-1,-1,-1,-1,-1,-1,-1,-1,-1,-1,-1,-1],"loss_changes":[1.8787848E6,7.546363E6,3.0333506E5,8.373697E4,1.66366E6,1.7330881E5,1.4232373E3,1.4865544E4,5.683775E4,1.1210015E6,8.57944E5,2.9929656E4,1.3392962E5,1.950084E3,2.5219818E1,4.812246E3,6.7288574E1,6.8311816E2,5.711072E4,9.609106E4,1.195768E6,7.965745E5,7.8233047E3,4.1912812E4,2.0544492E3,6.406786E3,1.6503819E5,1.234563E3,1.115665E3,7.731247E-1,4.449759E0,1.6376828E4,1.0090274E2,2.8367462E0,4.2278927E1,5.1199414E2,2.2918823E2,3.596665E4,4.7431812E4,1.5104328E4,1.7958581E5,1.067347E6,2.2466825E5,0E0,1.95068E5,0E0,0E0,2.444764E4,5.226525E4,9.390291E3,2.102726E3,1.4604202E3,1.0037224E4,1.3786694E5,1.5421573E5,1.6846823E3,2.0262988E2,4.6377002E2,2.6509094E-1,0E0,1.5137596E0,1.8736564E0,1.0089478E0,0E0,0E0,0E0,0E0,0E0,0E0,0E0,0E0,0E0,0E0,0E0,0E0,0E0,0E0,0E0,0E0,0E0,0E0,0E0,0E0,0E0,0E0,0E0,0E0,0E0,0E0,0E0,0E0,0E0,0E0,0E0,0E0,0E0,0E0,0E0,0E0,0E0,0E0,0E0,0E0,0E0,0E0,0E0,0E0,0E0,0E0,0E0,0E0,0E0,0E0,0E0,0E0,0E0,0E0,0E0,0E0],"parents":[2147483647,0,0,1,1,2,2,3,3,4,4,5,5,6,6,7,7,8,8,9,9,10,10,11,11,12,12,13,13,14,14,15,15,16,16,17,17,18,18,19,19,20,20,21,21,22,22,23,23,24,24,25,25,26,26,27,27,28,28,29,29,30,30,31,31,32,32,33,33,34,34,35,35,36,36,37,37,38,38,39,39,40,40,41,41,42,42,44,44,47,47,48,48,49,49,50,50,51,51,52,52,53,53,54,54,55,55,56,56,57,57,58,58,60,60,61,61,62,62],"right_children":[2,4,6,8,10,12,14,16,18,20,22,24,26,28,30,32,34,36,38,40,42,44,46,48,50,52,54,56,58,60,62,64,66,68,70,72,74,76,78,80,82,84,86,-1,88,-1,-1,90,92,94,96,98,100,102,104,106,108,110,112,-1,114,116,118,-1,-1,-1,-1,-1,-1,-1,-1,-1,-1,-1,-1,-1,-1,-1,-1,-1,-1,-1,-1,-1,-1,-1,-1,-1,-1,-1,-1,-1,-1,-1,-1,-1,-1,-1,-1,-1,-1,-1,-1,-1,-1,-1,-1,-1,-1,-1,-1,-1,-1,-1,-1,-1,-1,-1,-1],"split_conditions":[-6.955979E-1,-7.053243E-1,3.935621E-1,-8.724234E-1,1.4811546E-1,-3.043189E-1,1.0451014E0,-9.7386855E-1,1.3853282E-1,2.7075094E-1,5.908741E-1,5.1435715E-1,-3.0380508E-1,7.9033744E-1,2.602573E-1,1.3651459E-1,-9.029156E-1,1.013279E-6,-8.656664E-1,1.2756507E-1,4.6745497E-1,2.9496473E-1,6.8702376E-1,-9.950317E-1,-7.8382194E-1,-5.115142E-1,-5.1618254E-1,-1.3854425E-2,3.0759888E0,-1.9604401E-1,1.3068035E0,3.2106657E-2,1.1520783E-2,1.853445E0,2.06449E-1,-3.7746474E-2,-6.0906853E-3,5.1539135E-1,5.179143E-1,-4.783321E-1,1.3209596E-1,-6.2140965E-1,5.5526173E-1,1.2691413E0,5.579665E-1,7.6060593E-1,3.57011E-1,-2.8769755E0,-2.5378326E-1,-7.915559E-1,5.5966973E-1,-2.872431E0,-4.8724538E-1,-1.4430824E-1,1.4057897E-1,1.072319E0,8.4373593E-1,1.0188556E0,3.5693133E-1,-4.652682E-3,1.2880594E0,1.064585E0,8.7510407E-1,9.429632E-2,5.0266117E-1,-5.367014E-4,3.254328E-2,-3.7442495E-3,-2.481685E-3,3.865322E-2,4.897557E-3,4.769234E-3,2.4197318E-2,6.2031243E-3,1.0610174E-1,5.921798E-1,1.0799001E-1,1.3889156E-1,3.370637E-2,2.763012E-2,2.3681124E-1,2.5891843E0,4.307067E-1,8.886726E-1,1.8125757E0,7.5152785E-1,2.023166E-1,3.1422613E0,5.592173E0,2.365731E-1,2.4254683E-2,1.8752022E-1,7.689088E-2,2.2904424E-2,2.1619017E-1,4.310632E-2,1.1946156E-2,4.356131E-3,3.2729283E-2,3.274944E-1,6.280239E-2,5.220925E-1,2.134504E-1,7.6121755E-2,3.8114402E-1,-3.0826314E-3,8.7911844E-2,2.8114561E-2,1.5626855E-2,8.906564E-3,1.5274674E-2,-4.1616852E-3,-3.3721034E-3,-2.2129554E-3,-4.156117E-3,-2.5982456E-4,2.357693E-3,-2.3677924E-3,-5.8438425E-4],"split_indices":[2,2,2,2,1,1,0,2,0,0,0,0,0,2,1,1,2,2,2,0,0,0,0,0,1,0,2,0,2,1,0,1,0,1,0,0,0,0,0,1,0,1,0,0,0,0,0,0,0,1,0,0,0,0,2,1,0,2,1,0,0,1,1,0,0,0,0,0,0,0,0,0,0,0,0,0,0,0,0,0,0,0,0,0,0,0,0,0,0,0,0,0,0,0,0,0,0,0,0,0,0,0,0,0,0,0,0,0,0,0,0,0,0,0,0,0,0,0,0],"split_type":[0,0,0,0,0,0,0,0,0,0,0,0,0,0,0,0,0,0,0,0,0,0,0,0,0,0,0,0,0,0,0,0,0,0,0,0,0,0,0,0,0,0,0,0,0,0,0,0,0,0,0,0,0,0,0,0,0,0,0,0,0,0,0,0,0,0,0,0,0,0,0,0,0,0,0,0,0,0,0,0,0,0,0,0,0,0,0,0,0,0,0,0,0,0,0,0,0,0,0,0,0,0,0,0,0,0,0,0,0,0,0,0,0,0,0,0,0,0,0],"sum_hessian":[2.6432E4,5.888E3,2.0544E4,4.643E3,1.245E3,1.2731E4,7.813E3,1.329E3,3.314E3,1.147E3,9.8E1,8.397E3,4.334E3,7.134E3,6.79E2,1.77E2,1.152E3,6.42E2,2.672E3,3.04E2,8.43E2,7.3E1,2.5E1,6.911E3,1.486E3,8.93E2,3.441E3,1.553E3,5.581E3,4.37E2,2.42E2,1.11E2,6.6E1,1.089E3,6.3E1,6.28E2,1.4E1,6.6E1,2.606E3,1.38E2,1.66E2,5.07E2,3.36E2,2.6E1,4.7E1,1.2E1,1.3E1,1.794E3,5.117E3,1.86E2,1.3E3,7.31E2,1.62E2,1.575E3,1.866E3,2.91E2,1.262E3,5.046E3,5.35E2,1.94E2,2.43E2,1.13E2,1.29E2,1.01E2,1E1,1.1E1,5.5E1,8.53E2,2.36E2,3E0,6E1,1.99E2,4.29E2,3E0,1.1E1,4.1E1,2.5E1,2.064E3,5.42E2,7.3E1,6.5E1,3E0,1.63E2,2.61E2,2.46E2,2.23E2,1.13E2,4.2E1,5E0,5.5E1,1.739E3,4.7E2,4.647E3,1.57E2,2.9E1,2.74E2,1.026E3,3.34E2,3.97E2,1.5E1,1.47E2,1.61E2,1.414E3,1.683E3,1.83E2,2.7E2,2.1E1,1.11E3,1.52E2,3.286E3,1.76E3,4.55E2,8E1,5.6E1,1.87E2,4.5E1,6.8E1,5.7E1,7.2E1],"tree_param":{"num_deleted":"0","num_feature":"3","num_nodes":"119","size_leaf_vector":"0"}},{"base_weights":[1.042684E1,2.601864E1,5.9571123E0,7.6551843E0,9.444069E1,8.937101E0,1.1008066E0,1.0151465E0,1.0316902E1,8.370861E1,2.1793546E2,6.6749263E0,1.486007E1,1.2311525E0,-2.6848575E-1,9.438278E0,-2.8609607E-1,1.9489226E0,1.2325992E1,3.2037045E1,1.0228221E2,2.716321E2,5.6724407E1,1.2364236E0,7.3998184E0,3.5193639E0,1.7853926E1,2.2122838E0,9.5779E-1,-4.10211E-1,-1.1925538E-2,1.3394636E1,2.6837962E0,-3.4384894E-1,7.019778E-1,1.7878214E0,8.574507E0,4.0909702E1,1.158666E1,1.258998E1,4.803168E1,1.2863841E2,4.9300583E1,1.2569199E2,3.4806442E2,7.53585E1,3.5369587E1,1.6690453E1,3.9349597E-2,8.687494E0,2.51988E0,2.0306807E0,9.086424E0,2.2328968E1,5.3543105E0,3.7278393E-1,2.6358166E0,1.1019036E0,-4.0097678E-1,-4.6063945E-1,-3.6822838E-1,1.3091452E-1,-1.3709354E-1,9.336261E0,4.980915E1,-5.317816E-2,3.2223659E0,-3.706851E-1,-2.4569726E-1,3.8363323E0,4.849385E-1,1.2769995E0,3.368699E0,6.156602E-1,1.0512914E1,5.86399E1,1.0695165E1,1.3750333E1,3.3369927E0,2.7357554E0,2.34479E1,2.5697656E2,4.264259E1,8.53827E1,1.7395052E2,6.875276E1,2.0031118E1,3.1115692E2,5.5455725E2,-7.583226E-1,5.161717E1,-1.1360974E-1,1.7232548E0,8.054358E0,1.4288886E1,3.5195968E0,1.0984894E0,3.0122347E0,8.2251415E-2,2.8900396E1,5.5916286E0,3.1035568E1,1.5036591E1,4.7272544E0,3.7310036E1,-3.051919E-1,8.707269E0,2.783367E0,1.5471609E0,8.8175255E-1,1.5122014E0,-4.1201597E-1,-3.338799E-1,-2.1912141E-1,-4.1147768E-1,-2.5728287E-2,2.3344575E-1,-2.3445229E-1,-5.786204E-2],"categories":[],"categories_nodes":[],"categories_segments":[],"categories_sizes":[],"default_left":[true,true,false,false,true,true,true,false,true,true,true,true,true,false,true,true,false,false,true,true,true,true,true,true,true,true,true,true,false,true,true,true,true,true,true,true,true,true,true,true,true,true,true,false,true,false,false,true,true,true,false,true,true,false,true,true,true,false,true,false,true,true,true,false,false,false,false,false,false,false,false,false,false,false,false,false,false,false,false,false,false,false,false,false,false,false,false,false,false,false,false,false,false,false,false,false,false,false,false,false,false,false,false,false,false,false,false,false,false,false,false,false,false,false,false,false,false,false,false],"id":2,"left_children":[1,3,5,7,9,11,13,15,17,19,21,23,25,27,29,31,33,35,37,39,41,43,45,47,49,51,53,55,57,59,61,63,65,67,69,71,73,75,77,79,81,83,85,-1,87,-1,-1,89,91,93,95,97,99,101,103,105,107,109,111,-1,113,115,117,-1,-1,-1,-1,-1,-1,-1,-1,-1,-1,-1,-1,-1,-1,-1,-1,-1,-1,-1,-1,-1,-1,-1,-1,-1,-1,-1,-1,-1,-1,-1,-1,-1,-1,-1,-1,-1,-1,-1,-1,-1,-1,-1,-1,-1,-1,-1,-1,-1,-1,-1,-1,-1,-1,-1,-1],"loss_changes":[1.8419898E6,7.398601E6,2.97312E5,8.206716E4,1.63315E6,1.7049431E5,1.3949863E3,1.4580216E4,5.5707812E4,1.098489E6,8.415845E5,3.6319406E4,1.19381875E5,1.9115205E3,2.4720627E1,4.7207725E3,6.603628E1,6.7100195E2,5.601397E4,9.426516E4,1.172215E6,7.81687E5,7.6807188E3,2.0071426E4,5.107153E4,6.081215E3,1.5555119E5,1.2097212E3,1.0934907E3,7.576752E-1,4.362546E0,1.6086752E4,9.893277E1,2.7799988E0,4.1677406E1,5.036455E2,2.2493982E2,3.5265383E4,4.648797E4,1.4808348E4,1.7708772E5,1.088632E6,1.5918088E5,0E0,1.9326E5,0E0,0E0,4.7574555E4,2.5982532E2,2.2699188E4,2.4103916E3,1.1128206E3,1.0571496E4,1.29628E5,1.4551576E4,1.6526263E3,1.9857129E2,4.545498E2,2.5945282E-1,0E0,1.4833374E0,1.836935E0,9.892385E-1,0E0,0E0,0E0,0E0,0E0,0E0,0E0,0E0,0E0,0E0,0E0,0E0,0E0,0E0,0E0,0E0,0E0,0E0,0E0,0E0,0E0,0E0,0E0,0E0,0E0,0E0,0E0,0E0,0E0,0E0,0E0,0E0,0E0,0E0,0E0,0E0,0E0,0E0,0E0,0E0,0E0,0E0,0E0,0E0,0E0,0E0,0E0,0E0,0E0,0E0,0E0,0E0,0E0,0E0,0E0,0E0],"parents":[2147483647,0,0,1,1,2,2,3,3,4,4,5,5,6,6,7,7,8,8,9,9,10,10,11,11,12,12,13,13,14,14,15,15,16,16,17,17,18,18,19,19,20,20,21,21,22,22,23,23,24,24,25,25,26,26,27,27,28,28,29,29,30,30,31,31,32,32,33,33,34,34,35,35,36,36,37,37,38,38,39,39,40,40,41,41,42,42,44,44,47,47,48,48,49,49,50,50,51,51,52,52,53,53,54,54,55,55,56,56,57,57,58,58,60,60,61,61,62,62],"right_children":[2,4,6,8,10,12,14,16,18,20,22,24,26,28,30,32,34,36,38,40,42,44,46,48,50,52,54,56,58,60,62,64,66,68,70,72,74,76,78,80,82,84,86,-1,88,-1,-1,90,92,94,96,98,100,102,104,106,108,110,112,-1,114,116,118,-1,-1,-1,-1,-1,-1,-1,-1,-1,-1,-1,-1,-1,-1,-1,-1,-1,-1,-1,-1,-1,-1,-1,-1,-1,-1,-1,-1,-1,-1,-1,-1,-1,-1,-1,-1,-1,-1,-1,-1,-1,-1,-1,-1,-1,-1,-1,-1,-1,-1,-1,-1,-1,-1,-1,-1],"split_conditions":[-6.955979E-1,-7.053243E-1,3.935621E-1,-8.724234E-1,1.4811546E-1,-2.1924576E-1,1.0451014E0,-9.7386855E-1,1.3853282E-1,2.7075094E-1,5.908741E-1,-2.8714738E0,-3.0380508E-1,7.9033744E-1,2.602573E-1,1.3651459E-1,-9.029156E-1,1.013279E-6,-8.656664E-1,1.2756507E-1,4.8343775E-1,2.9496473E-1,6.8702376E-1,-2.8769755E0,5.1435715E-1,-5.115142E-1,6.1012447E-1,-1.3854425E-2,3.0759888E0,-1.9604401E-1,1.3068035E0,3.2106657E-2,1.1520783E-2,1.853445E0,2.06449E-1,8.631624E-2,-6.0906853E-3,5.1539135E-1,5.179143E-1,-4.783321E-1,1.3209596E-1,-6.2140965E-1,5.5526173E-1,1.2569199E0,5.579665E-1,7.53585E-1,3.5369587E-1,-2.877316E0,-2.8718965E0,-3.1978673E-1,-5.1618254E-1,-2.867498E0,-6.456736E-2,-5.1618254E-1,3.988007E0,1.072319E0,8.4373593E-1,1.0188556E0,3.5693133E-1,-4.6063946E-3,1.2880594E0,1.064585E0,8.7510407E-1,9.336261E-2,4.980915E-1,-5.317816E-4,3.2223657E-2,-3.7068508E-3,-2.4569726E-3,3.8363323E-2,4.849385E-3,1.2769994E-2,3.368699E-2,6.156602E-3,1.0512914E-1,5.86399E-1,1.0695165E-1,1.3750333E-1,3.3369925E-2,2.7357554E-2,2.34479E-1,2.5697656E0,4.2642587E-1,8.5382694E-1,1.7395052E0,6.875276E-1,2.0031118E-1,3.1115692E0,5.5455723E0,-7.5832256E-3,5.161717E-1,-1.1360974E-3,1.7232548E-2,8.054357E-2,1.4288886E-1,3.519597E-2,1.0984894E-2,3.0122345E-2,8.225141E-4,2.8900397E-1,5.5916283E-2,3.1035566E-1,1.503659E-1,4.7272544E-2,3.7310034E-1,-3.051919E-3,8.7072685E-2,2.7833669E-2,1.5471608E-2,8.817526E-3,1.5122014E-2,-4.1201594E-3,-3.3387989E-3,-2.1912141E-3,-4.114777E-3,-2.5728287E-4,2.3344574E-3,-2.3445229E-3,-5.7862035E-4],"split_indices":[2,2,2,2,1,1,0,2,0,0,0,0,0,2,1,1,2,2,2,0,0,0,0,0,0,0,0,0,2,1,0,1,0,1,0,0,0,0,0,1,0,1,0,0,0,0,0,0,0,1,2,0,1,2,1,1,0,2,1,0,0,1,1,0,0,0,0,0,0,0,0,0,0,0,0,0,0,0,0,0,0,0,0,0,0,0,0,0,0,0,0,0,0,0,0,0,0,0,0,0,0,0,0,0,0,0,0,0,0,0,0,0,0,0,0,0,0,0,0],"split_type":[0,0,0,0,0,0,0,0,0,0,0,0,0,0,0,0,0,0,0,0,0,0,0,0,0,0,0,0,0,0,0,0,0,0,0,0,0,0,0,0,0,0,0,0,0,0,0,0,0,0,0,0,0,0,0,0,0,0,0,0,0,0,0,0,0,0,0,0,0,0,0,0,0,0,0,0,0,0,0,0,0,0,0,0,0,0,0,0,0,0,0,0,0,0,0,0,0,0,0,0,0,0,0,0,0,0,0,0,0,0,0,0,0,0,0,0,0,0,0],"sum_hessian":[2.6432E4,5.888E3,2.0544E4,4.643E3,1.245E3,1.2731E4,7.813E3,1.329E3,3.314E3,1.147E3,9.8E1,9.214E3,3.517E3,7.134E3,6.79E2,1.77E2,1.152E3,6.42E2,2.672E3,3.04E2,8.43E2,7.3E1,2.5E1,1.084E3,8.13E3,7.35E2,2.782E3,1.553E3,5.581E3,4.37E2,2.42E2,1.11E2,6.6E1,1.089E3,6.3E1,6.28E2,1.4E1,6.6E1,2.606E3,1.38E2,1.66E2,5.62E2,2.81E2,2.6E1,4.7E1,1.2E1,1.3E1,7.7E1,1.007E3,6.432E3,1.698E3,5.81E2,1.54E2,2.048E3,7.34E2,2.91E2,1.262E3,5.046E3,5.35E2,1.94E2,2.43E2,1.13E2,1.29E2,1.01E2,1E1,1.1E1,5.5E1,8.53E2,2.36E2,3E0,6E1,4.76E2,1.52E2,3E0,1.1E1,4.1E1,2.5E1,2.064E3,5.42E2,7.3E1,6.5E1,3E0,1.63E2,2.89E2,2.73E2,1.68E2,1.13E2,4.2E1,5E0,5.2E1,2.5E1,9.24E2,8.3E1,5.781E3,6.51E2,9.96E2,7.02E2,3.86E2,1.95E2,2.2E1,1.32E2,9.32E2,1.116E3,7.21E2,1.3E1,2.7E2,2.1E1,1.11E3,1.52E2,3.286E3,1.76E3,4.55E2,8E1,5.6E1,1.87E2,4.5E1,6.8E1,5.7E1,7.2E1],"tree_param":{"num_deleted":"0","num_feature":"3","num_nodes":"119","size_leaf_vector":"0"}},{"base_weights":[1.0323389E1,2.5761755E1,5.8976474E0,7.5789948E0,9.351054E1,8.847891E0,1.0898155E0,1.0054914E0,1.0214042E1,8.2877396E1,2.1586743E2,6.608263E0,1.4711826E1,1.2188611E0,-2.658182E-1,9.347397E0,-2.8320298E-1,1.9296788E0,1.2203054E1,3.1727356E1,1.0126351E2,2.6904974E2,5.6199753E1,1.224543E0,7.3258533E0,3.484681E0,1.7675703E1,2.190243E0,9.4821507E-1,-4.061338E-1,-1.1809773E-2,1.326597E1,2.6574314E0,-3.404161E-1,6.9563323E-1,1.2489322E0,3.4533317E0,4.0510956E1,1.147086E1,1.2465964E1,4.7569305E1,1.3134889E2,5.561177E1,1.2448163E2,3.4476413E2,7.466288E1,3.5041157E1,1.6530067E1,3.8972095E-2,8.600654E0,2.4947085E0,2.010427E0,8.997785E0,2.2105904E1,5.3013396E0,3.6934385E-1,2.6094928E0,1.0908893E0,-3.9698094E-1,-4.5605665E-1,-3.6457196E-1,1.2962359E-1,-1.3574511E-1,9.2438135E0,4.935634E1,-5.2690685E-2,3.1907175E0,-3.669826E-1,-2.4325067E-1,3.8075597E0,4.8016864E-1,-3.783864E-1,1.6331441E0,2.6055074E0,1.4410057E1,5.8067463E1,1.0592327E1,1.3612896E1,3.3036842E0,2.7087674E0,2.3216974E1,2.5504922E2,4.2218765E1,8.713142E1,1.7771988E2,7.357256E1,1.9832565E1,3.0811774E2,5.499359E2,-7.508825E-1,5.112085E1,-1.12474844E-1,1.7062274E0,7.973828E0,1.4146216E1,3.6167965E0,1.2528801E0,2.9821901E0,8.143312E-2,2.8623957E1,5.536133E0,3.0725546E1,1.4886359E1,4.6800475E0,3.6963585E1,-3.0215123E-1,8.624154E0,2.7555585E0,1.5317903E0,8.729377E-1,1.4970881E0,-4.0790483E-1,-3.3058232E-1,-2.1696864E-1,-4.073848E-1,-2.5476597E-2,2.3114511E-1,-2.321482E-1,-5.729135E-2],"categories":[],"categories_nodes":[],"categories_segments":[],"categories_sizes":[],"default_left":[true,true,false,false,true,true,true,false,true,true,true,true,true,false,true,true,false,true,true,true,true,true,true,true,true,true,true,true,false,true,true,true,true,true,true,true,true,true,true,true,true,true,true,false,true,false,false,true,true,true,true,true,true,false,true,true,true,false,true,false,true,true,true,false,false,false,false,false,false,false,false,false,false,false,false,false,false,false,false,false,false,false,false,false,false,false,false,false,false,false,false,false,false,false,false,false,false,false,false,false,false,false,false,false,false,false,false,false,false,false,false,false,false,false,false,false,false,false,false],"id":3,"left_children":[1,3,5,7,9,11,13,15,17,19,21,23,25,27,29,31,33,35,37,39,41,43,45,47,49,51,53,55,57,59,61,63,65,67,69,71,73,75,77,79,81,83,85,-1,87,-1,-1,89,91,93,95,97,99,101,103,105,107,109,111,-1,113,115,117,-1,-1,-1,-1,-1,-1,-1,-1,-1,-1,-1,-1,-1,-1,-1,-1,-1,-1,-1,-1,-1,-1,-1,-1,-1,-1,-1,-1,-1,-1,-1,-1,-1,-1,-1,-1,-1,-1,-1,-1,-1,-1,-1,-1,-1,-1,-1,-1,-1,-1,-1,-1,-1,-1,-1,-1],"loss_changes":[1.8059148E6,7.253714E6,2.914063E5,8.043072E4,1.603202E6,1.6711262E5,1.367294E3,1.4300369E4,5.4600062E4,1.0764255E6,8.255375E5,3.5591406E4,1.17002875E5,1.8737207E3,2.423132E1,4.631039E3,6.4807434E1,6.626206E2,5.493828E4,9.247406E4,1.151887E6,7.67078E5,7.5407188E3,1.9687533E4,5.0055312E4,5.963909E3,1.5244944E5,1.1853779E3,1.0717573E3,7.425308E-1,4.277044E0,1.5801805E4,9.700125E1,2.7243958E0,4.1084366E1,2.7947284E2,1.801751E3,3.4577797E4,4.5562906E4,1.451817E4,1.746239E5,1.026123E6,2.1510488E5,0E0,1.91458E5,0E0,0E0,4.6663785E4,2.5471262E2,2.2248969E4,2.3629238E3,1.090731E3,1.0372075E4,1.27051625E5,1.42855625E4,1.6211807E3,1.9459375E2,4.455122E2,2.5393677E-1,0E0,1.4535255E0,1.8009336E0,9.6991396E-1,0E0,0E0,0E0,0E0,0E0,0E0,0E0,0E0,0E0,0E0,0E0,0E0,0E0,0E0,0E0,0E0,0E0,0E0,0E0,0E0,0E0,0E0,0E0,0E0,0E0,0E0,0E0,0E0,0E0,0E0,0E0,0E0,0E0,0E0,0E0,0E0,0E0,0E0,0E0,0E0,0E0,0E0,0E0,0E0,0E0,0E0,0E0,0E0,0E0,0E0,0E0,0E0,0E0,0E0,0E0,0E0],"parents":[2147483647,0,0,1,1,2,2,3,3,4,4,5,5,6,6,7,7,8,8,9,9,10,10,11,11,12,12,13,13,14,14,15,15,16,16,17,17,18,18,19,19,20,20,21,21,22,22,23,23,24,24,25,25,26,26,27,27,28,28,29,29,30,30,31,31,32,32,33,33,34,34,35,35,36,36,37,37,38,38,39,39,40,40,41,41,42,42,44,44,47,47,48,48,49,49,50,50,51,51,52,52,53,53,54,54,55,55,56,56,57,57,58,58,60,60,61,61,62,62],"right_children":[2,4,6,8,10,12,14,16,18,20,22,24,26,28,30,32,34,36,38,40,42,44,46,48,50,52,54,56,58,60,62,64,66,68,70,72,74,76,78,80,82,84,86,-1,88,-1,-1,90,92,94,96,98,100,102,104,106,108,110,112,-1,114,116,118,-1,-1,-1,-1,-1,-1,-1,-1,-1,-1,-1,-1,-1,-1,-1,-1,-1,-1,-1,-1,-1,-1,-1,-1,-1,-1,-1,-1,-1,-1,-1,-1,-1,-1,-1,-1,-1,-1,-1,-1,-1,-1,-1,-1,-1,-1,-1,-1,-1,-1,-1,-1,-1,-1,-1,-1],"split_conditions":[-6.955979E-1,-7.053243E-1,3.935621E-1,-8.724234E-1,1.4811546E-1,-2.1924576E-1,1.0451014E0,-9.7386855E-1,1.3853282E-1,2.7075094E-1,5.908741E-1,-2.8714738E0,-3.0380508E-1,7.9033744E-1,2.602573E-1,1.3651459E-1,-9.029156E-1,-2.2697969E-1,-8.656664E-1,1.2756507E-1,4.6745497E-1,2.9496473E-1,6.8702376E-1,-2.8769755E0,5.1435715E-1,-5.115142E-1,6.1012447E-1,-1.3854425E-2,3.0759888E0,-1.9604401E-1,1.3068035E0,3.2106657E-2,1.1520783E-2,1.853445E0,2.06449E-1,-6.83281E-1,1.19453326E-1,5.1539135E-1,5.179143E-1,-4.783321E-1,1.3209596E-1,-6.2140965E-1,5.5526173E-1,1.2448163E0,5.579665E-1,7.4662876E-1,3.5041156E-1,-2.877316E0,-2.8718965E0,-3.1978673E-1,6.2960434E-1,-2.867498E0,-6.456736E-2,-5.1618254E-1,3.988007E0,1.072319E0,8.4373593E-1,1.0188556E0,3.5693133E-1,-4.5605665E-3,1.2880594E0,1.064585E0,8.7510407E-1,9.243813E-2,4.9356338E-1,-5.2690686E-4,3.1907175E-2,-3.669826E-3,-2.4325065E-3,3.8075596E-2,4.8016864E-3,-3.783864E-3,1.6331442E-2,2.6055073E-2,1.4410056E-1,5.806746E-1,1.05923265E-1,1.3612896E-1,3.3036843E-2,2.7087674E-2,2.3216973E-1,2.5504923E0,4.2218766E-1,8.7131417E-1,1.7771988E0,7.3572564E-1,1.9832565E-1,3.0811772E0,5.499359E0,-7.508825E-3,5.112085E-1,-1.1247484E-3,1.7062275E-2,7.9738274E-2,1.4146216E-1,3.6167964E-2,1.25288E-2,2.98219E-2,8.143312E-4,2.8623956E-1,5.5361327E-2,3.0725545E-1,1.4886358E-1,4.6800476E-2,3.6963585E-1,-3.0215122E-3,8.6241536E-2,2.7555585E-2,1.5317902E-2,8.729377E-3,1.497088E-2,-4.079048E-3,-3.305823E-3,-2.1696864E-3,-4.073848E-3,-2.5476597E-4,2.3114511E-3,-2.321482E-3,-5.729135E-4],"split_indices":[2,2,2,2,1,1,0,2,0,0,0,0,0,2,1,1,2,1,2,0,0,0,0,0,0,0,0,0,2,1,0,1,0,1,0,1,0,0,0,1,0,1,0,0,0,0,0,0,0,1,0,0,1,2,1,1,0,2,1,0,0,1,1,0,0,0,0,0,0,0,0,0,0,0,0,0,0,0,0,0,0,0,0,0,0,0,0,0,0,0,0,0,0,0,0,0,0,0,0,0,0,0,0,0,0,0,0,0,0,0,0,0,0,0,0,0,0,0,0],"split_type":[0,0,0,0,0,0,0,0,0,0,0,0,0,0,0,0,0,0,0,0,0,0,0,0,0,0,0,0,0,0,0,0,0,0,0,0,0,0,0,0,0,0,0,0,0,0,0,0,0,0,0,0,0,0,0,0,0,0,0,0,0,0,0,0,0,0,0,0,0,0,0,0,0,0,0,0,0,0,0,0,0,0,0,0,0,0,0,0,0,0,0,0,0,0,0,0,0,0,0,0,0,0,0,0,0,0,0,0,0,0,0,0,0,0,0,0,0,0,0],"sum_hessian":[2.6432E4,5.888E3,2.0544E4,4.643E3,1.245E3,1.2731E4,7.813E3,1.329E3,3.314E3,1.147E3,9.8E1,9.214E3,3.517E3,7.134E3,6.79E2,1.77E2,1.152E3,6.42E2,2.672E3,3.04E2,8.43E2,7.3E1,2.5E1,1.084E3,8.13E3,7.35E2,2.782E3,1.553E3,5.581E3,4.37E2,2.42E2,1.11E2,6.6E1,1.089E3,6.3E1,4.45E2,1.97E2,6.6E1,2.606E3,1.38E2,1.66E2,5.07E2,3.36E2,2.6E1,4.7E1,1.2E1,1.3E1,7.7E1,1.007E3,6.432E3,1.698E3,5.81E2,1.54E2,2.048E3,7.34E2,2.91E2,1.262E3,5.046E3,5.35E2,1.94E2,2.43E2,1.13E2,1.29E2,1.01E2,1E1,1.1E1,5.5E1,8.53E2,2.36E2,3E0,6E1,8.5E1,3.6E2,1.84E2,1.3E1,4.1E1,2.5E1,2.064E3,5.42E2,7.3E1,6.5E1,3E0,1.63E2,2.61E2,2.46E2,2.23E2,1.13E2,4.2E1,5E0,5.2E1,2.5E1,9.24E2,8.3E1,5.781E3,6.51E2,8.91E2,8.07E2,3.86E2,1.95E2,2.2E1,1.32E2,9.32E2,1.116E3,7.21E2,1.3E1,2.7E2,2.1E1,1.11E3,1.52E2,3.286E3,1.76E3,4.55E2,8E1,5.6E1,1.87E2,4.5E1,6.8E1,5.7E1,7.2E1],"tree_param":{"num_deleted":"0","num_feature":"3","num_nodes":"119","size_leaf_vector":"0"}},{"base_weights":[1.0220972E1,2.5507437E1,5.8387766E0,7.5035696E0,9.258966E1,8.759572E0,1.078934E0,9.9592835E-1,1.0112215E1,8.205456E1,2.1381908E2,6.5422664E0,1.45650625E1,1.2066925E0,-2.6317713E-1,9.257391E0,-2.8033906E-1,1.9106661E0,1.2081345E1,3.142068E1,1.0025513E2,2.6649203E2,5.567995E1,1.2127765E0,7.2526283E0,3.45034E0,1.749926E1,2.1684217E0,9.387358E-1,-4.0209714E-1,-1.1695122E-2,1.3138543E1,2.6313252E0,-3.3701754E-1,6.8934685E-1,1.7517242E0,8.448254E0,4.0116093E1,1.1356216E1,1.234317E1,4.7111416E1,1.3004062E2,5.5058426E1,1.2328291E2,3.4149524E2,8.68327E1,4.199249E1,1.6371225E1,3.859818E-2,8.514682E0,2.46979E0,1.9903754E0,8.910011E0,2.1885067E1,5.2488923E0,3.659354E-1,2.5834317E0,1.079985E0,-3.930249E-1,-4.515195E-1,-3.609518E-1,1.2834539E-1,-1.3440992E-1,9.152282E0,4.8907646E1,-5.220769E-2,3.1593802E0,-3.6331707E-1,-2.4082844E-1,3.7790031E0,4.7544566E-1,4.411397E-1,2.3572247E0,5.9150136E-1,1.036315E1,5.7500614E1,1.0490478E1,1.334307E1,2.723291E0,2.682046E0,2.2988321E1,2.5313635E2,4.1799152E1,8.626343E1,1.7594987E2,7.2840126E1,1.9635979E1,3.0510822E2,5.4535315E2,4.8268463E1,2.8958689E1,-7.435154E-1,5.0629303E1,-1.1135132E-1,1.6893682E0,7.8941035E0,1.40049715E1,3.4570537E0,1.066132E0,2.9524455E0,8.062295E-2,2.8350163E1,5.481188E0,3.041862E1,1.4737629E1,4.6333117E0,3.662035E1,-2.991409E-1,8.541832E0,2.7280276E0,1.5165725E0,8.6421096E-1,1.4821256E0,-4.0383476E-1,-3.2731733E-1,-2.14837E-1,-4.0333262E-1,-2.5227357E-2,2.2886714E-1,-2.2986674E-1,-5.672628E-2],"categories":[],"categories_nodes":[],"categories_segments":[],"categories_sizes":[],"default_left":[true,true,false,false,true,true,true,false,true,true,true,true,true,false,true,true,false,false,true,true,true,true,true,true,true,true,true,true,false,true,true,true,true,true,true,true,true,true,true,true,true,true,true,false,true,false,true,true,true,true,false,true,true,false,true,true,true,false,true,false,true,true,true,false,false,false,false,false,false,false,false,false,false,false,false,false,false,false,false,false,false,false,false,false,false,false,false,false,false,false,false,false,false,false,false,false,false,false,false,false,false,false,false,false,false,false,false,false,false,false,false,false,false,false,false,false,false,false,false,false,false],"id":4,"left_children":[1,3,5,7,9,11,13,15,17,19,21,23,25,27,29,31,33,35,37,39,41,43,45,47,49,51,53,55,57,59,61,63,65,67,69,71,73,75,77,79,81,83,85,-1,87,-1,89,91,93,95,97,99,101,103,105,107,109,111,113,-1,115,117,119,-1,-1,-1,-1,-1,-1,-1,-1,-1,-1,-1,-1,-1,-1,-1,-1,-1,-1,-1,-1,-1,-1,-1,-1,-1,-1,-1,-1,-1,-1,-1,-1,-1,-1,-1,-1,-1,-1,-1,-1,-1,-1,-1,-1,-1,-1,-1,-1,-1,-1,-1,-1,-1,-1,-1,-1,-1,-1],"loss_changes":[1.7705522E6,7.111684E6,2.8561794E5,7.882705E4,1.573802E6,1.6379806E5,1.3401533E3,1.4025896E4,5.3513906E4,1.054807E6,8.09797E5,3.487797E4,1.14671375E5,1.836667E3,2.375169E1,4.5430146E3,6.3601585E1,6.5334033E2,5.388328E4,9.071725E4,1.129038E6,7.527445E5,7.4401406E3,1.9310982E4,4.905928E4,5.848867E3,1.4940944E5,1.1615244E3,1.0504551E3,7.276993E-1,4.1932163E0,1.5521904E4,9.510748E1,2.6699066E0,4.049968E1,4.98109E2,2.1954321E2,3.39036E4,4.4679844E4,1.4233678E4,1.7219369E5,1.005789E6,2.1083638E5,0E0,1.89662E5,0E0,2.3820703E2,4.577046E4,2.497005E2,2.1807656E4,2.350755E3,1.0690796E3,1.017642E4,1.2452644E5,1.4024402E4,1.590333E3,1.9069727E2,4.3665527E2,2.4853516E-1,0E0,1.4243107E0,1.7656373E0,9.509666E-1,0E0,0E0,0E0,0E0,0E0,0E0,0E0,0E0,0E0,0E0,0E0,0E0,0E0,0E0,0E0,0E0,0E0,0E0,0E0,0E0,0E0,0E0,0E0,0E0,0E0,0E0,0E0,0E0,0E0,0E0,0E0,0E0,0E0,0E0,0E0,0E0,0E0,0E0,0E0,0E0,0E0,0E0,0E0,0E0,0E0,0E0,0E0,0E0,0E0,0E0,0E0,0E0,0E0,0E0,0E0,0E0,0E0,0E0],"parents":[2147483647,0,0,1,1,2,2,3,3,4,4,5,5,6,6,7,7,8,8,9,9,10,10,11,11,12,12,13,13,14,14,15,15,16,16,17,17,18,18,19,19,20,20,21,21,22,22,23,23,24,24,25,25,26,26,27,27,28,28,29,29,30,30,31,31,32,32,33,33,34,34,35,35,36,36,37,37,38,38,39,39,40,40,41,41,42,42,44,44,46,46,47,47,48,48,49,49,50,50,51,51,52,52,53,53,54,54,55,55,56,56,57,57,58,58,60,60,61,61,62,62],"right_children":[2,4,6,8,10,12,14,16,18,20,22,24,26,28,30,32,34,36,38,40,42,44,46,48,50,52,54,56,58,60,62,64,66,68,70,72,74,76,78,80,82,84,86,-1,88,-1,90,92,94,96,98,100,102,104,106,108,110,112,114,-1,116,118,120,-1,-1,-1,-1,-1,-1,-1,-1,-1,-1,-1,-1,-1,-1,-1,-1,-1,-1,-1,-1,-1,-1,-1,-1,-1,-1,-1,-1,-1,-1,-1,-1,-1,-1,-1,-1,-1,-1,-1,-1,-1,-1,-1,-1,-1,-1,-1,-1,-1,-1,-1,-1,-1,-1,-1,-1,-1,-1],"split_conditions":[-6.955979E-1,-7.053243E-1,3.935621E-1,-8.724234E-1,1.4811546E-1,-2.1924576E-1,1.0451014E0,-9.7386855E-1,1.3853282E-1,2.7075094E-1,5.908741E-1,-2.8714738E0,-3.0380508E-1,7.9033744E-1,2.602573E-1,1.3651459E-1,-9.029156E-1,1.013279E-6,-8.656664E-1,1.2756507E-1,4.6745497E-1,2.9496473E-1,6.595428E-1,-2.8769755E0,5.1435715E-1,-5.115142E-1,6.1012447E-1,-1.3854425E-2,3.0759888E0,-1.9604401E-1,1.3068035E0,3.2106657E-2,1.1520783E-2,1.853445E0,2.06449E-1,-3.7746474E-2,-6.0906853E-3,5.1539135E-1,5.3094685E-1,-4.783321E-1,1.3209596E-1,-6.2140965E-1,5.5526173E-1,1.2328291E0,5.579665E-1,8.68327E-1,7.184457E-1,-2.877316E0,-2.8718965E0,-3.1978673E-1,-5.1618254E-1,-2.867498E0,-6.456736E-2,-5.1618254E-1,3.988007E0,1.072319E0,8.4373593E-1,1.0188556E0,3.5693133E-1,-4.515195E-3,1.2880594E0,1.064585E0,8.7510407E-1,9.152281E-2,4.8907647E-1,-5.220769E-4,3.15938E-2,-3.6331706E-3,-2.4082842E-3,3.779003E-2,4.7544567E-3,4.411397E-3,2.3572246E-2,5.9150136E-3,1.036315E-1,5.750061E-1,1.0490477E-1,1.334307E-1,2.7232908E-2,2.6820458E-2,2.2988321E-1,2.5313635E0,4.1799152E-1,8.6263424E-1,1.7594987E0,7.2840124E-1,1.9635978E-1,3.0510821E0,5.4535313E0,4.826846E-1,2.8958687E-1,-7.4351537E-3,5.06293E-1,-1.1135131E-3,1.6893683E-2,7.894103E-2,1.4004971E-1,3.4570538E-2,1.0661319E-2,2.9524455E-2,8.062295E-4,2.8350163E-1,5.4811876E-2,3.041862E-1,1.4737628E-1,4.6333116E-2,3.662035E-1,-2.991409E-3,8.541832E-2,2.7280275E-2,1.5165725E-2,8.642109E-3,1.48212565E-2,-4.0383474E-3,-3.2731732E-3,-2.14837E-3,-4.033326E-3,-2.5227357E-4,2.2886714E-3,-2.2986673E-3,-5.672628E-4],"split_indices":[2,2,2,2,1,1,0,2,0,0,0,0,0,2,1,1,2,2,2,0,0,0,0,0,0,0,0,0,2,1,0,1,0,1,0,0,0,0,0,1,0,1,0,0,0,0,0,0,0,1,2,0,1,2,1,1,0,2,1,0,0,1,1,0,0,0,0,0,0,0,0,0,0,0,0,0,0,0,0,0,0,0,0,0,0,0,0,0,0,0,0,0,0,0,0,0,0,0,0,0,0,0,0,0,0,0,0,0,0,0,0,0,0,0,0,0,0,0,0,0,0],"split_type":[0,0,0,0,0,0,0,0,0,0,0,0,0,0,0,0,0,0,0,0,0,0,0,0,0,0,0,0,0,0,0,0,0,0,0,0,0,0,0,0,0,0,0,0,0,0,0,0,0,0,0,0,0,0,0,0,0,0,0,0,0,0,0,0,0,0,0,0,0,0,0,0,0,0,0,0,0,0,0,0,0,0,0,0,0,0,0,0,0,0,0,0,0,0,0,0,0,0,0,0,0,0,0,0,0,0,0,0,0,0,0,0,0,0,0,0,0,0,0,0,0],"sum_hessian":[2.6432E4,5.888E3,2.0544E4,4.643E3,1.245E3,1.2731E4,7.813E3,1.329E3,3.314E3,1.147E3,9.8E1,9.214E3,3.517E3,7.134E3,6.79E2,1.77E2,1.152E3,6.42E2,2.672E3,3.04E2,8.43E2,7.3E1,2.5E1,1.084E3,8.13E3,7.35E2,2.782E3,1.553E3,5.581E3,4.37E2,2.42E2,1.11E2,6.6E1,1.089E3,6.3E1,6.28E2,1.4E1,6.6E1,2.606E3,1.38E2,1.66E2,5.07E2,3.36E2,2.6E1,4.7E1,6E0,1.9E1,7.7E1,1.007E3,6.432E3,1.698E3,5.81E2,1.54E2,2.048E3,7.34E2,2.91E2,1.262E3,5.046E3,5.35E2,1.94E2,2.43E2,1.13E2,1.29E2,1.01E2,1E1,1.1E1,5.5E1,8.53E2,2.36E2,3E0,6E1,1.99E2,4.29E2,3E0,1.1E1,4.1E1,2.5E1,2.118E3,4.88E2,7.3E1,6.5E1,3E0,1.63E2,2.61E2,2.46E2,2.23E2,1.13E2,4.2E1,5E0,1.1E1,8E0,5.2E1,2.5E1,9.24E2,8.3E1,5.781E3,6.51E2,9.96E2,7.02E2,3.86E2,1.95E2,2.2E1,1.32E2,9.32E2,1.116E3,7.21E2,1.3E1,2.7E2,2.1E1,1.11E3,1.52E2,3.286E3,1.76E3,4.55E2,8E1,5.6E1,1.87E2,4.5E1,6.8E1,5.7E1,7.2E1],"tree_param":{"num_deleted":"0","num_feature":"3","num_nodes":"121","size_leaf_vector":"0"}},{"base_weights":[1.0119591E1,2.5255718E1,5.780493E0,7.428884E0,9.167832E1,8.672134E0,1.0681612E0,9.8645645E-1,1.0011388E1,8.123989E1,2.1179582E2,6.476928E0,1.4419762E1,1.1946453E0,-2.6056233E-1,9.168254E0,-2.77504E-1,3.773313E0,1.2560157E1,3.1116983E1,9.9256775E1,2.639587E2,5.518625E1,1.2011231E0,7.1801343E0,3.4163375E0,1.7324577E1,2.146818E0,9.2935133E-1,-3.9810058E-1,-1.1581597E-2,1.30123415E1,2.605476E0,-3.336529E-1,6.831181E-1,1.722071E0,7.7947607E0,1.5415437E1,3.5390906E0,1.2221585E1,4.6657963E1,1.2569133E2,4.9376854E1,1.2209575E2,3.3825748E2,8.6088425E1,4.1611176E1,1.6213907E1,3.822787E-2,8.429569E0,2.4451187E0,1.9705237E0,8.823093E0,2.1666437E1,5.1969647E0,3.6255828E-1,2.557631E0,1.0691898E0,-3.891083E-1,-4.4702744E-1,-3.5736763E-1,1.2707978E-1,-1.3308787E-1,9.061656E0,4.846303E1,-5.1729117E-2,3.1283505E0,-3.5968816E-1,-2.384303E-1,3.7506604E0,4.7076914E-1,1.4529573E0,4.497792E0,2.640866E0,2.0244812E1,6.3262268E1,1.4423484E1,6.513361E0,1.3043618E0,2.655588E0,2.2761923E1,2.5123784E2,4.138371E1,8.367127E1,1.6975105E2,6.7958466E1,1.9441341E1,3.0212808E2,5.408085E2,4.7826E1,2.8701277E1,-7.362205E-1,5.0142483E1,-1.10238984E-1,1.6726757E0,7.815176E0,1.3865137E1,3.5532136E0,1.2187998E0,2.9229972E0,7.9820864E-2,3.4475025E1,6.2318954E0,3.011476E1,1.45903845E1,4.587043E0,3.6280304E1,-2.9616052E-1,8.460297E0,2.700772E0,1.5015059E0,8.555714E-1,1.4673128E0,-3.9980528E-1,-3.2408458E-1,-2.1272634E-1,-3.9932075E-1,-7.3739714E-3,2.3996639E-1,-2.2760771E-1,-5.6166794E-2],"categories":[],"categories_nodes":[],"categories_segments":[],"categories_sizes":[],"default_left":[true,true,false,false,true,true,true,false,true,true,true,true,true,false,true,true,false,true,true,true,true,true,true,true,true,true,true,true,false,true,true,true,true,true,true,true,true,true,true,true,true,true,true,false,true,false,true,true,true,true,true,true,true,false,true,true,true,false,true,false,true,true,true,false,false,false,false,false,false,false,false,false,false,false,false,false,false,false,false,false,false,false,false,false,false,false,false,false,false,false,false,false,false,false,false,false,false,false,false,false,false,false,false,false,false,false,false,false,false,false,false,false,false,false,false,false,false,false,false,false,false],"id":5,"left_children":[1,3,5,7,9,11,13,15,17,19,21,23,25,27,29,31,33,35,37,39,41,43,45,47,49,51,53,55,57,59,61,63,65,67,69,71,73,75,77,79,81,83,85,-1,87,-1,89,91,93,95,97,99,101,103,105,107,109,111,113,-1,115,117,119,-1,-1,-1,-1,-1,-1,-1,-1,-1,-1,-1,-1,-1,-1,-1,-1,-1,-1,-1,-1,-1,-1,-1,-1,-1,-1,-1,-1,-1,-1,-1,-1,-1,-1,-1,-1,-1,-1,-1,-1,-1,-1,-1,-1,-1,-1,-1,-1,-1,-1,-1,-1,-1,-1,-1,-1,-1,-1],"loss_changes":[1.735898E6,6.972512E6,2.7994456E5,7.7255125E4,1.545075E6,1.6054919E5,1.3135498E3,1.3756697E4,5.2659156E4,1.0336225E6,7.941845E5,3.4178812E4,1.1238631E5,1.8003457E3,2.3281563E1,4.456663E3,6.2418297E1,7.930328E3,6.055325E4,8.899391E4,1.106653E6,7.38678E5,7.324742E3,1.894163E4,4.8083156E4,5.736045E3,1.4643012E5,1.1381504E3,1.0295776E3,7.1315E-1,4.1110325E0,1.5246949E4,9.325064E1,2.6165085E0,3.9923233E1,4.707881E2,2.0800566E4,8.390178E4,3.7601768E3,1.3954764E4,1.6979684E5,1.005914E6,1.6221631E5,0E0,1.878725E5,0E0,2.3198828E2,4.4894223E4,2.44787E2,2.1375125E4,2.3044023E3,1.0478579E3,1.0087886E4,1.220515E5,1.3768016E4,1.5600723E3,1.868789E2,4.2797363E2,2.4324036E-1,0E0,1.3956852E0,1.7320647E0,9.3238974E-1,0E0,0E0,0E0,0E0,0E0,0E0,0E0,0E0,0E0,0E0,0E0,0E0,0E0,0E0,0E0,0E0,0E0,0E0,0E0,0E0,0E0,0E0,0E0,0E0,0E0,0E0,0E0,0E0,0E0,0E0,0E0,0E0,0E0,0E0,0E0,0E0,0E0,0E0,0E0,0E0,0E0,0E0,0E0,0E0,0E0,0E0,0E0,0E0,0E0,0E0,0E0,0E0,0E0,0E0,0E0,0E0,0E0,0E0],"parents":[2147483647,0,0,1,1,2,2,3,3,4,4,5,5,6,6,7,7,8,8,9,9,10,10,11,11,12,12,13,13,14,14,15,15,16,16,17,17,18,18,19,19,20,20,21,21,22,22,23,23,24,24,25,25,26,26,27,27,28,28,29,29,30,30,31,31,32,32,33,33,34,34,35,35,36,36,37,37,38,38,39,39,40,40,41,41,42,42,44,44,46,46,47,47,48,48,49,49,50,50,51,51,52,52,53,53,54,54,55,55,56,56,57,57,58,58,60,60,61,61,62,62],"right_children":[2,4,6,8,10,12,14,16,18,20,22,24,26,28,30,32,34,36,38,40,42,44,46,48,50,52,54,56,58,60,62,64,66,68,70,72,74,76,78,80,82,84,86,-1,88,-1,90,92,94,96,98,100,102,104,106,108,110,112,114,-1,116,118,120,-1,-1,-1,-1,-1,-1,-1,-1,-1,-1,-1,-1,-1,-1,-1,-1,-1,-1,-1,-1,-1,-1,-1,-1,-1,-1,-1,-1,-1,-1,-1,-1,-1,-1,-1,-1,-1,-1,-1,-1,-1,-1,-1,-1,-1,-1,-1,-1,-1,-1,-1,-1,-1,-1,-1,-1,-1,-1],"split_conditions":[-6.955979E-1,-7.053243E-1,3.935621E-1,-8.724234E-1,1.4811546E-1,-2.1924576E-1,1.0451014E0,-9.7386855E-1,2.2553693E-1,2.7075094E-1,5.908741E-1,-2.8714738E0,-3.0380508E-1,7.9033744E-1,2.602573E-1,1.3651459E-1,-9.029156E-1,-2.6951623E-1,5.179143E-1,1.2756507E-1,4.760205E-1,2.9496473E-1,6.595428E-1,-2.8769755E0,5.1435715E-1,-5.115142E-1,6.1012447E-1,-1.3854425E-2,3.0759888E0,-1.9604401E-1,1.3068035E0,3.2106657E-2,1.1520783E-2,1.853445E0,2.06449E-1,2.067481E-1,1.2873018E-1,-8.656664E-1,5.7814384E-1,-4.783321E-1,1.3209596E-1,-6.2140965E-1,5.5526173E-1,1.2209575E0,5.579665E-1,8.6088425E-1,7.184457E-1,-2.877316E0,-2.8718965E0,-3.1978673E-1,6.2960434E-1,-2.867498E0,-4.8724538E-1,-5.1618254E-1,3.988007E0,1.072319E0,8.4373593E-1,1.0188556E0,3.5693133E-1,-4.4702743E-3,1.2880594E0,1.3855429E0,8.7510407E-1,9.061656E-2,4.8463032E-1,-5.1729113E-4,3.1283505E-2,-3.5968816E-3,-2.384303E-3,3.7506603E-2,4.7076913E-3,1.4529573E-2,4.497792E-2,2.640866E-2,2.0244811E-1,6.3262266E-1,1.4423484E-1,6.513361E-2,1.3043618E-2,2.6555879E-2,2.2761922E-1,2.5123782E0,4.1383708E-1,8.367127E-1,1.6975105E0,6.795846E-1,1.9441341E-1,3.0212808E0,5.4080844E0,4.7825998E-1,2.8701276E-1,-7.3622046E-3,5.014248E-1,-1.1023898E-3,1.6726756E-2,7.8151755E-2,1.3865137E-1,3.5532136E-2,1.2187998E-2,2.9229973E-2,7.9820864E-4,3.4475026E-1,6.2318955E-2,3.0114758E-1,1.4590384E-1,4.5870427E-2,3.6280304E-1,-2.961605E-3,8.460297E-2,2.700772E-2,1.5015058E-2,8.555714E-3,1.4673128E-2,-3.998053E-3,-3.2408456E-3,-2.1272635E-3,-3.9932076E-3,-7.373971E-5,2.399664E-3,-2.2760772E-3,-5.6166796E-4],"split_indices":[2,2,2,2,1,1,0,2,0,0,0,0,0,2,1,1,2,1,0,0,0,0,0,0,0,0,0,0,2,1,0,1,0,1,0,0,0,2,0,1,0,1,0,0,0,0,0,0,0,1,0,0,0,2,1,1,0,2,1,0,0,1,1,0,0,0,0,0,0,0,0,0,0,0,0,0,0,0,0,0,0,0,0,0,0,0,0,0,0,0,0,0,0,0,0,0,0,0,0,0,0,0,0,0,0,0,0,0,0,0,0,0,0,0,0,0,0,0,0,0,0],"split_type":[0,0,0,0,0,0,0,0,0,0,0,0,0,0,0,0,0,0,0,0,0,0,0,0,0,0,0,0,0,0,0,0,0,0,0,0,0,0,0,0,0,0,0,0,0,0,0,0,0,0,0,0,0,0,0,0,0,0,0,0,0,0,0,0,0,0,0,0,0,0,0,0,0,0,0,0,0,0,0,0,0,0,0,0,0,0,0,0,0,0,0,0,0,0,0,0,0,0,0,0,0,0,0,0,0,0,0,0,0,0,0,0,0,0,0,0,0,0,0,0,0],"sum_hessian":[2.6432E4,5.888E3,2.0544E4,4.643E3,1.245E3,1.2731E4,7.813E3,1.329E3,3.314E3,1.147E3,9.8E1,9.214E3,3.517E3,7.134E3,6.79E2,1.77E2,1.152E3,9.62E2,2.352E3,3.04E2,8.43E2,7.3E1,2.5E1,1.084E3,8.13E3,7.35E2,2.782E3,1.553E3,5.581E3,4.37E2,2.42E2,1.11E2,6.6E1,1.089E3,6.3E1,6.38E2,3.24E2,1.786E3,5.66E2,1.38E2,1.66E2,5.5E2,2.93E2,2.6E1,4.7E1,6E0,1.9E1,7.7E1,1.007E3,6.432E3,1.698E3,5.81E2,1.54E2,2.048E3,7.34E2,2.91E2,1.262E3,5.046E3,5.35E2,1.94E2,2.43E2,1.13E2,1.29E2,1.01E2,1E1,1.1E1,5.5E1,8.53E2,2.36E2,3E0,6E1,5.83E2,5.5E1,2.3E2,9.4E1,3.5E1,1.751E3,2.42E2,3.24E2,7.3E1,6.5E1,3E0,1.63E2,2.83E2,2.67E2,1.8E2,1.13E2,4.2E1,5E0,1.1E1,8E0,5.2E1,2.5E1,9.24E2,8.3E1,5.781E3,6.51E2,8.91E2,8.07E2,3.86E2,1.95E2,1.3E1,1.41E2,9.32E2,1.116E3,7.21E2,1.3E1,2.7E2,2.1E1,1.11E3,1.52E2,3.286E3,1.76E3,4.55E2,8E1,5.6E1,1.87E2,5.2E1,6.1E1,5.7E1,7.2E1],"tree_param":{"num_deleted":"0","num_feature":"3","num_nodes":"121","size_leaf_vector":"0"}},{"base_weights":[1.0019221E1,2.5006498E1,5.722795E0,7.3549795E0,9.077587E1,8.585575E0,1.0574961E0,9.7707474E-1,9.911619E0,8.0433235E1,2.0979176E2,6.412243E0,1.4275932E1,1.1827184E0,-2.5797302E-1,9.079975E0,-2.7469754E-1,3.7358794E0,1.2434919E1,3.081624E1,9.826825E1,2.6144952E2,5.4696934E1,1.1895816E0,7.1083655E0,3.382768E0,1.715164E1,2.1254294E0,9.200607E-1,-3.9414373E-1,-1.1467901E-2,1.2887354E1,2.5798802E0,-3.3032188E-1,6.769465E-1,1.7049435E0,7.717517E0,1.5261717E1,3.5038376E0,1.2101198E1,4.6208904E1,1.2749347E2,5.3922012E1,1.20920006E2,3.350505E2,8.5350525E1,4.123333E1,1.6058104E1,3.7861094E-2,8.345306E0,2.4206955E0,1.95087E0,8.737489E0,2.1449991E1,5.145551E0,3.5921234E-1,2.532088E0,1.0585026E0,-3.8523075E-1,-4.4258007E-1,-3.5381904E-1,1.4163266E-1,-1.1952168E-1,8.971928E0,4.8022457E1,-5.125494E-2,3.0976257E0,-3.560955E-1,-2.3605606E-1,3.7225308E0,4.661386E-1,1.4384526E0,4.453617E0,2.6145716E0,2.0044495E1,6.2647217E1,1.4279331E1,6.4484954E0,1.2913584E0,2.629391E0,2.2537752E1,2.4935355E2,4.0972393E1,1.0648042E2,2.2135156E2,7.132756E1,1.9248634E1,2.9917706E2,5.3630176E2,4.7387596E1,2.8446156E1,-7.2899723E-1,4.9660343E1,-1.0913779E-1,1.6561481E0,7.7370377E0,1.3726698E1,3.3956614E0,1.0345486E0,2.8938427E0,7.902671E-2,2.799482E1,5.3415785E0,2.9813934E1,1.4444612E1,4.541236E0,3.5943417E1,-2.9320985E-1,8.3795395E0,2.6737885E0,1.486589E0,8.470183E-1,1.452648E0,-3.95816E-1,-3.2088372E-1,-1.8762861E-1,-3.8944277E-1,9.4649345E-3,2.5200087E-1,-2.1723984E-1,-3.9853115E-2],"categories":[],"categories_nodes":[],"categories_segments":[],"categories_sizes":[],"default_left":[true,true,false,false,true,true,true,false,true,true,true,true,true,false,true,true,false,true,true,true,true,true,true,true,true,true,true,true,false,true,true,true,true,true,true,true,true,true,true,true,true,true,true,false,true,false,true,true,true,true,false,true,true,false,true,true,true,false,true,false,true,true,true,false,false,false,false,false,false,false,false,false,false,false,false,false,false,false,false,false,false,false,false,false,false,false,false,false,false,false,false,false,false,false,false,false,false,false,false,false,false,false,false,false,false,false,false,false,false,false,false,false,false,false,false,false,false,false,false,false,false],"id":6,"left_children":[1,3,5,7,9,11,13,15,17,19,21,23,25,27,29,31,33,35,37,39,41,43,45,47,49,51,53,55,57,59,61,63,65,67,69,71,73,75,77,79,81,83,85,-1,87,-1,89,91,93,95,97,99,101,103,105,107,109,111,113,-1,115,117,119,-1,-1,-1,-1,-1,-1,-1,-1,-1,-1,-1,-1,-1,-1,-1,-1,-1,-1,-1,-1,-1,-1,-1,-1,-1,-1,-1,-1,-1,-1,-1,-1,-1,-1,-1,-1,-1,-1,-1,-1,-1,-1,-1,-1,-1,-1,-1,-1,-1,-1,-1,-1,-1,-1,-1,-1,-1,-1],"loss_changes":[1.7019235E6,6.8360455E6,2.743843E5,7.571539E4,1.516875E6,1.5736562E5,1.2874746E3,1.3492666E4,5.1612E4,1.012859E6,7.788725E5,3.349372E4,1.1014525E5,1.7647441E3,2.2820896E1,4.371954E3,6.1257164E1,7.7740938E3,5.935125E4,8.73035E4,1.086974E6,7.24876E5,7.211117E3,1.8579348E4,4.7126344E4,5.62617E3,1.4351019E5,1.1152471E3,1.00911426E3,6.988983E-1,4.0369E0,1.4976865E4,9.1430084E1,2.5641708E0,3.935491E1,4.616587E2,2.039136E4,8.229181E4,3.6856738E3,1.3681311E4,1.6743275E5,9.78331E5,2.0200962E5,0E0,1.860905E5,0E0,2.2591797E2,4.4034773E4,2.3997023E2,2.0951156E4,2.2925928E3,1.0270581E3,9.986869E3,1.1962556E5,1.3516314E4,1.5303877E3,1.8313623E2,4.1946533E2,2.3807526E-1,0E0,1.3714886E0,1.4709134E0,1.1046066E0,0E0,0E0,0E0,0E0,0E0,0E0,0E0,0E0,0E0,0E0,0E0,0E0,0E0,0E0,0E0,0E0,0E0,0E0,0E0,0E0,0E0,0E0,0E0,0E0,0E0,0E0,0E0,0E0,0E0,0E0,0E0,0E0,0E0,0E0,0E0,0E0,0E0,0E0,0E0,0E0,0E0,0E0,0E0,0E0,0E0,0E0,0E0,0E0,0E0,0E0,0E0,0E0,0E0,0E0,0E0,0E0,0E0,0E0],"parents":[2147483647,0,0,1,1,2,2,3,3,4,4,5,5,6,6,7,7,8,8,9,9,10,10,11,11,12,12,13,13,14,14,15,15,16,16,17,17,18,18,19,19,20,20,21,21,22,22,23,23,24,24,25,25,26,26,27,27,28,28,29,29,30,30,31,31,32,32,33,33,34,34,35,35,36,36,37,37,38,38,39,39,40,40,41,41,42,42,44,44,46,46,47,47,48,48,49,49,50,50,51,51,52,52,53,53,54,54,55,55,56,56,57,57,58,58,60,60,61,61,62,62],"right_children":[2,4,6,8,10,12,14,16,18,20,22,24,26,28,30,32,34,36,38,40,42,44,46,48,50,52,54,56,58,60,62,64,66,68,70,72,74,76,78,80,82,84,86,-1,88,-1,90,92,94,96,98,100,102,104,106,108,110,112,114,-1,116,118,120,-1,-1,-1,-1,-1,-1,-1,-1,-1,-1,-1,-1,-1,-1,-1,-1,-1,-1,-1,-1,-1,-1,-1,-1,-1,-1,-1,-1,-1,-1,-1,-1,-1,-1,-1,-1,-1,-1,-1,-1,-1,-1,-1,-1,-1,-1,-1,-1,-1,-1,-1,-1,-1,-1,-1,-1,-1,-1],"split_conditions":[-6.955979E-1,-7.053243E-1,3.935621E-1,-8.724234E-1,1.4811546E-1,-2.1924576E-1,1.0451014E0,-9.7386855E-1,2.2553693E-1,2.7075094E-1,5.908741E-1,-2.8714738E0,-3.0380508E-1,7.9033744E-1,2.602573E-1,1.3651459E-1,-9.029156E-1,-2.6951623E-1,5.179143E-1,1.2756507E-1,4.6745497E-1,2.9496473E-1,6.595428E-1,-2.8769755E0,5.1435715E-1,-5.115142E-1,6.1012447E-1,-1.3854425E-2,3.0759888E0,-1.9604401E-1,1.2796211E0,3.2106657E-2,1.1520783E-2,1.853445E0,2.06449E-1,2.067481E-1,1.2873018E-1,-8.656664E-1,5.7814384E-1,-4.783321E-1,1.3209596E-1,-3.5072243E-1,5.5526173E-1,1.2092E0,5.579665E-1,8.5350525E-1,7.184457E-1,-2.877316E0,-2.8718965E0,-3.1978673E-1,-5.1618254E-1,-2.867498E0,-6.456736E-2,-5.1618254E-1,3.988007E0,1.072319E0,8.4373593E-1,1.0188556E0,3.5693133E-1,-4.425801E-3,1.2189047E0,1.3855429E0,8.7510407E-1,8.971927E-2,4.8022455E-1,-5.1254936E-4,3.0976256E-2,-3.560955E-3,-2.3605605E-3,3.7225306E-2,4.661386E-3,1.4384526E-2,4.453617E-2,2.6145715E-2,2.0044494E-1,6.264722E-1,1.4279331E-1,6.4484954E-2,1.2913583E-2,2.629391E-2,2.2537751E-1,2.4935355E0,4.097239E-1,1.0648042E0,2.2135155E0,7.132756E-1,1.9248635E-1,2.9917705E0,5.3630176E0,4.7387594E-1,2.8446156E-1,-7.289972E-3,4.9660343E-1,-1.0913778E-3,1.656148E-2,7.7370375E-2,1.3726698E-1,3.3956613E-2,1.0345486E-2,2.8938426E-2,7.90267E-4,2.799482E-1,5.3415783E-2,2.9813933E-1,1.4444612E-1,4.5412358E-2,3.5943416E-1,-2.9320985E-3,8.379539E-2,2.6737886E-2,1.4865889E-2,8.470183E-3,1.452648E-2,-3.95816E-3,-3.2088372E-3,-1.8762861E-3,-3.8944276E-3,9.4649346E-5,2.5200087E-3,-2.1723984E-3,-3.9853115E-4],"split_indices":[2,2,2,2,1,1,0,2,0,0,0,0,0,2,1,1,2,1,0,0,0,0,0,0,0,0,0,0,2,1,0,1,0,1,0,0,0,2,0,1,0,1,0,0,0,0,0,0,0,1,2,0,1,2,1,1,0,2,1,0,0,1,1,0,0,0,0,0,0,0,0,0,0,0,0,0,0,0,0,0,0,0,0,0,0,0,0,0,0,0,0,0,0,0,0,0,0,0,0,0,0,0,0,0,0,0,0,0,0,0,0,0,0,0,0,0,0,0,0,0,0],"split_type":[0,0,0,0,0,0,0,0,0,0,0,0,0,0,0,0,0,0,0,0,0,0,0,0,0,0,0,0,0,0,0,0,0,0,0,0,0,0,0,0,0,0,0,0,0,0,0,0,0,0,0,0,0,0,0,0,0,0,0,0,0,0,0,0,0,0,0,0,0,0,0,0,0,0,0,0,0,0,0,0,0,0,0,0,0,0,0,0,0,0,0,0,0,0,0,0,0,0,0,0,0,0,0,0,0,0,0,0,0,0,0,0,0,0,0,0,0,0,0,0,0],"sum_hessian":[2.6432E4,5.888E3,2.0544E4,4.643E3,1.245E3,1.2731E4,7.813E3,1.329E3,3.314E3,1.147E3,9.8E1,9.214E3,3.517E3,7.134E3,6.79E2,1.77E2,1.152E3,9.62E2,2.352E3,3.04E2,8.43E2,7.3E1,2.5E1,1.084E3,8.13E3,7.35E2,2.782E3,1.553E3,5.581E3,4.37E2,2.42E2,1.11E2,6.6E1,1.089E3,6.3E1,6.38E2,3.24E2,1.786E3,5.66E2,1.38E2,1.66E2,5.07E2,3.36E2,2.6E1,4.7E1,6E0,1.9E1,7.7E1,1.007E3,6.432E3,1.698E3,5.81E2,1.54E2,2.048E3,7.34E2,2.91E2,1.262E3,5.046E3,5.35E2,1.94E2,2.43E2,1E2,1.42E2,1.01E2,1E1,1.1E1,5.5E1,8.53E2,2.36E2,3E0,6E1,5.83E2,5.5E1,2.3E2,9.4E1,3.5E1,1.751E3,2.42E2,3.24E2,7.3E1,6.5E1,3E0,1.63E2,4.16E2,9.1E1,2.23E2,1.13E2,4.2E1,5E0,1.1E1,8E0,5.2E1,2.5E1,9.24E2,8.3E1,5.781E3,6.51E2,9.96E2,7.02E2,3.86E2,1.95E2,2.2E1,1.32E2,9.32E2,1.116E3,7.21E2,1.3E1,2.7E2,2.1E1,1.11E3,1.52E2,3.286E3,1.76E3,4.55E2,8E1,4.4E1,1.99E2,4.6E1,5.4E1,6.3E1,7.9E1],"tree_param":{"num_deleted":"0","num_feature":"3","num_nodes":"121","size_leaf_vector":"0"}},{"base_weights":[9.919876E0,2.4759876E1,5.6656694E0,7.2818108E0,8.988297E1,8.499875E0,1.0469375E0,9.6778244E-1,9.812844E0,7.963529E1,2.0780673E2,6.348203E0,1.4133516E1,1.1709106E0,-2.5540823E-1,8.992549E0,-2.7191937E-1,3.6988173E0,1.2310929E1,3.0518423E1,9.729052E1,2.5896426E2,5.4211956E1,1.1781511E0,7.037314E0,3.3494334E0,1.6980427E1,2.104254E0,9.108629E-1,-3.902256E-1,-1.1353048E-2,1.276357E1,2.554536E0,-3.2702407E-1,6.708315E-1,1.6879863E0,7.641039E0,1.510953E1,3.4689357E0,1.1981997E1,4.57642E1,1.2622498E2,5.338548E1,1.1975559E2,3.3187405E2,7.211943E1,3.37113E1,1.5903797E1,3.749781E-2,8.261888E0,2.396515E0,1.9314125E0,8.652265E0,2.1235706E1,5.0946465E0,3.5589713E-1,2.5068002E0,1.0479221E0,-3.813918E-1,-4.38177E-1,-3.5030448E-1,1.24736294E-1,-1.3060561E-1,8.883088E0,4.758589E1,2.1454647E0,6.3558526E0,-4.0025306E-1,-2.9400164E-1,3.6946115E0,4.6155363E-1,1.4240928E0,4.409876E0,2.5885391E0,1.9846159E1,6.2038147E1,1.413662E1,6.384276E0,1.2784845E0,2.6034522E0,2.2315788E1,2.474834E2,4.056517E1,1.05418175E2,2.1916211E2,7.061747E1,1.9057837E1,1.05098366E2,1.6322772E2,2.9625488E2,5.318326E2,-7.218448E-1,4.9182842E1,-1.0804761E-1,1.6397837E0,7.659681E0,1.3589642E1,3.4907908E0,1.1855114E0,4.0817407E-1,3.0772E0,3.4072937E1,6.0850697E0,2.9516115E1,1.4300294E1,4.4958863E0,3.5609657E1,-2.9028857E-1,8.299553E0,2.6470747E0,1.4718202E0,8.385507E-1,1.4381298E0,-3.918665E-1,-3.177145E-1,-2.0836815E-1,-3.9147505E-1,-2.4705326E-2,2.2255626E-1,-2.2323593E-1,-5.5219777E-2],"categories":[],"categories_nodes":[],"categories_segments":[],"categories_sizes":[],"default_left":[true,true,false,false,true,true,true,false,true,true,true,true,true,false,true,true,false,true,true,true,true,true,true,true,true,true,true,true,false,true,true,true,true,true,true,true,true,true,true,true,true,true,true,true,true,false,false,true,true,true,true,true,true,false,true,true,true,false,true,false,true,true,true,false,false,false,false,false,false,false,false,false,false,false,false,false,false,false,false,false,false,false,false,false,false,false,false,false,false,false,false,false,false,false,false,false,false,false,false,false,false,false,false,false,false,false,false,false,false,false,false,false,false,false,false,false,false,false,false,false,false],"id":7,"left_children":[1,3,5,7,9,11,13,15,17,19,21,23,25,27,29,31,33,35,37,39,41,43,45,47,49,51,53,55,57,59,61,63,65,67,69,71,73,75,77,79,81,83,85,87,89,-1,-1,91,93,95,97,99,101,103,105,107,109,111,113,-1,115,117,119,-1,-1,-1,-1,-1,-1,-1,-1,-1,-1,-1,-1,-1,-1,-1,-1,-1,-1,-1,-1,-1,-1,-1,-1,-1,-1,-1,-1,-1,-1,-1,-1,-1,-1,-1,-1,-1,-1,-1,-1,-1,-1,-1,-1,-1,-1,-1,-1,-1,-1,-1,-1,-1,-1,-1,-1,-1,-1],"loss_changes":[1.6686395E6,6.702357E6,2.6893406E5,7.420636E4,1.489174E6,1.5424438E5,1.261915E3,1.3233708E4,5.0585625E4,9.925415E5,7.63857E5,3.2822344E4,1.07950375E5,1.7298467E3,2.2369522E1,4.2888574E3,6.0117744E1,7.6209404E3,5.8173062E4,8.564534E4,1.065453E6,7.113325E5,7.11375E3,1.8223992E4,4.6188656E4,5.51766E3,1.406485E5,1.0928042E3,9.890571E2,6.849594E-1,3.9599385E0,1.4711553E4,9.054941E1,2.5181656E0,3.87946E1,4.5270654E2,1.99902E4,8.071272E4,3.612649E3,1.3413219E4,1.651011E5,9.592285E5,1.98001E5,4.890625E1,1.84315E5,0E0,0E0,4.3191773E4,2.352482E2,2.0535594E4,2.24733E3,1.0145127E3,9.907936E3,1.17248E5,1.3269213E4,1.5012677E3,1.7946777E2,4.111255E2,2.3301697E-1,0E0,1.3442669E0,1.6719931E0,8.954649E-1,0E0,0E0,0E0,0E0,0E0,0E0,0E0,0E0,0E0,0E0,0E0,0E0,0E0,0E0,0E0,0E0,0E0,0E0,0E0,0E0,0E0,0E0,0E0,0E0,0E0,0E0,0E0,0E0,0E0,0E0,0E0,0E0,0E0,0E0,0E0,0E0,0E0,0E0,0E0,0E0,0E0,0E0,0E0,0E0,0E0,0E0,0E0,0E0,0E0,0E0,0E0,0E0,0E0,0E0,0E0,0E0,0E0,0E0],"parents":[2147483647,0,0,1,1,2,2,3,3,4,4,5,5,6,6,7,7,8,8,9,9,10,10,11,11,12,12,13,13,14,14,15,15,16,16,17,17,18,18,19,19,20,20,21,21,22,22,23,23,24,24,25,25,26,26,27,27,28,28,29,29,30,30,31,31,32,32,33,33,34,34,35,35,36,36,37,37,38,38,39,39,40,40,41,41,42,42,43,43,44,44,47,47,48,48,49,49,50,50,51,51,52,52,53,53,54,54,55,55,56,56,57,57,58,58,60,60,61,61,62,62],"right_children":[2,4,6,8,10,12,14,16,18,20,22,24,26,28,30,32,34,36,38,40,42,44,46,48,50,52,54,56,58,60,62,64,66,68,70,72,74,76,78,80,82,84,86,88,90,-1,-1,92,94,96,98,100,102,104,106,108,110,112,114,-1,116,118,120,-1,-1,-1,-1,-1,-1,-1,-1,-1,-1,-1,-1,-1,-1,-1,-1,-1,-1,-1,-1,-1,-1,-1,-1,-1,-1,-1,-1,-1,-1,-1,-1,-1,-1,-1,-1,-1,-1,-1,-1,-1,-1,-1,-1,-1,-1,-1,-1,-1,-1,-1,-1,-1,-1,-1,-1,-1,-1],"split_conditions":[-6.955979E-1,-7.053243E-1,3.935621E-1,-8.724234E-1,1.4811546E-1,-2.1924576E-1,1.0451014E0,-9.7386855E-1,2.2553693E-1,2.7075094E-1,5.908741E-1,-2.8714738E0,-3.0380508E-1,7.9033744E-1,2.602573E-1,1.3651459E-1,-9.029156E-1,-2.6951623E-1,5.179143E-1,1.2756507E-1,4.6745497E-1,2.9496473E-1,6.8702376E-1,-2.8769755E0,5.1435715E-1,-5.115142E-1,6.1012447E-1,-1.3854425E-2,3.0759888E0,-1.9604401E-1,1.3068035E0,3.2106657E-2,1.2115295E0,-2.9658496E-1,2.06449E-1,2.067481E-1,1.2873018E-1,-8.656664E-1,5.7814384E-1,-4.783321E-1,1.3209596E-1,-3.5072243E-1,5.5526173E-1,1.9972494E-1,5.579665E-1,7.2119427E-1,3.37113E-1,-2.877316E0,-2.8718965E0,-3.1978673E-1,6.2960434E-1,-2.8727024E0,-4.8724538E-1,-5.1618254E-1,3.988007E0,1.072319E0,8.4373593E-1,1.0188556E0,3.5693133E-1,-4.38177E-3,1.2880594E0,1.064585E0,8.7510407E-1,8.883088E-2,4.758589E-1,2.1454645E-2,6.355853E-2,-4.0025306E-3,-2.9400163E-3,3.6946114E-2,4.6155364E-3,1.4240927E-2,4.4098757E-2,2.588539E-2,1.9846159E-1,6.203815E-1,1.413662E-1,6.384276E-2,1.2784844E-2,2.6034521E-2,2.2315788E-1,2.474834E0,4.056517E-1,1.0541817E0,2.191621E0,7.061747E-1,1.9057836E-1,1.0509837E0,1.6322771E0,2.9625487E0,5.3183255E0,-7.218448E-3,4.918284E-1,-1.0804761E-3,1.6397838E-2,7.6596804E-2,1.3589641E-1,3.4907907E-2,1.1855113E-2,4.0817405E-3,3.0771999E-2,3.4072936E-1,6.0850695E-2,2.9516116E-1,1.4300294E-1,4.4958863E-2,3.5609657E-1,-2.9028857E-3,8.299553E-2,2.6470747E-2,1.4718202E-2,8.385506E-3,1.4381298E-2,-3.918665E-3,-3.177145E-3,-2.0836815E-3,-3.9147506E-3,-2.4705325E-4,2.2255627E-3,-2.2323593E-3,-5.5219774E-4],"split_indices":[2,2,2,2,1,1,0,2,0,0,0,0,0,2,1,1,2,1,0,0,0,0,0,0,0,0,0,0,2,1,0,1,1,1,0,0,0,2,0,1,0,1,0,0,0,0,0,0,0,1,0,0,0,2,1,1,0,2,1,0,0,1,1,0,0,0,0,0,0,0,0,0,0,0,0,0,0,0,0,0,0,0,0,0,0,0,0,0,0,0,0,0,0,0,0,0,0,0,0,0,0,0,0,0,0,0,0,0,0,0,0,0,0,0,0,0,0,0,0,0,0],"split_type":[0,0,0,0,0,0,0,0,0,0,0,0,0,0,0,0,0,0,0,0,0,0,0,0,0,0,0,0,0,0,0,0,0,0,0,0,0,0,0,0,0,0,0,0,0,0,0,0,0,0,0,0,0,0,0,0,0,0,0,0,0,0,0,0,0,0,0,0,0,0,0,0,0,0,0,0,0,0,0,0,0,0,0,0,0,0,0,0,0,0,0,0,0,0,0,0,0,0,0,0,0,0,0,0,0,0,0,0,0,0,0,0,0,0,0,0,0,0,0,0,0],"sum_hessian":[2.6432E4,5.888E3,2.0544E4,4.643E3,1.245E3,1.2731E4,7.813E3,1.329E3,3.314E3,1.147E3,9.8E1,9.214E3,3.517E3,7.134E3,6.79E2,1.77E2,1.152E3,9.62E2,2.352E3,3.04E2,8.43E2,7.3E1,2.5E1,1.084E3,8.13E3,7.35E2,2.782E3,1.553E3,5.581E3,4.37E2,2.42E2,1.11E2,6.6E1,1.089E3,6.3E1,6.38E2,3.24E2,1.786E3,5.66E2,1.38E2,1.66E2,5.07E2,3.36E2,2.6E1,4.7E1,1.2E1,1.3E1,7.7E1,1.007E3,6.432E3,1.698E3,5.81E2,1.54E2,2.048E3,7.34E2,2.91E2,1.262E3,5.046E3,5.35E2,1.94E2,2.43E2,1.13E2,1.29E2,1.01E2,1E1,6.1E1,5E0,3.35E2,7.54E2,3E0,6E1,5.83E2,5.5E1,2.3E2,9.4E1,3.5E1,1.751E3,2.42E2,3.24E2,7.3E1,6.5E1,3E0,1.63E2,4.16E2,9.1E1,2.23E2,1.13E2,2.2E1,4E0,4.2E1,5E0,5.2E1,2.5E1,9.24E2,8.3E1,5.781E3,6.51E2,8.91E2,8.07E2,2.5E2,3.31E2,1.3E1,1.41E2,9.32E2,1.116E3,7.21E2,1.3E1,2.7E2,2.1E1,1.11E3,1.52E2,3.286E3,1.76E3,4.55E2,8E1,5.6E1,1.87E2,4.5E1,6.8E1,5.7E1,7.2E1],"tree_param":{"num_deleted":"0","num_feature":"3","num_nodes":"121","size_leaf_vector":"0"}},{"base_weights":[9.821557E0,2.4515862E1,5.6091175E0,7.209381E0,8.8999626E1,8.415035E0,1.0364842E0,9.586192E-1,9.715054E0,7.8845276E1,2.0585011E2,7.906134E0,3.1963501E1,1.1592207E0,-2.528706E-1,8.906274E0,-2.6917014E-1,3.6621225E0,1.2188176E1,3.02235E1,9.6322525E1,2.565228E2,5.371054E1,5.7253323E0,1.2014567E1,2.7149263E1,7.59139E1,2.0832894E0,9.017571E-1,-3.8634703E-1,-1.1242831E-2,1.2640976E1,2.5302596E0,-3.237602E-1,6.647726E-1,1.6711977E0,7.565319E0,1.4958861E1,3.4343815E0,1.186397E1,4.5323807E1,1.2120791E2,4.629844E1,1.1865742E2,3.2872784E2,8.4000786E1,4.042343E1,6.5125403E0,2.0435054E0,1.6537743E1,6.391904E0,2.3154848E1,4.42989E1,9.270372E1,2.654884E1,3.5261247E-1,2.4817648E0,1.0374475E0,-3.775911E-1,-4.3381768E-1,-3.4682605E-1,1.3899346E-1,-1.17275156E-1,8.795128E0,4.715329E1,-7.396055E-2,3.0431237E0,-3.4918532E-1,-2.3077784E-1,3.666902E0,4.5701376E-1,-6.046228E-1,1.9794872E0,2.5627658E0,1.9649786E1,6.1435E1,1.3995334E1,6.320696E0,1.265739E0,2.5777695E0,2.2096012E1,2.4562727E2,4.016199E1,7.9955185E1,1.6442719E2,6.452723E1,1.8868929E1,1.0409308E2,1.619219E2,2.933612E2,5.2740063E2,4.645215E1,2.7893644E1,2.850351E0,7.8153424E0,5.210517E0,1.5709972E0,2.6559284E0,2.2295649E1,-1.3245445E0,8.515823E0,2.5742872E1,4.0089684E0,4.884714E1,6.5941544E0,1.468314E1,1.12530334E2,3.42038E1,1.0342926E1,-2.8739637E-1,8.22033E0,2.6206279E0,1.4571983E0,8.301678E-1,1.4237567E0,-3.8795644E-1,-3.145766E-1,-1.8375662E-1,-3.8178253E-1,9.245836E-3,2.4734154E-1,-2.1309002E-1,-3.915733E-2],"categories":[],"categories_nodes":[],"categories_segments":[],"categories_sizes":[],"default_left":[true,true,false,false,true,false,true,false,true,true,true,true,false,false,true,true,false,true,true,true,true,true,true,true,false,true,true,true,false,true,true,true,true,true,true,true,true,true,true,true,true,true,true,true,true,false,true,true,true,true,false,true,true,true,true,true,true,false,true,false,true,true,true,false,false,false,false,false,false,false,false,false,false,false,false,false,false,false,false,false,false,false,false,false,false,false,false,false,false,false,false,false,false,false,false,false,false,false,false,false,false,false,false,false,false,false,false,false,false,false,false,false,false,false,false,false,false,false,false,false,false,false,false],"id":8,"left_children":[1,3,5,7,9,11,13,15,17,19,21,23,25,27,29,31,33,35,37,39,41,43,45,47,49,51,53,55,57,59,61,63,65,67,69,71,73,75,77,79,81,83,85,87,89,-1,91,93,95,97,99,101,103,105,107,109,111,113,115,-1,117,119,121,-1,-1,-1,-1,-1,-1,-1,-1,-1,-1,-1,-1,-1,-1,-1,-1,-1,-1,-1,-1,-1,-1,-1,-1,-1,-1,-1,-1,-1,-1,-1,-1,-1,-1,-1,-1,-1,-1,-1,-1,-1,-1,-1,-1,-1,-1,-1,-1,-1,-1,-1,-1,-1,-1,-1,-1,-1,-1,-1,-1],"loss_changes":[1.6360352E6,6.5714065E6,2.635925E5,7.272672E4,1.4622E6,1.5232588E5,1.2368652E3,1.2980598E4,4.957975E4,9.72631E5,7.494445E5,1.11604625E5,5.4856062E4,1.6956387E3,2.1926758E1,4.2066426E3,5.899977E1,7.470802E3,5.701828E4,8.401881E4,1.0450575E6,6.976325E5,7.068625E3,2.3590969E4,1.0978719E5,1.56889375E4,1.9088422E4,1.0708135E3,9.693999E2,6.7126465E-1,3.887267E0,1.4450941E4,8.971094E1,2.4962692E0,3.8242188E1,4.495265E2,1.959693E4,7.9163875E4,3.5410703E3,1.3150377E4,1.6280131E5,9.90633E5,1.3978438E5,1.5825E2,1.825475E5,0E0,2.1505078E2,3.1987094E4,2.1407007E3,1.9129369E5,3.1609508E4,9.806797E3,7.394961E3,2.77385E4,6.3867725E2,1.4727018E3,1.7587402E2,4.0295166E2,2.2805023E-1,0E0,1.3207264E0,1.4175617E0,1.0619893E0,0E0,0E0,0E0,0E0,0E0,0E0,0E0,0E0,0E0,0E0,0E0,0E0,0E0,0E0,0E0,0E0,0E0,0E0,0E0,0E0,0E0,0E0,0E0,0E0,0E0,0E0,0E0,0E0,0E0,0E0,0E0,0E0,0E0,0E0,0E0,0E0,0E0,0E0,0E0,0E0,0E0,0E0,0E0,0E0,0E0,0E0,0E0,0E0,0E0,0E0,0E0,0E0,0E0,0E0,0E0,0E0,0E0,0E0,0E0,0E0],"parents":[2147483647,0,0,1,1,2,2,3,3,4,4,5,5,6,6,7,7,8,8,9,9,10,10,11,11,12,12,13,13,14,14,15,15,16,16,17,17,18,18,19,19,20,20,21,21,22,22,23,23,24,24,25,25,26,26,27,27,28,28,29,29,30,30,31,31,32,32,33,33,34,34,35,35,36,36,37,37,38,38,39,39,40,40,41,41,42,42,43,43,44,44,46,46,47,47,48,48,49,49,50,50,51,51,52,52,53,53,54,54,55,55,56,56,57,57,58,58,60,60,61,61,62,62],"right_children":[2,4,6,8,10,12,14,16,18,20,22,24,26,28,30,32,34,36,38,40,42,44,46,48,50,52,54,56,58,60,62,64,66,68,70,72,74,76,78,80,82,84,86,88,90,-1,92,94,96,98,100,102,104,106,108,110,112,114,116,-1,118,120,122,-1,-1,-1,-1,-1,-1,-1,-1,-1,-1,-1,-1,-1,-1,-1,-1,-1,-1,-1,-1,-1,-1,-1,-1,-1,-1,-1,-1,-1,-1,-1,-1,-1,-1,-1,-1,-1,-1,-1,-1,-1,-1,-1,-1,-1,-1,-1,-1,-1,-1,-1,-1,-1,-1,-1,-1,-1,-1,-1,-1],"split_conditions":[-6.955979E-1,-7.053243E-1,3.935621E-1,-8.724234E-1,1.4811546E-1,1.4057897E-1,1.0451014E0,-9.7386855E-1,2.2553693E-1,2.7075094E-1,5.908741E-1,-3.1978673E-1,2.0904285E-1,7.9033744E-1,2.602573E-1,1.3651459E-1,-9.029156E-1,-2.6951623E-1,5.179143E-1,1.2756507E-1,4.8343775E-1,2.9496473E-1,6.595428E-1,5.1435715E-1,-5.1618254E-1,2.5765665E0,5.485053E-1,-1.3854425E-2,3.0759888E0,-1.9604401E-1,1.2796211E0,3.2106657E-2,1.1520783E-2,1.853445E0,2.06449E-1,-7.683542E-1,1.2873018E-1,-8.656664E-1,5.7814384E-1,-4.783321E-1,1.3209596E-1,-6.2140965E-1,5.5526173E-1,1.9972494E-1,5.579665E-1,8.4000784E-1,7.184457E-1,-9.950317E-1,-7.8382194E-1,-3.0373225E-1,-4.5425057E-1,7.118981E-1,1.115944E0,2.819833E-1,6.9255567E-1,1.072319E0,8.4373593E-1,1.0188556E0,3.5693133E-1,-4.338177E-3,1.2189047E0,1.3855429E0,8.7510407E-1,8.795128E-2,4.7153288E-1,-7.3960546E-4,3.0431237E-2,-3.4918531E-3,-2.3077785E-3,3.666902E-2,4.5701372E-3,-6.0462276E-3,1.9794872E-2,2.5627658E-2,1.9649786E-1,6.1435E-1,1.3995333E-1,6.3206956E-2,1.2657389E-2,2.5777694E-2,2.2096011E-1,2.4562726E0,4.016199E-1,7.9955184E-1,1.6442719E0,6.4527225E-1,1.8868929E-1,1.0409307E0,1.6192191E0,2.933612E0,5.2740064E0,4.6452147E-1,2.7893645E-1,2.8503511E-2,7.8153424E-2,5.210517E-2,1.5709972E-2,2.6559284E-2,2.2295648E-1,-1.3245445E-2,8.515823E-2,2.574287E-1,4.008968E-2,4.884714E-1,6.594154E-2,1.468314E-1,1.1253033E0,3.42038E-1,1.0342926E-1,-2.8739637E-3,8.22033E-2,2.6206277E-2,1.4571982E-2,8.301677E-3,1.4237567E-2,-3.8795643E-3,-3.145766E-3,-1.8375661E-3,-3.8178253E-3,9.245836E-5,2.4734153E-3,-2.1309E-3,-3.915733E-4],"split_indices":[2,2,2,2,1,2,0,2,0,0,0,1,2,2,1,1,2,1,0,0,0,0,0,0,2,1,0,0,2,1,0,1,0,1,0,1,0,2,0,1,0,1,0,0,0,0,0,0,1,0,2,0,0,0,0,1,0,2,1,0,0,1,1,0,0,0,0,0,0,0,0,0,0,0,0,0,0,0,0,0,0,0,0,0,0,0,0,0,0,0,0,0,0,0,0,0,0,0,0,0,0,0,0,0,0,0,0,0,0,0,0,0,0,0,0,0,0,0,0,0,0,0,0],"split_type":[0,0,0,0,0,0,0,0,0,0,0,0,0,0,0,0,0,0,0,0,0,0,0,0,0,0,0,0,0,0,0,0,0,0,0,0,0,0,0,0,0,0,0,0,0,0,0,0,0,0,0,0,0,0,0,0,0,0,0,0,0,0,0,0,0,0,0,0,0,0,0,0,0,0,0,0,0,0,0,0,0,0,0,0,0,0,0,0,0,0,0,0,0,0,0,0,0,0,0,0,0,0,0,0,0,0,0,0,0,0,0,0,0,0,0,0,0,0,0,0,0,0,0],"sum_hessian":[2.6432E4,5.888E3,2.0544E4,4.643E3,1.245E3,1.2731E4,7.813E3,1.329E3,3.314E3,1.147E3,9.8E1,1.2463E4,2.68E2,7.134E3,6.79E2,1.77E2,1.152E3,9.62E2,2.352E3,3.04E2,8.43E2,7.3E1,2.5E1,8.143E3,4.32E3,2.43E2,2.5E1,1.553E3,5.581E3,4.37E2,2.42E2,1.11E2,6.6E1,1.089E3,6.3E1,6.38E2,3.24E2,1.786E3,5.66E2,1.38E2,1.66E2,5.62E2,2.81E2,2.6E1,4.7E1,6E0,1.9E1,6.708E3,1.435E3,2.393E3,1.927E3,1.99E2,4.4E1,1.8E1,7E0,2.91E2,1.262E3,5.046E3,5.35E2,1.94E2,2.43E2,1E2,1.42E2,1.01E2,1E1,1.1E1,5.5E1,8.53E2,2.36E2,3E0,6E1,7.6E1,5.62E2,2.3E2,9.4E1,3.5E1,1.751E3,2.42E2,3.24E2,7.3E1,6.5E1,3E0,1.63E2,2.89E2,2.73E2,1.68E2,1.13E2,2.2E1,4E0,4.2E1,5E0,1.1E1,8E0,1.761E3,4.947E3,1.85E2,1.25E3,7.02E2,1.691E3,4.16E2,1.511E3,1.75E2,2.4E1,3.9E1,5E0,4E0,1.4E1,4E0,3E0,2.7E2,2.1E1,1.11E3,1.52E2,3.286E3,1.76E3,4.55E2,8E1,4.4E1,1.99E2,4.6E1,5.4E1,6.3E1,7.9E1],"tree_param":{"num_deleted":"0","num_feature":"3","num_nodes":"123","size_leaf_vector":"0"}},{"base_weights":[9.724239E0,2.4274187E1,5.5531816E0,7.1376514E0,8.812475E1,8.331126E0,1.0261354E0,9.4950265E-1,9.618225E0,7.8062386E1,2.0391737E2,7.827112E0,3.1653418E1,1.1476475E0,-2.5035653E-1,8.82052E0,-2.664477E-1,2.8635309E0,1.1790544E1,2.9931444E1,9.536318E1,2.5410442E2,5.3234337E1,5.6681004E0,1.1894496E1,2.6881262E1,7.5220825E1,2.0625339E0,8.9274234E-1,-3.8250637E-1,-1.1130223E-2,1.2519562E1,2.5054002E0,-3.205279E-1,6.5876925E-1,1.3413881E0,6.4603467E0,1.4234183E1,3.4001715E0,1.1747105E1,4.488768E1,1.2376209E2,5.2271168E1,1.1756937E2,3.2561154E2,8.328077E1,4.005637E1,6.447431E0,2.0231175E0,1.6372469E1,6.328022E0,2.2924788E1,4.3868233E1,9.1843636E1,2.6339035E1,3.49358E-1,2.4569793E0,1.0270774E0,-3.738283E-1,-4.2950174E-1,-3.4338096E-1,1.2243356E-1,-1.2816978E-1,8.708039E0,4.6724625E1,2.0994432E0,6.2827225E0,-3.9278096E-1,-2.879484E-1,3.6394002E0,4.5251855E-1,-8.736191E-2,1.7274731E0,2.6895583E0,2.0735552E1,5.862362E1,1.3341253E1,6.257749E0,1.2531205E0,2.5523403E0,2.18784E1,2.4378506E2,3.976282E1,1.03254906E2,2.1536792E2,6.9132355E1,1.8681894E1,1.03097404E2,1.6062653E2,2.9049582E2,5.230056E2,4.602634E1,2.76457E1,2.8218637E0,7.737205E0,5.158692E0,1.5552999E0,2.629407E0,2.2072824E1,-1.3113309E0,8.430722E0,2.5486906E1,3.9704826E0,4.837088E1,6.539203E0,1.4565675E1,1.1148005E2,3.3930172E1,1.0265354E1,-2.8453302E-1,8.141863E0,2.5944452E0,1.4427215E0,8.2186866E-1,1.4095272E0,-3.8408536E-1,-3.1146967E-1,-2.040988E-1,-3.837836E-1,-5.1592685E-2,2.0341481E-1,-2.189479E-1,-5.4288924E-2],"categories":[],"categories_nodes":[],"categories_segments":[],"categories_sizes":[],"default_left":[true,true,false,false,true,false,true,false,true,true,true,true,false,false,true,true,false,true,true,true,true,true,true,true,false,true,true,true,false,true,true,true,true,true,true,true,true,true,true,true,true,true,true,true,true,false,true,true,true,true,false,true,true,true,true,true,true,false,true,false,true,true,true,false,false,false,false,false,false,false,false,false,false,false,false,false,false,false,false,false,false,false,false,false,false,false,false,false,false,false,false,false,false,false,false,false,false,false,false,false,false,false,false,false,false,false,false,false,false,false,false,false,false,false,false,false,false,false,false,false,false,false,false],"id":9,"left_children":[1,3,5,7,9,11,13,15,17,19,21,23,25,27,29,31,33,35,37,39,41,43,45,47,49,51,53,55,57,59,61,63,65,67,69,71,73,75,77,79,81,83,85,87,89,-1,91,93,95,97,99,101,103,105,107,109,111,113,115,-1,117,119,121,-1,-1,-1,-1,-1,-1,-1,-1,-1,-1,-1,-1,-1,-1,-1,-1,-1,-1,-1,-1,-1,-1,-1,-1,-1,-1,-1,-1,-1,-1,-1,-1,-1,-1,-1,-1,-1,-1,-1,-1,-1,-1,-1,-1,-1,-1,-1,-1,-1,-1,-1,-1,-1,-1,-1,-1,-1,-1,-1,-1],"loss_changes":[1.6040488E6,6.442982E6,2.58363E5,7.1276984E4,1.435856E6,1.4941381E5,1.2123096E3,1.2731471E4,4.8608375E4,9.5309E5,7.351445E5,1.0938556E5,5.3905875E4,1.6621064E3,2.1493076E1,4.1266924E3,5.7902588E1,4.4150273E3,5.137325E4,8.242331E4,1.0263895E6,6.84197E5,6.958797E3,2.3121188E4,1.07603875E5,1.5393203E4,1.8707297E4,1.0492642E3,9.501323E2,6.5787506E-1,3.8143277E0,1.41949375E4,8.954962E1,2.4527283E0,3.7697567E1,3.1402222E2,1.2863136E4,7.619234E4,3.4709106E3,1.2892686E4,1.6053312E5,9.3208E5,1.8957012E5,2.6409375E2,1.807875E5,0E0,2.0939453E2,3.1350531E4,2.098412E3,1.8748869E5,3.0981031E4,9.6114375E3,7.2472734E3,2.7208E4,6.2783496E2,1.4446794E3,1.7235156E2,3.9494043E2,2.2320557E-1,0E0,1.2947483E0,1.6170812E0,8.59993E-1,0E0,0E0,0E0,0E0,0E0,0E0,0E0,0E0,0E0,0E0,0E0,0E0,0E0,0E0,0E0,0E0,0E0,0E0,0E0,0E0,0E0,0E0,0E0,0E0,0E0,0E0,0E0,0E0,0E0,0E0,0E0,0E0,0E0,0E0,0E0,0E0,0E0,0E0,0E0,0E0,0E0,0E0,0E0,0E0,0E0,0E0,0E0,0E0,0E0,0E0,0E0,0E0,0E0,0E0,0E0,0E0,0E0,0E0,0E0,0E0],"parents":[2147483647,0,0,1,1,2,2,3,3,4,4,5,5,6,6,7,7,8,8,9,9,10,10,11,11,12,12,13,13,14,14,15,15,16,16,17,17,18,18,19,19,20,20,21,21,22,22,23,23,24,24,25,25,26,26,27,27,28,28,29,29,30,30,31,31,32,32,33,33,34,34,35,35,36,36,37,37,38,38,39,39,40,40,41,41,42,42,43,43,44,44,46,46,47,47,48,48,49,49,50,50,51,51,52,52,53,53,54,54,55,55,56,56,57,57,58,58,60,60,61,61,62,62],"right_children":[2,4,6,8,10,12,14,16,18,20,22,24,26,28,30,32,34,36,38,40,42,44,46,48,50,52,54,56,58,60,62,64,66,68,70,72,74,76,78,80,82,84,86,88,90,-1,92,94,96,98,100,102,104,106,108,110,112,114,116,-1,118,120,122,-1,-1,-1,-1,-1,-1,-1,-1,-1,-1,-1,-1,-1,-1,-1,-1,-1,-1,-1,-1,-1,-1,-1,-1,-1,-1,-1,-1,-1,-1,-1,-1,-1,-1,-1,-1,-1,-1,-1,-1,-1,-1,-1,-1,-1,-1,-1,-1,-1,-1,-1,-1,-1,-1,-1,-1,-1,-1,-1,-1],"split_conditions":[-6.955979E-1,-7.053243E-1,3.935621E-1,-8.724234E-1,1.4811546E-1,1.4057897E-1,1.0451014E0,-9.7386855E-1,1.8404992E-1,2.7075094E-1,5.908741E-1,-3.1978673E-1,2.0904285E-1,7.9033744E-1,2.602573E-1,1.3651459E-1,-9.029156E-1,-2.2697969E-1,5.179143E-1,1.2756507E-1,4.6745497E-1,2.9496473E-1,6.595428E-1,5.1435715E-1,-5.1618254E-1,2.5765665E0,5.485053E-1,-1.3854425E-2,3.0759888E0,-1.9604401E-1,1.3068035E0,3.2106657E-2,1.2115295E0,-2.9658496E-1,2.06449E-1,-3.7746474E-2,1.2873018E-1,-8.656664E-1,5.7814384E-1,-4.783321E-1,1.3209596E-1,-3.5072243E-1,5.5526173E-1,1.9972494E-1,5.579665E-1,8.3280766E-1,7.184457E-1,-9.950317E-1,-7.8382194E-1,-3.0373225E-1,-4.5425057E-1,7.118981E-1,1.115944E0,2.819833E-1,6.9255567E-1,1.072319E0,8.4373593E-1,1.0188556E0,3.5693133E-1,-4.295017E-3,1.2880594E0,5.7734805E-1,8.7510407E-1,8.708039E-2,4.6724623E-1,2.0994432E-2,6.282722E-2,-3.9278097E-3,-2.8794839E-3,3.6394E-2,4.5251856E-3,-8.7361905E-4,1.7274732E-2,2.6895583E-2,2.0735551E-1,5.862362E-1,1.3341253E-1,6.2577486E-2,1.2531205E-2,2.5523402E-2,2.18784E-1,2.4378505E0,3.9762822E-1,1.032549E0,2.1536791E0,6.913235E-1,1.8681894E-1,1.030974E0,1.6062652E0,2.904958E0,5.230056E0,4.602634E-1,2.76457E-1,2.8218636E-2,7.737205E-2,5.158692E-2,1.55529985E-2,2.629407E-2,2.2072823E-1,-1.3113309E-2,8.430722E-2,2.5486904E-1,3.9704826E-2,4.837088E-1,6.539203E-2,1.4565675E-1,1.1148005E0,3.393017E-1,1.0265354E-1,-2.8453302E-3,8.1418626E-2,2.594445E-2,1.4427215E-2,8.218686E-3,1.4095272E-2,-3.8408535E-3,-3.1146966E-3,-2.040988E-3,-3.837836E-3,-5.1592686E-4,2.034148E-3,-2.189479E-3,-5.4288923E-4],"split_indices":[2,2,2,2,1,2,0,2,0,0,0,1,2,2,1,1,2,1,0,0,0,0,0,0,2,1,0,0,2,1,0,1,1,1,0,0,0,2,0,1,0,1,0,0,0,0,0,0,1,0,2,0,0,0,0,1,0,2,1,0,0,1,1,0,0,0,0,0,0,0,0,0,0,0,0,0,0,0,0,0,0,0,0,0,0,0,0,0,0,0,0,0,0,0,0,0,0,0,0,0,0,0,0,0,0,0,0,0,0,0,0,0,0,0,0,0,0,0,0,0,0,0,0],"split_type":[0,0,0,0,0,0,0,0,0,0,0,0,0,0,0,0,0,0,0,0,0,0,0,0,0,0,0,0,0,0,0,0,0,0,0,0,0,0,0,0,0,0,0,0,0,0,0,0,0,0,0,0,0,0,0,0,0,0,0,0,0,0,0,0,0,0,0,0,0,0,0,0,0,0,0,0,0,0,0,0,0,0,0,0,0,0,0,0,0,0,0,0,0,0,0,0,0,0,0,0,0,0,0,0,0,0,0,0,0,0,0,0,0,0,0,0,0,0,0,0,0,0,0],"sum_hessian":[2.6432E4,5.888E3,2.0544E4,4.643E3,1.245E3,1.2731E4,7.813E3,1.329E3,3.314E3,1.147E3,9.8E1,1.2463E4,2.68E2,7.134E3,6.79E2,1.77E2,1.152E3,8.07E2,2.507E3,3.04E2,8.43E2,7.3E1,2.5E1,8.143E3,4.32E3,2.43E2,2.5E1,1.553E3,5.581E3,4.37E2,2.42E2,1.11E2,6.6E1,1.089E3,6.3E1,5.68E2,2.39E2,1.941E3,5.66E2,1.38E2,1.66E2,5.07E2,3.36E2,2.6E1,4.7E1,6E0,1.9E1,6.708E3,1.435E3,2.393E3,1.927E3,1.99E2,4.4E1,1.8E1,7E0,2.91E2,1.262E3,5.046E3,5.35E2,1.94E2,2.43E2,1.13E2,1.29E2,1.01E2,1E1,6.1E1,5E0,3.35E2,7.54E2,3E0,6E1,1.21E2,4.47E2,1.9E2,4.9E1,3.7E1,1.904E3,2.42E2,3.24E2,7.3E1,6.5E1,3E0,1.63E2,4.16E2,9.1E1,2.23E2,1.13E2,2.2E1,4E0,4.2E1,5E0,1.1E1,8E0,1.761E3,4.947E3,1.85E2,1.25E3,7.02E2,1.691E3,4.16E2,1.511E3,1.75E2,2.4E1,3.9E1,5E0,4E0,1.4E1,4E0,3E0,2.7E2,2.1E1,1.11E3,1.52E2,3.286E3,1.76E3,4.55E2,8E1,5.6E1,1.87E2,3.6E1,7.7E1,5.7E1,7.2E1],"tree_param":{"num_deleted":"0","num_feature":"3","num_nodes":"123","size_leaf_vector":"0"}},{"base_weights":[9.627918E0,2.4035046E1,5.4978037E0,7.066645E0,8.725914E1,8.248054E0,1.0158899E0,9.405131E-1,9.522358E0,7.728798E1,2.0200287E2,7.748881E0,3.1346348E1,1.1361899E0,-2.4786972E-1,8.735901E0,-2.6375365E-1,3.5795662E0,1.1950486E1,2.9642227E1,9.441437E1,2.5170895E2,5.276236E1,5.6114407E0,1.1775625E1,2.6615908E1,7.453409E1,2.041985E0,8.838177E-1,-3.7870455E-1,-1.1023911E-2,1.2399315E1,2.4815974E0,-3.173289E-1,6.5282094E-1,1.6187953E0,7.42373E0,1.4667488E1,3.366302E0,1.1631392E1,4.4455784E1,1.2253074E2,5.1751064E1,1.1649135E2,3.225249E2,8.256693E1,3.9692642E1,6.3829722E0,2.002933E0,1.6208847E1,6.2647786E0,2.2697012E1,4.3441753E1,9.637486E1,3.5989872E1,3.461335E-1,2.4324417E0,1.016811E0,-3.7010297E-1,-4.2522874E-1,-3.3997124E-1,1.3637239E-1,-1.15051895E-1,8.621813E0,4.629986E1,2.0787873E0,6.2303667E0,-3.4241024E-1,-2.2561248E-1,5.0644433E-1,4.937273E0,-6.420059E-1,1.9251237E0,2.513393E0,1.9285458E1,6.026776E1,1.3722124E1,6.195429E0,1.2406279E0,2.5271616E0,2.1662931E1,2.4195668E2,3.9367615E1,8.063456E1,1.6647516E2,6.844412E1,1.8496716E1,1.0211125E2,1.5934152E2,2.8765842E2,5.186472E2,4.560443E1,2.7399961E1,2.793661E0,7.6598487E0,5.1073823E0,1.5397593E0,2.6031501E0,2.1852226E1,-1.298249E0,8.346471E0,2.5233486E1,3.932366E0,4.7899265E1,6.48471E0,1.4449149E1,1.2247933E2,4.7337032E1,1.290587E1,-2.816982E-1,8.064145E0,2.5685241E0,1.4283886E0,8.1365246E-1,1.39544E0,-3.8025293E-1,-3.0839342E-1,-1.7996427E-1,-3.7427297E-1,8.792203E-3,2.4291596E-1,-2.0899403E-1,-3.8460046E-2],"categories":[],"categories_nodes":[],"categories_segments":[],"categories_sizes":[],"default_left":[true,true,false,false,true,false,true,false,true,true,true,true,false,false,true,true,false,true,true,true,true,true,true,true,false,true,true,true,false,true,true,true,true,true,true,true,true,true,true,true,true,true,true,true,true,false,true,true,true,true,false,true,true,true,true,true,true,false,true,false,true,true,true,false,false,false,false,false,false,false,false,false,false,false,false,false,false,false,false,false,false,false,false,false,false,false,false,false,false,false,false,false,false,false,false,false,false,false,false,false,false,false,false,false,false,false,false,false,false,false,false,false,false,false,false,false,false,false,false,false,false,false,false],"id":10,"left_children":[1,3,5,7,9,11,13,15,17,19,21,23,25,27,29,31,33,35,37,39,41,43,45,47,49,51,53,55,57,59,61,63,65,67,69,71,73,75,77,79,81,83,85,87,89,-1,91,93,95,97,99,101,103,105,107,109,111,113,115,-1,117,119,121,-1,-1,-1,-1,-1,-1,-1,-1,-1,-1,-1,-1,-1,-1,-1,-1,-1,-1,-1,-1,-1,-1,-1,-1,-1,-1,-1,-1,-1,-1,-1,-1,-1,-1,-1,-1,-1,-1,-1,-1,-1,-1,-1,-1,-1,-1,-1,-1,-1,-1,-1,-1,-1,-1,-1,-1,-1,-1,-1,-1],"loss_changes":[1.572713E6,6.317172E6,2.5323719E5,6.985547E4,1.40997E6,1.465575E5,1.1882461E3,1.248798E4,4.779225E4,9.33969E5,7.211175E5,1.07210625E5,5.2972125E4,1.6292383E3,2.1067448E1,4.047585E3,5.6826042E1,7.246617E3,5.483022E4,8.085831E4,1.006069E6,6.710205E5,6.8506797E3,2.2660766E4,1.0546394E5,1.5103047E4,1.8419203E4,1.0281489E3,9.3124854E2,6.447258E-1,3.7416916E0,1.3943461E4,8.822113E1,2.430153E0,3.763673E1,4.4377393E2,1.8881182E4,7.62085E4,3.4021396E3,1.2640047E4,1.5829597E5,9.218565E5,1.8580838E5,3.6653125E2,1.790355E5,0E0,2.0387305E2,3.0726625E4,2.05696E3,1.837595E5,3.0365062E4,9.419977E3,7.1025312E3,3.2448328E4,2.2703906E3,1.4171906E3,1.688999E2,3.8708838E2,2.1846008E-1,0E0,1.271843E0,1.3707421E0,1.0208759E0,0E0,0E0,0E0,0E0,0E0,0E0,0E0,0E0,0E0,0E0,0E0,0E0,0E0,0E0,0E0,0E0,0E0,0E0,0E0,0E0,0E0,0E0,0E0,0E0,0E0,0E0,0E0,0E0,0E0,0E0,0E0,0E0,0E0,0E0,0E0,0E0,0E0,0E0,0E0,0E0,0E0,0E0,0E0,0E0,0E0,0E0,0E0,0E0,0E0,0E0,0E0,0E0,0E0,0E0,0E0,0E0,0E0,0E0,0E0,0E0],"parents":[2147483647,0,0,1,1,2,2,3,3,4,4,5,5,6,6,7,7,8,8,9,9,10,10,11,11,12,12,13,13,14,14,15,15,16,16,17,17,18,18,19,19,20,20,21,21,22,22,23,23,24,24,25,25,26,26,27,27,28,28,29,29,30,30,31,31,32,32,33,33,34,34,35,35,36,36,37,37,38,38,39,39,40,40,41,41,42,42,43,43,44,44,46,46,47,47,48,48,49,49,50,50,51,51,52,52,53,53,54,54,55,55,56,56,57,57,58,58,60,60,61,61,62,62],"right_children":[2,4,6,8,10,12,14,16,18,20,22,24,26,28,30,32,34,36,38,40,42,44,46,48,50,52,54,56,58,60,62,64,66,68,70,72,74,76,78,80,82,84,86,88,90,-1,92,94,96,98,100,102,104,106,108,110,112,114,116,-1,118,120,122,-1,-1,-1,-1,-1,-1,-1,-1,-1,-1,-1,-1,-1,-1,-1,-1,-1,-1,-1,-1,-1,-1,-1,-1,-1,-1,-1,-1,-1,-1,-1,-1,-1,-1,-1,-1,-1,-1,-1,-1,-1,-1,-1,-1,-1,-1,-1,-1,-1,-1,-1,-1,-1,-1,-1,-1,-1,-1,-1,-1],"split_conditions":[-6.955979E-1,-7.053243E-1,3.935621E-1,-8.724234E-1,1.4811546E-1,1.4057897E-1,1.0451014E0,-9.7386855E-1,2.2553693E-1,2.7075094E-1,5.908741E-1,-3.1978673E-1,2.0904285E-1,7.9033744E-1,2.602573E-1,1.3651459E-1,-9.029156E-1,-2.6951623E-1,5.179143E-1,1.2756507E-1,4.6745497E-1,2.9496473E-1,6.595428E-1,5.1435715E-1,-5.1618254E-1,2.5765665E0,4.988616E-1,-1.3854425E-2,3.0759888E0,-1.9604401E-1,1.2796211E0,3.2106657E-2,1.2115295E0,1.853445E0,6.614655E-1,-7.683542E-1,1.2873018E-1,-8.656664E-1,5.7814384E-1,-4.783321E-1,1.3209596E-1,-6.2140965E-1,5.5526173E-1,1.9972494E-1,5.579665E-1,8.256693E-1,7.184457E-1,-9.950317E-1,-7.8382194E-1,-3.0373225E-1,-4.5425057E-1,7.118981E-1,1.115944E0,2.819833E-1,6.3487256E-1,1.072319E0,8.4373593E-1,1.0188556E0,3.5693133E-1,-4.2522876E-3,1.2189047E0,1.3855429E0,8.7510407E-1,8.6218126E-2,4.6299857E-1,2.0787872E-2,6.2303666E-2,-3.4241022E-3,-2.2561247E-3,5.064443E-3,4.937273E-2,-6.420059E-3,1.9251237E-2,2.5133928E-2,1.9285457E-1,6.026776E-1,1.3722123E-1,6.1954286E-2,1.2406278E-2,2.5271615E-2,2.1662931E-1,2.4195666E0,3.9367613E-1,8.063456E-1,1.6647515E0,6.844412E-1,1.8496715E-1,1.0211124E0,1.5934151E0,2.876584E0,5.186472E0,4.560443E-1,2.739996E-1,2.7936611E-2,7.659849E-2,5.1073823E-2,1.5397592E-2,2.6031502E-2,2.1852225E-1,-1.298249E-2,8.3464704E-2,2.5233486E-1,3.9323658E-2,4.7899264E-1,6.4847104E-2,1.444915E-1,1.2247933E0,4.733703E-1,1.290587E-1,-2.8169819E-3,8.064145E-2,2.5685241E-2,1.4283885E-2,8.136525E-3,1.3954399E-2,-3.8025293E-3,-3.083934E-3,-1.7996427E-3,-3.7427295E-3,8.7922024E-5,2.4291596E-3,-2.0899402E-3,-3.8460045E-4],"split_indices":[2,2,2,2,1,2,0,2,0,0,0,1,2,2,1,1,2,1,0,0,0,0,0,0,2,1,0,0,2,1,0,1,1,1,0,1,0,2,0,1,0,1,0,0,0,0,0,0,1,0,2,0,0,0,0,1,0,2,1,0,0,1,1,0,0,0,0,0,0,0,0,0,0,0,0,0,0,0,0,0,0,0,0,0,0,0,0,0,0,0,0,0,0,0,0,0,0,0,0,0,0,0,0,0,0,0,0,0,0,0,0,0,0,0,0,0,0,0,0,0,0,0,0],"split_type":[0,0,0,0,0,0,0,0,0,0,0,0,0,0,0,0,0,0,0,0,0,0,0,0,0,0,0,0,0,0,0,0,0,0,0,0,0,0,0,0,0,0,0,0,0,0,0,0,0,0,0,0,0,0,0,0,0,0,0,0,0,0,0,0,0,0,0,0,0,0,0,0,0,0,0,0,0,0,0,0,0,0,0,0,0,0,0,0,0,0,0,0,0,0,0,0,0,0,0,0,0,0,0,0,0,0,0,0,0,0,0,0,0,0,0,0,0,0,0,0,0,0,0],"sum_hessian":[2.6432E4,5.888E3,2.0544E4,4.643E3,1.245E3,1.2731E4,7.813E3,1.329E3,3.314E3,1.147E3,9.8E1,1.2463E4,2.68E2,7.134E3,6.79E2,1.77E2,1.152E3,9.62E2,2.352E3,3.04E2,8.43E2,7.3E1,2.5E1,8.143E3,4.32E3,2.43E2,2.5E1,1.553E3,5.581E3,4.37E2,2.42E2,1.11E2,6.6E1,1.089E3,6.3E1,6.38E2,3.24E2,1.786E3,5.66E2,1.38E2,1.66E2,5.07E2,3.36E2,2.6E1,4.7E1,6E0,1.9E1,6.708E3,1.435E3,2.393E3,1.927E3,1.99E2,4.4E1,1.5E1,1E1,2.91E2,1.262E3,5.046E3,5.35E2,1.94E2,2.43E2,1E2,1.42E2,1.01E2,1E1,6.1E1,5E0,8.53E2,2.36E2,6.2E1,1E0,7.6E1,5.62E2,2.3E2,9.4E1,3.5E1,1.751E3,2.42E2,3.24E2,7.3E1,6.5E1,3E0,1.63E2,2.61E2,2.46E2,2.23E2,1.13E2,2.2E1,4E0,4.2E1,5E0,1.1E1,8E0,1.761E3,4.947E3,1.85E2,1.25E3,7.02E2,1.691E3,4.16E2,1.511E3,1.75E2,2.4E1,3.9E1,5E0,4E0,1.1E1,6E0,4E0,2.7E2,2.1E1,1.11E3,1.52E2,3.286E3,1.76E3,4.55E2,8E1,4.4E1,1.99E2,4.6E1,5.4E1,6.3E1,7.9E1],"tree_param":{"num_deleted":"0","num_feature":"3","num_nodes":"123","size_leaf_vector":"0"}},{"base_weights":[9.532538E0,2.3798153E1,5.442992E0,6.99635E0,8.64015E1,8.165832E0,1.0057467E0,9.3162E-1,9.427449E0,7.6520676E1,2.001064E2,6.0848317E0,1.3614452E1,1.1248466E0,-2.4540536E-1,8.652094E0,-2.6107383E-1,3.5440104E0,1.1831327E1,2.9355822E1,9.347418E1,2.4933615E2,5.229457E1,6.940331E0,2.1756153E0,3.164365E0,1.637322E1,2.021641E0,8.7498224E-1,-3.7493986E-1,-1.09135E-2,1.2280226E1,2.4580214E0,-3.1416082E-1,6.471433E-1,1.6026274E0,7.3501635E0,1.4521227E1,3.3327703E0,1.1516818E1,4.402807E1,1.17653496E2,4.4869827E1,1.1542327E2,3.1946765E2,8.185922E1,3.9332214E1,2.5738297E0,8.445082E0,3.244083E0,1.0502381E0,1.7883426E0,8.310692E0,2.0557753E1,4.6854935E0,3.4293866E-1,2.4081488E0,1.0066473E0,-3.664148E-1,-4.2099828E-1,-3.3659425E-1,1.2017003E-1,-1.2577972E-1,8.53644E0,4.587895E1,-1.1852872E-1,2.9662461E0,-3.8545096E-1,-2.8201824E-1,5.014603E-1,4.9125867E0,-6.3566923E-1,1.9059067E0,2.4883678E0,1.9094633E1,5.9681824E1,1.3584981E1,6.13373E0,1.2282598E0,2.6288013E0,2.159504E1,2.4014201E2,3.8976337E1,7.737055E1,1.5985933E2,6.2518147E1,1.831337E1,1.0113454E2,1.5806679E2,2.8484872E2,5.143252E2,4.518639E1,2.7156406E1,1.5669249E1,2.0238745E0,2.0175844E1,7.263234E0,4.1773777E0,1.0038928E0,7.2659698E0,6.042782E-1,2.7638528E0,-1.4691685E-1,2.755391E1,4.920431E0,2.8559772E1,1.3855475E1,4.108431E0,3.411076E1,-2.7889162E-1,7.9871693E0,2.542862E0,1.414198E0,8.055184E-1,1.3814934E0,-3.764587E-1,-3.0534756E-1,-1.9991648E-1,-3.762434E-1,-5.0823066E-2,1.997415E-1,-2.1474224E-1,-5.3374153E-2],"categories":[],"categories_nodes":[],"categories_segments":[],"categories_sizes":[],"default_left":[true,true,false,false,true,true,true,false,true,true,true,true,true,false,true,true,false,true,true,true,true,true,true,true,true,true,true,true,false,true,true,true,true,true,true,true,true,true,true,true,true,true,true,true,true,false,true,true,true,false,true,true,true,false,true,true,true,false,true,false,true,true,true,false,false,false,false,false,false,false,false,false,false,false,false,false,false,false,false,false,false,false,false,false,false,false,false,false,false,false,false,false,false,false,false,false,false,false,false,false,false,false,false,false,false,false,false,false,false,false,false,false,false,false,false,false,false,false,false,false,false,false,false],"id":11,"left_children":[1,3,5,7,9,11,13,15,17,19,21,23,25,27,29,31,33,35,37,39,41,43,45,47,49,51,53,55,57,59,61,63,65,67,69,71,73,75,77,79,81,83,85,87,89,-1,91,93,95,97,99,101,103,105,107,109,111,113,115,-1,117,119,121,-1,-1,-1,-1,-1,-1,-1,-1,-1,-1,-1,-1,-1,-1,-1,-1,-1,-1,-1,-1,-1,-1,-1,-1,-1,-1,-1,-1,-1,-1,-1,-1,-1,-1,-1,-1,-1,-1,-1,-1,-1,-1,-1,-1,-1,-1,-1,-1,-1,-1,-1,-1,-1,-1,-1,-1,-1,-1,-1,-1],"loss_changes":[1.5419688E6,6.193735E6,2.4821456E5,6.846216E4,1.384567E6,1.4428E5,1.1646562E3,1.2249113E4,4.6842344E4,9.152075E5,7.0735825E5,3.0802938E4,1.01369875E5,1.5970205E3,2.0650764E1,3.9699922E3,5.5794647E1,7.1040195E3,5.3741812E4,7.9323125E4,9.866065E5,6.58098E5,6.744203E3,4.9651188E4,1.9878164E3,5.1970933E3,1.3601369E5,1.0074585E3,9.1273975E2,6.3186264E-1,3.6739829E0,1.3696439E4,8.8085815E1,2.388977E0,3.7306305E1,4.3498328E2,1.8509732E4,7.4746125E4,3.3347314E3,1.2394211E4,1.560895E5,9.44831E5,1.3102194E5,4.656875E2,1.772915E5,0E0,1.9848438E2,1.3932759E4,7.779672E4,1.7708594E3,2.235359E3,1.0991436E3,9.976552E3,1.0949575E5,1.2340323E4,1.3902245E3,1.6551709E2,3.7939258E2,2.1381378E-1,0E0,1.247057E0,1.561255E0,8.259182E-1,0E0,0E0,0E0,0E0,0E0,0E0,0E0,0E0,0E0,0E0,0E0,0E0,0E0,0E0,0E0,0E0,0E0,0E0,0E0,0E0,0E0,0E0,0E0,0E0,0E0,0E0,0E0,0E0,0E0,0E0,0E0,0E0,0E0,0E0,0E0,0E0,0E0,0E0,0E0,0E0,0E0,0E0,0E0,0E0,0E0,0E0,0E0,0E0,0E0,0E0,0E0,0E0,0E0,0E0,0E0,0E0,0E0,0E0,0E0,0E0],"parents":[2147483647,0,0,1,1,2,2,3,3,4,4,5,5,6,6,7,7,8,8,9,9,10,10,11,11,12,12,13,13,14,14,15,15,16,16,17,17,18,18,19,19,20,20,21,21,22,22,23,23,24,24,25,25,26,26,27,27,28,28,29,29,30,30,31,31,32,32,33,33,34,34,35,35,36,36,37,37,38,38,39,39,40,40,41,41,42,42,43,43,44,44,46,46,47,47,48,48,49,49,50,50,51,51,52,52,53,53,54,54,55,55,56,56,57,57,58,58,60,60,61,61,62,62],"right_children":[2,4,6,8,10,12,14,16,18,20,22,24,26,28,30,32,34,36,38,40,42,44,46,48,50,52,54,56,58,60,62,64,66,68,70,72,74,76,78,80,82,84,86,88,90,-1,92,94,96,98,100,102,104,106,108,110,112,114,116,-1,118,120,122,-1,-1,-1,-1,-1,-1,-1,-1,-1,-1,-1,-1,-1,-1,-1,-1,-1,-1,-1,-1,-1,-1,-1,-1,-1,-1,-1,-1,-1,-1,-1,-1,-1,-1,-1,-1,-1,-1,-1,-1,-1,-1,-1,-1,-1,-1,-1,-1,-1,-1,-1,-1,-1,-1,-1,-1,-1,-1,-1,-1],"split_conditions":[-6.955979E-1,-7.053243E-1,3.935621E-1,-8.724234E-1,1.4811546E-1,-2.1924576E-1,1.0451014E0,-9.7386855E-1,2.2553693E-1,2.7075094E-1,5.908741E-1,5.1957905E-1,-3.0380508E-1,7.9033744E-1,2.602573E-1,1.3651459E-1,-9.029156E-1,-2.6951623E-1,5.179143E-1,1.2756507E-1,4.8343775E-1,2.9496473E-1,6.595428E-1,-9.950317E-1,6.2960434E-1,-5.115142E-1,6.1012447E-1,-1.3854425E-2,3.0759888E0,-1.9604401E-1,1.3068035E0,3.2106657E-2,1.1520783E-2,-2.9658496E-1,6.614655E-1,-7.683542E-1,1.2873018E-1,-8.656664E-1,5.7814384E-1,-4.2806163E-1,1.3209596E-1,-6.2140965E-1,5.5526173E-1,1.9972494E-1,5.579665E-1,8.185922E-1,7.184457E-1,-2.8769755E0,-2.347056E-1,-5.1618254E-1,-7.8382194E-1,-2.867498E0,-6.456736E-2,-5.1618254E-1,3.988007E0,1.072319E0,8.4373593E-1,1.0188556E0,3.5693133E-1,-4.2099827E-3,1.2880594E0,5.7734805E-1,8.7510407E-1,8.5364394E-2,4.5878947E-1,-1.1852873E-3,2.966246E-2,-3.8545094E-3,-2.8201824E-3,5.014603E-3,4.9125865E-2,-6.356692E-3,1.9059066E-2,2.4883678E-2,1.9094633E-1,5.968182E-1,1.358498E-1,6.13373E-2,1.2282598E-2,2.6288012E-2,2.1595038E-1,2.40142E0,3.8976336E-1,7.737055E-1,1.5985932E0,6.2518144E-1,1.8313369E-1,1.0113454E0,1.5806679E0,2.8484871E0,5.143252E0,4.5186388E-1,2.7156407E-1,1.5669248E-1,2.0238744E-2,2.0175844E-1,7.263234E-2,4.1773777E-2,1.0038927E-2,7.265969E-2,6.0427818E-3,2.7638528E-2,-1.4691685E-3,2.755391E-1,4.920431E-2,2.855977E-1,1.3855475E-1,4.108431E-2,3.4110758E-1,-2.7889162E-3,7.987169E-2,2.542862E-2,1.4141981E-2,8.055184E-3,1.38149345E-2,-3.764587E-3,-3.0534756E-3,-1.9991647E-3,-3.762434E-3,-5.0823065E-4,1.997415E-3,-2.1474224E-3,-5.337415E-4],"split_indices":[2,2,2,2,1,1,0,2,0,0,0,0,0,2,1,1,2,1,0,0,0,0,0,0,0,0,0,0,2,1,0,1,0,1,0,1,0,2,0,1,0,1,0,0,0,0,0,0,0,2,1,0,1,2,1,1,0,2,1,0,0,1,1,0,0,0,0,0,0,0,0,0,0,0,0,0,0,0,0,0,0,0,0,0,0,0,0,0,0,0,0,0,0,0,0,0,0,0,0,0,0,0,0,0,0,0,0,0,0,0,0,0,0,0,0,0,0,0,0,0,0,0,0],"split_type":[0,0,0,0,0,0,0,0,0,0,0,0,0,0,0,0,0,0,0,0,0,0,0,0,0,0,0,0,0,0,0,0,0,0,0,0,0,0,0,0,0,0,0,0,0,0,0,0,0,0,0,0,0,0,0,0,0,0,0,0,0,0,0,0,0,0,0,0,0,0,0,0,0,0,0,0,0,0,0,0,0,0,0,0,0,0,0,0,0,0,0,0,0,0,0,0,0,0,0,0,0,0,0,0,0,0,0,0,0,0,0,0,0,0,0,0,0,0,0,0,0,0,0],"sum_hessian":[2.6432E4,5.888E3,2.0544E4,4.643E3,1.245E3,1.2731E4,7.813E3,1.329E3,3.314E3,1.147E3,9.8E1,9.214E3,3.517E3,7.134E3,6.79E2,1.77E2,1.152E3,9.62E2,2.352E3,3.04E2,8.43E2,7.3E1,2.5E1,7.559E3,1.655E3,7.35E2,2.782E3,1.553E3,5.581E3,4.37E2,2.42E2,1.11E2,6.6E1,1.089E3,6.3E1,6.38E2,3.24E2,1.786E3,5.66E2,1.38E2,1.66E2,5.62E2,2.81E2,2.6E1,4.7E1,6E0,1.9E1,1.938E3,5.621E3,8.48E2,8.07E2,5.81E2,1.54E2,2.048E3,7.34E2,2.91E2,1.262E3,5.046E3,5.35E2,1.94E2,2.43E2,1.13E2,1.29E2,1.01E2,1E1,1.1E1,5.5E1,3.35E2,7.54E2,6.2E1,1E0,7.6E1,5.62E2,2.3E2,9.4E1,3.5E1,1.751E3,2.42E2,3.24E2,7.4E1,6.4E1,3E0,1.63E2,2.89E2,2.73E2,1.68E2,1.13E2,2.2E1,4E0,4.2E1,5E0,1.1E1,8E0,7.7E1,1.861E3,5.13E2,5.108E3,5.98E2,2.5E2,5.3E1,7.54E2,3.86E2,1.95E2,2.2E1,1.32E2,9.32E2,1.116E3,7.21E2,1.3E1,2.7E2,2.1E1,1.11E3,1.52E2,3.286E3,1.76E3,4.55E2,8E1,5.6E1,1.87E2,3.6E1,7.7E1,5.7E1,7.2E1],"tree_param":{"num_deleted":"0","num_feature":"3","num_nodes":"123","size_leaf_vector":"0"}},{"base_weights":[9.43804E0,2.3563566E1,5.388653E0,6.926743E0,8.55522E1,8.08431E0,9.957047E-1,9.2277E-1,9.3334875E0,7.576088E1,1.9822783E2,7.5906134E0,3.0929478E1,1.1136166E0,-2.4296772E-1,8.56879E0,-2.5842193E-1,3.5088077E0,1.1713357E1,2.9072208E1,9.2543205E1,2.4698581E2,5.1830936E1,5.494589E0,1.1539336E1,2.6240263E1,7.374635E1,2.0014997E0,8.662351E-1,-3.7121323E-1,-1.0809271E-2,1.2162282E1,2.4338663E0,-3.1102532E-1,6.415178E-1,1.586621E0,7.2773256E0,1.4376425E1,3.2995725E0,1.1403392E1,4.3604504E1,1.20138664E2,5.06707E1,1.14365036E2,3.1643945E2,8.115757E1,3.8975067E1,6.2504745E0,1.9592614E0,1.59059515E1,6.1113195E0,2.2373259E1,4.284384E1,9.53668E1,3.5594223E1,3.3977327E-1,2.3840985E0,9.965852E-1,-3.6276335E-1,-4.1680986E-1,-3.3325192E-1,1.1898139E-1,-1.2454255E-1,8.451912E0,4.546187E1,2.0341263E0,6.1588697E0,-3.357675E-1,-2.2055759E-1,3.6045456E0,4.3670422E-1,-6.2939507E-1,1.8868815E0,2.4635918E0,1.8905697E1,5.9101585E1,1.3449209E1,6.0726447E0,1.216015E0,2.4762988E0,2.1239779E1,2.3834094E2,3.8588955E1,1.0002288E2,2.1000977E2,6.700445E1,1.8131844E1,1.0016717E2,1.5680225E2,2.820665E2,5.1003915E2,4.4772182E1,2.6915016E1,1.2224959E0,7.126834E0,5.0120764E0,1.5037996E0,2.5378244E0,2.1450802E1,-1.3809336E0,8.1735935E0,2.487595E1,3.8593793E0,4.7254856E1,6.296426E0,1.4222712E1,1.212296E2,4.6812523E1,1.2769756E1,-2.76113E-1,7.9109282E0,2.5174563E0,1.4001485E0,7.974656E-1,1.3676864E0,-3.7270236E-1,-3.0233178E-1,-1.7624988E-1,-3.6691114E-1,-2.405328E-2,2.1261346E-1,-2.1263184E-1,-5.284773E-2],"categories":[],"categories_nodes":[],"categories_segments":[],"categories_sizes":[],"default_left":[true,true,false,false,true,false,true,false,true,true,true,true,false,false,true,true,false,true,true,true,true,true,true,true,false,true,true,true,false,true,true,true,true,true,true,true,true,true,true,true,true,true,true,true,true,false,true,true,true,true,false,true,true,true,true,true,true,false,true,false,true,true,true,false,false,false,false,false,false,false,false,false,false,false,false,false,false,false,false,false,false,false,false,false,false,false,false,false,false,false,false,false,false,false,false,false,false,false,false,false,false,false,false,false,false,false,false,false,false,false,false,false,false,false,false,false,false,false,false,false,false,false,false],"id":12,"left_children":[1,3,5,7,9,11,13,15,17,19,21,23,25,27,29,31,33,35,37,39,41,43,45,47,49,51,53,55,57,59,61,63,65,67,69,71,73,75,77,79,81,83,85,87,89,-1,91,93,95,97,99,101,103,105,107,109,111,113,115,-1,117,119,121,-1,-1,-1,-1,-1,-1,-1,-1,-1,-1,-1,-1,-1,-1,-1,-1,-1,-1,-1,-1,-1,-1,-1,-1,-1,-1,-1,-1,-1,-1,-1,-1,-1,-1,-1,-1,-1,-1,-1,-1,-1,-1,-1,-1,-1,-1,-1,-1,-1,-1,-1,-1,-1,-1,-1,-1,-1,-1,-1,-1],"loss_changes":[1.5118332E6,6.072698E6,2.4328344E5,6.709733E4,1.359623E6,1.4336412E5,1.1415386E3,1.2013999E4,4.5911344E4,8.96819E5,6.9386225E5,1.0309644E5,5.2074016E4,1.5654385E3,2.0241817E1,3.8945518E3,5.478244E1,6.9642295E3,5.2675E4,7.7817125E4,9.69147E5,6.45424E5,6.639383E3,2.1750984E4,1.02319375E5,1.4707734E4,1.8052016E4,9.871841E2,8.9459814E2,6.192322E-1,3.6018667E0,1.3453783E4,8.7237305E1,2.365776E0,3.7265457E1,4.263667E2,1.8145586E4,7.331181E4,3.2686597E3,1.2153041E4,1.5391331E5,8.973705E5,1.7789431E5,5.6153125E2,1.75556E5,0E0,1.9322461E2,2.9553266E4,1.9891357E3,1.77399E5,2.9800969E4,9.170898E3,6.9569688E3,3.1853594E4,2.2187842E3,1.3637717E3,1.6220215E2,3.718501E2,2.0925903E-1,0E0,1.2247658E0,1.5318743E0,8.097837E-1,0E0,0E0,0E0,0E0,0E0,0E0,0E0,0E0,0E0,0E0,0E0,0E0,0E0,0E0,0E0,0E0,0E0,0E0,0E0,0E0,0E0,0E0,0E0,0E0,0E0,0E0,0E0,0E0,0E0,0E0,0E0,0E0,0E0,0E0,0E0,0E0,0E0,0E0,0E0,0E0,0E0,0E0,0E0,0E0,0E0,0E0,0E0,0E0,0E0,0E0,0E0,0E0,0E0,0E0,0E0,0E0,0E0,0E0,0E0,0E0],"parents":[2147483647,0,0,1,1,2,2,3,3,4,4,5,5,6,6,7,7,8,8,9,9,10,10,11,11,12,12,13,13,14,14,15,15,16,16,17,17,18,18,19,19,20,20,21,21,22,22,23,23,24,24,25,25,26,26,27,27,28,28,29,29,30,30,31,31,32,32,33,33,34,34,35,35,36,36,37,37,38,38,39,39,40,40,41,41,42,42,43,43,44,44,46,46,47,47,48,48,49,49,50,50,51,51,52,52,53,53,54,54,55,55,56,56,57,57,58,58,60,60,61,61,62,62],"right_children":[2,4,6,8,10,12,14,16,18,20,22,24,26,28,30,32,34,36,38,40,42,44,46,48,50,52,54,56,58,60,62,64,66,68,70,72,74,76,78,80,82,84,86,88,90,-1,92,94,96,98,100,102,104,106,108,110,112,114,116,-1,118,120,122,-1,-1,-1,-1,-1,-1,-1,-1,-1,-1,-1,-1,-1,-1,-1,-1,-1,-1,-1,-1,-1,-1,-1,-1,-1,-1,-1,-1,-1,-1,-1,-1,-1,-1,-1,-1,-1,-1,-1,-1,-1,-1,-1,-1,-1,-1,-1,-1,-1,-1,-1,-1,-1,-1,-1,-1,-1,-1,-1,-1],"split_conditions":[-6.955979E-1,-7.053243E-1,3.935621E-1,-8.724234E-1,1.4811546E-1,1.4057897E-1,1.0451014E0,-9.7386855E-1,2.2553693E-1,2.7075094E-1,5.908741E-1,-3.1978673E-1,2.0904285E-1,7.9033744E-1,2.602573E-1,1.3651459E-1,-9.029156E-1,-2.6951623E-1,5.179143E-1,1.2756507E-1,4.6745497E-1,2.9496473E-1,6.595428E-1,5.1435715E-1,-5.1618254E-1,2.5765665E0,4.988616E-1,-1.3854425E-2,3.0759888E0,-1.9604401E-1,1.3068035E0,3.2106657E-2,1.2115295E0,1.853445E0,2.06449E-1,-7.683542E-1,1.2873018E-1,-8.656664E-1,5.7814384E-1,-4.783321E-1,1.3209596E-1,-3.5072243E-1,5.5526173E-1,1.9972494E-1,5.579665E-1,8.1157565E-1,7.184457E-1,-2.871366E0,-7.8382194E-1,-3.0373225E-1,-4.5425057E-1,7.118981E-1,1.115944E0,2.819833E-1,6.3487256E-1,1.072319E0,8.4373593E-1,1.0188556E0,3.5693133E-1,-4.1680983E-3,1.2189047E0,1.064585E0,8.7510407E-1,8.451912E-2,4.5461866E-1,2.0341262E-2,6.1588697E-2,-3.357675E-3,-2.2055758E-3,3.6045454E-2,4.367042E-3,-6.2939506E-3,1.8868815E-2,2.4635918E-2,1.8905696E-1,5.910158E-1,1.3449208E-1,6.0726445E-2,1.2160149E-2,2.4762988E-2,2.1239778E-1,2.3834093E0,3.8588953E-1,1.0002288E0,2.1000977E0,6.700445E-1,1.8131843E-1,1.0016717E0,1.5680224E0,2.820665E0,5.1003914E0,4.477218E-1,2.6915017E-1,1.2224959E-2,7.1268335E-2,5.0120763E-2,1.5037995E-2,2.5378244E-2,2.1450801E-1,-1.3809336E-2,8.173593E-2,2.487595E-1,3.859379E-2,4.7254854E-1,6.296425E-2,1.4222711E-1,1.212296E0,4.6812522E-1,1.2769756E-1,-2.76113E-3,7.910928E-2,2.5174562E-2,1.4001485E-2,7.974656E-3,1.3676863E-2,-3.7270235E-3,-3.0233178E-3,-1.7624988E-3,-3.6691113E-3,-2.4053278E-4,2.1261347E-3,-2.1263184E-3,-5.284773E-4],"split_indices":[2,2,2,2,1,2,0,2,0,0,0,1,2,2,1,1,2,1,0,0,0,0,0,0,2,1,0,0,2,1,0,1,1,1,0,1,0,2,0,1,0,1,0,0,0,0,0,0,1,0,2,0,0,0,0,1,0,2,1,0,0,1,1,0,0,0,0,0,0,0,0,0,0,0,0,0,0,0,0,0,0,0,0,0,0,0,0,0,0,0,0,0,0,0,0,0,0,0,0,0,0,0,0,0,0,0,0,0,0,0,0,0,0,0,0,0,0,0,0,0,0,0,0],"split_type":[0,0,0,0,0,0,0,0,0,0,0,0,0,0,0,0,0,0,0,0,0,0,0,0,0,0,0,0,0,0,0,0,0,0,0,0,0,0,0,0,0,0,0,0,0,0,0,0,0,0,0,0,0,0,0,0,0,0,0,0,0,0,0,0,0,0,0,0,0,0,0,0,0,0,0,0,0,0,0,0,0,0,0,0,0,0,0,0,0,0,0,0,0,0,0,0,0,0,0,0,0,0,0,0,0,0,0,0,0,0,0,0,0,0,0,0,0,0,0,0,0,0,0],"sum_hessian":[2.6432E4,5.888E3,2.0544E4,4.643E3,1.245E3,1.2731E4,7.813E3,1.329E3,3.314E3,1.147E3,9.8E1,1.2463E4,2.68E2,7.134E3,6.79E2,1.77E2,1.152E3,9.62E2,2.352E3,3.04E2,8.43E2,7.3E1,2.5E1,8.143E3,4.32E3,2.43E2,2.5E1,1.553E3,5.581E3,4.37E2,2.42E2,1.11E2,6.6E1,1.089E3,6.3E1,6.38E2,3.24E2,1.786E3,5.66E2,1.38E2,1.66E2,5.07E2,3.36E2,2.6E1,4.7E1,6E0,1.9E1,6.708E3,1.435E3,2.393E3,1.927E3,1.99E2,4.4E1,1.5E1,1E1,2.91E2,1.262E3,5.046E3,5.35E2,1.94E2,2.43E2,1.13E2,1.29E2,1.01E2,1E1,6.1E1,5E0,8.53E2,2.36E2,3E0,6E1,7.6E1,5.62E2,2.3E2,9.4E1,3.5E1,1.751E3,2.42E2,3.24E2,7.3E1,6.5E1,3E0,1.63E2,4.16E2,9.1E1,2.23E2,1.13E2,2.2E1,4E0,4.2E1,5E0,1.1E1,8E0,9.96E2,5.712E3,1.85E2,1.25E3,7.02E2,1.691E3,4.16E2,1.511E3,1.75E2,2.4E1,3.9E1,5E0,4E0,1.1E1,6E0,4E0,2.7E2,2.1E1,1.11E3,1.52E2,3.286E3,1.76E3,4.55E2,8E1,4.4E1,1.99E2,4.5E1,6.8E1,5.7E1,7.2E1],"tree_param":{"num_deleted":"0","num_feature":"3","num_nodes":"123","size_leaf_vector":"0"}},{"base_weights":[9.344567E0,2.3331438E1,5.334929E0,6.857837E0,8.4711914E1,8.00372E0,9.85763E-1,9.140355E-1,9.240461E0,7.500933E1,1.9636696E2,7.514744E0,3.0630493E1,1.1024987E0,-2.4055329E-1,8.486591E0,-2.5580746E-1,3.4739544E0,1.1596562E1,2.8791344E1,9.162246E1,2.4465773E2,5.137141E1,5.439661E0,1.1424014E1,2.5981234E1,7.30839E1,1.9815589E0,8.5757536E-1,-3.67523E-1,-1.0704351E-2,1.2045473E1,2.4107504E0,-3.079202E-1,6.357341E-1,1.5707744E0,7.20521E0,1.4233067E1,3.2667053E0,1.1291064E1,4.3185043E1,1.1894338E2,5.016652E1,1.1331657E2,3.134401E2,8.046194E1,3.862116E1,6.187982E0,1.9397142E0,1.5746992E1,6.050242E0,2.2150963E1,4.2427303E1,9.449779E1,3.5292446E1,3.3663696E-1,2.3602886E0,9.866236E-1,-3.5914832E-1,-4.1266316E-1,-3.2994166E-1,1.3260895E-1,-1.11850776E-1,8.368221E0,4.5048576E1,-1.3952565E-1,2.914189E0,-3.7826023E-1,-2.762087E-1,4.9071908E-1,4.88584E0,6.84095E-1,2.319656E0,2.4390626E0,1.871863E1,5.852699E1,1.3314794E1,6.0121684E0,1.2038922E0,2.5759292E0,2.117328E1,2.3655338E2,3.8205418E1,9.9025055E1,2.079325E2,6.6337395E1,1.7952116E1,9.9209045E1,1.5554782E2,2.7931143E2,5.0578882E2,4.436177E1,2.6675772E1,1.2102833E0,7.055578E0,4.9622254E0,1.4887735E0,2.5124822E0,2.1236422E1,-1.3671575E0,8.091912E0,2.4628603E1,3.822329E0,4.679412E1,6.2439556E0,1.410893E1,1.2011833E2,4.6411274E1,1.2667599E1,-2.7336207E-1,7.8354144E0,2.4923043E0,1.3862385E0,7.894934E-1,1.3540173E0,-3.6898354E-1,-2.9934576E-1,-1.9581941E-1,-3.688514E-1,8.233507E-3,2.3648234E-1,-2.0306024E-1,-3.748507E-2],"categories":[],"categories_nodes":[],"categories_segments":[],"categories_sizes":[],"default_left":[true,true,false,false,true,false,true,false,true,true,true,true,false,false,true,true,false,true,true,true,true,true,true,true,false,true,true,true,false,true,true,true,true,true,true,true,true,true,true,true,true,true,true,true,true,false,true,true,true,true,false,true,true,true,true,true,true,false,true,false,true,true,true,false,false,false,false,false,false,false,false,false,false,false,false,false,false,false,false,false,false,false,false,false,false,false,false,false,false,false,false,false,false,false,false,false,false,false,false,false,false,false,false,false,false,false,false,false,false,false,false,false,false,false,false,false,false,false,false,false,false,false,false],"id":13,"left_children":[1,3,5,7,9,11,13,15,17,19,21,23,25,27,29,31,33,35,37,39,41,43,45,47,49,51,53,55,57,59,61,63,65,67,69,71,73,75,77,79,81,83,85,87,89,-1,91,93,95,